{
  "class": "com.simiacryptus.mindseye.network.PipelineNetwork",
  "id": "46e4bc31-dba3-4ddf-b447-2a2100000001",
  "isFrozen": false,
  "name": "PipelineNetwork/46e4bc31-dba3-4ddf-b447-2a2100000001",
  "inputs": [
    "89e91b80-5ee5-42b7-9ca9-d0991c84ec5d"
  ],
  "nodes": {
    "46e4bc31-dba3-4ddf-b447-2a2100000003": {
      "class": "com.simiacryptus.mindseye.layers.util.MonitoringWrapper",
      "id": "46e4bc31-dba3-4ddf-b447-2a2100000003",
      "isFrozen": false,
      "name": "inbias",
      "inner": {
        "class": "com.simiacryptus.mindseye.layers.media.ImgBandBiasLayer",
        "id": "46e4bc31-dba3-4ddf-b447-2a2100000002",
        "isFrozen": false,
        "name": "inbias",
        "bias": [
          -1.0005506640316521E-4,
          9.217138244064347E-6,
          -6.01396595772015E-5
        ]
      },
      "totalBatches": 8054,
      "totalItems": 1912700
    },
    "46e4bc31-dba3-4ddf-b447-2a2100000005": {
      "class": "com.simiacryptus.mindseye.layers.util.MonitoringWrapper",
      "id": "46e4bc31-dba3-4ddf-b447-2a2100000005",
      "isFrozen": false,
      "name": "synapse1",
      "inner": {
        "class": "com.simiacryptus.mindseye.layers.media.ImgConvolutionSynapseLayer",
        "id": "46e4bc31-dba3-4ddf-b447-2a2100000004",
        "isFrozen": false,
        "name": "synapse1",
        "kernel": {
          "dims": [
            5,
            5,
            36
          ],
          "data": [
            -0.020809404395864057,
            0.023767416504689925,
            -0.03510490487128721,
            0.008498197502089527,
            0.040911309528351786,
            0.04073464111256346,
            -0.02089641517771062,
            -0.04469718265179073,
            -0.008513510790503102,
            -9.538023634646994E-4,
            0.00773810080190904,
            0.022668167770382323,
            0.011789994504848357,
            0.02664634148502037,
            0.024993403050254586,
            0.03297271178855608,
            -0.06411740408682,
            0.02590789648301793,
            -0.04627055578430549,
            0.023107972847343904,
            0.02330628548240613,
            -0.013753752431220626,
            0.013721457827335555,
            -0.0455811497946625,
            0.02641289677787361,
            0.00910428484475435,
            -0.0028245185660025545,
            -0.04778619026119727,
            0.07585940149167789,
            -0.07483004425578153,
            0.03370551555493545,
            -0.053100382583678156,
            0.03761049578328965,
            -0.022662031440314992,
            0.09283729302845417,
            0.02223577620587415,
            0.0036080061883185925,
            -0.007982155660458595,
            -0.021529383339353034,
            -0.0339568778408629,
            -0.04011251235955621,
            -0.00950996685777805,
            0.030221055529144912,
            -0.026832724143423293,
            0.03078387103257042,
            -0.010905529567841096,
            0.02778171227265327,
            -0.00289587302760918,
            0.019808553885200225,
            -0.02751950008935319,
            -0.0117856331010167,
            -0.0025243118545970372,
            -0.005127047393866205,
            0.06626379959418058,
            -0.020316577948358342,
            -0.014924408706374268,
            0.01043397308281026,
            -0.04999732394784895,
            -0.018243524831377374,
            0.019820273685479783,
            0.03729075780031997,
            -0.016759840790853832,
            0.006068562934861648,
            0.05534503709533803,
            -0.01032218490621247,
            -0.049444852721009305,
            0.028976016170077473,
            -0.04791561640237905,
            0.0030792720324524705,
            -0.00476536853749725,
            0.022691163782762522,
            0.03466033580708682,
            -0.006094513692409878,
            0.015496429490286106,
            -0.03336882677795065,
            -0.0019238438067439901,
            0.09122990101043149,
            -0.028086524652142144,
            -0.0196873243597187,
            -0.021686044139626874,
            -0.027975652739827907,
            -0.01687089446727827,
            0.004456635583356132,
            -0.016170239136289823,
            0.07089863272069748,
            -0.06394889768519665,
            0.03388674264203713,
            0.023323412935970206,
            -0.0018910691329847543,
            -0.0501893234772841,
            0.038911907995775256,
            0.015629122184483046,
            -0.014254367314318334,
            -0.017977005291103965,
            0.010821522472234182,
            -0.011123568876583988,
            0.02727002878426396,
            -0.03401667748730911,
            -0.023628291483460764,
            0.06305593720173473,
            0.03944374711133387,
            -5.925027721924184E-4,
            -0.054466478772023916,
            0.015258121063007023,
            0.0029403166539950618,
            -0.005481858911556162,
            -0.005242854765465406,
            -0.04901193325424434,
            0.013753273108738695,
            0.0014343546703784035,
            0.0023885575163520496,
            -0.03048242874117137,
            0.05112449687690837,
            0.06370531838625851,
            -0.029520961515633392,
            -0.01223432595892733,
            -0.045022932004675505,
            0.025428184019244945,
            -0.04303942325486257,
            0.012956276716322048,
            0.022871315986150702,
            -0.024571980317808734,
            -0.009151587868808377,
            0.04602193279926763,
            -0.03893864300214998,
            0.005995561859970905,
            0.009998886667740878,
            0.009492421481511954,
            0.009790963029066459,
            -0.013668981459326494,
            -0.02362622761239103,
            -0.006970721755957058,
            0.013500042355902266,
            0.003724472175825036,
            0.008409275582883432,
            -0.08133181954621053,
            -0.052519841431686774,
            -0.018079020620285203,
            -0.0358777624186228,
            0.03258015277405072,
            0.0167323814845173,
            0.026266561506183447,
            -0.028734328295150335,
            -0.058007976459061424,
            7.476451704842619E-4,
            -0.007673447044240606,
            -0.03057395227430428,
            -0.0480807015501426,
            -0.009591001383126595,
            -0.025694423426943374,
            -0.020900196772951785,
            0.05572552158695302,
            0.0014472403950727473,
            -0.03164707421077609,
            -0.005707879979424584,
            -0.019411550264491886,
            -0.01529809763317427,
            -0.02891062485777424,
            -0.010162199011859937,
            0.06535242327906098,
            -0.007724800660681647,
            0.003187330523539641,
            0.024685681844940032,
            -0.029499965094097223,
            0.03255933038370164,
            -0.03249118120042594,
            0.046130534424607426,
            0.015583827903486856,
            0.03206841494213497,
            -0.006107646233844558,
            -0.02007952470405908,
            -0.043176791568776234,
            0.011371001700567662,
            -0.008845579279892043,
            -0.020054931152983405,
            -0.0020534696132756916,
            -0.012698158868873205,
            -0.007457483270699965,
            -0.01298005536002109,
            -0.016638579428675214,
            0.021735575166984968,
            0.019947277326817087,
            0.025256232030485506,
            -0.050266558153991545,
            0.03138295762773401,
            -0.018048682541948007,
            -0.034556327716957075,
            0.016032369730147943,
            -0.0061368742282393515,
            0.048949910443337324,
            0.0019840946281478623,
            -0.002485246400442972,
            0.03769804265651874,
            0.06965441083141366,
            -0.033876283610564585,
            0.04194243972563116,
            -0.05288599409517162,
            -0.04659591877937995,
            0.020215946473400175,
            -0.0404552270543282,
            -0.016804383059702162,
            -0.0019978912837893903,
            -0.005391294240274063,
            0.009636897704290753,
            -0.038853421627627116,
            -0.016339698726509245,
            0.09447935446580592,
            -0.08274406636754413,
            0.03139888345930086,
            0.06997454403090389,
            0.044674016230441885,
            -0.059979064781737715,
            -0.0377659337987856,
            -0.03595658327453254,
            0.026667134693448218,
            -0.05971007143343658,
            0.018685888888238304,
            0.09215024150192856,
            -0.003124409083330252,
            -0.05357650995921173,
            0.09042761386859909,
            -0.07602684425588344,
            -0.00210374182139032,
            -0.0021925094037916005,
            0.014876075897698585,
            -9.746546079981391E-4,
            -0.011910193585336355,
            -0.04839224208656813,
            -0.0034717216699358326,
            0.010326863029519294,
            -0.011022329643393381,
            -0.01631341783703842,
            0.04390622168829072,
            0.018834869645855516,
            -0.021293285957336826,
            0.011022535084742904,
            0.021146544359007265,
            -0.009731253934957045,
            0.04277682218571147,
            -0.018396519878294524,
            0.03479185803833533,
            -0.0010927540100785058,
            -0.02260713132903913,
            -0.01783296753129213,
            -0.0016990992653555098,
            0.018775614987261623,
            -0.05171951957748453,
            -0.030224436622984588,
            0.030435570086658866,
            0.013268844975833208,
            -3.990598148804608E-4,
            -0.03418687289778945,
            0.017728631790307075,
            -0.024903988700602477,
            0.038518609119848994,
            -0.024275563769515313,
            0.04839513260912193,
            -0.041428936442965726,
            0.04192212735556716,
            -0.024404494762544356,
            0.004586114511436001,
            -0.021733790039480918,
            -0.047197701187892,
            -0.002029311489324337,
            0.04132706358278208,
            0.042336803378393364,
            0.014722335918482213,
            0.0044137103648273415,
            0.014208359807245084,
            -0.04466872720982985,
            0.0068628368640835935,
            0.025910805832433915,
            -0.04050927918607365,
            -0.02982337836736348,
            0.032614000114331146,
            -0.03171756776949819,
            -0.04690062939873283,
            0.010518953926771013,
            -0.010890530322629564,
            0.011607790563006646,
            0.025277880165063462,
            -0.012228157555165254,
            0.041190077255955554,
            0.04122598293923519,
            -4.402182800696309E-4,
            -0.015267898461123154,
            0.059567214407082736,
            -0.016309181171085946,
            -0.017177071772290137,
            -0.011227078224187146,
            -0.0033436169361516447,
            -0.027375543048066612,
            0.036708998035591425,
            -0.052652038472615646,
            0.020875811170963772,
            0.045380640737484636,
            -0.009360313911442243,
            -0.052246539407010795,
            0.02040482714184063,
            -0.0011704479293665132,
            -0.008047880468938865,
            0.0151683941277446,
            0.025131883471078323,
            -0.05248125308757985,
            0.03160923449918154,
            -0.04220872099931549,
            -8.246718862273927E-4,
            0.027265575336872867,
            0.035091132253790576,
            0.01128362371204367,
            -0.007706567795472182,
            0.03600886097561492,
            -0.021641778832624223,
            -0.07072380322239433,
            -0.06254988269839887,
            0.04571745980332977,
            -0.02264276402347028,
            -0.05638278805537401,
            0.03527481093829539,
            -9.354446207080482E-4,
            -0.03558065048986718,
            0.05087535168595404,
            -0.018585290693657726,
            0.04675717110442946,
            0.025638462916162653,
            0.017387267118986208,
            -0.01111103026457156,
            -0.0046905198231900905,
            -0.03779017607129276,
            0.05324272562923335,
            -0.03721678369210906,
            -0.019288665552303203,
            0.012736843477881425,
            -0.01694728776111171,
            0.022314335495574288,
            0.012285195290627705,
            0.018434191849823707,
            -0.06356139699399338,
            0.02888716891153404,
            -0.020524870626804966,
            0.020458551669734655,
            0.055820752974193796,
            -0.02644484938959464,
            0.04970654686412127,
            -0.025347428316957132,
            0.01670268895291539,
            -0.0019385613142085254,
            -0.06273923827444565,
            0.013541687799685299,
            -0.003908385412224508,
            0.05139466971815933,
            -0.040709522734753145,
            0.02372471973475137,
            -0.04350940347798918,
            -0.029041057010832056,
            -0.044792571739090084,
            0.021173752673615764,
            0.03637446444344123,
            -0.009433439904611736,
            0.012726716934760305,
            -0.019784905390780014,
            0.014629804700800483,
            0.0026282846851749483,
            0.029149129581877833,
            0.007536216181091701,
            -0.007218543214994039,
            0.032070020850201116,
            0.01724912728389839,
            0.02438888689587728,
            -0.053498333511803116,
            0.030656184210341983,
            -0.0703949207081359,
            -0.017249980989453906,
            -0.007135294294696554,
            0.032139693437740806,
            -0.03308486717358895,
            -0.045068957121966,
            0.049307579822178045,
            0.06459174256187124,
            0.006858642429019415,
            -0.018757915639330214,
            0.060212071159603725,
            -0.02666507282916494,
            -0.03717912525205948,
            -0.037684637772129735,
            0.03334576271296221,
            0.037931455350271634,
            -0.051182582883423415,
            0.0022926422821615577,
            0.024328801637142367,
            -0.01310460058062259,
            -0.032169483868413985,
            0.004879870151210051,
            -0.03276354529924861,
            0.023579308341454847,
            0.012527841008669287,
            0.0016068271876229741,
            0.05087363511021419,
            -0.009579364160822952,
            -0.01232856192441004,
            -0.04333772528458996,
            0.03745630532200615,
            0.0261734693015274,
            -0.021638232550680384,
            0.002277918491943194,
            -0.018544510846107583,
            0.039664591499815174,
            -0.02256496836264529,
            0.01597886160349416,
            0.017859116168300746,
            0.03164573548351025,
            -0.050968752186156985,
            -0.010111290781720229,
            -0.04978939802834509,
            0.018438014134459734,
            0.014731218286447035,
            0.06292305834565581,
            -0.027307256184096174,
            0.04507669508016454,
            -0.04681881056791066,
            0.011862123397358707,
            -0.017677582338824993,
            0.005266038410479814,
            0.021077659870555217,
            -0.02841476450569923,
            -0.038335483261476705,
            -0.03565320345642044,
            -0.00557449845235792,
            -0.010072456473224028,
            0.03781719662410297,
            -0.05420606862154511,
            0.018491366140676174,
            -0.011604109517112963,
            -0.04982962683141786,
            -0.016001700379408464,
            0.030979354127241888,
            -0.020987598453530945,
            0.04040682297273898,
            -0.021872077180771735,
            -0.02336688631937805,
            -0.0062488082979540675,
            -0.04189423676242803,
            0.05895363323760085,
            -0.024496443532622755,
            0.03789683886617671,
            0.011707567150980437,
            0.006260239599848773,
            -0.0032912237740574937,
            -0.018586240138153458,
            -0.014843228098618672,
            0.030011462209257354,
            -0.01993997811173884,
            0.004715185146006305,
            0.02193636230630981,
            -0.01988983944502633,
            -0.015358426691434892,
            0.02600238120941544,
            8.263983604080104E-4,
            0.022981587703310775,
            -0.03326678334199502,
            -0.02324047757010935,
            -0.020886848358403202,
            0.007280250809669393,
            0.02358366434021761,
            -0.0530479603902594,
            0.03386283696807989,
            0.028739323304567913,
            -0.052727694121398765,
            -0.06710357295376795,
            -0.00809413052215311,
            0.04789714600407416,
            0.013783717627755415,
            0.044265772762187176,
            -0.012527973086183903,
            -0.011523634113353937,
            0.04169962779353986,
            -0.02734681379669952,
            0.01981876839799722,
            0.010241623368981212,
            -0.02037364189693801,
            0.036383363387693574,
            -0.05510374506112383,
            -0.004651346555104301,
            0.008295266346785094,
            -0.04818064708256978,
            -0.03219997353120165,
            0.05378634669530132,
            -0.029032225395348613,
            0.013380009280341684,
            0.052202808966118876,
            -0.01297608049936954,
            0.013858066900660786,
            -0.004020017358299475,
            -0.052669048727624096,
            0.017391495121873,
            0.0391385810701638,
            0.006104000196620854,
            -0.005991914289709283,
            0.027253658395003072,
            -0.013668222920884446,
            0.010889401660875842,
            -0.0010733431478675913,
            0.04688404395577924,
            -0.055665405923989594,
            0.007561383770994608,
            -0.02491739257339523,
            -0.012615239349465101,
            0.033677746538070916,
            0.033729370445288016,
            -0.05916217569428782,
            0.005933863920518857,
            0.0077935695719607585,
            -0.016738793878264997,
            0.0733433984706109,
            -0.011139069614167416,
            0.01710039812364916,
            -0.031895050574498755,
            -0.03548245297486062,
            0.02989601316230704,
            0.008112175871113094,
            -0.030765928443295055,
            0.05246007498582127,
            -0.001027291135551254,
            -0.030753640010037653,
            0.0025072692754076107,
            -0.029718462679294955,
            0.050929753786411056,
            0.034933324853711506,
            -0.001478435341292465,
            -0.022316440479339943,
            0.013188796371395823,
            -0.017388221794077095,
            -0.002294034895125469,
            -0.010399281504055231,
            0.0018941624508510527,
            -0.05864142874045966,
            0.011392507614520327,
            0.010874208896809769,
            -0.03465934155324609,
            0.055993769765903686,
            0.03876693405920082,
            -0.027843984964725538,
            0.023624227426828973,
            -0.04089343911752672,
            -0.010866752628134664,
            0.003938978903807726,
            0.051804421511846874,
            0.0022626708422191937,
            -0.0391609686939131,
            0.021865833497129093,
            0.04511977157276591,
            -0.019292665743370407,
            -0.021611528950885472,
            0.014846753185616382,
            -0.017318295777535013,
            0.009775588291050021,
            0.0037508855357145684,
            0.07063653552226831,
            -0.03235230239057334,
            0.009075618920648346,
            -0.005490343453397874,
            -0.019708573928258626,
            -0.020869224327771146,
            0.04873343656116292,
            -0.005414074695722253,
            0.008283780967111028,
            0.0315153307139031,
            0.008179908249133196,
            -0.036974639852006205,
            0.012505974672053619,
            -0.03760133662007879,
            -0.031359211496811035,
            -0.028175880976866057,
            0.014439689099132623,
            -0.014365469343074129,
            0.042236097750172216,
            0.016110161970285555,
            0.026625549859451172,
            0.028805071360981704,
            -0.010603095771908298,
            -0.03726082858910097,
            -0.04012849028014394,
            -0.053069194655162945,
            0.00423101957784559,
            0.022674107155951233,
            0.01593093585304406,
            -0.020665650631317548,
            -0.04509193025648839,
            0.011707969802553507,
            -0.05266782203817888,
            0.007378900305600965,
            0.06003628376474718,
            0.03138741916119077,
            0.05960250255236579,
            -0.026529162940254963,
            -0.04501628744422871,
            -0.0029868890138760986,
            0.014611164489418736,
            -0.0021368909542374527,
            -0.010414579397110619,
            0.030075334984370178,
            -0.036026527418417775,
            0.02116318952745744,
            0.026844269396280457,
            -0.07416145461568625,
            -0.007408111856680864,
            0.010870805126201066,
            -0.0018909027383265185,
            0.0033354271154240334,
            0.0115234993300565,
            0.01644784599467327,
            -0.036603848900501536,
            0.005516654753749362,
            0.02304305982312863,
            0.034389270975845765,
            -0.07644239022394289,
            0.07403475196138902,
            0.03668839765322339,
            0.04530957758962672,
            -0.04257691156535852,
            0.0035196083066549614,
            -0.02026976430470584,
            -0.012627067834938563,
            0.007936791212421345,
            -0.04680689937050939,
            -0.02929668502674869,
            0.020103137853797495,
            0.04545900824847148,
            -0.03689176257654294,
            0.007214038222131838,
            0.01427913577933195,
            0.06724833494945222,
            -0.05568631760980593,
            0.04836689766303598,
            -0.09855546611877194,
            -0.035525283098089444,
            -0.0230032500011626,
            0.05661129851384723,
            -0.00689426019837253,
            0.06930923170551842,
            0.011892645000194529,
            -0.02924486024116592,
            -0.0022356496353976487,
            -0.03406470687158293,
            -0.009317237760416267,
            -0.021502122969547694,
            -0.017002014480812296,
            0.07769922488505368,
            -0.041522156416591106,
            0.026232820563646547,
            -0.022405626725881467,
            -0.023797391061674347,
            0.004666000361965714,
            0.009045407671262091,
            0.0485801430519814,
            0.0379187296183072,
            0.01671112895629439,
            0.03564621035639961,
            -6.934076917040317E-4,
            -0.032601671305505044,
            0.02327912125200602,
            -0.03829050721279858,
            -0.0331800265391025,
            -0.05423935989559462,
            -0.00578026170574479,
            9.823681164396073E-4,
            0.008185812377684525,
            0.028068073496569177,
            -0.04072455817726221,
            0.05495294777574559,
            -0.040385738383602945,
            0.03213161827760829,
            0.02956106827041146,
            -0.03804438084635895,
            0.03204354077540983,
            0.040987063866383885,
            -0.02780005763446742,
            -0.02079226589052583,
            -0.047492759296126064,
            0.04146502673024675,
            0.04672001503279633,
            -0.04419875485774435,
            0.006915311175970652,
            0.027649292595044155,
            -0.022484874808462323,
            0.024953459026646838,
            -0.06264867122763762,
            0.020169149230113315,
            -0.002496761699743886,
            0.026193256182978342,
            -0.03163981882625032,
            0.049001454443821854,
            0.014287818122248185,
            0.056939536861925245,
            -0.018328510857784204,
            -0.0046349681110356535,
            -0.03778768982114319,
            -0.0017055631422298542,
            0.009627198513828806,
            -0.041930787069237516,
            -0.0144785854782675,
            -0.047788412296909576,
            0.06522452359334271,
            -0.014128064471375715,
            -0.018087443434387604,
            0.034328929933095824,
            0.034622185310974926,
            -0.027232281321116162,
            -0.009981153578457637,
            -0.015290333873471314,
            -0.03520428641394982,
            0.05116560016778406,
            -0.007343308525594156,
            -0.03016870714612792,
            0.005390925114222174,
            -0.013621319122265068,
            -0.03529916567145894,
            0.032584028541372684,
            -0.04166158983443069,
            0.06321882858516038,
            -0.0538035435703799,
            0.019784896855129203,
            0.024661898341740554,
            -0.027912731871847552,
            0.01507803174886571,
            -0.02192603129120976,
            0.04133293104564676,
            -0.02574373342128627,
            -0.03966001912711054,
            -0.05487306404592331,
            -0.006469836462942775,
            0.03441988838299948,
            0.031182699019292895,
            -0.00965271163029189,
            -0.027262585899339043,
            0.03279627601533976,
            -0.039157121202488536,
            0.032573611416282976,
            0.0159176674418492,
            0.02272153047214433,
            0.0016329353537542855,
            -0.0033910222742799126,
            -0.04230645968654287,
            -0.020790679037911992,
            -0.015132558796135497,
            -0.010332471117244627,
            -0.0030814888419446705,
            -0.010110063964257506,
            0.03618772987462358,
            0.026462137080857914,
            -0.02461204896002466,
            -0.024840062023454144,
            -0.005005374901808603,
            -0.004080633474237326,
            0.04346845524366406,
            0.03433434255954639,
            -0.007908691578054563,
            0.007079526772422001,
            -0.005508114742162447,
            -0.03992068953255783,
            0.04530902998715104,
            -0.007958347285266875,
            -0.008821576959801318,
            -0.04196379170277523,
            0.05741292573554241,
            0.011247838097789752,
            -0.0725681608121557,
            0.017142417136599107,
            0.04872078377842726,
            0.013289566149900466,
            -0.03001739855001231,
            0.013569093682376163,
            -0.047369430872467214,
            0.04506183577243924,
            -0.011588714966757188,
            -0.04691020528762522,
            0.03423107670386179,
            -0.011828310734998359,
            0.014117894096298867,
            0.043322431416999305,
            -0.005648073238263137,
            -0.005401545194309549,
            0.028774720851543593,
            0.021992576818041603,
            -0.012988922525550582,
            0.019162880642102975,
            0.021260569810718766,
            -0.04975390049830399,
            -0.00905935146094394,
            -0.04334165835926778,
            -0.011837552613057488,
            0.027929404744700615,
            -0.010899571108599217,
            -0.032608341242288584,
            -0.005379719611467329,
            -0.07115284762840197,
            0.021100343224732473,
            0.0527353347960602,
            -0.0225992284046363,
            0.04407396478622807,
            0.015236862463008509,
            -0.0034552451333984555,
            -0.041971706470335234,
            0.038416466829665256,
            0.05456920810610989,
            0.027269063643968406,
            -0.061157240878571266,
            0.0413772835524533,
            -0.07789019937205917,
            0.0044385588155485866,
            -0.010727277540878887,
            0.021309721795809134,
            0.055418372522282267,
            -0.06078543109493683,
            0.0018803992072758675,
            0.03308854461092583,
            0.020356610215362538,
            -0.07236800260818539,
            0.008100047709393512,
            0.033195631244325376,
            -0.05597958135826116,
            0.03584713910478534,
            0.003870286625749738,
            0.029545731028313444,
            -0.016110504694706537,
            0.0375453152400264,
            -0.050076181181795326,
            0.0019390616086389857,
            0.011730463681192902,
            0.01303997707481465,
            -0.0021719924837673337,
            0.05426036833905488,
            -0.07794016033437262,
            0.025918594729339103,
            -8.839710937235925E-5,
            0.065846853897674,
            -0.0424999575819049,
            -0.0102231748868771,
            -0.03750094339274623,
            -0.004263605044788094,
            -0.06261446524312549,
            0.023560151594915646,
            0.025383043673864337,
            0.05612025641903638,
            -0.019995207382700265,
            -0.033332597560068185,
            0.00735523962873229,
            0.03470969855511251,
            -0.004090759883118142,
            -0.01977547456526455,
            -0.00524145123656919,
            2.957740904733713E-4,
            0.023056339724918513,
            0.010348533284349726,
            -0.024258746521904462,
            -0.04125331171537005,
            -0.001258457597501019,
            -0.02944770397311628,
            -0.0011025378605211767,
            -0.005032206836059892,
            0.010781378990079953,
            -0.04207344786946501,
            0.05372405580860945,
            0.006310574476270332,
            -0.03139657763456768,
            -0.011087864253045894,
            0.022532090005392122,
            0.013403337485201986,
            -0.04216256029998157,
            7.891717442737734E-4,
            -0.003720518396530599,
            0.005422141708692734,
            0.03791321332297848,
            0.019340466888742056,
            0.018102492945699978,
            -0.019862117601775975,
            0.035615268771602086,
            -0.03772965532163028,
            -0.03137895779723747,
            0.010468630035337061,
            0.03769554691090805,
            0.04826647816590917,
            0.005704274065455407,
            -0.03854883279998666,
            -0.025681597267978917,
            0.006428084040637037,
            -0.040413226028309025,
            0.08081955213922482,
            -0.02581412473006456,
            0.06485332703348498,
            -0.04587525370902997,
            -0.049611627865041766,
            -0.047175784950316414,
            0.026446405667131242,
            0.009151288044564193,
            0.03139024550603973,
            0.014041541297910397,
            0.016773268423215117,
            -0.03615064943099035,
            0.009230154322919874
          ]
        }
      },
      "totalBatches": 8054,
      "totalItems": 1912700
    },
    "46e4bc31-dba3-4ddf-b447-2a2100000007": {
      "class": "com.simiacryptus.mindseye.layers.util.MonitoringWrapper",
      "id": "46e4bc31-dba3-4ddf-b447-2a2100000007",
      "isFrozen": false,
      "name": "hypr1",
      "inner": {
        "class": "com.simiacryptus.mindseye.layers.activation.HyperbolicActivationLayer",
        "id": "46e4bc31-dba3-4ddf-b447-2a2100000006",
        "isFrozen": false,
        "name": "hypr1",
        "weights": {
          "dims": [
            2
          ],
          "data": [
            100.00000000441213,
            99.99999995201856
          ]
        },
        "negativeMode": 1
      },
      "totalBatches": 8054,
      "totalItems": 1912700
    },
    "46e4bc31-dba3-4ddf-b447-2a2100000009": {
      "class": "com.simiacryptus.mindseye.layers.util.MonitoringWrapper",
      "id": "46e4bc31-dba3-4ddf-b447-2a2100000009",
      "isFrozen": false,
      "name": "max1",
      "inner": {
        "class": "com.simiacryptus.mindseye.layers.media.MaxSubsampleLayer",
        "id": "46e4bc31-dba3-4ddf-b447-2a2100000008",
        "isFrozen": false,
        "name": "max1",
        "inner": [
          2,
          2,
          1
        ]
      },
      "totalBatches": 8054,
      "totalItems": 1912700
    },
    "46e4bc31-dba3-4ddf-b447-2a210000000a": {
      "class": "com.simiacryptus.mindseye.layers.util.MonitoringSynapse",
      "id": "46e4bc31-dba3-4ddf-b447-2a210000000a",
      "isFrozen": false,
      "name": "output1",
      "totalBatches": 8054,
      "totalItems": 1912700
    },
    "46e4bc31-dba3-4ddf-b447-2a210000000c": {
      "class": "com.simiacryptus.mindseye.layers.util.MonitoringWrapper",
      "id": "46e4bc31-dba3-4ddf-b447-2a210000000c",
      "isFrozen": false,
      "name": "synapse2",
      "inner": {
        "class": "com.simiacryptus.mindseye.layers.media.ImgConvolutionSynapseLayer",
        "id": "46e4bc31-dba3-4ddf-b447-2a210000000b",
        "isFrozen": false,
        "name": "synapse2",
        "kernel": {
          "dims": [
            5,
            5,
            240
          ],
          "data": [
            0.0038088223099862883,
            0.013142013994844827,
            0.014925144133549015,
            0.005676107617643443,
            0.025829630933715483,
            0.004801407003660405,
            -0.017110305258859943,
            -0.00827565327104884,
            0.01284705585929372,
            0.027772644333067396,
            0.016429206687204805,
            -0.005860605297446405,
            0.01066126121944866,
            0.018206792441644064,
            0.012732854314855541,
            0.011106652448802054,
            0.0062592970356258855,
            -0.009835315198485685,
            0.005031881499311433,
            -0.004441542972506978,
            0.015968000959238973,
            -5.496291806315317E-4,
            0.007622712891132665,
            -0.011385868402563592,
            0.02502323908520395,
            0.0026780270230598435,
            0.012873623641099868,
            0.02647930581826174,
            -0.008619003008060663,
            -0.007284343535054218,
            -0.020184852115339463,
            0.025152526538539638,
            0.009586558774217626,
            -0.02040953596326127,
            2.433694385374826E-4,
            0.028539697965356818,
            0.02837533919046384,
            -0.004762049141155539,
            0.011359179001550512,
            -0.0085967893944186,
            -0.006533615463930536,
            0.012779702087276934,
            0.004196662107652597,
            -9.550033483654285E-5,
            -0.01987578134757146,
            0.006399739164498701,
            -0.020767544949531747,
            0.017429610166214436,
            -0.01336730233640667,
            -0.005428089525148911,
            0.00731819858171856,
            0.027240058581893937,
            0.00712159725357326,
            0.004808680094773602,
            0.011708901912267134,
            0.005484655087521502,
            0.028439353629946658,
            -0.014858054198268524,
            0.0265241129122479,
            0.006505198020927173,
            -0.01449343645555926,
            0.003322787390092467,
            -0.0060612231680490175,
            0.005965060243205836,
            -0.014473605369070221,
            -0.007352882388570415,
            7.558774732807978E-5,
            0.01771617258018423,
            -0.0022471539906348753,
            -0.015039383247026031,
            0.007335794772781725,
            -0.009468285100284914,
            -0.005044961738510927,
            0.023061636254587767,
            -0.01911218036926359,
            -9.809824137642443E-4,
            -0.02468229740212219,
            -0.025398288424362824,
            0.007561648347319994,
            0.018514105202019567,
            0.01611103056058414,
            0.014781206509172086,
            0.01500894209264657,
            -0.01868067814773614,
            0.00746123256807699,
            0.004244655050928419,
            -0.006027821236967409,
            0.015627648599211157,
            -0.015315868496434121,
            0.011110501874677065,
            0.004064690465294363,
            -0.012669628817011207,
            0.011809858512266534,
            -0.009332051971231126,
            0.008610763874856642,
            0.007427172767074953,
            -0.0069073922390914455,
            -0.009455610305770405,
            -0.024780800982233456,
            0.021338799124158484,
            0.012326948452190137,
            0.025454607358104613,
            0.003163820245476898,
            0.031990365393845976,
            -0.007247649699754944,
            0.02526811000877063,
            -0.016719861612684375,
            -0.0015343856777438837,
            -0.004690797504530241,
            0.02831250022481271,
            0.0023599174636949544,
            0.014869664613850258,
            -0.012599410241022076,
            0.030809676161899512,
            0.019224735741017854,
            0.007142936703200613,
            -0.00790714262264678,
            0.026536053126489767,
            0.01545237833096571,
            -0.014748741602830767,
            -0.014865972772640151,
            -0.017307288947873395,
            -0.012017335669489308,
            -0.006286860700002095,
            0.00950643735162453,
            0.0026254339736559275,
            0.02307248633033665,
            -0.017603615755269256,
            -0.006434665096086864,
            -0.021172048722863216,
            -0.006102245442823782,
            -0.007771786394589546,
            0.010009767256564316,
            -0.011437777197990707,
            0.023015867812631336,
            0.006357954943818004,
            0.0020941618141598287,
            -0.0164621202056226,
            0.018536483489824587,
            0.001976694088730084,
            0.025042894974854717,
            -0.019481015327172495,
            0.01839425056309601,
            4.2854340998347033E-4,
            0.010241968580833913,
            0.01582280091282623,
            0.02527994416325109,
            0.020307889381138054,
            -6.246705928328277E-4,
            0.01986690915158961,
            0.01458449544626736,
            -0.017745825230473654,
            0.0016921713131136627,
            -0.008268846715249014,
            -0.007528384693140306,
            0.02143973093199997,
            -0.006696934906670131,
            0.0284515668550252,
            0.016492338016825342,
            0.002992701277557712,
            0.0049828233075076105,
            0.02004904234212663,
            -0.003211918572910178,
            0.022855494779611678,
            0.020902278956725008,
            0.0066421929866699635,
            -0.0045506492705558,
            -0.008230001905193936,
            -0.010577690773205528,
            0.005369659376093839,
            -0.001972064485483775,
            -0.01884065815298643,
            -3.1214183255652057E-4,
            0.01405077465405453,
            -0.0043765373400837,
            0.02588055337611542,
            0.024669373944854578,
            0.013428895874094935,
            0.018186348802346555,
            0.020570065254157104,
            0.024462343551286677,
            0.006085635401997255,
            6.453091000057745E-4,
            0.006116165236011343,
            0.02274627352182582,
            0.016225942237840824,
            0.003330175993261664,
            -0.014065058031924711,
            0.006739641278393566,
            0.02026898989459192,
            -0.017541326618373213,
            0.005871485541732987,
            7.041245947871381E-4,
            -0.009228305660882721,
            0.0216517696780635,
            0.01842338263212324,
            -0.0050867234373154465,
            -0.011478723814508894,
            0.01537062600347621,
            0.012710400332763251,
            -0.02349960747435939,
            -0.021707269046771102,
            -0.015055782820337735,
            -0.020997975674418124,
            0.02257491337494852,
            -0.003562530630182052,
            0.014715298518149868,
            -0.002746114897118141,
            0.006688312413427339,
            -0.017973964268941607,
            0.011909321892383947,
            0.017246522144905848,
            0.020799610030226966,
            0.009482125793856976,
            -0.020564528559792496,
            0.003996273377892257,
            0.010932951316954624,
            -0.013366813958483824,
            0.014437245855887855,
            0.01786833743503243,
            0.021593242133218987,
            -0.008160130025429025,
            -0.0200202227739983,
            0.015717589083812065,
            -0.016484003502112633,
            -0.01039563591512802,
            0.005685149935128023,
            0.02161833925103754,
            0.005067045748644489,
            0.02278660439293747,
            0.02131184750079613,
            -0.0037995469573469023,
            -0.020235848021022493,
            -0.014571157242675777,
            0.016073172053038726,
            -0.005101521125118692,
            0.025861865844724188,
            0.004611263349117346,
            0.012315352861820485,
            -0.009389168122499602,
            -0.012171331746741702,
            -0.0037292556099705852,
            0.011375047526707118,
            0.002368967785425136,
            -0.013769803800365715,
            0.0019814668873489798,
            0.02836197083995511,
            -0.002447685212324884,
            0.01324812758021366,
            -0.00399003563175557,
            0.019661491725842153,
            0.006409737079109757,
            -0.015097459053042609,
            -0.01294779918594379,
            0.005841476966053087,
            0.018709615041961756,
            9.016250885703822E-4,
            0.018216133364696734,
            -0.02411933116575659,
            2.2671709260257015E-4,
            0.005491377024543856,
            -0.023248581636596877,
            -0.02444644146256089,
            0.012704214960839778,
            -0.01727779604321653,
            -0.021418091469199353,
            0.014694549455985261,
            -0.013855014391947562,
            0.007223111187444869,
            0.007603726857772014,
            0.008531796596358995,
            -0.015590739982429113,
            -0.02388229960992289,
            0.006910535738116296,
            -0.023385085333190368,
            -0.00928904554215093,
            -9.8821585828428E-4,
            -0.01824660383246718,
            -0.022589436590825504,
            0.0017823588948393137,
            0.005812519204663687,
            -0.022885268266732844,
            0.008624698682528449,
            -0.0038816589183172626,
            0.0018422197662052652,
            -0.024910415043200258,
            -0.008338561815796739,
            0.003909155893040467,
            -0.021393733448614373,
            0.00961567154473829,
            -0.016351207557452136,
            0.015770993627699972,
            0.015994169797700727,
            0.008733635911659812,
            -0.003903278576081529,
            0.02138986947509967,
            -0.01202434281183902,
            0.01902645325333702,
            -0.011503045546108504,
            -0.0019365786641547037,
            0.019183667201616933,
            0.008760511120404147,
            -0.0010108117725456454,
            -0.011060230895734298,
            0.028856124381578814,
            -0.005181134461417207,
            -9.836551117881971E-4,
            -0.005334849551531942,
            -0.0033862680467688457,
            -0.0194960300263854,
            8.1819056530793E-4,
            -2.614642632371046E-4,
            0.019899322913490874,
            -0.013099818797621423,
            -0.01038736667417317,
            0.03039693137384227,
            0.005395264284202555,
            0.006044974770735843,
            -0.006155854741624102,
            0.005124106658934517,
            -0.016156462246005154,
            0.030333451379639338,
            -0.0016501021842630832,
            -0.017412222540466087,
            -0.010238160138775536,
            -0.003911323267516133,
            -0.013384613406522907,
            -0.013449980796394647,
            0.027384372602451402,
            0.023237125190038788,
            0.016431802904461997,
            -0.0036726652158981777,
            0.027176608626362675,
            -0.015023299267712162,
            0.009679864313249065,
            0.007689854787132271,
            0.005537947424655501,
            -0.02084631339495926,
            0.01645298214033649,
            -0.013836285273997467,
            0.022376307327030286,
            0.026599837352265693,
            -0.007291425085178709,
            0.016217371551898625,
            -2.2674645479335264E-4,
            0.011580620521032068,
            -0.008212505711648707,
            0.01967265946418224,
            -0.00623818531759238,
            -0.004271355608590174,
            0.004506198491729722,
            -0.006838923337403275,
            0.00637018379455925,
            -0.02022734711372764,
            -0.018299063737276192,
            -0.020651131473877975,
            -0.02596174381313978,
            -0.02947568592982478,
            0.024079432179817735,
            0.00452924658482292,
            -0.017265654074359177,
            -0.004256400571680553,
            0.016506748288281147,
            0.0015494047374541163,
            0.0025197038517131695,
            0.01137424973887087,
            -0.0015741843253515967,
            -0.02176715883672893,
            -0.011007028586528241,
            6.14131450260478E-4,
            -0.02274992928446659,
            -0.015935511688499517,
            9.370785985361156E-4,
            -0.019987971416275504,
            -0.007689812213414949,
            -0.015490936080383991,
            0.023090987256190208,
            0.020799573493335076,
            0.011521806229564367,
            0.01960355496208391,
            -0.01694269748416147,
            0.011439261161118746,
            0.014224023455033286,
            0.01540960320044711,
            0.005818602001494391,
            0.01763003233581121,
            -0.0029437317454371406,
            0.020192275894336302,
            0.02175161075551977,
            0.022433935576795162,
            -0.013219537866732278,
            0.00722817933008227,
            0.008144329900598915,
            -0.0120617181996521,
            -3.9274357837657594E-4,
            -0.02296901775169233,
            0.02687553942734929,
            -0.013603339387366124,
            -0.022604622646644302,
            0.007591658921197014,
            0.013841344538131167,
            0.012182012110501267,
            -0.004891531031581419,
            0.0042768861171256466,
            -0.018340256649596355,
            3.907901794807158E-4,
            -0.009593871343188823,
            0.025509553875024096,
            0.004257083759919569,
            -0.015745487727547223,
            0.021036944381805447,
            0.025891774206932387,
            -0.011397605551963584,
            0.008545678025063253,
            0.02298924231614564,
            -0.0067629579846473185,
            -0.013304706478774034,
            0.025444987888526935,
            0.02695456162904461,
            -0.014853305569985112,
            0.013305779036651774,
            0.025611518651950434,
            -0.017489808489758424,
            -0.014365166920697971,
            0.02397158467516507,
            -0.010168295772040635,
            -0.013003316804626321,
            0.024542287399408797,
            -0.008718740151865119,
            -0.01331913465490639,
            -0.011080567256754478,
            0.022435739779500044,
            0.026059324434599348,
            0.020536549334983473,
            -0.0024039957851302403,
            -0.019956931624418608,
            0.02604988662029102,
            0.01691773215246296,
            -0.01928718079373538,
            0.014284104828166293,
            -8.808552594108789E-4,
            -9.569165063788834E-4,
            0.005212738126690697,
            -0.018286064875769607,
            0.013941723083117407,
            0.00423873969095745,
            -0.004675530763663808,
            -0.003111948266504681,
            -0.009687775379224613,
            0.020256370022694023,
            0.0010907275767783043,
            0.014665706033974052,
            -0.010317107726212226,
            -0.01736378917808508,
            0.013112243846647368,
            0.018307589717458536,
            0.026896313622435525,
            0.010525853767414509,
            -0.017254181156834258,
            -0.01007956307899039,
            0.008593081616612529,
            -0.02018885712040452,
            -0.014971831940544434,
            3.3385388934318525E-4,
            -0.013557002966511725,
            0.01812897425891487,
            -0.003838120898480048,
            -0.012685736874446265,
            -0.003872857340602791,
            -0.0011528844742100287,
            0.0014082099938386918,
            -0.0022394964173271348,
            -0.005539148822808128,
            0.02762693227221003,
            0.002985428175135166,
            -0.026150806557445408,
            -0.027063004101846554,
            -0.015629293046969903,
            0.007217898052892977,
            0.018489528134676466,
            -0.03146763059991184,
            -0.003169806877128921,
            -0.01149576078161488,
            -0.0046658102684196245,
            -0.025417994204892814,
            -0.0038966260443996648,
            0.016308063410133314,
            -0.022375425567873926,
            -0.021926693091896442,
            -0.021159521285812808,
            -0.02557266988231019,
            -0.005483191406138979,
            -0.015386125407464755,
            0.0042750145820604065,
            -0.02818754963970226,
            -0.013790399921516221,
            0.0018240406330636584,
            -0.005596082279377241,
            -0.012331202901632008,
            0.003266498369881764,
            -8.882067505281921E-4,
            0.004738751035102531,
            0.007418126782733507,
            0.02525152903921959,
            0.013169108968049048,
            -0.010165794875979876,
            0.003658650624426069,
            0.01323970349939461,
            0.023542595800199885,
            0.03166046391136089,
            0.00718339810751125,
            0.017276374613119327,
            0.025607225875778628,
            -0.011889928405927987,
            0.0023878311176211042,
            0.0030913784891405615,
            0.027715667023081467,
            -0.007952644863292602,
            0.033470389650466406,
            0.016826858870920215,
            0.01917569628800874,
            -0.012920444522974275,
            0.015927706883429118,
            0.009978456506567064,
            0.004541885944539445,
            0.0095443183150985,
            0.03010379622080151,
            -0.0019977213036576845,
            0.027246736791334582,
            0.011403167400526236,
            0.02265375953189381,
            -0.008284026928988393,
            -0.009257927898436503,
            0.005754557629399768,
            0.019631413870009863,
            0.006494765682110461,
            0.024762117145066306,
            -0.011411095190950273,
            0.019634250555909095,
            0.008173033059794488,
            0.002886876505518824,
            0.029420566141182963,
            0.0026559813409977482,
            0.01715137050086515,
            0.009664815288442472,
            0.0011827867571247,
            0.03283857792508504,
            0.016066351429363704,
            -0.018258088499341,
            0.027873769405578504,
            -0.008402241735925716,
            0.02847477534218197,
            0.026141147587132374,
            0.030533814695624887,
            -0.005880392521647094,
            0.027391306087197354,
            0.010530624485834101,
            -0.01377001020997225,
            -0.017120116514772,
            0.02716608446723446,
            -0.017959566625128195,
            -0.0036096303949077757,
            -0.010803445518975786,
            -0.008207172627666121,
            0.0011072372601895412,
            0.012605159194580181,
            0.024798246687948326,
            -0.005509778059155634,
            0.005257879420401696,
            0.01331896531635674,
            0.0012509427641148585,
            0.014134943341228647,
            -0.014308673899337885,
            0.0013114170316065874,
            -0.009131110247197996,
            0.00792627012293972,
            0.0011109568785712595,
            -0.015145158534265377,
            0.008861235600417034,
            -0.008389519561681668,
            9.96994640989482E-4,
            -0.02673676666788736,
            -0.019251860737226765,
            -0.024620994921851796,
            0.012343565564039007,
            -0.024764518493423808,
            0.00478044250189749,
            0.0019237367258505159,
            -0.01935089202519688,
            -0.01352489447395629,
            -0.007927572372490855,
            -0.020606146981485173,
            -0.022865691724086125,
            0.010470238045746837,
            0.010388935324181905,
            0.013117855069736633,
            -0.010462335436411993,
            0.007860166535383241,
            0.018165949486561864,
            -0.027738300341187246,
            -0.01117100372602732,
            0.030492222810741494,
            0.02051864867122427,
            -0.0103998923747408,
            2.8151656418231035E-4,
            0.020254232730667978,
            -0.007292096185152777,
            0.021375819385907772,
            0.02576633850710258,
            0.0068865681547916535,
            0.0256938560873396,
            0.024552928132257363,
            0.01682238211489851,
            0.007325633441188714,
            0.023724085231659284,
            0.002960965526299485,
            0.025306050078086093,
            0.03337917946445098,
            0.007626879946716794,
            0.024164245715395355,
            0.02916440844726947,
            0.023501833028482796,
            0.007066077589595535,
            -0.006292758006823905,
            0.001788184617625217,
            -0.004457819838757952,
            -0.009149667772920644,
            0.001584923433626273,
            -0.0013006170210341976,
            0.001666898361896353,
            0.011187848295946637,
            -0.002475876685494285,
            0.01805071062233154,
            -0.016736797256555296,
            0.0071506732094610065,
            0.010642461087425429,
            -0.0048317977788084,
            0.016927341602337137,
            -0.005726350361786888,
            0.011069566666390144,
            0.02175622783220549,
            0.02732546588986181,
            0.001444317476415902,
            -0.014918228998406776,
            0.015078462143569941,
            0.012266015618713324,
            0.02313578663792099,
            0.021911998462152426,
            0.0333257494204132,
            0.02946034972292631,
            0.006695394664792451,
            0.005579388779778296,
            0.016047251123290054,
            -0.011845580230340332,
            0.02012749608225393,
            0.020280181524908573,
            0.005911944743175486,
            -0.016398113244320025,
            0.009405825380084956,
            -0.004324855572060222,
            -0.015519052500147736,
            0.022584722892531155,
            -0.018831114346919003,
            0.02341608758876382,
            -0.005106205844277274,
            -0.015508521149821932,
            0.009899166023626872,
            -0.007437859817557338,
            0.007453385638939486,
            0.004138831105586875,
            -0.019064655172343493,
            -0.012853214593595029,
            -0.02021781307589902,
            0.006054145635338668,
            -0.0096309045678428,
            -0.012406864716855434,
            0.030701966087258,
            -0.008590889276188956,
            -0.008801527246425932,
            0.02911256957759028,
            -0.01754062153809311,
            0.01147108092319394,
            -0.00835424680192815,
            0.014423169657356337,
            -0.009811966653720685,
            0.026061643856592924,
            0.009566799540162367,
            -0.005758264656981349,
            -0.010193508334119002,
            -0.0014037927040609238,
            -9.297698057827459E-4,
            -0.005210900046480995,
            0.018828226491903508,
            -0.0038913916831559525,
            -0.013039345173954405,
            0.007907359087242669,
            8.620773559744102E-4,
            0.02512235417678033,
            0.01863358195173379,
            0.01949477156949621,
            -0.0023529593475458688,
            0.01750136838795833,
            -0.0015935668903677214,
            -0.016476678437709072,
            -0.022647880685470315,
            -0.010630942950742062,
            0.013955456410186388,
            -0.0021614246598700257,
            -0.017338681062189134,
            -0.001156484668901652,
            0.013048296071129109,
            0.01995224642924689,
            0.01082792979645127,
            -0.021598729727211635,
            -0.023719218594988906,
            -0.008089806342667996,
            0.013027388415672561,
            0.0016415432135801116,
            0.021341163686795547,
            -0.02273589885764802,
            0.0225532264875481,
            0.006025662792978892,
            -0.014086301654678484,
            0.02199586379196812,
            -0.013304431490127415,
            0.003440805117664956,
            -0.009657041855875093,
            0.02083013207223337,
            0.02952433936670808,
            -0.009302108423052778,
            -0.010471821657877177,
            0.033335280246790146,
            0.026499971882144882,
            -0.0074482587533569265,
            -0.012085671164211017,
            0.016395102470481298,
            0.010379455033130107,
            0.023434125276367356,
            -0.009914638548653897,
            0.031248151985911878,
            3.094435131089325E-5,
            -0.009234575055243327,
            0.030884778097676795,
            0.03046786529384612,
            0.01130236257961093,
            0.025197801896663933,
            0.02031578278769184,
            -0.008779154234886358,
            0.016411806507093684,
            0.016150583250984892,
            -0.0032663885464243422,
            -0.016742073677876602,
            -0.013012084638961887,
            -0.012486791817091229,
            -0.025820895431973495,
            0.006562816994186372,
            0.0037901570144003457,
            -4.5908884966175775E-4,
            0.002846917731700832,
            0.006326727213423763,
            -0.019051930132200957,
            0.012657052210225811,
            -0.010670122958319664,
            0.004022794911146628,
            0.010851575853105618,
            -0.001252122585099362,
            -0.02660391494235788,
            -0.021685735979265982,
            -0.021259861693228816,
            -0.007924298973826457,
            0.006550824054678529,
            0.007283012817977497,
            0.001671789845097558,
            -0.005407495062812172,
            -0.002667800445454051,
            -0.002357898509035393,
            0.002762288190803876,
            -0.012469263135168423,
            -0.012884931539136226,
            0.02210751540606578,
            -0.004588293836755173,
            -0.020536770266374616,
            -0.0046926269187457645,
            0.01792312560874982,
            -0.02614659417682858,
            -4.780218502806763E-4,
            -0.027548139846781006,
            -0.007002935246005292,
            4.5383363204777653E-4,
            -0.019132688461355164,
            0.006411628956412023,
            0.0011357772217436154,
            -0.027817290224420043,
            0.0015948117440413871,
            0.012535399111727002,
            -0.010458109918844306,
            -0.002317496064042824,
            -0.007581190408545918,
            0.005620966287725517,
            -0.015912304276482193,
            0.029860352463399267,
            -0.008845371531641956,
            -0.0019782026828107737,
            0.011589674482152364,
            -0.006654418083262109,
            0.028803519844013782,
            0.017688186063819875,
            -0.0031515018431901467,
            0.025731932155855123,
            -0.012447212258770006,
            0.003002132236299269,
            0.01751784132870412,
            -0.01147740999376809,
            -0.010439886076772568,
            -0.014041026467037358,
            0.01990968374434539,
            -0.005444950385268226,
            -0.001654979970458824,
            0.009392649033904176,
            0.024696663496327226,
            0.003152390998941983,
            -0.005627267344151737,
            -0.0035461759121656867,
            -0.00348606267105854,
            0.00788069795954382,
            0.029573191777818874,
            0.0035926159003165847,
            4.1852633525051546E-4,
            0.015301410524217064,
            0.027632191961521974,
            -0.006739741347768766,
            0.0059571400972579895,
            -0.01723704525712513,
            0.0228204385717915,
            0.024441344614343,
            0.008856470103962382,
            0.03007444490430112,
            -0.0045660116057856795,
            0.013194906094602145,
            0.02716583345887149,
            0.0194416962800897,
            0.023962744700119158,
            -0.00261400664099043,
            0.0038587390807327876,
            0.02536314525130664,
            0.016465435882741155,
            0.025456772881662978,
            -0.009322054174050819,
            0.0021010507926315877,
            0.006583670348830556,
            -0.004500666681129149,
            -0.02960805781060966,
            -0.01259591946054089,
            0.010436508495815068,
            0.015791177919462544,
            0.0024154952425856774,
            -0.027716245125410637,
            -0.03089493415331229,
            0.0015230465518867996,
            -0.024594324820106532,
            -0.01102321634726913,
            -0.024013302041617033,
            -0.01138078214734516,
            5.255324381912755E-4,
            -0.010260422067425456,
            -0.008663883594631138,
            -0.020682022697890087,
            0.0037116424475140855,
            0.007254410394430089,
            -0.020635563317269977,
            -0.01810335696352016,
            -0.02453392131537871,
            -0.01162546502631953,
            -0.008542428384923579,
            0.011890175172205543,
            0.0041895574683383134,
            -0.016382195694358965,
            -4.6259751577302734E-4,
            0.02039839958369028,
            0.0033239572144286664,
            0.018179411327836053,
            -0.0010227298623785347,
            0.03107170202015583,
            0.004748920391317362,
            -0.006122519013270909,
            0.029155819205333732,
            0.0037025213185137716,
            -0.010288386199193986,
            -0.01043171377457116,
            0.011596773607142587,
            0.005537050797084082,
            0.012929617296241981,
            -0.010199581099015075,
            0.014910548560919976,
            0.025358179071228868,
            0.027185212874402537,
            0.0283030987983082,
            0.0165646919037864,
            0.017057250885436467,
            0.01568272035363387,
            0.01758407305528465,
            -0.018248055566997365,
            6.497342859647815E-4,
            -0.015467737215066703,
            -5.067529971844252E-4,
            -0.013194254618555307,
            0.019179899251836604,
            0.007627775109620363,
            0.024280999954467343,
            0.0085173597418256,
            -0.009568906122707364,
            -0.015898109389985825,
            0.0014418250331600206,
            0.01047394113304532,
            0.01646045111749535,
            -0.00950087084111885,
            -0.0047951051485597435,
            -0.008819192999070233,
            0.010243322024703478,
            0.024103785420756363,
            -0.005388769102375914,
            -0.004562222895157102,
            0.017620846017722645,
            0.0063636536797121125,
            -0.01739750729587069,
            0.01260143832125153,
            -0.0038214867878045306,
            0.01831009857466872,
            -0.002454085664456559,
            -0.022417363669880223,
            -0.005657278305537055,
            0.002083952048836218,
            0.016299492869977436,
            0.018344876915516842,
            -0.008046078414462551,
            0.012981195854639527,
            0.006423557640680011,
            -0.010252183825262894,
            8.780258835758109E-4,
            0.014302435511486305,
            -4.6537114264892E-4,
            0.02054136378838293,
            0.006973968093222741,
            2.393768339953435E-4,
            -0.014074044664676462,
            -0.019387507624570668,
            0.01782524452177481,
            3.566767511557153E-4,
            0.011151692965789082,
            -0.015289417595766833,
            -3.994770593549472E-4,
            0.006750568781527771,
            0.003325706048527498,
            0.01242902367797482,
            -0.009037804116561568,
            0.013213994936294847,
            0.00972668367104588,
            -0.00870744597659532,
            0.021790227919497997,
            0.004791950579750641,
            -0.01704826036282594,
            0.024836254188249522,
            0.004883614692932951,
            -0.0030674115943349965,
            -0.015867098555431614,
            0.005574137207604405,
            0.008976382014068302,
            -0.01837140838644038,
            0.004524957739305982,
            -0.01572785589767163,
            -0.013050685408219943,
            -0.0035681732922337723,
            0.02201804855089323,
            0.009136421970207604,
            0.010832084888601523,
            -8.935591863091034E-4,
            -0.028328081296193585,
            -0.024966090885822897,
            -0.02552758507396947,
            0.010190323029082436,
            -0.03460817958458861,
            -0.020387674058175362,
            -0.027980185530894517,
            -0.00805613088302447,
            -0.026794662715955708,
            -0.03459826392795694,
            -0.001178901834132634,
            -0.02099231822640987,
            -0.002575716391784277,
            0.009195995846328069,
            -0.0182185564861584,
            -0.021173508476457565,
            -0.008675020767757152,
            -0.022016968562853685,
            -0.029661344599443133,
            -0.03164732317059883,
            -0.0315855062360429,
            -0.013596003262202384,
            -0.011408983683288767,
            -0.016207129123567466,
            -0.017593064159022967,
            0.01619386553325508,
            -0.02337227234189572,
            0.02234538871525443,
            0.006177168285201228,
            0.007931204224167807,
            -4.879969847597937E-4,
            0.01961005908354409,
            -0.0012769784647665946,
            -0.008710334477163073,
            0.015889009537996893,
            0.014724403784464823,
            0.014065350615695438,
            -0.014443889232718608,
            -0.017421428860727395,
            0.02179964416100133,
            0.017272910932050755,
            0.0051380213205994675,
            0.021664298779999275,
            0.026485042894872645,
            -0.016991432634937464,
            0.003820148973807522,
            -0.004077622590082397,
            0.02853803611773328,
            -0.0011163546514601338,
            -0.009295096849051623,
            0.012308846455145399,
            0.01546031121336515,
            -0.01664657388523877,
            -0.016647935054103478,
            0.007387335462750765,
            0.010713797505011223,
            -0.0032876666270162565,
            0.021821619979890353,
            0.02325646871750771,
            0.025164196628341344,
            0.01334389473182232,
            0.027144499290435137,
            -0.001117904391437745,
            0.0017568131021430409,
            3.5565057099665794E-4,
            -0.010691229338380275,
            -0.016437852931212464,
            0.01859524171596395,
            0.02164806327413693,
            -0.0030665690221565794,
            -0.014564521362802512,
            0.02849846429538625,
            0.010486451561688133,
            -0.013321787388315458,
            -0.019884564589158455,
            0.013377015059749186,
            0.012796099537352982,
            0.015649014441308073,
            0.007487766960923175,
            0.024423593089320076,
            -0.009778018661716561,
            0.009868458566896544,
            0.026008276869801686,
            -0.0036621702084241163,
            -0.013386657996009032,
            0.02160897895178964,
            0.007381102844637329,
            -0.010388790226071988,
            -0.008084635514443283,
            -0.0014408398225924544,
            0.02602703080393044,
            8.723717114085155E-4,
            0.027179024453463194,
            0.01180677908685636,
            0.027562979269783475,
            0.0014209105556427155,
            -0.011878637720826462,
            -0.019641402197829304,
            0.023334250934505613,
            -0.00834650812979289,
            0.004011715858510447,
            0.010712323652074925,
            0.004127936010462297,
            -0.011978023903224689,
            -0.004526432546009976,
            0.010138933110312548,
            -0.00793853766706757,
            -0.005348485025967694,
            -0.015789494430597698,
            -0.017808108268461853,
            0.018592978236972812,
            -0.008340032393929874,
            -0.014252346588499836,
            0.001261618256000829,
            -0.01092131789825456,
            -0.008609304403549067,
            0.008132976538698529,
            -0.02035080444600398,
            -0.0062891494844961445,
            0.008655822142594078,
            -0.025674576149275243,
            -0.02872701317308201,
            -0.009405500303249676,
            -0.003718226713454554,
            0.02766449603258239,
            -5.355494688578259E-4,
            -0.006048686601158973,
            -0.0032157147495890026,
            -0.0014754688279922524,
            0.01293970422290117,
            0.012742848552069736,
            0.009209258431706523,
            0.023660216213269792,
            0.0037133497578746314,
            -0.01339696338154727,
            0.021214686747340155,
            0.025354086465191022,
            -0.009404824260087288,
            -0.01830079799055429,
            0.029277071655078816,
            0.0016109437438242048,
            0.026021642256095184,
            0.01209146076994732,
            0.00846157288465392,
            -0.00891749463548099,
            0.025676552423489433,
            0.021053571023725817,
            0.006684176688329891,
            -0.0017917728754018784,
            0.0035204365597380767,
            0.013267068229686544,
            0.004393145464372371,
            -0.002784056604680484,
            0.016849285357630226,
            -0.011370995782639141,
            -0.02209365313657812,
            0.004527626234755447,
            -0.016707903136382294,
            0.02267460746478597,
            0.0021719814527697383,
            0.014960485297045379,
            -0.02279496110693037,
            -0.006189885904633516,
            -0.014281901176841343,
            -0.01099283082449954,
            1.9200244864340033E-4,
            0.0019983606871910656,
            0.014678652617007439,
            -0.016090719334966436,
            0.016802393550269877,
            -0.0020474091165073164,
            6.780791759041951E-7,
            -0.007911079736515293,
            -0.01972176148721489,
            0.024395483062079313,
            0.01910422757493437,
            -0.0161718408388037,
            0.02299289349520344,
            0.01363698811665147,
            0.025776315862196524,
            0.024002685262352767,
            -0.01704853174678041,
            0.005312310134124192,
            0.017739116397841925,
            -0.017939933345706236,
            -0.008858845252977938,
            5.941402081073765E-4,
            0.025731955077347643,
            -0.005798647124325113,
            0.009732132390165814,
            0.002425839214876208,
            0.020711406938129208,
            0.025791007242219718,
            0.008375475896037484,
            0.021242692953220992,
            -0.015182519545745104,
            0.011321492643460513,
            0.023114199133162563,
            -0.0044473437702183954,
            0.019149914209308616,
            0.0022791812337857762,
            0.019821434949336504,
            -0.007266389066671802,
            7.780116507971926E-4,
            -0.01260072217773441,
            0.009663797425919284,
            0.023281358199622557,
            0.02644923571069882,
            -0.007070146774574088,
            0.016184478054886653,
            -0.016390556178631655,
            -0.0065614908519471635,
            -0.001119687196999211,
            1.8896154379008883E-4,
            0.021202747135637235,
            0.015847334387129507,
            -0.005477607629715166,
            0.004266246182665678,
            0.010808409813135437,
            0.01990739129791658,
            -0.007003761620485716,
            0.004619200452885885,
            3.442499780217202E-4,
            -0.022452557058974646,
            0.006065440752500281,
            0.008569887662371045,
            -0.013270517277077287,
            0.013925598845446842,
            -0.004620266795083003,
            0.011538532452402167,
            0.014467261831131067,
            -0.018612797607626665,
            0.012920154844198149,
            -0.013137733782879532,
            0.01567287863827268,
            0.006456997078877549,
            -0.008772111520303681,
            -0.02036459263531859,
            0.020174524871755715,
            0.012117507514359641,
            -0.02157770118104127,
            0.019608855534683823,
            -0.02003864202123844,
            0.021555176277013113,
            -0.014393323439347102,
            -0.02308419239585769,
            -0.00944894580653137,
            0.010588101294645559,
            0.013282980110044744,
            -0.02117106725844074,
            -0.008831581136753272,
            -0.018871345540988536,
            0.016723123823846095,
            -0.017398141295679497,
            -0.018567934579040178,
            0.0031157362051650434,
            0.01759029612718181,
            0.01908699255780733,
            -0.0075419386960166954,
            0.007297122296418308,
            0.02708443160471247,
            -0.022058763948746375,
            0.02716328023832568,
            -0.011409891684831322,
            -0.0011636286611072014,
            -0.014766075252949755,
            0.018241990805771924,
            0.02278796132213142,
            -0.013513334361960562,
            0.024840214874604038,
            -0.012000532605883567,
            0.006293509697553675,
            -0.013587019991122905,
            0.02703108013631057,
            -0.014349546841675977,
            0.017490720618125642,
            0.01516054276968434,
            0.005024047514933997,
            -0.0036683629251618916,
            0.002349165641885256,
            -0.01535685294643857,
            -0.02498114754149068,
            -0.017789898673285492,
            -0.022731551948482854,
            0.0036175244890664514,
            -0.013651128952779095,
            0.002598879739776966,
            -0.027348441221905464,
            0.010481116380329456,
            -0.024354813199935134,
            -0.011958534241597247,
            -0.005638948874719435,
            -0.011200842710623382,
            -0.00377983364092532,
            -0.012870692380083388,
            0.011572807807944776,
            0.019361736334203142,
            -0.01924748321331103,
            -0.02222172491280949,
            0.0018077918144928425,
            0.01994689136436779,
            0.014810951253737787,
            -0.0015818823785397791,
            0.012934275536246173,
            -0.022799782507934466,
            0.008606362365747038,
            0.013050655126362666,
            -0.017454207293440563,
            0.0033549260006538375,
            -0.021873078729905432,
            0.0048354376840993776,
            0.015354182608376671,
            0.009260797670986998,
            0.012065189130117792,
            -0.01556478462747056,
            -0.01074409518861519,
            -0.008009273997077583,
            0.014599444698924243,
            -0.028458429485332355,
            -4.360775394687872E-4,
            -0.013005916328552896,
            -0.02542735471589004,
            -0.021955283948982145,
            0.014438450291601205,
            0.018010008397905862,
            0.013506414048373222,
            0.012439182391067132,
            -0.0217349886869767,
            0.020393134580299406,
            0.025745775438019446,
            0.01806153047384734,
            -0.019350321688214725,
            -8.641352190642667E-4,
            -0.016189338649947954,
            -4.919561504481794E-4,
            0.0017803354983429672,
            8.207812486808618E-4,
            0.01353258913851697,
            0.012888800645558595,
            -0.021772587368609837,
            -0.004258207694830667,
            -0.01471099240512241,
            0.008309992390066303,
            -0.0029093497643136986,
            -0.011008602898151785,
            0.02358863771834156,
            -0.0172655795303772,
            -0.017515763077913023,
            0.001707714217266941,
            -0.004239812013029483,
            -0.0023236237497692644,
            0.019458198559188566,
            0.009626703024138936,
            0.012588895412912573,
            -0.018522376243620332,
            0.012832067733740859,
            -0.01942261465338751,
            0.001451337270936877,
            0.00672480701901174,
            -0.021308477378447568,
            0.021853487730797868,
            -0.0013768393731223717,
            0.004909512595068591,
            0.02056077756659045,
            -0.021757502508648163,
            0.014999312005884653,
            -0.018172349087410104,
            -0.0010524134130963298,
            -0.0027123974838129377,
            0.012197948554726756,
            0.02648354563703283,
            7.885612986325627E-4,
            0.02412549257602097,
            -0.0037268441383559703,
            -0.023189898899155778,
            -8.953245938935214E-4,
            -0.006548213135682137,
            -0.018057511715533124,
            0.021606507129954017,
            0.008073269749647637,
            0.004817306692125927,
            0.012233680859074976,
            -1.0109329384008974E-4,
            -0.01591450279446012,
            0.018217296422052266,
            -0.022417826929410172,
            -0.004092693646412614,
            0.017590625111577954,
            0.01824159744539471,
            -0.01758156675447175,
            -0.025943318817331314,
            0.008575612458488351,
            0.011110037454790651,
            0.008751106208181286,
            0.015065544793013046,
            3.449102410227573E-4,
            -0.017566029159672227,
            -0.023293849861528135,
            0.008173810454168349,
            -0.01717109219356697,
            -0.006801981281101415,
            -0.01469543890523018,
            0.0012937887468380904,
            -0.010120056098055144,
            0.025221453306414825,
            0.001121691133237521,
            0.026089647232456884,
            0.026391176701652606,
            -0.010192422557438527,
            0.012754154378912651,
            -0.0026568712903250733,
            0.023774146855949578,
            0.016176524389145918,
            0.01944253982810778,
            0.02322911368769213,
            0.01428809246994914,
            -0.013991899088411835,
            0.010528574324044146,
            -0.007127343672028351,
            0.01991411571792133,
            0.00810822035119624,
            0.01407972947800525,
            0.02000048281726773,
            0.026586371133224315,
            0.023938928891025224,
            -0.01681125374298066,
            -0.011750306416994987,
            0.02343238787255999,
            0.015249030300834061,
            0.017374452959276608,
            -0.01686940389300404,
            0.004162529437726635,
            0.0011029808010729121,
            0.008971076229657756,
            0.002840615448644001,
            0.017498684952403303,
            -0.01683048579773335,
            -0.017842896374669653,
            -0.008098599740860328,
            -0.008969880434938429,
            0.024580756998864625,
            0.0012123628379539476,
            -0.019635762437498042,
            -0.015047343136663064,
            8.972028787263973E-6,
            0.022700601630868747,
            0.003724743436901334,
            -0.01646013784816031,
            0.01991091331702561,
            0.01348322869879492,
            0.014607868296367678,
            0.011560480830713291,
            0.009405428573965407,
            0.022643110482037574,
            -0.007632106643879249,
            -0.0026267266714455027,
            9.548833705190618E-4,
            -0.016403303180693298,
            -7.864013592101779E-4,
            -0.010688238532515984,
            -0.00925047502146732,
            -6.140449058434129E-4,
            0.02073412060624829,
            -0.012907509699519296,
            -0.02096598294520125,
            -0.02013900233081261,
            -0.01683283618046337,
            0.003223797360600652,
            0.006776061783109236,
            0.01474948624418698,
            0.01391101538621295,
            0.009245099618947003,
            -0.007109787908616447,
            -0.018693847327040047,
            0.021948983616661172,
            0.022844612377707744,
            0.01322745280507591,
            0.018041382476334616,
            -0.010222428818674866,
            0.008296851524473327,
            0.014703042078113984,
            -0.009030022626916842,
            0.019201737095222292,
            0.019511873466572193,
            0.002242340943955401,
            0.010119576416477151,
            -0.002246060977331627,
            -0.003383847643883071,
            0.012941651796995543,
            -0.004628005099067275,
            0.026864828140811797,
            0.008381382343993648,
            -0.007229322827976885,
            -0.009048099048672648,
            -0.01300025332197592,
            -0.0043761391704130025,
            -0.011899908082191536,
            0.013453076991388013,
            -0.005347996144079468,
            -0.007743941954186806,
            -0.012434721184482807,
            -0.023603055984797304,
            -0.02697716656808818,
            -0.03028607996682136,
            -0.012915901731266798,
            0.013319675453118355,
            0.009917557841122481,
            0.018465154164995883,
            1.875132153898277E-4,
            -0.009948039921089866,
            0.004124953749501145,
            0.005876684371077399,
            -0.007907773787387664,
            -0.0012446393938097017,
            0.012849301214477622,
            0.014343944649054929,
            -5.664434681685918E-4,
            -0.01254080376271452,
            -0.017805438641504825,
            -0.027848357395734984,
            0.012211126140330536,
            -0.02160858877256534,
            -0.02151309789651998,
            -0.026065255959091777,
            2.5918457873948296E-4,
            0.026256278446994245,
            -0.010502617757061633,
            -0.0013895069557866289,
            0.022012773321149363,
            -0.01620244235875145,
            -0.001101273374809417,
            0.03282547210065435,
            0.012059532901560446,
            0.014850799376204659,
            -0.012579707043476688,
            -0.008944720714030638,
            0.015887170043325228,
            0.023540521407224464,
            -0.008855533702002438,
            -0.004868369413710949,
            0.025995777690037046,
            0.015017852484658525,
            0.014246137522803438,
            0.0013867190412465869,
            0.026595571227297627,
            0.016705006621940903,
            -0.009494114292951467,
            0.01546994109014134,
            0.01657912606059643,
            -0.009685372334866615,
            0.03422369510362131,
            -0.00784089952304145,
            0.03370072146490922,
            -0.01604569595547383,
            0.014721628160982051,
            0.003746167579828557,
            0.005269612899472814,
            -0.002182252348589408,
            -0.0024598175562126107,
            -0.0012810924837335328,
            0.010710752322487112,
            -0.0046267178114782525,
            0.009478259307367383,
            -0.0037898637347051423,
            -0.013480451038789292,
            0.01626736835175266,
            -0.01162006970346636,
            0.013131985801608912,
            0.029330024337587468,
            -0.006726643854140904,
            0.03369883501419014,
            0.004839367671478044,
            -3.64285082714911E-4,
            0.03298022513871816,
            1.0534834218279438E-4,
            0.02275141709138796,
            0.012677001849528776,
            -0.001473203950148059,
            -0.014173559424458502,
            0.010735454959890476,
            0.0017534440653952392,
            -0.004874246434921766,
            0.032662876286277946,
            -0.011028736256045484,
            0.020751905317559226,
            0.013219205575432671,
            -0.005278365928097551,
            0.013681461926896031,
            -0.01281880985256444,
            -0.0038579398391100734,
            -0.016014510815135285,
            0.0023038797791116545,
            0.019373829809766666,
            0.013199739127481026,
            0.028435615516047497,
            -0.015467402346754673,
            -0.006130969261249737,
            0.014424556034687196,
            -0.004356583441553117,
            -0.025653598861017778,
            -0.02355671385550105,
            -0.01722290041490629,
            0.013999610433966667,
            -0.02077474847556767,
            0.01747787310154322,
            -0.025480670486775152,
            0.0060746009094161365,
            -0.0036813234221674622,
            -0.028031925803474408,
            -0.029379474294899344,
            -0.03201689655050088,
            0.008021605078538604,
            0.008806166927065456,
            -0.008515116596540404,
            -0.010300990113246528,
            0.014456336780056249,
            -0.02363323117450711,
            -0.00463874813481485,
            0.0031318321669716793,
            0.02032487078074915,
            -0.023909909464015115,
            -0.032086249871286235,
            0.017845347780785014,
            -0.007309504929731938,
            0.005678680952749588,
            0.027311165258866153,
            0.005544739372203939,
            -0.0018601406020852201,
            4.012500053314063E-4,
            0.0042554670543605965,
            0.031120284358596813,
            0.03405289909601341,
            -7.812856130400551E-4,
            0.028480048267779723,
            0.03173506580861639,
            0.03259613000708763,
            0.031116931585118614,
            0.032051288862461634,
            0.001961170634308887,
            -0.003931943138946967,
            0.041093462274959115,
            0.026642007133239984,
            0.027811943616654792,
            0.019990519833173657,
            -0.0032969789728902127,
            0.0026765489055423806,
            0.022270560197839403,
            -0.007388592197178148,
            0.028021711256587215,
            -0.0054071466052999576,
            0.023338874349264654,
            -0.00437992399818083,
            -0.0013715719805509465,
            0.02378211865221947,
            0.0318826182492598,
            0.024158617174336757,
            0.026639321299223157,
            1.5243630618871248E-4,
            0.01978619718658239,
            0.0252315027200607,
            0.02049770711160718,
            0.028256876804449015,
            0.02153002196454208,
            0.022092565223830598,
            0.007786042002885047,
            0.02115296004793793,
            0.005749673908772325,
            0.002680550113541005,
            3.998239835355328E-4,
            -0.006296830189463875,
            0.015252328020568978,
            0.029637759018056258,
            -0.011965367886960142,
            -0.0016793804254795453,
            -0.007411338694585238,
            -0.0013752762840269312,
            0.007183438720280494,
            5.087467365869632E-4,
            0.009954557838639265,
            -6.282018301899577E-4,
            0.004217168985425474,
            -0.020957992560966286,
            -0.014575740197361261,
            -0.019088237639575758,
            0.013814565521165603,
            0.025381972566502247,
            0.0046454375088495195,
            0.0017146748741132694,
            0.008637508067195432,
            0.005339892545826105,
            0.00586734292629369,
            -0.015135836010589996,
            0.007550207508620937,
            -0.0058337021666014675,
            -0.0021465854216560793,
            0.017229697545178106,
            0.015730138685660262,
            -0.0039065087806036914,
            0.020157283020488314,
            -0.0035040081989046856,
            -0.009589747592971844,
            0.022775921321983708,
            0.01858278661336175,
            -2.272528584252203E-5,
            -0.014676611852101189,
            0.019905178312331396,
            -0.016583859260408985,
            0.02033203532000988,
            0.004109020188332357,
            0.023655194209883188,
            -0.0013124334757520601,
            0.005848503279252225,
            -0.013625704209931875,
            -0.018454654061535222,
            0.025542698089060952,
            0.0278099501697122,
            0.02650220755076934,
            -0.0029830300581393226,
            -1.8909223516794802E-4,
            -0.018226805371966682,
            0.018495215682958782,
            -0.014339913962180194,
            0.007610203231702638,
            0.03106546525552878,
            -0.020290117721667507,
            0.006453283581470169,
            -0.001834996815285158,
            -0.010755744680064313,
            0.010963081136562103,
            0.013087438722619025,
            0.010381180388251102,
            -0.014719600125124528,
            0.012283044253008836,
            0.023724694982653578,
            -0.009515154998165427,
            -0.010512729364191113,
            -0.013515036882729562,
            7.348693512567521E-4,
            0.011872709750684989,
            0.0013609975517492395,
            -0.020128491767111897,
            -0.0031604923189360343,
            0.01976456784253605,
            0.006027265708417044,
            0.0044468864429562886,
            0.02257806260555857,
            -0.023830527882647393,
            0.023199279747954056,
            0.0033450538154661275,
            0.032399720818526316,
            0.013127255214984855,
            -0.005139637901331981,
            0.014236679151936712,
            0.008068846274565838,
            0.01641488578975682,
            -0.0019487847154850062,
            0.029363852759045538,
            0.030688268521981952,
            0.03002505734400284,
            0.011843502889070469,
            0.0142437509391734,
            -0.005657254416072878,
            -0.0037751470845472537,
            -0.0050223776727647725,
            0.003900327405974685,
            0.027824580273340695,
            0.007745715157806558,
            -0.009503478933818314,
            -0.0162444832296274,
            0.030767818317391716,
            -0.01268991211051191,
            0.021986553737117078,
            0.023237234029989385,
            -0.014648037032120559,
            -0.01712289623366304,
            -0.017173781268612826,
            0.0193448992458275,
            -0.024963121588363186,
            -0.014205731761860393,
            -0.022124387612414836,
            0.010598760442529852,
            -0.002671778480134798,
            -0.0023775918452776617,
            -0.004306395573141217,
            0.01774584009788299,
            -0.0275455128576668,
            -0.005715377101835423,
            0.004910120652972171,
            -0.0162082322053983,
            0.0010931220467764087,
            -0.018418627988173654,
            0.013919516347247508,
            -0.011329335664040688,
            -0.023942950043969315,
            -0.007817639046733804,
            -0.010427598353487751,
            0.019743431095277358,
            -0.02284375538291573,
            0.003849075181942251,
            0.014745078445401105,
            -0.01918251366665413,
            -0.025974469887736672,
            -0.010464237364831963,
            -6.349600928001826E-4,
            -0.0062863917023429534,
            -0.02078135053713015,
            -0.023013043682185774,
            -0.031862159284808955,
            0.008692010787278952,
            -0.028917313123913973,
            0.017953431973261123,
            0.014075312278467377,
            0.017801693942276514,
            0.010783409372904236,
            -0.008998677636513967,
            0.002113524669011991,
            0.0056121499439491795,
            -0.02114829359676437,
            -0.0010133811068456923,
            -0.0010564717305994052,
            0.01690636124892083,
            -0.028069248088579347,
            -0.014782265012171709,
            0.01384694884663771,
            0.014861386211186867,
            0.03202973717308948,
            0.012686512866137685,
            0.0019265193932448681,
            -0.007376261360245644,
            0.01209667252191442,
            0.029685436108358332,
            9.754384569303682E-4,
            0.031075073548465046,
            -0.008744498565936992,
            0.006832880057591834,
            0.011815116040811542,
            0.02066061742005324,
            0.013708901131966192,
            0.033671955177041586,
            0.03577448443522811,
            -0.0015359152825798184,
            -7.22484607520534E-4,
            -0.01213510483816292,
            0.009385287115373816,
            0.018316063285685264,
            0.035909940775758174,
            0.030305356882863902,
            0.023505467667999345,
            0.011106755018649238,
            0.027662814479393245,
            -0.007750720846107824,
            -0.015449441128524831,
            0.005368228532513128,
            0.0049410464715209605,
            0.01998998234795875,
            0.023328968396167254,
            -0.011233193576537952,
            0.031768476245792744,
            -0.01497679685314443,
            0.004927315156784058,
            0.002463363740482138,
            0.00717896688618993,
            0.009253543171237982,
            -0.006113507633677655,
            0.0038311492435126686,
            0.021327100981000716,
            -5.469191016489918E-4,
            -0.014011389951139309,
            0.016269140155204267,
            0.003931733178128824,
            -0.0021583034397919644,
            0.01931563124345325,
            0.021015876401822817,
            -0.013932100882828818,
            -0.02605341780482524,
            -0.007318564815850873,
            -0.020723960430847097,
            -0.014980319398588569,
            -0.019007677527284134,
            -0.015577387567197525,
            0.013270208352580292,
            -0.009754038637974463,
            0.0015692973914325265,
            -0.005603412361027065,
            -0.011532054102167344,
            0.015073140982793097,
            0.009334468095946246,
            -0.027527608752303367,
            0.01010263509115804,
            -0.001316035899444335,
            -0.03200785795965138,
            -0.027002779719723945,
            -0.024825833058865304,
            -0.004196963238240573,
            0.012375891231567755,
            0.006810599304590112,
            -0.031052840909250035,
            -0.030978039951201092,
            0.013626403383315496,
            -0.013792949192199103,
            0.00552001819748296,
            0.0020644402676099054,
            -0.011363294920561205,
            0.010909630655630272,
            -3.591938331617069E-5,
            -0.0035042775795172862,
            0.009105126359637627,
            0.03349940489367541,
            0.023492175420216133,
            0.03150927281425352,
            0.002117982964626161,
            0.027527557061449225,
            -0.0069488024919451994,
            0.00682084363002357,
            -0.003525186664161331,
            0.016748655575960524,
            0.028864747350758554,
            -0.002338130671400731,
            0.013002128743807519,
            -0.0033974475891605732,
            -0.00811288013663143,
            -0.004920587007374839,
            0.02411043398964756,
            0.01921170789674909,
            0.02970937253392268,
            -0.0098323289924794,
            -0.016240445217579946,
            0.02009912074724407,
            0.020900520987321862,
            0.01639637527992409,
            0.019313223244119597,
            0.025419250553276006,
            0.030664063773864988,
            0.005039227952178163,
            0.019473914353692914,
            -0.010763220570013938,
            0.02834802223870023,
