{
  "class": "com.simiacryptus.mindseye.network.PipelineNetwork",
  "id": "a0f0a572-b49b-4e98-bfe0-199100001588",
  "isFrozen": false,
  "name": "PipelineNetwork/a0f0a572-b49b-4e98-bfe0-199100001588",
  "inputs": [
    "3facf149-3e30-4f82-a854-56e1a1510acf"
  ],
  "nodes": {
    "a0f0a572-b49b-4e98-bfe0-19910000158a": {
      "class": "com.simiacryptus.mindseye.layers.util.MonitoringWrapper",
      "id": "a0f0a572-b49b-4e98-bfe0-19910000158a",
      "isFrozen": false,
      "name": "bias_0",
      "inner": {
        "class": "com.simiacryptus.mindseye.layers.media.ImgBandBiasLayer",
        "id": "a0f0a572-b49b-4e98-bfe0-199100001589",
        "isFrozen": false,
        "name": "bias_0",
        "bias": [
          -5.141755291008487E-6,
          -1.474607140155379E-5,
          3.925868693468493E-6
        ]
      },
      "totalBatches": 7052,
      "totalItems": 902900
    },
    "a0f0a572-b49b-4e98-bfe0-19910000158c": {
      "class": "com.simiacryptus.mindseye.layers.util.MonitoringWrapper",
      "id": "a0f0a572-b49b-4e98-bfe0-19910000158c",
      "isFrozen": false,
      "name": "conv_0",
      "inner": {
        "class": "com.simiacryptus.mindseye.layers.media.ImgConvolutionSynapseLayer",
        "id": "a0f0a572-b49b-4e98-bfe0-19910000158b",
        "isFrozen": false,
        "name": "conv_0",
        "kernel": {
          "dims": [
            5,
            5,
            15
          ],
          "data": [
            -0.004665494748189435,
            -0.004077419777257887,
            -0.00400281071137753,
            -0.002817331558886147,
            -0.001069986764007737,
            -0.004424060437077138,
            -0.0038540775660528947,
            -0.002381938243053467,
            -0.0018471276302818526,
            -7.650861520333856E-4,
            -0.003440858562891089,
            -0.0032709382589608694,
            -0.0024044257906510073,
            -0.0010234669694899722,
            -0.0010402773217644656,
            -0.0035779520429667353,
            -0.0028016970287505927,
            -0.0024021298385196142,
            -9.10829125826951E-4,
            -4.129912979636692E-4,
            -0.0027424477308810188,
            -0.0015129227557781496,
            -0.0018584426874900441,
            4.1994105295114034E-4,
            9.780120137103247E-4,
            -0.004832759809764678,
            0.0025951563489080014,
            0.0030961888250909905,
            0.001882970887195735,
            0.0020610391322778317,
            0.0014383485587380674,
            0.004595187925984237,
            0.0012800139080677744,
            2.5887047677458576E-4,
            4.052856548205451E-4,
            0.003494952199369873,
            0.002729855600239995,
            -9.652107425650383E-4,
            -0.00229883470608883,
            0.0017659721826766618,
            0.0033231491890012674,
            -1.3968640523980458E-4,
            -0.0031215077542200917,
            -0.001443244341729422,
            0.004253700611552907,
            0.001565447263041759,
            -0.0014102992887349004,
            -0.0013358719169582615,
            0.0019411003262959723,
            0.009447467142531063,
            -0.0017515712507330196,
            -0.0013512319551063185,
            -8.683482695758416E-4,
            -2.911846802135372E-4,
            4.0072585520624636E-4,
            -6.43603980020041E-5,
            -7.129688192969882E-4,
            -8.023171208020254E-4,
            -1.5466608052604026E-4,
            8.066874742179796E-4,
            9.300601780458597E-4,
            0.0011379410979622845,
            1.1997082217846361E-4,
            8.826127510269857E-4,
            0.0011491271995388915,
            0.00221872827583811,
            0.0015942629147405823,
            0.0017339964115876759,
            0.0013298401462776403,
            0.0019523397479813396,
            0.0036243239755088187,
            0.003220420415807589,
            0.0027336448093163448,
            0.0029331728653177757,
            0.0033048121629062465,
            0.0032591291634279304,
            -0.0074553499298415276,
            -0.0069753564800570855,
            -0.005814188465345124,
            -0.004290342987206929,
            -0.004232038324878021,
            -0.007352518295731906,
            -0.0026732279807049923,
            9.117099024616161E-4,
            -0.0022210420463241844,
            -0.004787874233172544,
            -0.0020140756743214873,
            0.006720761308892911,
            0.007366331955951743,
            -9.498034094169383E-4,
            -0.003940387025689168,
            0.00284289471141369,
            0.010891870376747463,
            0.00689813734143525,
            -0.0057044068929927695,
            -0.001062678648046136,
            0.00486461790721934,
            0.009689768054658647,
            0.001277334813795028,
            -0.014931342872047459,
            0.01700584642860082,
            0.013257970105631432,
            -0.0017648645816134448,
            -0.010548038590873297,
            -0.0012488096214727839,
            0.016157517289253145,
            0.004811765897219669,
            -0.008880150415531382,
            -0.012749587441605153,
            0.0016319258023498623,
            0.007024226936107983,
            -0.00555580299503361,
            -0.01162838021233008,
            -0.00497154642482655,
            0.009408200700495547,
            -0.001301395752549761,
            -0.01266280451561126,
            -0.007963492783768459,
            0.002142146246361405,
            0.0118525926134876,
            -0.004945268738291617,
            -0.009381442455599605,
            -1.9011913682294047E-4,
            0.007119887911856954,
            0.010153858870967933,
            -0.0038887825755537673,
            -0.003944118836956599,
            -0.003843322181636779,
            -0.00299308876098619,
            -0.0014604947044971341,
            -0.003111948883944681,
            -0.0036550126401408227,
            -0.002877180162678038,
            -0.002386423625132151,
            -0.0013487140505821602,
            -0.003588964821091857,
            -0.003471981213978942,
            -0.002434871105439397,
            -0.0018067301001453576,
            -4.1162777777398624E-4,
            -0.0021908306599503226,
            -0.0026770755783788198,
            -0.001359363770763018,
            -6.666173543113946E-4,
            5.890529901452643E-4,
            -0.002229303078876966,
            -0.0017975857276290453,
            -4.096385381940909E-4,
            5.001805228766991E-4,
            0.0012944537041316435,
            -0.0034312588674510324,
            0.0034838506264658737,
            0.0022530754699397167,
            5.967119020442949E-4,
            0.0010153629008024696,
            0.0014607162839238065,
            0.00472710895135569,
            0.0011635704320140006,
            -0.0013908868792228437,
            8.226311524404612E-4,
            0.004641914855837337,
            0.0021836859632144686,
            -0.0015855411329369752,
            -0.003181072437436499,
            0.0017936310044992646,
            0.003982317077287581,
            -3.8588808991265065E-4,
            -0.002735550478141978,
            -6.889542057633113E-4,
            0.004448467345729022,
            0.0018392031745133452,
            -0.0015191532669661643,
            -0.0017423995184510394,
            0.003031853827304952,
            0.010032815711336683,
            -0.0011474698558533543,
            -6.708310712253921E-4,
            -0.0012509617623252163,
            -4.819070674775615E-4,
            0.0010362419343642776,
            -4.201271740623567E-4,
            -8.41537870119955E-4,
            -6.546461211662324E-4,
            6.861608037976514E-4,
            7.73295510809162E-4,
            7.653956076042103E-4,
            1.3751054859290862E-4,
            5.088597614930889E-4,
            0.0010648096247191023,
            0.00210377644262781,
            0.0018733747759774825,
            0.0013758169192529702,
            0.0016430335300258623,
            0.002094206254310295,
            0.0030789165023537963,
            0.0027194811170231595,
            0.0031117823559604738,
            0.003209024183397727,
            0.0030349978733884442,
            0.003387968148083078,
            0.0027035759927961384,
            -0.006417164915582024,
            -0.005761007496939016,
            -0.0036736221578319047,
            -0.003014987417255516,
            -0.0034078846695301656,
            -0.006750549789221676,
            -2.901405785589767E-4,
            0.002605138221447674,
            -8.463441509733266E-4,
            -0.004643682444109422,
            -5.358424631818813E-4,
            0.008309428772964306,
            0.008661514133621045,
            5.180748504445594E-4,
            -0.0014721575375938238,
            0.004161830413615672,
            0.01163930045161018,
            0.007905863250726843,
            -0.006048771972757859,
            -2.293620235881313E-4,
            0.006804464597813431,
            0.010432939348780161,
            5.451140589753448E-4,
            -0.014980343645755734,
            0.018183452443920393,
            0.012588060695290783,
            -0.0040185753054566235,
            -0.01199389778195175,
            -6.20828038843943E-4,
            0.014939119816688003,
            0.003927120564472758,
            -0.010920325937539214,
            -0.014245519080121297,
            0.0012171163625605407,
            0.006024501624261938,
            -0.006901971619984276,
            -0.012759736835074226,
            -0.005111216513088749,
            0.009399739292627914,
            -0.0025548539568959186,
            -0.011375179437228525,
            -0.008244837781758602,
            0.0036663205632594797,
            0.013257560417796537,
            -0.003623032124577129,
            -0.007082495092713056,
            0.001480311744854498,
            0.009710526371610089,
            0.011991171872417453,
            -0.0040253094650396955,
            -0.00353667298458136,
            -0.003859953167593416,
            -0.002341391217222749,
            -0.0021480706496096093,
            -0.002879813893635105,
            -0.0030010144165233082,
            -0.002780806054792953,
            -0.0017936939085523875,
            -3.540520396245295E-4,
            -0.0024804510454458743,
            -0.0024560167182398384,
            -0.0024802973651999265,
            -0.002046839015258449,
            -7.77783371020783E-4,
            -0.0017325628154087726,
            -0.0019570968485873403,
            -0.0023997423910631127,
            -6.682898143684264E-4,
            -3.3419037279295584E-4,
            -0.0013046514099491566,
            -6.28607795138222E-4,
            -6.821092207066906E-4,
            4.787035882566593E-4,
            0.0010689300823694165,
            -0.003454429993875547,
            0.0034584865230681406,
            0.0027506306490537387,
            0.0011783435336348213,
            0.001119077209411987,
            0.002030440944183768,
            0.004580019254774285,
            0.0014737809906464987,
            -0.0013393620510458505,
            -4.277799014482006E-4,
            0.004431664369055688,
            0.0027021584529481543,
            -0.0025693372624111697,
            -0.002431918914091945,
            5.07218803485623E-4,
            0.002614159656479796,
            5.164424863284381E-4,
            -0.0032660174926503285,
            -0.0013850478627678688,
            0.004685890804262931,
            0.0013266216342116071,
            -0.0014802020263946175,
            -0.0014022501450007836,
            0.0032228453875022987,
            0.010117386621999012,
            -0.001232972969115883,
            -3.9285233694152753E-4,
            -2.497333449125441E-4,
            0.001461212121087088,
            0.0030818179773840367,
            -3.42829147753341E-4,
            4.2654722253740646E-4,
            -7.564942539835559E-5,
            0.001272741842908554,
            0.0024811066446101524,
            2.3137617073273656E-4,
            4.6274906158677847E-4,
            4.686548622676884E-4,
            0.0014450911874427127,
            0.002801961228964941,
            0.0019169162278878911,
            0.0023797387914707086,
            0.0021544731529444436,
            0.0025472159772201293,
            0.0038537591305169015,
            0.002995814888941244,
            0.00352426854071006,
            0.003307260439146376,
            0.00366679575746432,
            0.0038433306806785455,
            0.0024118166985246693,
            -0.007500036633956808,
            -0.007052648159616253,
            -0.0041740832473296996,
            -0.004099949543916185,
            -0.0039281364879759405,
            -0.006703656499287298,
            -8.64511344016033E-4,
            0.0021239244995585383,
            -5.816649261743277E-4,
            -0.0037587738000508576,
            -0.0014420042203422932,
            0.008282202843029397,
            0.008619689286300925,
            1.7937014897046583E-4,
            -0.0022787569309258176,
            0.005055213564703587,
            0.011669270967911845,
            0.007276061534488846,
            -0.005941149544863725,
            9.916104138593363E-4,
            0.00741559679031718,
            0.01024876883019806,
            0.0011334883944166478,
            -0.014297085075938177,
            0.017800142957440018,
            0.012499581817670842,
            -0.0021476919322111843,
            -0.011439261485944907,
            -0.001376345146820251,
            0.014605904584972636,
            0.004329321838685657,
            -0.009227519878901025,
            -0.01189529269775059,
            0.002852886816756654,
            0.005466946497299906,
            -0.006533674329381909,
            -0.010924273614838142,
            -0.004222478132501887,
            0.010420545781692478,
            -0.0024661502900456696,
            -0.0116629268112972,
            -0.005320994530541821,
            0.004904281903993435,
            0.014125359418816312,
            -0.004708448185114513,
            -0.007241593411634484,
            0.0026443007128152144,
            0.009944780681214481,
            0.011889397215565034
          ]
        },
        "skip": {
          "dims": [
            1,
            1
          ]
        },
        "simple": false
      },
      "totalBatches": 7052,
      "totalItems": 902900
    },
    "a0f0a572-b49b-4e98-bfe0-19910000158e": {
      "class": "com.simiacryptus.mindseye.layers.util.MonitoringWrapper",
      "id": "a0f0a572-b49b-4e98-bfe0-19910000158e",
      "isFrozen": false,
      "name": "avg0",
      "inner": {
        "class": "com.simiacryptus.mindseye.layers.media.AvgSubsampleLayer",
        "id": "a0f0a572-b49b-4e98-bfe0-19910000158d",
        "isFrozen": false,
        "name": "avg0",
        "inner": [
          2,
          2,
          1
        ]
      },
      "totalBatches": 7052,
      "totalItems": 902900
    },
    "a0f0a572-b49b-4e98-bfe0-199100001591": {
      "class": "com.simiacryptus.mindseye.layers.util.MonitoringWrapper",
      "id": "a0f0a572-b49b-4e98-bfe0-199100001591",
      "isFrozen": false,
      "name": "bias_1",
      "inner": {
        "class": "com.simiacryptus.mindseye.layers.media.ImgBandBiasLayer",
        "id": "a0f0a572-b49b-4e98-bfe0-199100001590",
        "isFrozen": false,
        "name": "bias_1",
        "bias": [
          -2.1330126833869666E-4,
          -2.2678327023240458E-4,
          6.435047059502148E-5,
          1.368509365107945E-4,
          -2.4056222107010316E-4
        ]
      },
      "totalBatches": 7052,
      "totalItems": 902900
    },
    "a0f0a572-b49b-4e98-bfe0-199100001592": {
      "class": "com.simiacryptus.mindseye.layers.util.MonitoringWrapper",
      "id": "a0f0a572-b49b-4e98-bfe0-199100001592",
      "isFrozen": true,
      "name": "activation_1",
      "inner": {
        "class": "com.simiacryptus.mindseye.layers.activation.HyperbolicActivationLayer",
        "id": "a0f0a572-b49b-4e98-bfe0-19910000158f",
        "isFrozen": true,
        "name": "activation_1",
        "weights": {
          "dims": [
            2
          ],
          "data": [
            0.2,
            0.2
          ]
        },
        "negativeMode": 1
      },
      "totalBatches": 7052,
      "totalItems": 902900
    },
    "a0f0a572-b49b-4e98-bfe0-199100001594": {
      "class": "com.simiacryptus.mindseye.layers.util.MonitoringWrapper",
      "id": "a0f0a572-b49b-4e98-bfe0-199100001594",
      "isFrozen": false,
      "name": "conv_1",
      "inner": {
        "class": "com.simiacryptus.mindseye.layers.media.ImgConvolutionSynapseLayer",
        "id": "a0f0a572-b49b-4e98-bfe0-199100001593",
        "isFrozen": false,
        "name": "conv_1",
        "kernel": {
          "dims": [
            5,
            5,
            50
          ],
          "data": [
            -1.2213958729930874,
            -2.711849811853117,
            -0.43602585619372547,
            -0.2916259781919442,
            -1.5882106795965636,
            0.417607382825569,
            -0.21724341135870984,
            -2.394756999873564,
            2.432250289585456,
            -2.9018270181965686,
            -0.06555018281365872,
            -2.3381991740618866,
            -0.7288870162805415,
            1.6930147788324734,
            2.954235359938346,
            -1.1021911786607452,
            3.0439249724656636,
            -2.748523852214184,
            3.0358289193904184,
            -2.919352739287671,
            -1.8499260341054236,
            1.0243113387963385,
            1.83643111786638,
            -2.442700034098935,
            -2.2190653957293636,
            -2.1926642540450496,
            1.775737645716113,
            2.7784532219261915,
            0.44507548955823223,
            0.2872319624863115,
            2.528209666797629,
            -1.7007138859757782,
            -0.48001296228380264,
            1.469554219506813,
            1.63664540006324,
            0.8672302591999873,
            0.7520065419881432,
            0.9580972474000528,
            -1.03852162276168,
            2.115281094555012,
            2.41160013170173,
            0.7151216721269428,
            -1.377675733024467,
            1.990486627257811,
            0.03704675156488583,
            1.0165919182213086,
            -0.2929557070573416,
            2.026211159392817,
            2.9638722804801128,
            -1.244180105957381,
            -0.2600097716672419,
            -2.4894475176408024,
            -2.60193806534226,
            -1.0050969484815835,
            -1.6020533365868228,
            -0.6316476233981303,
            1.1913490518306735,
            -1.1100407878745138,
            2.433750818740609,
            -1.3780672626736943,
            0.080574962449315,
            -1.5956648088498142,
            3.0339113897614607,
            3.0998350923635605,
            -1.1232512273391813,
            -0.6298900625470516,
            0.4003572557720165,
            -2.495484146762288,
            0.8555711907467195,
            -2.533254019786256,
            -2.1572960871481386,
            -2.234255566654981,
            2.831797023759864,
            2.7050396933926666,
            -1.537332298706667,
            -1.5126051630177815,
            0.5122297549079453,
            -1.2124781007813312,
            -0.8834467633682153,
            1.3014376312165392,
            1.306276864504369,
            -1.615304466474661,
            2.1342679309947212,
            -2.273108557619246,
            2.0400804282336136,
            -2.2028287444676273,
            1.5646888987155803,
            -0.9666886697276348,
            1.8398412146113456,
            -1.1365049808149759,
            0.14656527219382598,
            -2.5393665516983095,
            -2.9480949544650206,
            -2.5189135031913423,
            -2.3748044379858517,
            1.8570539014711032,
            0.5339823299601946,
            -0.9577275189399613,
            0.8306994686855964,
            1.9987107990089228,
            0.37586642267928444,
            -2.382113083360123,
            2.4738775042155514,
            -0.3737553585290566,
            -1.375415330417538,
            -1.922138510280732,
            1.6199649089280703,
            0.10122556477015787,
            1.4067950031488352,
            -0.6841031955729433,
            0.9495360232162381,
            -2.7125275135010196,
            -2.332848775622138,
            -0.5007552981193235,
            1.2064123173142978,
            -0.1667883791696256,
            1.6982628232599921,
            -0.47059878018660317,
            -0.8936740591282375,
            1.5209765954946677,
            -0.7511190327491537,
            -2.439467148451753,
            1.6061714182187705,
            -2.2685451398758514,
            1.0619776927424227,
            -3.0765416902958798,
            1.9478502856201116,
            -1.3720152988541148,
            -3.0991576021431086,
            -0.36384106683365763,
            2.733934773334004,
            -0.01518246563886531,
            2.9510820450096302,
            1.1295265749680903,
            0.6551901987326875,
            0.5238830620073688,
            1.3102608759713055,
            -2.7271516996137097,
            2.3043424272434594,
            0.22755831619029984,
            1.1737936362947694,
            -1.57935479919947,
            0.9551986415873879,
            -1.1334349338211696,
            0.8831487140865507,
            0.09935252305967975,
            -1.133234972334523,
            -0.947896549833813,
            0.7285668092922304,
            -1.5987237686166615,
            -0.34537487999959177,
            1.082635367330673,
            1.673147596125302,
            2.8238926227101335,
            -2.198554518886276,
            0.942519922696946,
            -2.190094092930992,
            0.0223803140784602,
            0.42064630579831636,
            -1.1702894083526671,
            1.068398552419711,
            -2.5188010024281744,
            -1.2793582848778928,
            -0.917819086940172,
            0.26388032566091857,
            1.7980698293296493,
            -1.712396935464157,
            2.9002639927969662,
            0.22005786285704354,
            -2.720922513320676,
            2.9283153456722046,
            1.8495490039125628,
            -0.612305037835509,
            -2.8704312176864386,
            1.270161656994805,
            -1.7844635196777938,
            3.104115442032319,
            -0.3185296011429482,
            1.2408429815170032,
            -2.882416254046758,
            2.204160368451277,
            -2.5477299136492624,
            3.0698709268730338,
            -0.12229861523138535,
            2.1645413436163854,
            -2.990251325214807,
            2.592291869329887,
            0.44316074943551126,
            -0.12942929955970314,
            1.0913612691513788,
            -0.9497065274320118,
            2.0693390208187883,
            0.9973364431225714,
            -0.39488415261859394,
            -1.0062512279812426,
            -2.9494441518317687,
            -2.945955232502266,
            -1.8496366071847694,
            -1.101207080545426,
            -1.6488447979354046,
            1.6028733162133566,
            -2.8019317400877393,
            3.0214890087573107,
            -2.6086220748375495,
            2.2691083684048565,
            2.7342592991938863,
            0.7704531874933331,
            1.5420241902697072,
            -2.6354082287862237,
            0.49633244494828754,
            -0.22599278406319176,
            0.5656332808596579,
            0.9208634298316879,
            1.072992942201761,
            -1.1771615532728732,
            -2.145808169263887,
            0.46917694901933693,
            3.150460094788601,
            0.32578747956643367,
            -1.2278254010510041,
            1.9671617265696926,
            -3.139357972527204,
            -2.121467541867115,
            0.7364379301607322,
            -0.6758255711452217,
            0.9638047932744548,
            -0.017522847373045672,
            -0.04679328091346327,
            1.6839290179510389,
            -0.6389122474797513,
            2.501011152002076,
            1.8465415055346488,
            1.089583178599831,
            0.4712076330902622,
            1.6409837649744856,
            0.4473849129656002,
            0.7719783635283441,
            0.42417736152090096,
            -2.4762101437482906,
            -3.1499615770469993,
            1.456438386467038,
            1.35965815968415,
            -0.8738440146899735,
            -0.2627201225131485,
            0.8378136538004317,
            1.9423732038123944,
            2.929245141761182,
            0.1732112679411177,
            -3.0238275943841497,
            0.8146273123925565,
            -0.817514251148801,
            -2.5225632540725282,
            0.3119829037799939,
            0.1023655967688007,
            0.6265149821810848,
            -2.1688432695876783,
            -2.864123679063009,
            1.880994867386828,
            -2.1674289270897145,
            1.7955851268467533,
            2.4250885200448336,
            3.0144747332069293,
            2.412750704053909,
            1.7046019637429337,
            0.760908281407363,
            1.1094844315660553,
            1.8783861805593312,
            -0.40027829297023304,
            -2.9553864089913717,
            1.3698564986066026,
            2.2128066848264485,
            -2.332354053650358,
            -3.115628493139958,
            -1.3100651479732475,
            -2.3300702121903,
            1.2615905528187221,
            -1.7899100487136335,
            -2.544136946669291,
            0.30513429686680965,
            -0.37804179965879786,
            -1.194194896878541,
            1.7805342356919431,
            -2.6115651662156028,
            0.9084182598628823,
            -0.8568847020776869,
            -1.8138478020206865,
            0.22731501118654712,
            0.6267377467325872,
            -1.9697966143364274,
            1.3290525124282282,
            1.1960848255787189,
            0.18383841375647592,
            2.438910729842685,
            0.7863508475709341,
            1.3756131929515385,
            0.7441587367512944,
            -0.28774779771525205,
            -0.9846873643056382,
            -1.3532821768528591,
            -1.4125439086096323,
            0.9995485976791394,
            -1.74955410211036,
            0.29791711437925406,
            2.1635728093202613,
            -2.1605406015056654,
            -1.9578290138704841,
            -0.5405968451082833,
            -2.1929340397397774,
            1.9181514457058233,
            -1.6071728725389343,
            3.11570035930482,
            2.0794072647520756,
            -1.6041018730929542,
            2.8912757882234774,
            -1.2228479986574674,
            2.5929027928659747,
            0.6481644763935631,
            -1.0551507442793508,
            0.1631528505880796,
            -2.9938572921744533,
            -2.8900520001394514,
            -0.29363258724829716,
            -2.56317865882647,
            1.8706150374041384,
            2.1154108982202877,
            2.1862133131874346,
            -0.06966303325538997,
            0.7177881210385053,
            1.0256027140548811,
            2.34722245324036,
            1.6739044038577995,
            1.383769331680381,
            0.09353527967670437,
            -1.7084836754708197,
            0.391246105100737,
            -2.356352624523225,
            1.7343037537059298,
            -0.4089631561626759,
            -0.6287937187680608,
            -1.2244691442412738,
            -0.6576178875588363,
            -0.7448061416811383,
            0.11745236585333026,
            -0.5738690942520824,
            3.135461064464544,
            1.268295068504659,
            -0.9142485580654188,
            2.380729327873933,
            -0.22802833786208726,
            -2.707947886899637,
            0.295624702730815,
            -2.5165876167360133,
            -0.3753226117858913,
            0.1566149199654415,
            -2.6701183692595785,
            2.616979405486987,
            -2.5612612963548878,
            -1.7505465143041081,
            2.7805193173304414,
            1.9622630879334033,
            -2.0531592978788664,
            -0.5397846841821782,
            -1.7236839773491026,
            -1.515794399832252,
            -1.756207184392769,
            -3.066731996856381,
            -2.3530686328645087,
            2.387993793615063,
            -2.0829912146889957,
            1.729464144375875,
            0.9592225570217943,
            2.878029960533897,
            -1.23729518672512,
            -2.6591666016861897,
            -1.3587344317114212,
            1.0705071752887996,
            1.1093882278950502,
            -1.5229482458888786,
            2.912252984374247,
            -1.61952908408872,
            0.9359724163735633,
            0.8436509550415656,
            2.3385837126642604,
            0.013606076112914445,
            -2.1802563468659217,
            -0.370369316374163,
            0.687949423748555,
            1.1902024861613065,
            2.164882243097376,
            1.2448928933310985,
            -1.618256444733801,
            2.8045195259274807,
            2.8555611552334863,
            -2.8396341945155092,
            -2.246615464322392,
            -0.2770754944284646,
            -0.4975212719395754,
            -1.280895043222997,
            0.8492539938228387,
            -0.521592861230034,
            -0.11360533272124305,
            -1.2307948236610806,
            1.0142636922579085,
            -1.7404525172343435,
            -2.270979281165609,
            -0.32867219806514925,
            -2.4452265199881924,
            -1.7530886868129794,
            2.877875916626464,
            2.4776187348374297,
            1.8806922243220114,
            -3.0288581833083716,
            0.04843645172843204,
            1.9601917343904207,
            -1.5665156561314166,
            1.7985700663196014,
            3.0596768703744828,
            -1.2369261601213148,
            2.272648602952434,
            3.003377715866496,
            -1.1157066750703715,
            -0.8168948130876242,
            -1.2449993055539204,
            0.35806672970088826,
            -0.36968808779962514,
            0.44226622031902346,
            -2.169493650594603,
            1.600406627667083,
            -1.0378194893121333,
            1.2326068345658923,
            -1.3192760386509912,
            -1.2022826242465103,
            -1.4034882759240763,
            -0.7083765444815863,
            3.918555377563263E-4,
            -0.16751205328735227,
            -2.4502967873556725,
            -1.8428304275393523,
            2.5728160011034626,
            1.5154334361871666,
            2.5261095082388483,
            0.02349560867497752,
            2.594211357393157,
            0.9597338456427621,
            2.5450381229370675,
            0.7606150785722052,
            0.9456875324107498,
            -0.3829988434547391,
            1.7678650796814022,
            0.7554223592363658,
            -2.8588207383055044,
            1.564770498804007,
            1.311743174290998,
            2.6532256880856666,
            -0.7229881888158207,
            0.650614599353234,
            -1.1454071793199478,
            -0.14200925984722965,
            -2.988688343414668,
            -2.0408218537697143,
            2.754800012791677,
            -2.8201949786011977,
            0.4712468108750628,
            2.536397320888142,
            -2.442994754695448,
            2.8689139893212423,
            -2.7998209594057943,
            -0.28981546567869776,
            -1.4985714527947858,
            -1.6591026014067245,
            1.9455352569784081,
            -0.01547803049797045,
            -1.4071513711152324,
            -0.6256026272522591,
            0.23128099647407585,
            -3.0146833937460595,
            2.8938553132364992,
            -2.5709982030679277,
            -2.2866076539046962,
            2.7420258523561594,
            1.3346140030782652,
            -1.206879822955901,
            0.166935183313647,
            -0.00954524264787379,
            -2.314888726726323,
            2.9426683962753692,
            -0.010962153220829239,
            0.29847446888910567,
            0.5930513558073559,
            2.7939738244807892,
            -1.7073847145029828,
            0.6240364624714657,
            2.2938285547216353,
            -0.21393535460812507,
            -0.010048030441402392,
            0.9815142847956425,
            -1.996605654391477,
            -1.948998096362568,
            -2.239612782714012,
            -2.858990273288383,
            2.487398328244606,
            -0.3762013179082793,
            0.7509023450945063,
            0.3198961976148085,
            2.2467221205985526,
            2.2680461083622676,
            0.8345265980448449,
            2.892998106022363,
            0.28362210407020816,
            -2.083375374028371,
            -2.243639172023125,
            -0.2451285617265906,
            1.0681942090996925,
            1.372755464348663,
            1.5006228340947947,
            -2.0649463186035932,
            -0.09464942248979805,
            1.5289154952385988,
            0.8518840860080106,
            0.019131900872763622,
            -3.101191334931754,
            -2.598210657943343,
            1.5196734450961173,
            2.5834087520567697,
            -0.3059702264210963,
            0.09936901066696187,
            1.49251874194557,
            -1.6250176413846789,
            -1.161908082531038,
            2.322370901180747,
            0.11718824946122733,
            -2.571314590941601,
            -0.9817585697156638,
            0.033211760979123144,
            -1.1604357501392857,
            2.463734550565087,
            1.422017125114363,
            -1.2487804484710792,
            -1.5625690277401652,
            -1.8868531487991187,
            0.2808236923242496,
            0.08961792671100068,
            3.042531622342675,
            1.510170533065963,
            -1.3003619484345967,
            -2.784130639618205,
            2.983279522191291,
            1.6479930627031738,
            -0.864358564595551,
            0.35966354273518314,
            1.078972986663224,
            2.9027533200757127,
            -0.6350912673882931,
            1.5823359500052334,
            -0.8456906669340288,
            -1.0034936077148513,
            -2.269238584057229,
            -2.9294322582168024,
            1.8651294435209904,
            2.0143311135133826,
            -0.8767332062320822,
            2.454539941468488,
            0.5346257707518638,
            -2.8504735842264544,
            -0.9013845039907461,
            -1.124331460661635,
            -1.2787590304692846,
            -1.5865903540985278,
            -1.5291322617589866,
            1.3752034755373719,
            -1.421324566272841,
            2.2725341607749003,
            1.1062436853280448,
            0.09126577461148104,
            -1.030871940081641,
            1.318970721540684,
            -0.5749276824194379,
            2.647309560963902,
            -2.740236018664352,
            0.5377258160438073,
            2.491278125250568,
            -0.6593059269633131,
            -0.7537565134668919,
            -0.6112488322604096,
            -2.863827304690215,
            2.170203119013013,
            0.1848933567778194,
            -2.488619602449548,
            0.38119974367303705,
            -1.2707349803965935,
            -1.7903057699137197,
            -1.9138615267738401,
            2.3934640441686104,
            1.8963402115696715,
            -0.7569650137188524,
            -1.2506758902300137,
            -0.6412173682249258,
            2.418790898060997,
            0.04489743233093839,
            -1.8610836270641247,
            2.849896052219465,
            1.6553544285850705,
            0.5368944988070428,
            0.6215937405384081,
            1.7207659763508374,
            -0.2570425518791221,
            -2.009385833569744,
            2.382458651059875,
            -0.9806867258133871,
            -2.0775632649912414,
            0.5629265007669031,
            -1.6550685439959627,
            -0.6406753291227153,
            -1.8843840739967372,
            0.9210872409247626,
            1.5146305093533752,
            -2.4864970086614933,
            2.2695156912880674,
            2.39806370479087,
            2.855084121348117,
            -3.1453381561203653,
            1.9862711942568645,
            2.0655262684102635,
            -1.016100647229658,
            -0.4841640448734282,
            0.39601340082918796,
            3.019156362477325,
            0.09532786863851672,
            -0.9148550507642874,
            1.7595976277260086,
            0.5957852816101373,
            -2.72079262878531,
            -0.6569233945820887,
            0.3941474730139938,
            1.7820583408819988,
            1.7665000403105147,
            -2.03247612577403,
            1.9586015368375354,
            0.4131599763470009,
            0.589907868029944,
            -0.838622573634051,
            -0.36987449125936095,
            1.3942392870519245,
            -1.403110693127279,
            1.8696665984720633,
            0.05578869031649288,
            1.014705612017634,
            -0.04638223568395378,
            1.7576942484892542,
            0.8286002013955778,
            -2.6114833633865184,
            -0.9876269636936033,
            -0.6910122809850227,
            0.9568859400315066,
            3.153710552265783,
            -0.3498773160356475,
            -0.47710844769291655,
            -2.680652845404167,
            2.796911312718187,
            0.7072966148373163,
            1.395606765009199,
            -1.0544846943374424,
            0.6300576103432642,
            0.5005364359626403,
            2.295486052783599,
            -2.042979971095052,
            -0.5064601856211991,
            1.8860790954918405,
            2.6898381594469214,
            3.121603015676951,
            0.865599878013958,
            -1.67412971333145,
            0.7768103490580436,
            -3.1024700965497276,
            2.5236803645470456,
            -1.0283796154347074,
            2.529439274025405,
            -0.7419928062471223,
            1.3294330444549582,
            -2.5922768845581414,
            -2.557290409830929,
            -1.3599424076363937,
            0.9764216619417123,
            2.03234317460326,
            2.2289691969347682,
            -1.1345322760807228,
            -0.29580172492804446,
            0.5089006575660218,
            0.42216594240316274,
            1.4668152244551522,
            0.16317844720303304,
            2.3628646255360164,
            0.30285687514524456,
            -1.1125118042809532,
            2.6911311664870365,
            -1.2974040237501776,
            0.557251402158176,
            2.1134585508447827,
            2.183185019543894,
            -0.9489641363039205,
            -3.0859063010601546,
            -2.8378729683468134,
            -1.4522291613138991,
            1.966880184036996,
            1.4541214365242623,
            -1.9199400479233626,
            -1.0435603684665924,
            -0.4851560706829736,
            0.009583977438085053,
            2.815360724888892,
            0.27186222592972914,
            1.9672840408744343,
            -1.8195379437619756,
            2.3979615737235953,
            1.2050587609089283,
            -2.7559461327045134,
            -0.22088553385052556,
            -2.2940490324727953,
            2.9770493987887003,
            -2.5859944688165135,
            1.481253715290112,
            -0.1445254651552645,
            0.43568093371417865,
            1.3286028637202656,
            -0.8778308094028011,
            3.076025419452902,
            -1.944238556436438,
            -0.5787419923816297,
            3.0350084900297745,
            -2.9381002132573384,
            1.8552635467180325,
            1.047997416589666,
            -1.0278381694504461,
            -2.431524710841551,
            -1.0516839696554707,
            2.4654837337661015,
            -1.1411102377378384,
            -0.2815527157203292,
            0.7509230250914465,
            1.0153114205606522,
            2.627865694577639,
            1.267159773208124,
            -0.691593141284871,
            -2.88403943847561,
            0.06842373329664579,
            2.974125225614164,
            -1.0026320502911625,
            -1.1258035081432842,
            -0.5150008167382427,
            -0.4040188427771083,
            0.5194137634497045,
            3.02494685349106,
            -0.5808639580665739,
            1.6058527031057985,
            -2.1680416178982505,
            0.6085501873686158,
            -0.0779062909345524,
            1.589149231299512,
            -1.0857168501599883,
            1.7800758507012258,
            -2.862125163043849,
            0.17474672172399874,
            -0.34292479357562083,
            0.8157474455565611,
            1.2517083964827878,
            -2.116127216480046,
            0.023461065234673895,
            -1.8086443705152324,
            2.742795735728872,
            -1.2289279291561748,
            -0.705709504055374,
            -0.5219126668622874,
            1.4845562485968058,
            2.843253230186265,
            3.124500651433001,
            0.0049725880203947284,
            -1.4183481825537103,
            -2.678204758967778,
            0.48481402182909417,
            0.6104789013213857,
            -2.625187396566882,
            -1.6348294288708058,
            -2.523066342402178,
            2.075239708004882,
            -2.8508879511652445,
            1.4154233358531483,
            2.739316938720717,
            -0.2965474322094088,
            0.3568095661530684,
            1.6861431870702488,
            -1.8595412438813363,
            0.6326737932994496,
            0.8379863677245207,
            1.5281791258341118,
            1.0606159560223187,
            1.4825688098507939,
            2.0003330414471003,
            -1.2780960352152542,
            0.28491111471654074,
            -0.15349329020049868,
            -2.5397620705973907,
            0.13152545325943332,
            -2.4857714729600957,
            -0.3028720529297205,
            1.4328145740065141,
            2.8190239162475126,
            0.7651713781173375,
            -2.1671095888672443,
            2.2842405881988337,
            -2.910030140337629,
            -2.2919582563562413,
            -0.36895091109359984,
            2.7672173456000886,
            0.017866550744845344,
            0.5511143075087116,
            0.8566661288327906,
            2.447356026737056,
            2.35587070550189,
            2.344866062595571,
            -0.844531949877266,
            0.4689687377672392,
            0.741472164898756,
            -1.8721344230075248,
            0.34893738109963174,
            0.711751438442935,
            1.5067698045902913,
            2.3970578314961384,
            0.7414966725788458,
            -1.7364432834075014,
            -0.31679867909705545,
            0.6468425910269042,
            -3.089982328655602,
            -3.1278507625535434,
            -2.07411477842121,
            -0.5483912422073625,
            2.9668025334570767,
            0.843172745776424,
            -0.6818602505127991,
            0.5835248405966468,
            1.8433150798305673,
            -2.4281927264629033,
            -2.5204710929428833,
            3.0257270471853976,
            -1.0700285307935138,
            -0.85300214175041,
            0.17049748197130102,
            -0.21803059505442365,
            -0.39761475232962823,
            0.7566940627642639,
            2.7661659504789795,
            2.580789761892425,
            -0.38231921648260025,
            -1.0678069593172343,
            -2.70108542689741,
            0.7373293514450417,
            -2.981861132025319,
            -2.7643967820359308,
            -1.5829396375089657,
            1.7902242057733233,
            1.4767669450886758,
            2.3988772078977454,
            -1.2190870010215038,
            2.2504278816807872,
            -0.14038372575580838,
            -0.8915946107570603,
            -2.6792822080778245,
            1.93431355029435,
            -2.58232309700013,
            1.9171888694534733,
            0.5374565231621634,
            -0.4370220794801102,
            0.5999366820234071,
            -0.4463689792707887,
            1.8340182797606048,
            -1.0802347525511493,
            0.1392244645382815,
            -0.9778007626002737,
            -1.7277087476717847,
            2.7866077517237544,
            0.368408120944121,
            2.3672296253731173,
            0.6407805163428285,
            -2.5194896485712572,
            -1.422174503917976,
            -0.8082602043052305,
            -3.0741412428800845,
            2.462710930788863,
            1.9871297360458537,
            -3.042825982642314,
            -1.8802250588956217,
            -2.277744994281924,
            2.855806815547647,
            -1.954269602768198,
            2.647249165119326,
            2.64265722080408,
            -2.559108407310248,
            1.7103916666220278,
            -2.614836824346122,
            0.058410031328692276,
            -0.8078313974231667,
            -1.2620730512886857,
            -0.9797590089067254,
            1.135571816550623,
            -1.343285910090141,
            -0.41628475783310326,
            -0.8602046743112883,
            0.4988393409348384,
            -1.5900050047947525,
            -0.3357417766893303,
            2.0089779058298607,
            0.02510952201430771,
            -2.0287165870518735,
            -0.39510826341432476,
            1.076051553903801,
            -1.0454683044850046,
            2.959173302793879,
            0.11268524630289195,
            -0.3498033722653049,
            2.001647713295006,
            -3.124018816245711,
            1.1725977925135118,
            -1.6927287512530635,
            2.313612571112607,
            2.4619110020972026,
            3.067394488793377,
            -2.25466241147196,
            -2.4711926049022637,
            2.272773330046741,
            0.9318050568186748,
            -1.9866923746442342,
            -2.758717357201413,
            -1.4193027641386353,
            -2.931880974462856,
            1.3648527100699117,
            -0.748276147860352,
            -1.4922199791071908,
            -0.5556072587731107,
            1.2294819200688414,
            1.1991966019633753,
            -0.1302439878166312,
            2.6710638984661443,
            -1.0188843351568397,
            -1.2591922395484916,
            -0.24136163872969613,
            -0.34595297907036576,
            0.47862587798399003,
            -0.42759922300989445,
            -2.80486416388057,
            -2.988286009865771,
            3.0668606956096314,
            2.9071070161304404,
            2.442703860286065,
            0.4854730634064659,
            2.667703498364331,
            -0.11362993904351645,
            -0.11419512821495646,
            -1.373132048917222,
            0.4577007969825243,
            0.9523414503932623,
            0.5093015755184216,
            -1.9394158520148754,
            -2.731077241016682,
            2.408726933659185,
            -1.8642305686415706,
            -0.48419428702124084,
            -0.10971971844614507,
            2.093673140823728,
            2.936294033896019,
            2.066282035969473,
            2.4379589245175097,
            -1.055447781690853,
            2.1552479151973905,
            -2.707490423416291,
            -2.172565963638682,
            0.30318024251895953,
            0.529160319954752,
            0.20288972813698597,
            0.12375864372145184,
            -2.6021058949831137,
            -1.6541072307601845,
            2.5618256653811162,
            2.3639891286788495,
            0.8146492406230802,
            -1.1128048196042524,
            0.3857527958983085,
            1.1173113558401222,
            -2.2244968425503115,
            2.3244275564720964,
            -0.0802224238458503,
            2.9981959075022515,
            0.25734439412613985,
            -3.0563417899686955,
            -0.9800981335883833,
            0.2517865216407381,
            2.6249610185961707,
            -2.582284047100929,
            -2.9090488833193424,
            -2.8547931446954187,
            0.02548227523744799,
            3.0756772571873956,
            -2.6937683305756317,
            -2.7873000683209868,
            -1.0166014249481912,
            -1.8377320763035,
            2.5698706542105167,
            -2.358626803501653,
            2.42010379359378,
            -0.9517523611832014,
            2.1964658619226913,
            -0.189782536920588,
            3.04794038377364,
            1.273779759551866,
            -2.261797553450842,
            0.2139007444334865,
            0.6586853496984578,
            2.3597007369152307,
            -1.7099350452208713,
            -0.49692154439681324,
            -0.8354476396004518,
            0.7680442094337562,
            2.587088346247822,
            2.1227444631648473,
            -0.9959874987160398,
            0.41742036387696196,
            -0.2627250676892668,
            -0.7386611761508245,
            1.735814180319362,
            0.383072965385037,
            0.4865199189053218,
            -2.0421444039406316,
            -0.7648784106927993,
            -3.048222484977929,
            -1.8165786690504675,
            -0.5287037797743593,
            -1.1241838480202768,
            0.9993445702580745,
            -2.954047631990044,
            1.0522475949939059,
            1.8796517258132412,
            0.15605113551764335,
            -2.1958639253982843,
            -1.9868007160171248,
            2.7570974560306993,
            1.5578617924418956,
            1.6337181747671248,
            -1.879101084810398,
            -0.38549354921917794,
            -0.8977381740074083,
            1.5705363571540927,
            1.9315997838666172,
            1.3018659481177575,
            2.7086618475358235,
            2.1328579051891037,
            2.3279605637179115,
            2.5124842415606485,
            -0.7977983496079508,
            0.5996734097015463,
            -0.07579377828350307,
            1.9306818394175176,
            -0.19552203480083105,
            2.828792029172867,
            -2.423924129533775,
            1.3134398512313088,
            0.40086457772028916,
            0.5781388039001831,
            -1.3704804639706845,
            2.161673133325145,
            -1.408520625922005,
            0.09109609896745798,
            -1.3833389748606337,
            -1.6845459530933955,
            -1.7580052512575468,
            -3.0053645510910996,
            0.548218855627485,
            1.4087102547544352,
            0.7212755224963918,
            1.2790939575015499,
            -0.8021646980088115,
            2.923394768483923,
            0.7922614183758394,
            -1.1786101373986397,
            -1.102997323850932,
            0.8354618891433377,
            -0.9532575578102079,
            0.8560256827842817,
            0.20210453117550994,
            2.4313624715364734,
            1.517211712742265,
            1.817818344555039,
            1.7500536256264176,
            -2.025392431626668,
            0.42651752516227737,
            -2.71545805431806,
            1.342941689364964,
            -0.2501442341005416,
            0.6689731998418317,
            -1.7887226927623678,
            2.8344405115309677,
            2.9583832173707574,
            2.3608518495147948,
            -2.718148914043471,
            1.5325131386269015,
            -2.2990639784887854,
            -2.4767588396914135,
            0.38140109574828635,
            -0.7336201411939597,
            1.6153417443133438,
            -1.1300314170874421,
            0.8911498919822165,
            1.7224398651345516,
            0.2635635815398448,
            -2.598596646076096,
            -0.3111929434944225,
            -0.21950294405698684,
            -1.4468898489425097,
            -2.8857532401346995,
            0.6450239094896706,
            0.1252460436447105,
            -2.3344376030737854,
            0.41663763052874764,
            -2.1582816594212435,
            1.7266339426789468,
            -3.0726497394675305,
            -2.8927157748930217,
            0.4355467852518287,
            2.0573859757070196,
            -2.7253814463935138,
            -2.0737886316211256,
            0.22734216544881045,
            2.3861119132246573,
            2.6876369526868626,
            1.305482542569216,
            0.5078210684399704,
            1.5539118737464872,
            1.1040057131872516,
            1.3415113250177726,
            2.062601143638466,
            0.3866929302344951,
            -1.6994166590171895,
            2.277256301450061,
            -1.66856138858597,
            -0.5309125695752551,
            -0.8855358026097006,
            1.6110827473037177,
            -0.552958606257134,
            -1.3279506912941101,
            2.0709093236815788,
            -0.2710328025706686,
            2.02041593973979,
            0.7488262727989357,
            -0.8504269583625094,
            -2.3420996986263307,
            1.5654861447618698,
            2.4040966163324775,
            -1.0353980667359488,
            0.9674309660423925,
            -0.08988411647687525,
            1.912173802250611,
            -0.3328131711968417,
            1.678922055411594,
            -2.519213949051772,
            0.7239180568314642,
            1.0822901892186296,
            -1.610139768870125,
            2.8221183017199873,
            -1.073976292913393,
            -1.3219559714131799,
            -0.1571958642821399,
            -2.9656446411384274,
            3.003587264143706,
            0.3065648560155652,
            -2.8615060697585375,
            2.53860770255574,
            -2.908053743651673,
            -1.8763663976763396,
            2.163270223856561,
            -0.9620453258217854,
            -0.7693940955693871,
            -1.1783023550436296,
            2.262128374974125,
            -2.5373294192480733,
            -2.041922251838647,
            -1.2752845868231042,
            -2.473878004968041,
            -2.3425952428194696,
            -2.3442531919142033,
            1.363523940693226,
            1.9647264343597441,
            2.728419369176493,
            2.388294889071716,
            0.08508472203029566,
            -0.417423901767969,
            -1.659385404735107,
            1.0468030361708176,
            -2.1440193863241706,
            0.8635614661003871,
            1.3324509044190402,
            -1.4859699188521278,
            1.1965170075314535,
            -1.5453570536977743,
            -1.9316949963465215,
            -1.060063459876468,
            2.7753846039447776,
            1.8988870065777013,
            -0.19770403947813037,
            -2.216553351339571,
            -0.8633486490351159,
            -2.7562042070001955,
            -2.369354369458063,
            -1.128284182074903,
            -0.9706370852963302,
            2.990694707211544,
            -2.627912868160678,
            2.608151061325262,
            2.62618472073582,
            2.6022802566194567,
            0.47678388102080743,
            -0.1443407351144902,
            -0.38665014159298977,
            -0.22925215784976374,
            1.9012232976553323,
            -0.21230671080508615,
            0.6062839458161688,
            0.07474491562869046,
            2.4981186091849317,
            1.3937202654332614,
            -0.7273446035409025,
            2.412343972197163,
            -2.0714673992021484,
            -1.8914781371336487,
            -0.019715740421313906,
            2.2818121757694336,
            3.0097535364217074,
            0.9273633655329077,
            -1.0960284547582528,
            -1.4267162763688348,
            -3.0773758474428003,
            0.2737492758324131,
            2.9882032948181383,
            1.4870743310466001,
            0.01999668149593446,
            -1.643440687132593,
            -0.6453863087367803,
            2.8290140628661473,
            -2.275340999926918,
            1.5835500672922183,
            -0.8350428069014187,
            0.6377074850467304,
            -2.950821301133964,
            2.6545122477464735
          ]
        },
        "skip": {
          "dims": [
            1,
            1
          ]
        },
        "simple": false
      },
      "totalBatches": 7052,
      "totalItems": 902900
    },
    "a0f0a572-b49b-4e98-bfe0-199100001596": {
      "class": "com.simiacryptus.mindseye.layers.util.MonitoringWrapper",
      "id": "a0f0a572-b49b-4e98-bfe0-199100001596",
      "isFrozen": false,
      "name": "avg1",
      "inner": {
        "class": "com.simiacryptus.mindseye.layers.media.AvgSubsampleLayer",
        "id": "a0f0a572-b49b-4e98-bfe0-199100001595",
        "isFrozen": false,
        "name": "avg1",
        "inner": [
          2,
          2,
          1
        ]
      },
      "totalBatches": 7052,
      "totalItems": 902900
    },
    "a0f0a572-b49b-4e98-bfe0-199100001599": {
      "class": "com.simiacryptus.mindseye.layers.util.MonitoringWrapper",
      "id": "a0f0a572-b49b-4e98-bfe0-199100001599",
      "isFrozen": false,
      "name": "bias_2",
      "inner": {
        "class": "com.simiacryptus.mindseye.layers.media.ImgBandBiasLayer",
        "id": "a0f0a572-b49b-4e98-bfe0-199100001598",
        "isFrozen": false,
        "name": "bias_2",
        "bias": [
          -4.177795419231151E-6,
          2.021917639718232E-5,
          -1.6351698785277841E-6,
          3.697297785729069E-6,
          5.435928886068177E-5,
          -1.4964840665986567E-5,
          2.6171154188201178E-6,
          -5.918414604739963E-6,
          -7.800133384455727E-6,
          -1.1502619324680964E-5
        ]
      },
      "totalBatches": 7052,
      "totalItems": 902900
    },
    "a0f0a572-b49b-4e98-bfe0-19910000159a": {
      "class": "com.simiacryptus.mindseye.layers.util.MonitoringWrapper",
      "id": "a0f0a572-b49b-4e98-bfe0-19910000159a",
      "isFrozen": true,
      "name": "activation_2",
      "inner": {
        "class": "com.simiacryptus.mindseye.layers.activation.HyperbolicActivationLayer",
        "id": "a0f0a572-b49b-4e98-bfe0-199100001597",
        "isFrozen": true,
        "name": "activation_2",
        "weights": {
          "dims": [
            2
          ],
          "data": [
            0.2,
            0.2
          ]
        },
        "negativeMode": 1
      },
      "totalBatches": 7052,
      "totalItems": 902900
    },
    "a0f0a572-b49b-4e98-bfe0-19910000159c": {
      "class": "com.simiacryptus.mindseye.layers.util.MonitoringWrapper",
      "id": "a0f0a572-b49b-4e98-bfe0-19910000159c",
      "isFrozen": false,
      "name": "conv_2",
      "inner": {
        "class": "com.simiacryptus.mindseye.layers.media.ImgConvolutionSynapseLayer",
        "id": "a0f0a572-b49b-4e98-bfe0-19910000159b",
        "isFrozen": false,
        "name": "conv_2",
        "kernel": {
          "dims": [
            4,
            4,
            200
          ],
          "data": [
            5.579717735948719E-4,
            0.0026534564795556697,
            -0.0013511429365309496,
            0.003776873488358188,
            -0.002267205143123957,
            -0.0014031837132599686,
            0.002865997275189514,
            0.0034580444025747404,
            4.6253008431223244E-4,
            0.002841246206480928,
            -0.002303997847750784,
            -7.172435712030074E-4,
            -3.8228437174489077E-4,
            0.0026378306595640664,
            -1.5991914202109482E-4,
            -0.0012335222733971564,
            -0.0013090331210956908,
            -9.560565998765806E-4,
            0.0012820588429653338,
            0.0013467920942782591,
            -0.0023387873156046116,
            0.002673282561199142,
            0.0018456899751775823,
            0.002211394269725479,
            -2.914361204233415E-4,
            0.0023003204795740595,
            -3.211739159840554E-4,
            1.741241658585222E-4,
            7.443539857084877E-4,
            -0.0018253389322397415,
            6.046864405832268E-6,
            -0.00209594694103901,
            0.00411919410830065,
            -1.7492342942261317E-4,
            0.0029209708862583572,
            -6.03620994020629E-4,
            9.634349261291636E-4,
            -0.0019337832301847308,
            -3.357467745990785E-4,
            0.0016293378032027242,
            3.8435619214936936E-4,
            0.002094889507838279,
            0.0014905185377230253,
            0.0030942775200739933,
            0.0013125592861117994,
            0.002150285191499685,
            -0.0021190155761055813,
            0.0039971488419377164,
            0.0015155733102962467,
            -0.0025740027570562425,
            -0.0020234463844696713,
            -0.002347246580133396,
            -0.001154511053073015,
            -0.0013639523583535663,
            0.0012472265468355778,
            0.0012467665172860155,
            -0.002096674510183699,
            -0.001406263635284412,
            -0.0018536786907183474,
            -0.002187653882357631,
            -3.9820852716440105E-4,
            -0.002925292866718007,
            0.002562160045484229,
            -4.4836687391669043E-4,
            -8.792050063718827E-4,
            2.4302555418270375E-4,
            0.0021667127690730282,
            -0.004430260078619785,
            -0.004654499043604273,
            -1.0227649929549017E-4,
            -4.7526208987467644E-4,
            6.486087673062887E-4,
            -0.0029806492655788577,
            -0.005150447518576149,
            -0.0031900527574064597,
            -0.004305488360765942,
            -0.0049652387291991805,
            -4.23654832584735E-4,
            -1.9425098965691044E-4,
            -0.0017362475884908177,
            1.9097516654884364E-4,
            -0.001682990926876568,
            8.621423748242226E-4,
            -0.0018672352690350415,
            5.206912458473282E-4,
            -3.7673932037138915E-4,
            -0.00224075598977099,
            -0.0016623129828678166,
            8.698585601972795E-4,
            -4.6297872353909826E-5,
            3.068599239686309E-4,
            6.118264103731619E-4,
            5.804218046205237E-4,
            -2.1098002822886243E-4,
            -0.002767874973121523,
            0.002667488654032524,
            -0.0032888745613701455,
            -0.0016360727014582436,
            0.0012493301071407365,
            0.0011440573467868763,
            0.0025276489825454378,
            9.397115729646574E-4,
            -6.748273203184141E-4,
            -0.0010849896214288103,
            8.341668645461547E-4,
            -0.002488176018573443,
            8.367103810230723E-4,
            -0.0017599748258050794,
            2.276394373205554E-4,
            0.002283764036171895,
            -0.0026338054338708853,
            4.425727663766143E-4,
            0.0014923657532724087,
            7.253239528853382E-4,
            0.0014842937456597224,
            -0.0016618869412566863,
            -0.001086327163508537,
            0.0023299413328139638,
            0.0015536012225360273,
            0.0021133457487275205,
            -0.002368031595545557,
            0.0017702061644076174,
            -0.0018042781541268789,
            -0.002060154940122219,
            -0.0022890055809385306,
            -0.0027972183998741904,
            0.002230353922691567,
            -0.003328300348426857,
            -0.0011937170038307735,
            0.0019628689635945574,
            4.1388747482016495E-4,
            -2.607155115163095E-4,
            0.001305362582859913,
            -5.655371577374135E-4,
            0.003361287714665432,
            4.570542909509518E-5,
            -0.002486531346098498,
            -0.002106788201685499,
            -4.633823588108677E-4,
            -0.0012710145868356276,
            -4.374592419740025E-5,
            0.0011936112691003718,
            -7.367829257712498E-4,
            -0.0014415029973507694,
            0.0013608829626625253,
            -0.001271449859941465,
            -0.001717357731667173,
            -2.5930988024956816E-4,
            1.3078394641369908E-4,
            -0.0037272491477552453,
            -0.0038578494512901897,
            6.304150270682837E-4,
            -8.066306285197492E-4,
            -0.003462143196766786,
            -0.002662696764532415,
            -0.003396585852997369,
            -0.0025966077063932,
            0.0020327719843816986,
            -0.0024194825016772567,
            -4.352056970945631E-4,
            -0.0012165058420721903,
            -0.002777649673648366,
            -0.001814712953328841,
            -0.0012055686314948056,
            -0.003211303929963761,
            -0.0031206984611426214,
            -0.0018969013556957974,
            -0.00330085324844728,
            3.525407397069027E-4,
            0.0020496172743449904,
            1.444011561888605E-5,
            -0.003084680473116283,
            -0.0016001992445274934,
            -1.609335128534479E-4,
            0.001570824456188917,
            -0.00224968106496818,
            7.963804482411379E-4,
            7.370449579524064E-4,
            0.0010042346249793757,
            -0.0026770035874493624,
            7.084772695205814E-4,
            -0.0018072944699162076,
            0.0017238392273623182,
            -3.1927743930317286E-5,
            -0.002889479990135886,
            0.0011908168167372038,
            -8.49271480977771E-4,
            -0.0029039640874845276,
            -5.448699540381838E-4,
            0.0013297521756536932,
            5.323242428057111E-4,
            0.0011420463400798383,
            -0.0012151507359344684,
            -0.0019641318210622248,
            8.579004425627565E-5,
            -0.0012350056238206294,
            -0.0016985110353634684,
            -0.002138155070070237,
            -0.0025768735490663956,
            0.0018282502387796753,
            -0.00206392292615385,
            8.73872626431732E-4,
            -0.0010207465904201426,
            0.002610217401992898,
            -0.001267940929121612,
            0.0023589183230975346,
            0.0020952253487179413,
            0.0019369778993832878,
            -0.0039544596274641635,
            0.0016408984734850188,
            -0.0015498632980043676,
            -0.00139889892580607,
            3.150191135710692E-4,
            -0.0020268293974736334,
            0.0011259906621416814,
            -0.0013220946460936124,
            -0.0010312799342552588,
            -0.0013914755779844132,
            7.54966666507493E-4,
            -3.719814215704826E-4,
            -8.752042156499544E-4,
            2.4213114282152306E-4,
            1.7521547325656243E-4,
            2.4309660610328258E-5,
            0.0017567374219794266,
            0.0035315154003220228,
            -4.1267190352928647E-4,
            -0.0013761154686915027,
            0.0020763236017259687,
            0.0026188417099509685,
            -0.0020925127184253435,
            0.003065834899138152,
            0.0028828320568917427,
            0.002055276564570868,
            4.095628326232698E-5,
            0.0012074029292981688,
            -0.0016297606970181833,
            -0.0013246284659092003,
            0.0020454934461228017,
            -0.0011848000302252886,
            -0.0014698294423269062,
            -0.0023764025489387847,
            -0.001378426969574606,
            -0.002806016595163131,
            -0.00294847568870837,
            0.0014226028722514768,
            0.001114911540450329,
            2.4701509399699693E-4,
            -0.0011102699180353184,
            0.0030322332584196247,
            -0.0012978132276503672,
            0.002574803651981181,
            -0.0024049459569113357,
            0.0023488900926263404,
            0.0017433937892750956,
            0.001299173251054347,
            -2.8896806736630726E-4,
            0.0019109717321802765,
            0.0020010033959630244,
            -3.822110441768917E-4,
            -0.002280302508611547,
            -0.002058243823995962,
            1.1945004403039646E-5,
            -0.0023381702481279857,
            -0.0018709188952360622,
            -0.0022485870353946124,
            0.0031130817072453094,
            0.001183711710683213,
            -0.0011769136113901507,
            0.001436428629282487,
            0.001196798770312137,
            -0.0014689432591624264,
            -0.0044094427817974145,
            -0.0018056027722250217,
            9.48236178809942E-4,
            -0.0033191320497028024,
            -0.002883931453838515,
            -0.004001144871481217,
            -0.0035368106189184534,
            5.923622725262707E-4,
            4.0189252328267256E-4,
            1.6651662598796499E-4,
            0.0013988341802212052,
            -0.0017857153468545037,
            -0.0012460063110326675,
            -6.997824917143082E-4,
            0.001890265010655517,
            -0.0016913352692690374,
            0.0021971054725533784,
            -9.493913045116246E-4,
            -0.0019711784759918164,
            -0.0025874065335848265,
            -0.0024017721977404247,
            -1.47583307484708E-4,
            7.853025856925053E-4,
            0.0010533674426079786,
            0.0023636872349879425,
            -0.003222884039970862,
            0.0014434017922770742,
            0.002302054868421751,
            -0.0014975949054193969,
            -0.0011647597026071053,
            -1.9297751333706642E-4,
            1.8895101697205172E-4,
            -0.0019913602085115485,
            -0.003453988419528435,
            -3.335966699293245E-4,
            9.428703560037378E-4,
            -0.00222883780719004,
            -0.002018559241161784,
            -0.0028415481252285885,
            -9.058467547044405E-4,
            -0.002049510150602174,
            -0.0027825451306729278,
            -0.002724709432488406,
            3.294766962525771E-4,
            -0.0030860415611997146,
            6.383710807444115E-4,
            9.080578756860951E-4,
            -0.002879742659815045,
            0.00586326820836811,
            0.006014492503599551,
            0.0010866542106118813,
            -4.94089096698291E-4,
            0.0050193808750084055,
            0.0035023761060128116,
            0.004741459350215771,
            0.0033048266491709187,
            1.793476968722058E-4,
            0.003920219068023269,
            -0.0015349818205283644,
            -6.583381685183182E-4,
            0.003287702102589676,
            0.0036382185185462896,
            0.002372679313422166,
            -6.260564283819573E-4,
            7.312668665585656E-4,
            4.0703993546211445E-4,
            -0.0014491883112162601,
            0.0016016420433606518,
            0.001256409419277622,
            -0.0020447918970250456,
            -0.002475351180023398,
            0.001281391936064547,
            -0.003052395652928381,
            3.0072981550971614E-4,
            0.002270458633864331,
            0.002350815674809222,
            0.0010528671005738978,
            -0.0021921157993742718,
            -0.002136144117075397,
            -0.002740847312058314,
            0.016297023238443474,
            0.007720568633967897,
            0.005132119116520338,
            0.007330280545639945,
            0.00912172361703216,
            0.008216740041979519,
            0.0021131784457023408,
            0.0030077202665726964,
            0.004662396672961543,
            0.0025051807817468323,
            0.005475610254247972,
            0.00183239748395631,
            0.002304483564518869,
            0.004509526179706106,
            3.428348772793866E-4,
            -0.001853196091074795,
            7.424984162153236E-4,
            -0.0023993438702284127,
            0.0016216350646391152,
            0.002483760997811193,
            -0.0023624984683587847,
            -0.003428426243720513,
            7.189492528073017E-4,
            0.002844255540386328,
            1.716340772950472E-4,
            6.40295609190735E-4,
            2.465665747383054E-4,
            0.0011272360211293578,
            5.0187966461425E-4,
            -0.0014664944192650643,
            -0.0011991175092489657,
            -0.001849249202216742,
            -0.022248788706124605,
            -0.018171199657268915,
            -0.014094130857828733,
            -0.007949752918390613,
            -0.018505553745120303,
            -0.008035717881116924,
            -0.006517082709702129,
            -0.004155239844648433,
            -0.009688317154128425,
            -0.005016278271981565,
            -0.003751075828778189,
            -0.002585528700204424,
            -0.008268774538260294,
            -0.003423167726249036,
            -0.0018223832150717075,
            -0.005040183070980353,
            -0.001202340101648807,
            -0.0021394695334896238,
            0.0010401200946847202,
            0.0015090710648252388,
            0.001460889448243529,
            3.9733945807623815E-4,
            -0.0018801695333402273,
            -2.3155026889391617E-5,
            0.0026510356955526436,
            0.001545287481321041,
            6.138274831920324E-4,
            0.0014788273903276032,
            0.001972519867107142,
            -0.0010991221794513471,
            -2.0026802884130244E-5,
            6.044675264971105E-4,
            -0.00301678621387993,
            -0.00394520840353236,
            -0.004273147430932698,
            -0.0018989770082097764,
            -0.0013256522077636685,
            -0.00311466016103533,
            -0.003309149546112993,
            -0.002830085895334435,
            4.360317074982909E-4,
            4.887314984321806E-4,
            0.0014709655880078183,
            -0.0010089589456706402,
            0.001965774966865822,
            -0.002327195353809606,
            5.450368186981485E-4,
            2.0161888771397078E-4,
            -0.0018660558970002815,
            -0.004631097867215198,
            -0.004144737735998546,
            -0.004522514996430557,
            -0.004913246808312116,
            6.703135958066452E-4,
            -7.382189423658685E-4,
            -0.0020268853653979623,
            -3.279257067905665E-4,
            -0.004424030983362458,
            2.0832769250929046E-4,
            -0.003173610921810676,
            -0.0010792824990817744,
            -0.002075622826379592,
            -1.0384970370588051E-4,
            -0.0016685903884517005,
            0.00461413427961581,
            0.00168103338990813,
            0.0013058579316367793,
            -5.83849001261117E-4,
            0.004253032517578414,
            -0.0010593285815707614,
            0.003284816942065079,
            6.890306547311589E-4,
            5.55485998551783E-4,
            8.417188133395712E-4,
            0.003080759242086239,
            -0.00167700284955464,
            -6.13648265619361E-4,
            0.0019798738129198365,
            0.0031962744257465125,
            0.002098513401670459,
            -0.005143644581720623,
            -0.004625606949046249,
            -0.0029418720866805524,
            -0.0011870381073612977,
            -9.19011499934184E-4,
            -0.002904404244944956,
            -0.0014556397459514843,
            -0.002505182088133022,
            -0.0034550547846748164,
            0.0015573933433047846,
            -0.0029532035464417444,
            0.001045895448909597,
            0.0014701118350857203,
            -0.0011763120615873098,
            0.0010604893778048716,
            -2.426004016874817E-4,
            0.0021193746946559632,
            0.002963618042581712,
            0.001258589524037557,
            -0.001509553608338225,
            -0.0024916242517945405,
            0.0027931778427065933,
            0.0023929704311684615,
            -0.0029016960621810425,
            -5.987326230023055E-4,
            0.002448238944340397,
            -0.0012645779844051817,
            -0.0026410261490668117,
            -0.0020614245076498935,
            -0.001245048422242118,
            0.001293339877410456,
            -0.002518035246207446,
            -0.00316660918337655,
            -0.0032705149700991494,
            -7.651793531873762E-5,
            -0.004001153559418338,
            -0.005874257804686775,
            -0.0036811162510277575,
            9.462823481588544E-4,
            0.0022908206355828358,
            -0.0032475562050237974,
            -0.0023226692613126263,
            -0.0033813605443032357,
            6.713657066630094E-4,
            -3.245753748217196E-4,
            -0.0037387462276526344,
            -0.00105441164102547,
            0.0023529212217767354,
            0.0018410980160204244,
            -1.910228364824866E-4,
            0.001529447973082133,
            -0.0010411402622525824,
            -5.420222209784773E-4,
            0.0030252535337388147,
            -0.0011026297106485105,
            -7.744952060410647E-4,
            -8.304084635776178E-5,
            0.0028876641501321527,
            -0.0012410878524265665,
            -2.260196624565736E-4,
            6.692469954864405E-4,
            -0.0026060557943962106,
            -0.001259952595542962,
            -3.886033779999525E-4,
            -0.0046191358148973865,
            -0.0032470136571898706,
            -2.0681418541150688E-4,
            -9.14786662854981E-4,
            -4.1031759015596435E-4,
            -0.0010305087998579644,
            -0.003659697024706636,
            -0.001056785495819389,
            8.474425251309456E-4,
            -0.001675154383661815,
            0.001353529449320476,
            -0.0028164887007145856,
            5.991275312498702E-4,
            0.002586162467946421,
            0.0013814906375403523,
            -4.226828264166711E-4,
            0.0025090222642337946,
            -4.3801914175679954E-4,
            4.171760814104432E-4,
            -0.001635095757567247,
            0.0019820971364043136,
            0.0039873952406684525,
            0.001545148856135167,
            -0.0027603634255073,
            0.0014389910383524854,
            7.084605893170547E-4,
            7.545180220912801E-4,
            -0.002020257595037305,
            -0.0011295309877301955,
            8.381196035486253E-4,
            0.001617298884846522,
            -8.735602591969114E-4,
            -1.0843631330453422E-4,
            0.001321867546857914,
            0.0018571090851376563,
            0.0018609932756212188,
            -0.0019486127624879148,
            -0.002467716676420247,
            0.0028593882828256314,
            -8.747098756026459E-4,
            0.002202755750294901,
            0.0024264007761240604,
            9.117017591491982E-5,
            0.0011278303679833981,
            0.0028388216617256695,
            0.00270450059047398,
            7.691645845938364E-4,
            4.630531413729285E-6,
            4.353487973964664E-4,
            -0.001951032727706759,
            4.0521824315636006E-4,
            0.002179334677418331,
            -0.002265647954790507,
            0.002298681640640773,
            -0.0017985441107418573,
            -0.0015496176099661651,
            -0.002071063677420044,
            0.0036633573227663014,
            3.2682912516265736E-4,
            0.002096609132773925,
            -0.0017539843309216973,
            -0.001147038452300975,
            -0.0013470918652546185,
            -7.103157348265765E-4,
            -0.002742030509355723,
            -0.004377247269410923,
            -0.005381600617707751,
            9.126529044195983E-4,
            -0.0047603687289651695,
            -0.003571603597809538,
            -0.003555748161906738,
            -0.0013384676007723447,
            -0.0013692473285283272,
            -0.0023598297618832973,
            -9.859148814835737E-4,
            7.960901146681765E-5,
            0.0010450620292553198,
            -0.0011713638036155757,
            -3.532735480585243E-4,
            0.0015765964018261025,
            0.0016132764340779713,
            0.0018523035443415194,
            0.0023569116200946078,
            0.0020158324255391165,
            0.0027128986189151293,
            0.0014512899936802628,
            0.0012753675492846468,
            6.658215664128319E-4,
            -0.0017984467757448024,
            0.001972358885941656,
            -0.0012862981722264499,
            -7.160048324449135E-4,
            -0.0027853036377823923,
            -0.001124273644076961,
            0.0015502586975872617,
            4.156193889395072E-4,
            -0.005610515257397928,
            -0.004887330004341443,
            -8.335370197314766E-4,
            3.586719575193258E-4,
            -0.004882570457210579,
            -0.0013921088224584704,
            -0.003202075629261078,
            -4.04631277005564E-4,
            0.0017675329427583966,
            -2.184563644301165E-5,
            -0.0013204080009183079,
            -8.693052093656769E-4,
            3.224564408823848E-4,
            0.001199841129454687,
            -0.003327674019500072,
            -0.0025237381971541825,
            0.00252138430819884,
            0.0017078259214876735,
            4.626731157536358E-4,
            -5.40124825759499E-4,
            0.002451350942055292,
            7.536261223623374E-4,
            8.316813315780409E-4,
            0.0036211186732579503,
            0.0014952994780652884,
            0.0011021274291715963,
            0.0023974321327851714,
            -0.0028025894432670614,
            -0.002453057117510888,
            -0.0012283172767718876,
            0.0013173817212372612,
            0.0020716404703280404,
            -5.406853254864322E-4,
            -0.0025856954069062798,
            5.940276503768731E-4,
            0.001949245904343427,
            -0.0032119340597590164,
            0.0021276211423191765,
            0.0016000888477665251,
            0.0028353926358904605,
            6.561060594829109E-4,
            0.0021573093018482335,
            0.0025061127381027235,
            0.002664912546408549,
            0.0025261357139598,
            0.0017008135521897813,
            -4.5599385277342183E-4,
            7.636785900125335E-4,
            0.0028938591618812254,
            0.001607435500652451,
            -2.614395500001553E-4,
            0.0038324184713189563,
            0.005419025367987047,
            0.00296621309913432,
            0.0020686254516820483,
            0.002304233365877349,
            0.0014970638536049995,
            1.537325893281991E-5,
            -0.0017537136050887765,
            1.5416440190993023E-4,
            5.06318640322735E-4,
            8.90986632080193E-4,
            -4.50824146406097E-4,
            -0.0021028101503328153,
            0.0029370225938383744,
            6.599259032117679E-4,
            0.0015622215680876836,
            0.0027423920927712553,
            -0.002479414271516486,
            0.0016140620286705398,
            -0.0018977367850593607,
            0.0028602778455836106,
            -0.0014543656001841732,
            -0.0029804078627136323,
            8.83519328549403E-4,
            0.0018644135641099643,
            -6.335376255638539E-4,
            3.8977548997747935E-4,
            -0.001109736420212966,
            -0.0018106824961773404,
            -0.010098067652225935,
            -0.008303163536761112,
            -0.002036672664533707,
            -0.0019502087772413988,
            -0.002227745806947944,
            -0.006541796654582736,
            -7.140333929743882E-4,
            0.0010529319143538654,
            -0.0031360344057059083,
            0.0012582762482233048,
            -0.001660128064416064,
            0.002192940678748459,
            -4.663287789056684E-4,
            -0.0016473064117367127,
            -0.0034120637797395263,
            -0.0020124402122532964,
            0.0023729259478210995,
            0.0011787166991710587,
            -0.0019225425766923115,
            0.0025322842977052356,
            -0.0019246265361158147,
            0.0029521414062325855,
            -0.00202164332363035,
            0.0017788338814269953,
            -0.0017898083035211717,
            0.001570404616432122,
            -0.001792565372243514,
            1.0929389163673936E-4,
            7.916321838277779E-4,
            -9.903573819175003E-4,
            9.661029232410767E-4,
            0.0015154464840218779,
            -0.0021717383633613014,
            -0.0034774466825873243,
            -0.0033822249253841405,
            -0.002576402056475651,
            0.001464430893018331,
            -9.905551726913358E-4,
            -0.00206242768668737,
            0.0013049473747958982,
            -8.641976054280354E-4,
            -0.0012587647725319602,
            -1.4940221106103696E-5,
            -0.0017148956464473582,
            0.003052870357915991,
            -0.002953167694528373,
            0.0025646260062494727,
            0.002952779207196951,
            -8.213791859431298E-4,
            -0.0033250627820794743,
            -0.00223793031381254,
            -0.0031370607892024422,
            4.6395493567340034E-4,
            -0.0045321950435448935,
            0.0014929243171561428,
            -0.002498746326903642,
            9.545438280853898E-4,
            -2.3053766682269367E-4,
            -0.002513608734746227,
            -0.002196870599590813,
            0.002843639887407723,
            0.0018784568965351579,
            0.0027645018790421806,
            3.728498603235361E-5,
            3.537852514261118E-5,
            -0.001995604903396502,
            0.0033760867372393164,
            4.7566235797533976E-4,
            -0.0019992443836678963,
            -0.0013373059041645583,
            -0.0012717995623353308,
            7.962170558890105E-4,
            0.0028330195607186265,
            0.002628294535346893,
            0.0026548017674675596,
            0.002674441818361641,
            0.0028227108921229697,
            -3.3057410255241256E-4,
            0.002766385537326556,
            5.235982395370713E-4,
            -0.001239379244169911,
            -0.004887094629892944,
            0.0013243539017245528,
            0.0013221326595993317,
            -0.0038459368486298147,
            0.0010770323058396155,
            -0.002189595641173927,
            -0.0025422886811403977,
            -4.755246172016695E-5,
            0.002050452632731328,
            0.002222106441691553,
            -0.0013742138623476033,
            -0.0015452840521952447,
            -6.761094885662621E-4,
            0.0011216611075972143,
            0.0011550966251474663,
            -4.02493651263438E-4,
            0.001322420402233384,
            0.0010388858910182126,
            -1.6165768587223441E-4,
            0.0018561882910121989,
            0.001945309930303158,
            -8.954812792494859E-4,
            0.00183080316888659,
            0.001790460810907205,
            0.0016708545904603538,
            -0.0013012577524356278,
            1.527089329437238E-4,
            -0.0019676651653746306,
            -0.0028578670403309366,
            0.0024871458534119735,
            0.0024764644725138,
            -0.0014638263507039922,
            -0.004424242347984852,
            -4.052779749697947E-4,
            9.877386305318517E-4,
            -5.433453168135609E-4,
            -0.0010262390254416201,
            0.0018409783958137306,
            0.0010017719622814872,
            -0.0020225863479643442,
            -0.0011486592653788855,
            6.27191724077569E-4,
            -0.0024970686112252933,
            -1.2313706082823508E-4,
            -0.0028220353607731883,
            3.239868524564456E-4,
            -0.0011647886942558984,
            2.3996913048863878E-4,
            0.0027947552072317304,
            0.0015274722616620503,
            0.0022899979231695428,
            0.002591789892112949,
            5.064196419181273E-4,
            0.002589353767471376,
            0.0011749442801877155,
            -7.4961984150779E-5,
            -0.00305907834480169,
            0.0015712456951536813,
            0.0029728842442294074,
            -2.1936936559339862E-5,
            8.242600278365013E-6,
            -0.001916843007581876,
            5.930926020319074E-4,
            -0.00392752281427592,
            2.1454194935166315E-4,
            -0.0028718172893808435,
            0.001616609043121113,
            -0.00294836244221999,
            -0.0013625643276078223,
            0.002786030729830457,
            5.846268841808588E-4,
            -0.0022814174354455134,
            -1.1089261739193924E-4,
            0.0013801827225080904,
            0.002030501890786438,
            4.3347530564371553E-4,
            -0.0017940049962239613,
            0.0030821586738893508,
            0.0026437515657156776,
            0.0018952841654171992,
            0.002307267545971001,
            -4.51057207123103E-5,
            -0.001798012479693497,
            0.0030966004331175216,
            -0.00147814781622615,
            0.002964717624993765,
            2.0943590414775697E-4,
            7.876467858787516E-4,
            0.002502605022877074,
            0.002685114888335961,
            -0.002749419122325174,
            7.490037858169002E-4,
            -0.0020792996696786556,
            -0.0022544527442896495,
            -7.644319867289926E-4,
            -1.1104113283370239E-5,
            -3.215900679152945E-4,
            -0.0011698910387432785,
            1.499869055444872E-4,
            0.0021643595396573247,
            4.3945477095368396E-4,
            -9.54232960268598E-4,
            0.0029039889876880955,
            0.002072021377305537,
            0.0029995541915374007,
            6.957936896956447E-4,
            -0.002505984046432165,
            9.674185064603924E-4,
            9.941706570538915E-4,
            0.0028014693678933083,
            0.0016180015749293916,
            -5.402156843690501E-4,
            0.001953149971401619,
            6.386129662234292E-4,
            -0.0020332546520445186,
            -0.0015718601552240936,
            -0.0012152140547383732,
            -5.922176732770127E-4,
            0.0026456949630254112,
            -6.475727467039616E-4,
            -0.0023482752692519887,
            7.113595431395527E-4,
            -0.002174112892225188,
            -9.755808674939802E-5,
            -0.002831081409869803,
            -3.3481944772700297E-4,
            -0.0011555767399602248,
            -0.0035664618421047027,
            -0.0018570907025259034,
            0.0016471417008716816,
            -8.191035165013374E-4,
            -0.0032233806853564054,
            -0.002666592130119802,
            -0.003801458250180262,
            0.0010461995971078448,
            0.0025275406507276293,
            -0.0014543961250959147,
            -7.596468035026158E-4,
            0.0012039360033684501,
            1.6052161974621667E-4,
            6.823520422994517E-4,
            -8.29979871386064E-4,
            0.0027969890439316415,
            0.0025592515272982734,
            0.0016160106446254363,
            0.0030700541762148812,
            -0.0021684326398156923,
            0.0014275724678812884,
            2.822566012893007E-4,
            0.002817478264290177,
            -0.0012140833353817234,
            -1.6444893002019032E-4,
            8.428676514870424E-4,
            4.7227590892750433E-5,
            3.756434288520588E-4,
            3.529275099311194E-5,
            8.605288922174465E-4,
            -0.0016782653734105201,
            8.824200295934244E-4,
            -0.002212549505514119,
            -0.003201110551953095,
            0.0020773556374051494,
            7.630069376874198E-4,
            -0.0036534079392498003,
            -0.002465603497565282,
            -0.0010335679473617255,
            -0.0015494033868851057,
            -8.019526425617424E-4,
            -0.0031185179644080147,
            0.0013161468478891075,
            -0.0018676379494793516,
            -0.002781564638459352,
            -0.0027886379485864044,
            0.0026479620079294997,
            -4.203117272664218E-4,
            -0.002626619775984591,
            0.002088970098697241,
            -0.0015288218017383184,
            -2.7730777409727995E-4,
            9.44540294262753E-4,
            0.003079806833680431,
            -8.233679298027764E-4,
            -6.333751437013781E-4,
            -0.0022586235345574217,
            0.0024221755862348813,
            0.001916845296125757,
            -0.0029486684399766218,
            0.002103191245119054,
            1.0582979019234787E-4,
            0.0018765191229490072,
            0.003190976511621169,
            -0.0019479675824170225,
            0.0011142194378261645,
            0.0029145481384224964,
            0.0018592330552048128,
            0.0017578162684239553,
            5.292493910333488E-4,
            0.002629300077111812,
            0.0014902535855141246,
            -0.0020284063262218334,
            0.002187308774216689,
            0.0012311547864178886,
            -0.0010645482014888504,
            0.0022496362340274916,
            -6.541180121397515E-6,
            -0.0020659527652481676,
            0.0015496375474076851,
            2.0729564783707262E-4,
            0.004889530377287271,
            0.00305578587469523,
            2.8342236038325085E-6,
            0.0015219227615530248,
            -3.0077033333269067E-4,
            -0.0016915564105152723,
            0.0017330148857690926,
            9.161066131518545E-5,
            0.002866482053583797,
            0.00261202914430459,
            -4.9181570883991E-4,
            -3.350297967379403E-4,
            -0.0014370540974844317,
            -8.682970077946485E-4,
            0.0014276497378361644,
            -0.0012449714287527654,
            -7.333843724993404E-4,
            0.003520288232769295,
            5.14685520253342E-4,
            0.0034920276329900362,
            -0.0017492454023180757,
            0.0022535213523146727,
            -7.465716680560192E-4,
            -0.002080406197889354,
            5.864345027930672E-4,
            4.2231414157464E-4,
            0.0031244103937476935,
            0.0014099722841111053,
            7.299674318484638E-4,
            -2.645569533140684E-4,
            9.800734944438898E-4,
            -7.529479095798215E-4,
            -0.004883385573533393,
            -0.0028359834306038367,
            -0.005525369144839418,
            0.00206291989725008,
            -0.003086920115346634,
            7.839048014101841E-4,
            -4.894138565767798E-4,
            7.533073452123077E-4,
            8.981970318182302E-4,
            -0.0022871680997957945,
            -0.0018478383336530142,
            0.002878982375448404,
            -0.0021852866201272705,
            0.0028294330467550817,
            0.0015655240449540515,
            -0.0030921036124620656,
            0.0020280152683016797,
            7.028067063335265E-4,
            0.0026564976859133533,
            0.0022013088832682766,
            0.0025361882879296055,
            -8.944629270713293E-4,
            0.001670687955267547,
            -4.00878743704623E-5,
            -0.002263625740433865,
            -0.001400791838490439,
            -7.522402882686091E-4,
            0.0010247433871181182,
            -0.0030106335763092746,
            -0.0019962207031017716,
            -8.477158534477625E-4,
            0.002534600386060363,
            -0.003725415183689431,
            0.0021512982610503517,
            0.0010170450693839748,
            1.3308664827268378E-4,
            -4.5283688964537454E-4,
            -0.0017410179199100061,
            -0.00268812762671008,
            3.467839039826141E-4,
            0.0028102331259662375,
            -3.192688014764994E-4,
            -0.0019377167216089912,
            0.0016253482883840861,
            0.002250043604666617,
            -0.0022250473663302127,
            0.0012390883984820967,
            -0.004919675831839672,
            -1.3832608862082802E-4,
            0.001123020956020612,
            -2.573411014530689E-4,
            -0.0033239609729671066,
            -0.002150175688914298,
            -3.592615407546025E-4,
            -0.0015050563118810046,
            -4.901658991382887E-4,
            -0.002404529936304906,
            -0.0017092461356374405,
            -2.473883872173472E-4,
            -0.0017682037577272053,
            0.0011469716280364532,
            5.649412256318731E-4,
            0.002620535903124122,
            3.646701474117034E-5,
            -0.0015779639201694243,
            0.0023991333069557476,
            0.0029685278979076214,
            0.0019528986943630432,
            0.0014804237061143888,
            0.00199911600750951,
            -7.323449470124531E-4,
            -0.00268980180232767,
            0.0031380697250388296,
            0.0017582400791392415,
            -8.4211415754568E-4,
            0.0016947625562831485,
            0.0010231531140222376,
            9.644154338844885E-4,
            -0.0017139504259562365,
            -0.002587798612797749,
            -0.003538872708029946,
            -0.0011955797309358353,
            8.418447174861504E-4,
            -5.676458497609581E-4,
            0.0016942588445336142,
            -0.0029143558200986747,
            -0.0012857201246611583,
            0.001493987188393688,
            -0.0035009092344040643,
            0.001611882235682039,
            -0.002073820508835948,
            -0.002776928056117521,
            0.0017254898509400645,
            0.0011467839414799515,
            0.0024602869592287454,
            2.823404738112134E-4,
            5.845004997153951E-4,
            -0.001891418718523562,
            0.0031087013454151042,
            -0.0031909350977229424,
            0.0015132075672716573,
            7.312113921116106E-4,
            -9.844474798946221E-4,
            -0.002622028157590309,
            0.001001865614849813,
            -0.0024832300353728885,
            0.002205932219843859,
