{
  "class": "com.simiacryptus.mindseye.network.PipelineNetwork",
  "id": "a0f0a572-b49b-4e98-bfe0-199100001588",
  "isFrozen": false,
  "name": "PipelineNetwork/a0f0a572-b49b-4e98-bfe0-199100001588",
  "inputs": [
    "3facf149-3e30-4f82-a854-56e1a1510acf"
  ],
  "nodes": {
    "a0f0a572-b49b-4e98-bfe0-19910000158a": {
      "class": "com.simiacryptus.mindseye.layers.util.MonitoringWrapper",
      "id": "a0f0a572-b49b-4e98-bfe0-19910000158a",
      "isFrozen": false,
      "name": "bias_0",
      "inner": {
        "class": "com.simiacryptus.mindseye.layers.media.ImgBandBiasLayer",
        "id": "a0f0a572-b49b-4e98-bfe0-199100001589",
        "isFrozen": false,
        "name": "bias_0",
        "bias": [
          -5.040434677551371E-6,
          -1.4799196193258786E-5,
          3.9792865093499926E-6
        ]
      },
      "totalBatches": 6054,
      "totalItems": 403900
    },
    "a0f0a572-b49b-4e98-bfe0-19910000158c": {
      "class": "com.simiacryptus.mindseye.layers.util.MonitoringWrapper",
      "id": "a0f0a572-b49b-4e98-bfe0-19910000158c",
      "isFrozen": false,
      "name": "conv_0",
      "inner": {
        "class": "com.simiacryptus.mindseye.layers.media.ImgConvolutionSynapseLayer",
        "id": "a0f0a572-b49b-4e98-bfe0-19910000158b",
        "isFrozen": false,
        "name": "conv_0",
        "kernel": {
          "dims": [
            5,
            5,
            15
          ],
          "data": [
            -0.004758014669507217,
            -0.004156632592368975,
            -0.004055166872130375,
            -0.002853294324137853,
            -0.0011063079991249726,
            -0.004482237587902755,
            -0.0039009594930530804,
            -0.002407287106332754,
            -0.0018643044695795775,
            -7.856195325977257E-4,
            -0.003473694441084254,
            -0.0032924418776362936,
            -0.002404112517492813,
            -0.0010218561955966895,
            -0.0010436032714315764,
            -0.003585522593171724,
            -0.002799259490100998,
            -0.0023761711442959526,
            -8.889713486213543E-4,
            -3.9838804076718684E-4,
            -0.002717748015615669,
            -0.0014773240640799316,
            -0.0017994730255028479,
            4.6564708143217147E-4,
            0.0010117568231733972,
            -0.004782931000914653,
            0.0026367534424006863,
            0.0031405296753983874,
            0.0019435023728429767,
            0.0021380687156406088,
            0.001477631197678763,
            0.00462949919210036,
            0.0013233736158584973,
            3.2209937538478376E-4,
            4.89885091783784E-4,
            0.0035247538425105464,
            0.002761732090853786,
            -9.156157866473063E-4,
            -0.0022276900152474704,
            0.001858758175447247,
            0.003362626452167222,
            -9.683748314738338E-5,
            -0.0030610834623279056,
            -0.001364984351705484,
            0.004352972762032489,
            0.001623188163134099,
            -0.0013504332942127887,
            -0.0012614400434186436,
            0.002030663410759727,
            0.009560349012604767,
            -0.0017798600792861404,
            -0.0013951729701690745,
            -9.249314925426146E-4,
            -3.5669486026575404E-4,
            3.193647841258995E-4,
            -1.1412430411934724E-4,
            -7.805878139515336E-4,
            -8.832845156746415E-4,
            -2.3883093265477488E-4,
            7.106600430270836E-4,
            8.516964241825054E-4,
            0.0010434208987988992,
            1.0920321803881703E-5,
            7.767010614900433E-4,
            0.0010378933214678953,
            0.0021180540922929054,
            0.0014809959133786897,
            0.0016080751457510521,
            0.001214870586216493,
            0.0018411763043894797,
            0.003522138718507977,
            0.003109225712599777,
            0.0026121932225869034,
            0.0028290365847194977,
            0.0032118929260305583,
            0.003115984503296276,
            -0.007575336088360089,
            -0.007100383802797558,
            -0.005916195860037242,
            -0.004350601192639154,
            -0.004316048884436381,
            -0.0074354889230007675,
            -0.0027856958779520907,
            8.263363066015775E-4,
            -0.0022481733700906335,
            -0.00480045493574936,
            -0.0020616897748206,
            0.006620899076916736,
            0.007305491289738555,
            -9.321933753844726E-4,
            -0.003906293924917045,
            0.0028203689067497167,
            0.01081020567754935,
            0.006873263387157631,
            -0.005638746834949714,
            -9.850679928632743E-4,
            0.004879787123811119,
            0.00964825547611521,
            0.00129440002458609,
            -0.014832471543722157,
            0.016862945652746705,
            0.013110840571109235,
            -0.0017830830636934097,
            -0.01058838332374795,
            -0.0014361973586748315,
            0.015978945301144305,
            0.004651154752769694,
            -0.008907985863119583,
            -0.012800898223973494,
            0.0014499890827804653,
            0.006901145228460805,
            -0.00565783353841105,
            -0.011662321629083231,
            -0.00506239815735768,
            0.009214982592369313,
            -0.001403813657876137,
            -0.0127471776758541,
            -0.008033649424508193,
            0.0020091523631387085,
            0.011665519588139025,
            -0.005069366766899758,
            -0.009496766100369109,
            -2.964170987348834E-4,
            0.006987965265551995,
            0.010023267542021229,
            -0.0038475066730058165,
            -0.0038799082618268524,
            -0.0037483531792655888,
            -0.002885091269720523,
            -0.0013573547004829085,
            -0.0030435056188307962,
            -0.003568195241242172,
            -0.002765090502472793,
            -0.002269305974582962,
            -0.0012405346900118787,
            -0.003504773647050605,
            -0.0033698558041259257,
            -0.002308734997362068,
            -0.00168313296873197,
            -2.9860063156228407E-4,
            -0.0020844593145866682,
            -0.0025557305946845043,
            -0.001214898235817723,
            -5.310563328127299E-4,
            7.105185998135049E-4,
            -0.0021004730533088056,
            -0.00165566319938033,
            -2.455736073726601E-4,
            6.467360085307182E-4,
            0.0014225637806471222,
            -0.003146669034880472,
            0.003750408582954388,
            0.0025090486259949614,
            8.582896206971172E-4,
            0.0012831178800856735,
            0.0017476735543682966,
            0.004999454577072823,
            0.001431320685969289,
            -0.0011151927964798169,
            0.0011069352656888059,
            0.004924393178346951,
            0.0024580763471371728,
            -0.001308304689927893,
            -0.0028955181221268717,
            0.0020889208519116126,
            0.0042633373376518785,
            -1.1162265406095513E-4,
            -0.002457898237051721,
            -4.044352755730391E-4,
            0.004743348623868038,
            0.0021280450550712825,
            -0.001239602806667978,
            -0.0014625018838099156,
            0.003317409800241598,
            0.010330816514367978,
            -0.0013504512146583708,
            -8.906325482647957E-4,
            -0.0014815957744821896,
            -7.137123868985372E-4,
            7.957405221105314E-4,
            -6.411293681684138E-4,
            -0.0010799773975429204,
            -9.044633692791997E-4,
            4.4139399666600905E-4,
            5.25794717451502E-4,
            5.230637954661051E-4,
            -1.2007639086524296E-4,
            2.4078466722033404E-4,
            8.090402508037677E-4,
            0.0018523959142813867,
            0.001623432296364949,
            0.0011149295425980144,
            0.0013751878678784134,
            0.0018458481815890387,
            0.0028441272712184623,
            0.002483520662573118,
            0.0028687477798279215,
            0.0029607448223347723,
            0.0028124612822335816,
            0.0031861187985777455,
            0.0025727520391182453,
            -0.00651184729885999,
            -0.005850800366852399,
            -0.0037540273789543276,
            -0.0030693218480813272,
            -0.003484819264642608,
            -0.006813358177294138,
            -3.728526122779977E-4,
            0.0025321046576942414,
            -8.755134116185647E-4,
            -0.004655222471508573,
            -5.657367368314092E-4,
            0.008234852460893043,
            0.008607683028426667,
            5.285061834250892E-4,
            -0.0014455346877265025,
            0.004145286241300222,
            0.011573153253501079,
            0.007879378588249407,
            -0.006001183134748591,
            -1.6502814389375082E-4,
            0.00682156087556645,
            0.010401075439016548,
            5.558907268214967E-4,
            -0.014902309472464063,
            0.01825257745628203,
            0.012649551499084796,
            -0.0038232007905853052,
            -0.011799165185928934,
            -5.557197928723257E-4,
            0.014975171966627522,
            0.003984940589124206,
            -0.010728480710526699,
            -0.014048377527428907,
            0.0013000486206872267,
            0.006119210396879125,
            -0.006790025638133124,
            -0.012574633994545682,
            -0.004953950677978118,
            0.009465720420242352,
            -0.0024541636436685096,
            -0.011256146428700665,
            -0.008103470098004741,
            0.0037664651488814086,
            0.01331550561669386,
            -0.0035656123386040117,
            -0.0070136895581924845,
            0.0015630554304566654,
            0.009790415738014802,
            0.012089620397773716,
            -0.004069909494751792,
            -0.0035631692543568777,
            -0.0038540857262123972,
            -0.0023165169436640256,
            -0.0021223468623098453,
            -0.0028968412402208526,
            -0.003002362501389575,
            -0.0027555294984318484,
            -0.0017568738336045321,
            -3.1926027540695666E-4,
            -0.002478566740253784,
            -0.0024381559059415505,
            -0.002438564005047859,
            -0.00200018990849786,
            -7.350549754584667E-4,
            -0.0017081603200319445,
            -0.0019197741419194729,
            -0.0023396542797935855,
            -6.106693268152221E-4,
            -2.832330329964963E-4,
            -0.0012569756419745887,
            -5.688265878005702E-4,
            -6.008254552358174E-4,
            5.4970083468061E-4,
            0.0011274761241063425,
            -0.003336774802011071,
            0.003561468269505894,
            0.0028491325632457247,
            0.0012898772092901029,
            0.001240371124400631,
            0.0021556780965144673,
            0.004694121614373622,
            0.0015891318091189384,
            -0.0012091528414494212,
            -2.855450192110676E-4,
            0.0045586142991053775,
            0.002824053436194988,
            -0.0024399904701007686,
            -0.002287854548565086,
            6.636645277539869E-4,
            0.002748969537745477,
            6.481230179663415E-4,
            -0.0031278927505197173,
            -0.0012350560000128445,
            0.004849140379720493,
            0.0014720645123350027,
            -0.0013389008192576013,
            -0.0012577241531157646,
            0.003377313626774791,
            0.010290392270168041,
            -0.0013124336687223095,
            -4.883942176254476E-4,
            -3.569891377028784E-4,
            0.001344431242517219,
            0.0029526797983415822,
            -4.4288754824055467E-4,
            3.0839934239792663E-4,
            -2.0481013907134164E-4,
            0.001139765902652083,
            0.0023389725075788426,
            1.0793339547038627E-4,
            3.2344141009428687E-4,
            3.1514254967498063E-4,
            0.0012960722172976485,
            0.002651757911725886,
            0.0017779933832388082,
            0.002228888385671313,
            0.001989562981720188,
            0.0023947270758951167,
            0.0037100237652296416,
            0.002863406298771845,
            0.003382395931073803,
            0.00315338836906662,
            0.0035315959940399318,
            0.0037238589350472606,
            0.002349230580546315,
            -0.007530337341799275,
            -0.007080567818876368,
            -0.004193519330032132,
            -0.004089395273710931,
            -0.00393559752470518,
            -0.006701551534944022,
            -8.840943004560034E-4,
            0.0021148122849151533,
            -5.467454636277279E-4,
            -0.0037050486470097893,
            -0.0014107047860121796,
            0.008269649037332405,
            0.008629225948327584,
            2.504510465774163E-4,
            -0.002195581595345339,
            0.005095465577851322,
            0.011661263101553257,
            0.007306524770759624,
            -0.0058393341010566846,
            0.0011057970805428557,
            0.007485744424432539,
            0.010273286382525136,
            0.0011972805933293139,
            -0.01416982447352867,
            0.01774551856170138,
            0.012444877345799297,
            -0.0020664410412629328,
            -0.011351336920749404,
            -0.0014047945565972963,
            0.014537077364052438,
            0.004280135750461768,
            -0.009140593939745765,
            -0.011800179410741895,
            0.00284541024424105,
            0.005466247033009771,
            -0.006518263978531669,
            -0.010833487334639073,
            -0.004156925531028541,
            0.010402066297536261,
            -0.0024602230213782296,
            -0.011641721295725427,
            -0.005277876053244898,
            0.0049157582704284185,
            0.014106242069222077,
            -0.004743468183526204,
            -0.007270833331506543,
            0.0026308088093289998,
            0.009943199317817373,
            0.011923417480502619
          ]
        },
        "skip": {
          "dims": [
            1,
            1
          ]
        },
        "simple": false
      },
      "totalBatches": 6054,
      "totalItems": 403900
    },
    "a0f0a572-b49b-4e98-bfe0-19910000158e": {
      "class": "com.simiacryptus.mindseye.layers.util.MonitoringWrapper",
      "id": "a0f0a572-b49b-4e98-bfe0-19910000158e",
      "isFrozen": false,
      "name": "avg0",
      "inner": {
        "class": "com.simiacryptus.mindseye.layers.media.AvgSubsampleLayer",
        "id": "a0f0a572-b49b-4e98-bfe0-19910000158d",
        "isFrozen": false,
        "name": "avg0",
        "inner": [
          2,
          2,
          1
        ]
      },
      "totalBatches": 6054,
      "totalItems": 403900
    },
    "a0f0a572-b49b-4e98-bfe0-199100001591": {
      "class": "com.simiacryptus.mindseye.layers.util.MonitoringWrapper",
      "id": "a0f0a572-b49b-4e98-bfe0-199100001591",
      "isFrozen": false,
      "name": "bias_1",
      "inner": {
        "class": "com.simiacryptus.mindseye.layers.media.ImgBandBiasLayer",
        "id": "a0f0a572-b49b-4e98-bfe0-199100001590",
        "isFrozen": false,
        "name": "bias_1",
        "bias": [
          -2.1613204469626262E-4,
          -2.300130378113488E-4,
          6.6412848913117E-5,
          1.3430650852240552E-4,
          -2.4152943741214436E-4
        ]
      },
      "totalBatches": 6054,
      "totalItems": 403900
    },
    "a0f0a572-b49b-4e98-bfe0-199100001592": {
      "class": "com.simiacryptus.mindseye.layers.util.MonitoringWrapper",
      "id": "a0f0a572-b49b-4e98-bfe0-199100001592",
      "isFrozen": true,
      "name": "activation_1",
      "inner": {
        "class": "com.simiacryptus.mindseye.layers.activation.HyperbolicActivationLayer",
        "id": "a0f0a572-b49b-4e98-bfe0-19910000158f",
        "isFrozen": true,
        "name": "activation_1",
        "weights": {
          "dims": [
            2
          ],
          "data": [
            0.2,
            0.2
          ]
        },
        "negativeMode": 1
      },
      "totalBatches": 6054,
      "totalItems": 403900
    },
    "a0f0a572-b49b-4e98-bfe0-199100001594": {
      "class": "com.simiacryptus.mindseye.layers.util.MonitoringWrapper",
      "id": "a0f0a572-b49b-4e98-bfe0-199100001594",
      "isFrozen": false,
      "name": "conv_1",
      "inner": {
        "class": "com.simiacryptus.mindseye.layers.media.ImgConvolutionSynapseLayer",
        "id": "a0f0a572-b49b-4e98-bfe0-199100001593",
        "isFrozen": false,
        "name": "conv_1",
        "kernel": {
          "dims": [
            5,
            5,
            50
          ],
          "data": [
            -1.2213943835377792,
            -2.7118481756228574,
            -0.4360245203011757,
            -0.29162531217705,
            -1.5882102469325015,
            0.41760848006253193,
            -0.21724202581068466,
            -2.3947559157526146,
            2.4322506491629965,
            -2.9018268876094035,
            -0.06554916349859899,
            -2.3381978326669883,
            -0.7288859428349067,
            1.693015170575465,
            2.954235532631209,
            -1.1021902004135462,
            3.043926188569992,
            -2.7485228517234703,
            3.0358293642303917,
            -2.9193524619112328,
            -1.8499252139212539,
            1.0243122257993373,
            1.836431797961809,
            -2.4426997586907357,
            -2.2190651868597824,
            -2.1926690134631572,
            1.7757331271558878,
            2.7784492512411774,
            0.4450720525848169,
            0.28722915063286053,
            2.5282042092726114,
            -1.7007191845087692,
            -0.48001773337366693,
            1.4695500305397502,
            1.636641933814285,
            0.8672236639630599,
            0.752000552334722,
            0.9580920605232346,
            -1.0385261355310769,
            2.1152773591921155,
            2.411593287716282,
            0.715116161424433,
            -1.377680063463608,
            1.9904830070777149,
            0.03704382490020453,
            1.0165861252443102,
            -0.2929601818353626,
            2.026207822966225,
            2.9638695919121743,
            -1.244182214290233,
            -0.26000604021941415,
            -2.4894436312881445,
            -2.6019343809605613,
            -1.0050940755486626,
            -1.602051202342311,
            -0.6316439964676379,
            1.1913524994453095,
            -1.1100377525431266,
            2.4337529796540527,
            -1.3780657938638947,
            0.08057853219287629,
            -1.5956616091608231,
            3.033914071194853,
            3.0998369236858907,
            -1.123249990408767,
            -0.6298866006441265,
            0.400360322336353,
            -2.495481570546076,
            0.8555730397207602,
            -2.5332526588455635,
            -2.1572930409056057,
            -2.2342528709182394,
            2.831799326538564,
            2.705041436250031,
            -1.5373309500344137,
            -1.5126057775568147,
            0.5122291804339796,
            -1.212478591444616,
            -0.883447174860044,
            1.3014372469071191,
            1.3062763661931112,
            -1.6153049146927652,
            2.134267590821128,
            -2.2731088213414425,
            2.0400801354295646,
            -2.2028289673292094,
            1.5646887936500942,
            -0.9666887039482134,
            1.8398411154205603,
            -1.1365052229772623,
            0.14656551855240418,
            -2.539366087291091,
            -2.9480945152577545,
            -2.5189133619165207,
            -2.37480458231221,
            1.8570544638164712,
            0.533983156485361,
            -0.9577267941668851,
            0.8306997627189033,
            1.9987107554369645,
            0.37585460477991506,
            -2.382123142880501,
            2.4738691359509604,
            -0.37376207927291016,
            -1.375420477506405,
            -1.9221489388673387,
            1.619956111956034,
            0.10121829920548897,
            1.406789196542126,
            -0.6841076346011287,
            0.9495268614447424,
            -2.7125351917328913,
            -2.332855089324929,
            -0.5007603416130068,
            1.206408444405171,
            -0.16679634179621297,
            1.6982561878604532,
            -0.4706042156706178,
            -0.8936784111167211,
            1.5209732289606301,
            -0.7511257663503526,
            -2.4394727364169424,
            1.6061668518514198,
            -2.268548807461345,
            1.061974835997899,
            -3.07653988783262,
            1.9478517868209781,
            -1.3720140199252089,
            -3.0991564999095913,
            -0.36384018159412224,
            2.733936380148466,
            -0.015181091356574937,
            2.9510832235349453,
            1.129527562989836,
            0.6551909765878762,
            0.5238844750406829,
            1.3102621166348585,
            -2.7271506333968314,
            2.3043433021315995,
            0.2275589977869729,
            1.1737948159504774,
            -1.5793537364307535,
            0.9551995596285198,
            -1.133434186494809,
            0.8831492955640842,
            0.0993534489700507,
            -1.1332340953269127,
            -0.9478957757420072,
            0.7285674368229715,
            -1.5987232788726153,
            -0.345384011046715,
            1.0826271421601485,
            1.6731410741449033,
            2.8238879031853323,
            -2.1985576193202014,
            0.9425125522229236,
            -2.1900997729612413,
            0.02237591601431866,
            0.4206427231832295,
            -1.1702920195184177,
            1.0683919838543865,
            -2.5188052849308082,
            -1.2793613328258326,
            -0.9178215925151196,
            0.2638784861728486,
            1.7980629111270852,
            -1.7124013122649056,
            2.9002611964405647,
            0.22005600961709984,
            -2.7209236223091406,
            2.928308494839162,
            1.8495446345133517,
            -0.6123076676545545,
            -2.8704326276940417,
            1.2701610408804556,
            -1.7844660782228587,
            3.1041138562285324,
            -0.3185302026864893,
            1.2408431862773883,
            -2.8824159886567404,
            2.2041583946050816,
            -2.54773078258204,
            3.0698710429994223,
            -0.12229782301768381,
            2.1645420663504615,
            -2.99025304429114,
            2.592291113254337,
            0.4431608595864446,
            -0.12942856451386017,
            1.0913620957955468,
            -0.9497083667173617,
            2.0693377919877114,
            0.9973358896893664,
            -0.39488403305012093,
            -1.0062506689757795,
            -2.949445948684808,
            -2.9459566153671615,
            -1.8496374589163618,
            -1.1012073058722558,
            -1.6488445090745372,
            1.6028760085396518,
            -2.801929687310035,
            3.0214905755317076,
            -2.6086205806644136,
            2.269109902413157,
            2.7342613816395485,
            0.7704541916253437,
            1.5420247258323665,
            -2.6354073380348138,
            0.4963336272685646,
            -0.22599117822962775,
            0.5656336997665542,
            0.9208633715071679,
            1.072993342633971,
            -1.1771607816358043,
            -2.145806667321505,
            0.4691774513796468,
            3.1504600333563797,
            0.3257876357184315,
            -1.2278249709533349,
            1.9671632552517189,
            -3.139357214928397,
            -2.121467379975738,
            0.7364381154300974,
            -0.6758251631140014,
            0.9638027259279288,
            -0.01752449413627526,
            -0.04679443199819621,
            1.6839283765866757,
            -0.6389126185645005,
            2.501009231319604,
            1.8465399446922177,
            1.0895819954742374,
            0.47120685224864306,
            1.6409832666905366,
            0.4473831475407189,
            0.7719769084950829,
            0.4241761986673889,
            -2.4762109816888547,
            -3.149962141458814,
            1.4564368341404994,
            1.359656884719648,
            -0.8738450440114252,
            -0.2627208809626197,
            0.8378131288815658,
            1.9423718806239867,
            2.929244058376194,
            0.17321038870054148,
            -3.0238282570280206,
            0.8146268445468091,
            -0.8175132183064822,
            -2.5225623867366225,
            0.3119835748619739,
            0.10236611447726146,
            0.6265154513028333,
            -2.168842373738909,
            -2.8641228583680953,
            1.8809955116056922,
            -2.1674284719868773,
            1.7955855112884318,
            2.4250893623890253,
            3.014475538790637,
            2.4127513474910214,
            1.7046024338241215,
            0.7609086995740622,
            1.109485115863419,
            1.8783868407379236,
            -0.4002777492628327,
            -2.9553859829086457,
            1.3698568969453653,
            2.2128071907463798,
            -2.332353568447103,
            -3.1156280980199935,
            -1.3100648169668452,
            -2.3300698686522,
            1.261587061528009,
            -1.7899131723529687,
            -2.54413967730517,
            0.30513207400062303,
            -0.378043700430796,
            -1.1941985944709883,
            1.7805309097360256,
            -2.6115681065338006,
            0.9084157869909595,
            -0.856886829376899,
            -1.813851894763601,
            0.2273114396332939,
            0.6267347425777539,
            -1.9697991774777366,
            1.3290503126180406,
            1.196081085767927,
            0.1838354002868291,
            2.4389084071832827,
            0.7863489438051627,
            1.375611617733239,
            0.7441558832113809,
            -0.2877499566878754,
            -0.9846889608923671,
            -1.3532834098763917,
            -1.4125448680547412,
            0.9995511445058801,
            -1.7495517349482375,
            0.2979191756221352,
            2.163574517706155,
            -2.1605392402319854,
            -1.9578265835004693,
            -0.5405947008571144,
            -2.192932255891068,
            1.9181528787045412,
            -1.6071717412759756,
            3.1157026825929997,
            2.0794092796971504,
            -1.6041002138865053,
            2.8912771211708437,
            -1.2228469137679432,
            2.592904917482358,
            0.6481663330012791,
            -1.0551491886737323,
            0.16315411147633554,
            -2.993856245224713,
            -2.890050195069899,
            -0.293630975786656,
            -2.5631772508435633,
            1.870616184223843,
            2.1154118510507818,
            2.186213089671031,
            -0.06966319757020707,
            0.717787994042431,
            1.0256025725868085,
            2.3472222125002404,
            1.6739043276117176,
            1.383769269629591,
            0.09353521734140938,
            -1.7084837677024418,
            0.39124589541414395,
            -2.356352433595409,
            1.7343039095519182,
            -0.40896306962728,
            -0.6287936992320577,
            -1.2244693031199794,
            -0.657617494592857,
            -0.7448057841268422,
            0.11745263497364827,
            -0.5738689492749415,
            3.1354609835877607,
            1.2682955322013738,
            -0.9142481119018686,
            2.3807296716982442,
            -0.2280281553517435,
            -2.707947914127525,
            0.29561877019923405,
            -2.5165925327967877,
            -0.37532661162001957,
            0.15661188768307024,
            -2.6701206371846555,
            2.6169742252651442,
            -2.5612655557204267,
            -1.7505499717633413,
            2.7805167093757266,
            1.9622611364304499,
            -2.053163810338819,
            -0.5397883846029622,
            -1.7236869798632661,
            -1.5157966683521529,
            -1.7562088893213859,
            -3.066735845708137,
            -2.353071777839754,
            2.38799124940261,
            -2.0829931442848886,
            1.729462684719637,
            0.9592193548599666,
            2.8780273475088514,
            -1.2372973014884803,
            -2.6591682167813038,
            -1.3587356627690195,
            1.0705079993956013,
            1.1093889114760294,
            -1.5229476662703108,
            2.9122534436565104,
            -1.6195287291406106,
            0.935973142474105,
            0.8436515655932595,
            2.3385842379501196,
            0.013606485442372628,
            -2.180256040705486,
            -0.3703686742722073,
            0.6879499697046277,
            1.190202953870155,
            2.1648826008357784,
            1.24489315558718,
            -1.6182559129210712,
            2.8045199837092487,
            2.855561550258898,
            -2.8396338927521096,
            -2.246615244242619,
            -0.2770750788584995,
            -0.49752090250655706,
            -1.2808947146203833,
            0.8492542466257885,
            -0.5215926760097103,
            -0.11361021645046243,
            -1.23079925465406,
            1.0142601776891667,
            -1.7404548827704616,
            -2.270980748677139,
            -0.3286762873445772,
            -2.445229787241339,
            -1.7530910816946423,
            2.877874267021925,
            2.477617664955086,
            1.88068844334044,
            -3.028860835451977,
            0.04843471481900504,
            1.960190571075033,
            -1.5665163261627242,
            1.7985662436335401,
            3.059674278995834,
            -1.2369277429368202,
            2.272647657944004,
            3.0033773061505054,
            -1.1157103236486228,
            -0.8168972454611031,
            -1.2450006782285907,
            0.35806598535152023,
            -0.36968829425224126,
            0.44226559528146975,
            -2.1694937098728166,
            1.6004070461807904,
            -1.0378189615134636,
            1.2326071238435157,
            -1.3192765581966321,
            -1.202282545223224,
            -1.4034876959817444,
            -0.7083757530507773,
            3.9249193185517063E-4,
            -0.16751261483286578,
            -2.450296828251684,
            -1.8428300283575896,
            2.5728167351533195,
            1.5154342138704864,
            2.5261088843902986,
            0.023495345803220682,
            2.594211432269634,
            0.9597342234869923,
            2.5450386593931493,
            0.7606144800124233,
            0.9456871939380523,
            -0.3829989220900776,
            1.7678652202881253,
            0.7554226532107431,
            -2.858819763910841,
            1.5647712667014475,
            1.3117438028976887,
            2.6532262087949037,
            -0.7229874376495752,
            0.6506152767964177,
            -1.1454068657727794,
            -0.14200910868138575,
            -2.9886881637673173,
            -2.0408213375498128,
            2.75480057200991,
            -2.8201948880932908,
            0.4712466737909602,
            2.536397270059466,
            -2.442994484443254,
            2.868914587021925,
            -2.799820808971809,
            -0.2898155715497752,
            -1.4985714697678112,
            -1.6591023628202786,
            1.9455358893367447,
            -0.015477792503651175,
            -1.4071513926123518,
            -0.6256025602506268,
            0.2312812972935026,
            -3.0146844620352504,
            2.893854498361123,
            -2.570998760540407,
            -2.286607959553927,
            2.742025684235105,
            1.3346130081454841,
            -1.2068805980787698,
            0.16693461516309627,
            -0.009545607396636322,
            -2.314888963931091,
            2.9426674633774375,
            -0.01096289683446125,
            0.2984738945686558,
            0.5930509519801203,
            2.7939735448999556,
            -1.7073855163517782,
            0.624035823538064,
            2.2938280522190606,
            -0.21393571096620662,
            -0.010048277755471692,
            0.9815136191775284,
            -1.9966061866278224,
            -1.9489985243240975,
            -2.2396130849112756,
            -2.8589904821423993,
            2.4873992169509656,
            -0.3762004758000682,
            0.7509028886454634,
            0.3198965283411623,
            2.2467224691176715,
            2.2680470246254183,
            0.8345274676037314,
            2.8929986968145838,
            0.2836225041381994,
            -2.083374962256919,
            -2.2436383048550295,
            -0.24512775500361542,
            1.068194786472252,
            1.3727558875315768,
            1.500623283834933,
            -2.0649456572894267,
            -0.09464884134842397,
            1.5289159064221352,
            0.8518844115672384,
            0.019132296222934865,
            -3.1011908630780254,
            -2.5982102499423756,
            1.5196737611655364,
            2.583409047780049,
            -0.305969845991293,
            0.0993658121325387,
            1.4925156565157347,
            -1.6250204184707162,
            -1.161910510771007,
            2.3223688352653813,
            0.1171846552292961,
            -2.571317841569462,
            -0.9817614225394096,
            0.03320928347403298,
            -1.1604378531890758,
            2.4637305733649275,
            1.4220138527682473,
            -1.248783186753748,
            -1.562571403366414,
            -1.8868552078680205,
            0.28082058879132726,
            0.08961541869547834,
            3.0425295940760524,
            1.5101688085495466,
            -1.3003634045690327,
            -2.784132645376808,
            2.983277881252436,
            1.6479917882632973,
            -0.8643595913505328,
            0.3596627345004589,
            1.0789753961082997,
            2.902755496042721,
            -0.6350894923808938,
            1.5823373289501645,
            -0.8456895610627755,
            -1.0034913484622006,
            -2.269236585736059,
            -2.9294306572486386,
            1.865130693180072,
            2.014332175024398,
            -0.8767310407026558,
            2.454541847393047,
            0.5346273197200412,
            -2.8504723317606384,
            -0.9013833903221458,
            -1.1243295948094498,
            -1.2787573663615048,
            -1.5865889561725581,
            -1.5291311087677355,
            1.3752044971861181,
            -1.4213230655786522,
            2.272535544555771,
            1.1062449155509984,
            0.09126680976336854,
            -1.0308710373749772,
            1.318970510032502,
            -0.5749278517421519,
            2.6473094606292857,
            -2.7402361117692733,
            0.53772561730302,
            2.4912780755033905,
            -0.6593059279205817,
            -0.7537565015630133,
            -0.6112488885925955,
            -2.8638275127324198,
            2.1702034080539274,
            0.1848936991667375,
            -2.48861935979841,
            0.3811998030784427,
            -1.2707351242939005,
            -1.7903053016923844,
            -1.9138610365778355,
            2.393464365970675,
            1.896340319409925,
            -0.7569650949197726,
            -1.2506754440976566,
            -0.6412169511674126,
            2.4187911369269535,
            0.0448974954121216,
            -1.8610836966620852,
            2.8498910415566088,
            1.6553502675558833,
            0.5368911350112757,
            0.6215911237357362,
            1.720764027157483,
            -0.257046932689651,
            -2.0093894559789223,
            2.382455721173702,
            -0.9806890105621876,
            -2.0775649782156664,
            0.56292272471289,
            -1.6550716586192127,
            -0.6406778564188683,
            -1.884386055561396,
            0.9210857412562719,
            1.5146273241359536,
            -2.4864996278584615,
            2.2695135647760227,
            2.3980620291135075,
            2.8550828433009374,
            -3.1453406626633904,
            1.9862691382705784,
            2.065524597225869,
            -1.016101969767371,
            -0.4841650619825656,
            0.3960140734236152,
            3.0191569412567216,
            0.09532836650818832,
            -0.9148546529333738,
            1.759597927143899,
            0.5957858761520414,
            -2.7207921165233877,
            -0.6569229596631788,
            0.3941478158806442,
            1.782058595282415,
            1.7665005398411793,
            -2.032475686189406,
            1.9586019118645508,
            0.41316026619091367,
            0.5899080782669692,
            -0.8386221761133258,
            -0.36987412881734877,
            1.3942395997052353,
            -1.4031104514131978,
            1.8696667747008688,
            0.055788969434525236,
            1.014705883332845,
            -0.04638199468207107,
            1.7576944357268922,
            0.8286003394489706,
            -2.6114869254572732,
            -0.987629693521527,
            -0.6910146874357832,
            0.9568839898756092,
            3.153709250583659,
            -0.3498803629602954,
            -0.47711062020451395,
            -2.680654688073041,
            2.796909894589658,
            0.7072957090946106,
            1.3956036049883584,
            -1.054486819245736,
            0.6300561010592213,
            0.5005354630869941,
            2.295485559412451,
            -2.0429829959646026,
            -0.5064622078981209,
            1.8860777612247783,
            2.6898373983739976,
            3.1216027086624645,
            0.8655971694482142,
            -1.6741314993063123,
            0.7768092981249155,
            -3.102470543966298,
            2.5236803080253565,
            -1.0283799494217922,
            2.5294395354422625,
            -0.7419920708151596,
            1.3294338385132112,
            -2.592276447128335,
            -2.5572906891999287,
            -1.3599422047860366,
            0.9764222627193931,
            2.032343894311632,
            2.2289697752826947,
            -1.1345327195172903,
            -0.2958018754054846,
            0.5089008307611074,
            0.4221664040135895,
            1.4668158719899187,
            0.16317796181346167,
            2.362864377957098,
            0.30285690825059347,
            -1.1125114868618557,
            2.691131679057106,
            -1.2974043894439258,
            0.5572512585283749,
            2.1134586300775426,
            2.1831852501468383,
            -0.9489638615502488,
            -3.0859054858528308,
            -2.8378726217901167,
            -1.4522288951698246,
            1.9668806365644556,
            1.4541220953395098,
            -1.9199395570133826,
            -1.043560309833087,
            -0.4851560563256342,
            0.009584178827237408,
            2.815361158105598,
            0.27186274880933925,
            1.967284133728977,
            -1.8195380127195022,
            2.3979615888245083,
            1.2050589662890077,
            -2.7559455289484722,
            -0.22088532068759043,
            -2.29404902875239,
            2.977049475009144,
            -2.5859941914864826,
            1.48125429961301,
            -0.14452521366019502,
            0.4356809762130592,
            1.328603009886898,
            -0.877830420365555,
            3.076024500393996,
            -1.944239272642342,
            -0.5787424963836869,
            3.0350081693355397,
            -2.938100407984102,
            1.8552626843597833,
            1.047996725049848,
            -1.0278386868314775,
            -2.4315250591486244,
            -1.0516841963602364,
            2.4654829233758533,
            -1.1411109003075326,
            -0.2815532305992116,
            0.7509226505914997,
            1.0153111490711622,
            2.62786500544484,
            1.2671592069582998,
            -0.6915935880593704,
            -2.8840397675106115,
            0.06842349585822168,
            2.9741246757089086,
            -1.0026324993072948,
            -1.1258038657757203,
            -0.5150010798034458,
            -0.4040190264057035,
            0.519414133832934,
            3.0249473629625885,
            -0.5808633271694851,
            1.6058531274411085,
            -2.1680412100895072,
            0.6085505703214261,
            -0.07790573718508406,
            1.5891498925667795,
            -1.0857164253967717,
            1.7800762157533274,
            -2.862124871664438,
            0.17474716190116596,
            -0.3429243029756713,
            0.8157476601211979,
            1.2517086163158826,
            -2.1161267521723164,
            0.023461598833596373,
            -1.8086437692239177,
            2.742796065332494,
            -1.2289276401815037,
            -0.7057089420417326,
            -0.5219120326243035,
            1.4845568970666851,
            2.8432536452539208,
            3.1245009937586614,
            0.004972789727186752,
            -1.41834834140492,
            -2.6782048600325026,
            0.48481356382751756,
            0.6104781625727256,
            -2.6251873513927513,
            -1.6348295360327874,
            -2.523066543553258,
            2.075239229933887,
            -2.8508887325264625,
            1.4154220833887632,
            2.739315809294281,
            -0.2965486717029954,
            0.3568082875058454,
            1.686141770861143,
            -1.8595424243657572,
            0.632672710521737,
            0.8379854248166465,
            1.5281781688532083,
            1.0606149594690288,
            1.4825679863740737,
            2.000332252559309,
            -1.278096512814377,
            0.28491068012920967,
            -0.15349376166742948,
            -2.539761145819134,
            0.13152658971973485,
            -2.485770170141917,
            -0.3028709247586637,
            1.4328155714476674,
            2.8190249499525724,
            0.765172564648598,
            -2.167108340691522,
            2.284241554285554,
            -2.9100293206410557,
            -2.2919571784982176,
            -0.3689498128457294,
            2.767218379007045,
            0.017867216549610935,
            0.5511148553263562,
            0.8566671238390418,
            2.4473570170203054,
            2.3558716360375214,
            2.3448667343321636,
            -0.8445313907889873,
            0.4689698885780529,
            0.741473261622998,
            -1.872133417053429,
            0.34893819721575475,
            0.7117521661982793,
            1.506769908497561,
            2.3970579300492623,
            0.7414967208828891,
            -1.736443256659493,
            -0.31679875929265117,
            0.6468426583404797,
            -3.0899822217361477,
            -3.127850674601529,
            -2.0741147744405404,
            -0.5483913118239763,
            2.966802622937847,
            0.8431729840404107,
            -0.681860039633339,
            0.5835248256758994,
            1.8433149913505122,
            -2.4281926720018294,
            -2.520470881715643,
            3.025727263636968,
            -1.0700285176921114,
            -0.853002244871207,
            0.17049761355647855,
            -0.21803038064389083,
            -0.39761452425869276,
            0.7566941202286529,
            2.7661658444671686,
            2.5807894290370537,
            -0.3823195134729889,
            -1.0678072792254136,
            -2.7010857101806733,
            0.7373289176689949,
            -2.9818616247847594,
            -2.764397238357047,
            -1.58294011336765,
            1.790223784132165,
            1.4767664078850342,
            2.3988767294931934,
            -1.2190874387611783,
            2.250427424270649,
            -0.1403841218882709,
            -0.8915951182423912,
            -2.6792828168387803,
            1.9343129879875738,
            -2.5823236527517532,
            1.9171883758471897,
            0.5374559561178008,
            -0.4370226488881874,
            0.5999361737984709,
            -0.446369465326026,
            1.8340178524843571,
            -1.0802352453554138,
            0.1392243350348617,
            -0.9778009001504946,
            -1.727708856950216,
            2.786607669482595,
            0.36840809945765307,
            2.3672294965534344,
            0.640780396335998,
            -2.5194897184396954,
            -1.422174549447149,
            -0.8082602166669534,
            -3.0741413404944646,
            2.462710883374722,
            1.987129725081824,
            -3.042825998767743,
            -1.8802250503675515,
            -2.277745061814212,
            2.8558068063689177,
            -1.9542695811376594,
            2.647249177334059,
            2.6426572482998796,
            -2.5591084778565176,
            1.710391662113748,
            -2.6148368004466573,
            0.058410043745216834,
            -0.8078313725848727,
            -1.2620752578291445,
            -0.9797612342105264,
            1.1355701952278163,
            -1.343287346200834,
            -0.4162855520229683,
            -0.8602067050924748,
            0.49883740238132035,
            -1.5900061948720379,
            -0.3357427721681189,
            2.008977391822993,
            0.025108336843379517,
            -2.028717638576046,
            -0.3951090363804317,
            1.0760507819035858,
            -1.0454688009820374,
            2.9591721607999526,
            0.11268432017684014,
            -0.34980411848017373,
            2.0016471718509705,
            -3.124018990509065,
            1.1725960351301945,
            -1.692730100189897,
            2.313611681632743,
            2.4619107544567163,
            3.0673946426639467,
            -2.2546618229571416,
            -2.471192011976159,
            2.2727738904894497,
            0.9318058949803175,
            -1.9866916447433771,
            -2.758716846933046,
            -1.4193021998331856,
            -2.931880379997241,
            1.3648534968963568,
            -0.7482754427666227,
            -1.4922193941077377,
            -0.5556064660502612,
            1.2294828279991248,
            1.1991975337738252,
            -0.1302432847622737,
            2.671064432976939,
            -1.0188836375815182,
            -1.2591914894912208,
            -0.2413608507838063,
            -0.345952382713055,
            0.4786261393826273,
            -0.4275989657755301,
            -2.8048638783515525,
            -2.9882855374013433,
            3.066861207476732,
            2.9071070456397257,
            2.4427035256669636,
            0.4854726154287935,
            2.6677036298793864,
            -0.11362960948171501,
            -0.11419498405216537,
            -1.3731322137577173,
            0.45770044185832176,
            0.9523415275141193,
            0.5093019242892145,
            -1.9394158470800045,
            -2.731077538078875,
            2.408726578454983,
            -1.864230578669555,
            -0.4841940330467028,
            -0.10971983633485245,
            2.093672779241622,
            2.9362936613929467,
            2.066281960013777,
            2.43795900366084,
            -1.055447845375144,
            2.1552476442014012,
            -2.7074907992104675,
            -2.172566222159743,
            0.30318008455659845,
            0.5291602906319067,
            0.20288976157031086,
            0.12375873666371279,
            -2.6021057100926317,
            -1.6541070891000291,
            2.561825524723029,
            2.3639890552477114,
            0.8146492334847426,
            -1.1128047437339708,
            0.3857528069645446,
            1.1173111381853178,
            -2.2244970205608023,
            2.324427388010923,
            -0.08022254522495598,
            2.998195791246516,
            0.2573441788562666,
            -3.056341973220849,
            -0.9800983024031666,
            0.2517863906001389,
            2.6249608964046858,
            -2.5822842321838917,
            -2.9090490440645027,
            -2.854793281666918,
            0.025482176344242564,
            3.075677154339462,
            -2.6937678499571085,
            -2.787299737763844,
            -1.0166009310312398,
            -1.8377315923204653,
            2.5698709768511896,
            -2.3586264905459657,
            2.4201040814980295,
            -0.9517517748172721,
            2.196466454474843,
            -0.18978226964840741,
            3.0479405259490266,
            1.2737799858845942,
            -2.261796936001153,
            0.21390126797668038,
            0.6586854489649001,
            2.359700934188225,
            -1.7099348841164477,
            -0.4969209472159548,
            -0.8354471736119188,
            0.7680443684510538,
            2.5870885274787545,
            2.1227446469075546,
            -0.9959868720948947,
            0.4174208779199246,
            -0.2627248618474746,
            -0.7386608553868262,
            1.7358148175345223,
            0.3830738594574697,
            0.48652049471864256,
            -2.04214426171704,
            -0.7648782462885185,
            -3.048222081081115,
            -1.8165783550557684,
            -0.5287037810554319,
            -1.1241843028781342,
            0.9993438531753109,
            -2.954047802396142,
            1.0522468444400186,
            1.879650812834913,
            0.15604984254469198,
            -2.1958653132852475,
            -1.9868014149522042,
            2.7570968900661286,
            1.5578610726193802,
            1.6337173028183813,
            -1.8791032084238304,
            -0.3854949537381303,
            -0.8977386042400662,
            1.570535902901359,
            1.931599377080771,
            1.301866636471982,
            2.7086627230794034,
            2.1328593730959176,
            2.327962110312009,
            2.5124855820213545,
            -0.7977976871660919,
            0.5996742171588215,
            -0.07579245863019135,
            1.930683182208034,
            -0.195520971868595,
            2.828792950640238,
            -2.4239231670904977,
            1.3134411388052378,
            0.40086567089143854,
            0.5781394808429099,
            -1.3704795627273834,
            2.161674109623777,
            -1.4085194511070744,
            0.09109708192789856,
            -1.3833383995960502,
            -1.684544864191782,
            -1.7580041442991248,
            -3.005363381482122,
            0.5482198912838502,
            1.4087109036711074,
            0.721275715682362,
            1.2790942316965057,
            -0.8021644600584741,
            2.923394864444251,
            0.7922613011122802,
            -1.1786098399633336,
            -1.10299703331772,
            0.8354620604730285,
            -0.9532575203086575,
            0.856025604344066,
            0.20210493074041325,
            2.431362850537006,
            1.5172119298183167,
            1.8178183163478536,
            1.7500535773550079,
            -2.02539212228009,
            0.4265178819392703,
            -2.715457759524184,
            1.3429417446084893,
            -0.25014427151516616,
            0.6689734090774625,
            -1.788722432623882,
            2.834440927688599,
            2.9583834986716835,
            2.3608518807465915,
            -2.7181480388730366,
            1.5325136674315076,
            -2.2990635275518394,
            -2.4767585585091645,
            0.3814012469238192,
            -0.7336196608610842,
            1.6153419084801135,
            -1.1300312858902632,
            0.891149887124328,
            1.7224397594125134,
            0.2635637415140898,
            -2.5985967389151514,
            -0.31119303725669845,
            -0.21950311929656688,
            -1.446890079339269,
            -2.885753314078323,
            0.6450236319449391,
            0.12524581323590134,
            -2.334437894263621,
            0.41663730862125725,
            -2.1582819795891943,
            1.726633458233695,
            -3.0726501171151526,
            -2.8927161991629124,
            0.43554638980016314,
            2.0573856598814464,
            -2.7253816692952397,
            -2.073788897278555,
            0.22734193425361002,
            2.38611183049571,
            2.6876367258070677,
            1.305482372074169,
            0.5078208762099112,
            1.5539117319592406,
            1.10400565892646,
            1.341511143005919,
            2.0626010452126096,
            0.38669285595040853,
            -1.6994167084880398,
            2.2772562752897287,
            -1.6685615350829455,
            -0.5309126252398184,
            -0.8855358377888348,
            1.611082727521613,
            -0.5529586155861737,
            -1.3279507835390252,
            2.070909312237651,
            -0.27103278980020756,
            2.0204159606609493,
            0.7488262860502984,
            -0.8504283444343325,
            -2.3421021980417542,
            1.5654829271875483,
            2.4040943161959714,
            -1.035399203042188,
            0.9674297583486112,
            -0.08988610833907824,
            1.912171904357885,
            -0.3328143595022153,
            1.6789212815231278,
            -2.519215470698616,
            0.7239166605953401,
            1.082289723734213,
            -1.6101398686383286,
            2.8221178369455124,
            -1.0739779892505061,
            -1.3219574108260426,
            -0.157196408293167,
            -2.9656447449338708,
            3.0035872005533983,
            0.3065624778431214,
            -2.861508147842009,
            2.5386064411592653,
            -2.908054047285046,
            -1.8763661987155462,
            2.1632712167273307,
            -0.9620444173255411,
            -0.7693933910038976,
            -1.1783014837652477,
            2.2621292227988046,
            -2.5373287117643897,
            -2.041921529649291,
            -1.275283821836395,
            -2.473876923008665,
            -2.3425939560054285,
            -2.3442528241075165,
            1.363524544709406,
            1.9647273401622238,
            2.7284206262726314,
            2.388296454601119,
            0.08508502761501038,
            -0.4174234076699855,
            -1.6593847144778715,
            1.0468039731098264,
            -2.144018296787785,
            0.8635617640822981,
            1.332451208263288,
            -1.4859696561600306,
            1.1965173714335922,
            -1.5453565738712554,
            -1.931695722081921,
            -1.0600641831790432,
            2.7753843214326803,
            1.898887146945557,
            -0.19770389648363929,
            -2.216553693956452,
            -0.8633490892376113,
            -2.756204757783501,
            -2.3693546151109093,
            -1.1282839902084645,
            -0.9706370324875547,
            2.9906943636924144,
            -2.6279138866977627,
            2.6081502769012195,
            2.6261848334932987,
            2.6022802229077007,
            0.4767835956260734,
            -0.1443416023547645,
            -0.3866507242634596,
            -0.22925205000906881,
            1.9012233322871257,
            -0.21230679976693592,
            0.6062834912247991,
            0.07474465451052703,
            2.498118623983104,
            1.3937204810770922,
            -0.7273443950013411,
            2.4123441773653793,
            -2.071467122987885,
            -1.8914776136050955,
            -0.019715699555666294,
            2.2818122143224064,
            3.0097535592163,
            0.9273634643265234,
            -1.0960282073400485,
            -1.4267163543664532,
            -3.0773759366449696,
            0.27374918671028053,
            2.9882032298563157,
            1.4870743148314465,
            0.019996569722325934,
            -1.6434408100099742,
            -0.6453864110623823,
            2.8290139838850044,
            -2.275341034036192,
            1.583549937765215,
            -0.8350429494539788,
            0.6377073842171531,
            -2.950821387880049,
            2.654512198545361
          ]
        },
        "skip": {
          "dims": [
            1,
            1
          ]
        },
        "simple": false
      },
      "totalBatches": 6054,
      "totalItems": 403900
    },
    "a0f0a572-b49b-4e98-bfe0-199100001596": {
      "class": "com.simiacryptus.mindseye.layers.util.MonitoringWrapper",
      "id": "a0f0a572-b49b-4e98-bfe0-199100001596",
      "isFrozen": false,
      "name": "avg1",
      "inner": {
        "class": "com.simiacryptus.mindseye.layers.media.AvgSubsampleLayer",
        "id": "a0f0a572-b49b-4e98-bfe0-199100001595",
        "isFrozen": false,
        "name": "avg1",
        "inner": [
          2,
          2,
          1
        ]
      },
      "totalBatches": 6054,
      "totalItems": 403900
    },
    "a0f0a572-b49b-4e98-bfe0-199100001599": {
      "class": "com.simiacryptus.mindseye.layers.util.MonitoringWrapper",
      "id": "a0f0a572-b49b-4e98-bfe0-199100001599",
      "isFrozen": false,
      "name": "bias_2",
      "inner": {
        "class": "com.simiacryptus.mindseye.layers.media.ImgBandBiasLayer",
        "id": "a0f0a572-b49b-4e98-bfe0-199100001598",
        "isFrozen": false,
        "name": "bias_2",
        "bias": [
          -4.081824804308776E-6,
          1.9827934457922278E-5,
          -1.29334340223012E-6,
          3.624321594860186E-6,
          5.3739253661831836E-5,
          -1.4858697615029192E-5,
          2.0895703829215488E-6,
          -6.257786160011857E-6,
          -7.398419427219412E-6,
          -1.1481787314225561E-5
        ]
      },
      "totalBatches": 6054,
      "totalItems": 403900
    },
    "a0f0a572-b49b-4e98-bfe0-19910000159a": {
      "class": "com.simiacryptus.mindseye.layers.util.MonitoringWrapper",
      "id": "a0f0a572-b49b-4e98-bfe0-19910000159a",
      "isFrozen": true,
      "name": "activation_2",
      "inner": {
        "class": "com.simiacryptus.mindseye.layers.activation.HyperbolicActivationLayer",
        "id": "a0f0a572-b49b-4e98-bfe0-199100001597",
        "isFrozen": true,
        "name": "activation_2",
        "weights": {
          "dims": [
            2
          ],
          "data": [
            0.2,
            0.2
          ]
        },
        "negativeMode": 1
      },
      "totalBatches": 6054,
      "totalItems": 403900
    },
    "a0f0a572-b49b-4e98-bfe0-19910000159c": {
      "class": "com.simiacryptus.mindseye.layers.util.MonitoringWrapper",
      "id": "a0f0a572-b49b-4e98-bfe0-19910000159c",
      "isFrozen": false,
      "name": "conv_2",
      "inner": {
        "class": "com.simiacryptus.mindseye.layers.media.ImgConvolutionSynapseLayer",
        "id": "a0f0a572-b49b-4e98-bfe0-19910000159b",
        "isFrozen": false,
        "name": "conv_2",
        "kernel": {
          "dims": [
            4,
            4,
            200
          ],
          "data": [
            6.913210126972862E-4,
            0.0027651602188338417,
            -0.0012677052696667178,
            0.0038294274890682436,
            -0.0021509932266731216,
            -0.0013091749523740982,
            0.0029327090055417475,
            0.003498734449735876,
            5.553876789010737E-4,
            0.002915228598608751,
            -0.0022525670408347,
            -6.860616576890116E-4,
            -3.279976327402709E-4,
            0.002680033004484295,
            -1.3042909510844789E-4,
            -0.0012142732225794814,
            -0.0013385920182888051,
            -9.937943758966746E-4,
            0.0012458158842107287,
            0.0013315850118118108,
            -0.002364252131091994,
            0.0026409212199720827,
            0.0018109789994537895,
            0.0021988082350734585,
            -3.182057963961148E-4,
            0.002264151424497891,
            -3.6095925127926475E-4,
            1.5817796222203755E-4,
            7.263604109913443E-4,
            -0.0018527353306031901,
            -2.1635367506799852E-5,
            -0.002104093355514531,
            0.004333539334777478,
            2.3367222682176743E-5,
            0.0030718039879715,
            -5.057865617627478E-4,
            0.0011875645931224768,
            -0.0017415131819487136,
            -1.9687045641478867E-4,
            0.0017197386652526598,
            5.582550438375974E-4,
            0.0022443112472061706,
            0.0016037265317393348,
            0.00317030725406406,
            0.001418309688413151,
            0.0022430931830137303,
            -0.0020480381969237966,
            0.0040518150713036135,
            0.0014077156253730712,
            -0.002667660570694729,
            -0.002103618070206954,
            -0.002395354436023813,
            -0.0012558907499407523,
            -0.0014469904370233127,
            0.0011792453611408832,
            0.00120225208176697,
            -0.0021839109177484986,
            -0.0014743494748350253,
            -0.0019056091740324475,
            -0.0022230427593830306,
            -4.5004684412962726E-4,
            -0.0029651431931369764,
            0.0025317880118073434,
            -4.705612039082269E-4,
            -0.001225634980374644,
            -7.260876476868052E-5,
            0.0019304784651151688,
            -0.004581210315936953,
            -0.005012921876428868,
            -4.0545544829262523E-4,
            -6.923473722173457E-4,
            5.106699715384372E-4,
            -0.0032507778719120016,
            -0.005382005078652926,
            -0.00336819725335627,
            -0.004423806678633502,
            -0.005134276474311309,
            -5.726640428988931E-4,
            -3.0929843536162723E-4,
            -0.0018246675171937,
            1.9715435018299597E-4,
            -0.001676611654197812,
            8.64544466869255E-4,
            -0.001857975740860303,
            5.364241203723804E-4,
            -3.6234520411286726E-4,
            -0.0022317307883962384,
            -0.001646393435166847,
            8.868051570301433E-4,
            -2.9357913431099547E-5,
            3.215069026819846E-4,
            6.292022706591037E-4,
            5.91645423401776E-4,
            -2.0017225263004444E-4,
            -0.0027585556650161266,
            0.0026774056842430913,
            -0.003361572028548042,
            -0.001732874012572455,
            0.0011710592796365612,
            0.0010972278133553372,
            0.0024645736115747477,
            8.578162182564574E-4,
            -7.378330670019014E-4,
            -0.001122512571597838,
            7.813621185907265E-4,
            -0.0025541110374059685,
            7.873537748601623E-4,
            -0.0017890481961905871,
            2.0317302676128252E-4,
            0.0022467046474959635,
            -0.0026629587168060516,
            4.2567621277024315E-4,
            0.0013653456019066276,
            6.18685862681347E-4,
            0.0014030460579689753,
            -0.0017111998643592212,
            -0.0012047420103447357,
            0.002233110862107491,
            0.0014830409474920184,
            0.0020714975293997595,
            -0.002465602281376442,
            0.0016914949527486556,
            -0.0018611167970265584,
            -0.0020937218423694474,
            -0.0023460470262821995,
            -0.002842636060118846,
            0.0021974566521940743,
            -0.003349628518801537,
            -0.0011555697401922321,
            0.002052026070390239,
            4.885858019802401E-4,
            -2.1227758750726E-4,
            0.0013424280420968463,
            -4.890173493149499E-4,
            0.0034229530341402963,
            8.593960889970485E-5,
            -0.0024521173567243057,
            -0.002043276752130868,
            -4.1312541834027656E-4,
            -0.0012382601483726353,
            -3.091510553886705E-5,
            0.0012306470662864384,
            -7.058765502636248E-4,
            -0.0014210903657389307,
            0.0012402374533261942,
            -0.0013865192790708046,
            -0.0018042660860768253,
            -3.153426661802193E-4,
            2.3289763542902038E-5,
            -0.0038258373339781007,
            -0.00392815837400195,
            5.867759441168807E-4,
            -8.928101704513377E-4,
            -0.003539714664139802,
            -0.00271755285348062,
            -0.003430231620522677,
            -0.002645544821860633,
            0.001988965943100995,
            -0.0024512042433183696,
            -4.560278988805456E-4,
            -0.0012461876920069161,
            -0.0027945132873823737,
            -0.0018287709058764795,
            -0.0012097543772751258,
            -0.0032279811380901795,
            -0.003128129805119405,
            -0.001903315218399199,
            -0.0033011790390715134,
            3.3354942432967685E-4,
            0.002040668900633127,
            1.045221077451004E-5,
            -0.0030837041204567965,
            -0.0016068242437048054,
            -1.6222726432348514E-4,
            0.0015717837513883489,
            -0.002245833154790834,
            6.583515940005552E-4,
            6.248610807550789E-4,
            9.160844572622367E-4,
            -0.002730417018599818,
            5.869466425285353E-4,
            -0.0019020121882034426,
            0.0016525372645324365,
            -7.44713364026023E-5,
            -0.0029860216086707177,
            0.0011172221448450868,
            -9.032340756493052E-4,
            -0.0029363316663762874,
            -6.01209702993212E-4,
            0.0012872403452892736,
            5.013321701166918E-4,
            0.0011214825766477456,
            -0.0012354723454701102,
            -0.0019421714819102204,
            1.096533553057368E-4,
            -0.0012198658727118475,
            -0.0017046916564316288,
            -0.0021052984766981118,
            -0.0025483484201507794,
            0.0018452872521891855,
            -0.002072837451658325,
            8.994769023398545E-4,
            -9.92859694627729E-4,
            0.0026280553702995113,
            -0.0012738298388484319,
            0.00237747600578963,
            0.0021163121998771265,
            0.0019513075543927227,
            -0.004046009214585289,
            0.001567879834868505,
            -0.001604868652576665,
            -0.0014306688627968992,
            2.405481264778413E-4,
            -0.0020831477305567193,
            0.001085556317292358,
            -0.0013443159711600664,
            -0.0010926963255001847,
            -0.0014368395224048304,
            7.239349599118121E-4,
            -3.887681516487563E-4,
            -9.087050212821584E-4,
            2.179508085046416E-4,
            1.590851345033034E-4,
            1.5251757775311318E-5,
            0.0018446892047658489,
            0.003605278535243747,
            -3.5183828162344254E-4,
            -0.0013390002198575748,
            0.002152283079771544,
            0.002679018426339449,
            -0.002044561094955779,
            0.0030969501257571926,
            0.0029497085432560813,
            0.002105393218592363,
            7.607794686426996E-5,
            0.0012301858734867536,
            -0.0015928224644207272,
            -0.0012979693189783675,
            0.002063925557255672,
            -0.0011726471741974006,
            -0.001386047446752311,
            -0.0023067665818734865,
            -0.0013197582372704779,
            -0.0027749874212701408,
            -0.0028633024955909423,
            0.0014926922718821265,
            0.001170988540926004,
            2.791758003041973E-4,
            -0.0010324993338436932,
            0.0030947456429062385,
            -0.0012496033585151672,
            0.0026030611887404007,
            -0.002357959082375762,
            0.0023864049926875215,
            0.001772443088419571,
            0.0013172566340526211,
            -2.1994474152044053E-4,
            0.0019770074542607083,
            0.0020541297246253476,
            -3.489429669750781E-4,
            -0.0022115608072045367,
            -0.0019937679913638318,
            6.223455377763726E-5,
            -0.0023066178013900697,
            -0.0018122000486145012,
            -0.0021940078209941377,
            0.0031577448849742585,
            0.0012118001565574494,
            -0.0011396895406311962,
            0.0014699874344332531,
            0.0012243880094756508,
            -0.0014506796295025407,
            -0.004550754335115424,
            -0.0019212353993710695,
            8.619109346048928E-4,
            -0.0033733159514332135,
            -0.003004264880270177,
            -0.004095016945875355,
            -0.0036033668318818358,
            5.517410016458166E-4,
            3.0583743828682095E-4,
            9.322216021324834E-5,
            0.0013488588008569295,
            -0.001815714567984966,
            -0.001301116795526152,
            -7.405384260737209E-4,
            0.0018625801254241795,
            -0.001709118715318988,
            0.002202980319429925,
            -9.357445760385593E-4,
            -0.001961901950096465,
            -0.00257837826575692,
            -0.0023832660910459704,
            -1.253500918895438E-4,
            8.005379053631616E-4,
            0.0010652892877460708,
            0.0023735505883579876,
            -0.00320804727133785,
            0.0014565946029811811,
            0.002313054695774821,
            -0.001486216626528443,
            -0.0011512315687141293,
            -1.8108660025518741E-4,
            2.0013222284800494E-4,
            -0.002114616458085701,
            -0.003554240652489019,
            -4.089832947986017E-4,
            8.928356722187679E-4,
            -0.0023345050529229878,
            -0.0021004567773525297,
            -0.0028994924623985717,
            -9.436627263738553E-4,
            -0.002131974959992411,
            -0.0028448012858844625,
            -0.002766730405415639,
            3.024781416809913E-4,
            -0.003133784900264759,
            6.037841090255993E-4,
            8.846251914117133E-4,
            -0.0028957897595390534,
            0.006132317619833526,
            0.006219024971675277,
            0.0012196261938223936,
            -4.1259530143801314E-4,
            0.005232740775568241,
            0.0036627288494712235,
            0.004843294708125089,
            0.0033669260623946265,
            3.17692341140583E-4,
            0.004017736090401311,
            -0.0014764503989721154,
            -6.254991814024145E-4,
            0.003374537884247593,
            0.0036992527951190237,
            0.002408895026386733,
            -6.058276138862597E-4,
            6.004908893040499E-4,
            3.059290630817571E-4,
            -0.0015034375949284635,
            0.0015836473584018838,
            0.0011621693872907956,
            -0.0021157951293907635,
            -0.0025123420573757715,
            0.0012706362086018202,
            -0.003113545122869481,
            2.559561775693178E-4,
            0.0022496324482457687,
            0.00234691350814799,
            0.0010188370887457099,
            -0.0022167213173670455,
            -0.0021502616046523235,
            -0.0027459919154049707,
            0.016806597470348145,
            0.008149357561183573,
            0.0054254896974996695,
            0.007522238431719067,
            0.009571482706273412,
            0.00858218824500752,
            0.002359218523186869,
            0.0031649262446058193,
            0.004987169863050656,
            0.0027536281307249657,
            0.0056362672383028995,
            0.0019272160462362393,
            0.0025199336290181703,
            0.004672974878988194,
            4.4779453618195073E-4,
            -0.001793209653254103,
            4.857495315326938E-4,
            -0.0026000491306961662,
            0.0014812933658254806,
            0.0023955090885130824,
            -0.0025667245905450307,
            -0.003584962727879168,
            6.12671875586868E-4,
            0.0027782179789435668,
            3.862175796924202E-5,
            5.436157126782209E-4,
            1.8301418362331502E-4,
            0.0010891671299170804,
            4.187717487925504E-4,
            -0.0015264126262754024,
            -0.0012376444722021604,
            -0.0018725867413771757,
            -0.023046239083636386,
            -0.018843560622016454,
            -0.014551384529396997,
            -0.008248163270362293,
            -0.01921380185944637,
            -0.008611942434854108,
            -0.006903621082684088,
            -0.004401826653912944,
            -0.01021330575375737,
            -0.005418945235941915,
            -0.004011128415905541,
            -0.00273951674174862,
            -0.008622059462917197,
            -0.0036912185626626196,
            -0.001994190528709247,
            -0.005138303508158403,
            -0.0011467953803245422,
            -0.0020847262743059936,
            0.0010894607720431824,
            0.0015465856465753855,
            0.0015153201370472235,
            4.46475082329564E-4,
            -0.0018405666647857055,
            4.224734029427381E-6,
            0.0026949770507384875,
            0.0015795981299060913,
            6.397450074745631E-4,
            0.0014959463418635324,
            0.0019986762873952187,
            -0.001079771756360679,
            -4.959428048466651E-6,
            6.151617770555568E-4,
            -0.0032448077822271985,
            -0.004138695390458623,
            -0.004396429336858325,
            -0.0019711387532319845,
            -0.0015047082764171992,
            -0.003265014989979225,
            -0.003403202937795737,
            -0.0028846770053595743,
            3.2500955780610357E-4,
            3.964856313870058E-4,
            0.0014155901540099764,
            -0.001037743576979775,
            0.0018993453161687867,
            -0.00238205998527528,
            5.104372886300804E-4,
            1.8336191449630629E-4,
            -0.0021471776275122836,
            -0.004847326137583941,
            -0.004285323785311743,
            -0.0046084410154855725,
            -0.005142253340170328,
            4.970896129878824E-4,
            -8.485200252031416E-4,
            -0.0020938748149974605,
            -4.7985036200498684E-4,
            -0.004531400413199185,
            1.4363068954504656E-4,
            -0.0032097007014088358,
            -0.0011759733824774595,
            -0.002143718761208307,
            -1.4416268613579543E-4,
            -0.0016907884541031907,
            0.00482977079784724,
            0.0018794728384202233,
            0.0014393522960584302,
            -5.024793480642751E-4,
            0.004420953389112571,
            -9.077355086556826E-4,
            0.00338501023474552,
            7.498173733318961E-4,
            6.614740387706099E-4,
            9.384526002320866E-4,
            0.003142028153001213,
            -0.0016425328315471206,
            -5.504672980713239E-4,
            0.0020373493450566785,
            0.0032352275476456656,
            0.002120526917083206,
            -0.005419893014903669,
            -0.0048445508863354265,
            -0.0030856266604416477,
            -0.0012748961421727063,
            -0.0011398430297081888,
            -0.003076902886090627,
            -0.0015664983415213886,
            -0.0025727549119169994,
            -0.0035986404801233284,
            0.0014522441927844471,
            -0.003017369216106037,
            0.0010102080441093005,
            0.0013799012863136575,
            -0.00124212481381457,
            0.0010205292072356762,
            -2.646793732999459E-4,
            0.0020819892308728298,
            0.00294695567013324,
            0.0012552965175282845,
            -0.0015073707185254794,
            -0.002510304889492912,
            0.002787605061827385,
            0.0023955697194841105,
            -0.002897065647087498,
            -5.952206894541162E-4,
            0.0024559952518888118,
            -0.0012557200589929179,
            -0.0026339705268868794,
            -0.0020537057207734638,
            -0.001236344841094173,
            0.0013011566301657825,
            -0.002512912190437747,
            -0.003442426899108744,
            -0.0034813835231107524,
            -2.153173291806752E-4,
            -0.004085716278989802,
            -0.006094230595534214,
            -0.0038468546159563556,
            8.393691512274377E-4,
            0.002225878323586332,
            -0.0033901816630600105,
            -0.002423468551472514,
            -0.0034432071762001497,
            6.36348382841695E-4,
            -4.1476870678360027E-4,
            -0.0038023247597473654,
            -0.001092693345130076,
            0.0023315103949197156,
            0.0019295793543271727,
            -9.242141564391614E-5,
            0.0015940493935350107,
            -0.0010051652123479395,
            -4.616811327010012E-4,
            0.0031061857744294112,
            -0.0010495005771910895,
            -7.437404433352308E-4,
            -1.5287874872788863E-5,
            0.0029501583917009642,
            -0.0011992285620807792,
            -2.0130417515051412E-4,
            7.112120596201259E-4,
            -0.002567690447873588,
            -0.001232159850156688,
            -3.724185614210205E-4,
            -0.00479274050846491,
            -0.003373212299368706,
            -2.8429530892051813E-4,
            -9.596471007584736E-4,
            -5.41329110785961E-4,
            -0.0011249506583544849,
            -0.003716238807813968,
            -0.0010897048565443475,
            7.706512213167345E-4,
            -0.0017266285929068259,
            0.0013249258507950406,
            -0.002831434378380053,
            5.529125743502832E-4,
            0.0025553250062602764,
            0.0013648094383278582,
            -4.314698816699677E-4,
            0.0026968951888951057,
            -2.972680309248755E-4,
            5.133287726107671E-4,
            -0.0015758038244690872,
            0.0021270975113637683,
            0.004094116374485483,
            0.001615033514273168,
            -0.0027177602857076906,
            0.0015254177028425212,
            7.678427289411454E-4,
            7.906625478578399E-4,
            -0.001999799559776519,
            -0.0010779532849336615,
            8.731733595088277E-4,
            0.0016382786795719271,
            -8.613221364892578E-4,
            1.128427189570547E-4,
            0.001490329347301608,
            0.001965258905139842,
            0.0019239368481657468,
            -0.0017677919359969495,
            -0.0023325906715846887,
            0.0029452606037921993,
            -8.251862626484767E-4,
            0.002325571050293316,
            0.002514472185676413,
            1.4654348448495856E-4,
            0.0011586358249884073,
            0.0029149790976049114,
            0.002759148061525724,
            8.031742802649427E-4,
            2.3817472579306853E-5,
            6.334153970301058E-4,
            -0.0017928547085080803,
            5.091849063405617E-4,
            0.002241408516594076,
            -0.0021064719943351975,
            0.002423471765924498,
            -0.0017163062127140535,
            -0.001500527292110247,
            -0.001961690887671491,
            0.0037458635776017333,
            3.8044896218869816E-4,
            0.0021271788781161084,
            -0.0016852864925939836,
            -0.0010951650431542605,
            -0.001313659745354824,
            -6.91330432406404E-4,
            -0.0030148591107845993,
            -0.004581349290258136,
            -0.0055142356856104045,
            8.316025943218929E-4,
            -0.004975559003241324,
            -0.003730627016654685,
            -0.0036560900846214816,
            -0.0013995123937121773,
            -0.0015049000231934493,
            -0.0024530646144281017,
            -0.0010408652270938556,
            4.923864876909561E-5,
            9.603598953984784E-4,
            -0.0012294164336083635,
            -3.867689756846663E-4,
            0.0015581314230969773,
            0.0016575718404169943,
            0.0018989168841533237,
            0.0023940270411247654,
            0.002042724388237631,
            0.0027626259217812883,
            0.001497887860172626,
            0.0013110123959431514,
            6.904807708262867E-4,
            -0.0017464093994619381,
            0.0020157648896363127,
            -0.001255346794625938,
            -6.961810370200814E-4,
            -0.002745948989262879,
            -0.0010925365732462142,
            0.001572380406558497,
            4.289011947149713E-4,
            -0.005847885910777913,
            -0.0050659126506238435,
            -9.535852968520081E-4,
            2.8310987256432096E-4,
            -0.005069919835487166,
            -0.0015308152142043982,
            -0.0032916808949653934,
            -4.6067424437125533E-4,
            0.001648550092002253,
            -1.0319375829482002E-4,
            -0.0013691644566995137,
            -8.968120111059717E-4,
            2.471712341919225E-4,
            0.0011484317401857518,
            -0.0033576373814274145,
            -0.002540610422520263,
            0.002628381478718604,
            0.0017877310754729164,
            5.201224800392337E-4,
            -5.155799796281526E-4,
            0.0025395019287476014,
            8.159579449247553E-4,
            8.729180643370994E-4,
            0.00363560561804721,
            0.001558448987094049,
            0.0011430892139870357,
            0.0024186764781944023,
            -0.002798698714125673,
            -0.002411068114162209,
            -0.001201759964549882,
            0.0013308026853351932,
            0.002073760634679368,
            -5.955922909115633E-4,
            -0.0026251159954640687,
            5.615768462529976E-4,
            0.0019334890658682894,
            -0.0032525435348957498,
            0.002101146898720865,
            0.0015764584594708155,
            0.0028238461040737124,
            6.291911211914725E-4,
            0.0021405256514855195,
            0.0024901966895631124,
            0.0026583351464626913,
            0.0025112674590254793,
            0.0016909972719368197,
            -4.6653924629489905E-4,
            7.581634411369568E-4,
            0.003067093047246879,
            0.0017542527217799073,
            -1.4990759757415892E-4,
            0.0038804585462227092,
            0.005588462375292221,
            0.0030993302897749275,
            0.002157921326434182,
            0.002335534137551227,
            0.001634020184017617,
            1.1297405937548339E-4,
            -0.001703860060537277,
            1.6160672314755438E-4,
            6.016548122254699E-4,
            9.554303474345954E-4,
            -4.185164910053125E-4,
            -0.0021001516588944487,
            0.0028286029522306016,
            5.792325150616456E-4,
            0.0014993826755342731,
            0.0027105515982212875,
            -0.0025628590924917276,
            0.00155594088626704,
            -0.0019415850774363375,
            0.0028398393666829117,
            -0.0015147192696565535,
            -0.0030204956627481413,
            8.576436580568168E-4,
            0.0018542222604531365,
            -6.718947877546164E-4,
            3.649565318807756E-4,
            -0.0011246672299055007,
            -0.0018153642400829937,
            -0.01037099854353741,
            -0.00853185628332224,
            -0.002210125717674979,
            -0.0020224279348012666,
            -0.002499956340399115,
            -0.006755180993951082,
            -8.576256543354594E-4,
            0.0010023537360895204,
            -0.0033534999054450998,
            0.0011028398093066122,
            -0.0017407456851595243,
            0.002180774057444344,
            -6.177457166250894E-4,
            -0.0017490523017572718,
            -0.003463680866742083,
            -0.002016097192415316,
            0.0023947562477045744,
            0.0012013987951036461,
            -0.0019084184447785994,
            0.0025420767117718306,
            -0.001903608240245906,
            0.0029718720272203236,
            -0.0020109535117716366,
            0.001784677918953127,
            -0.0017677311970000875,
            0.0015899258667926692,
            -0.001783819357546364,
            1.1192248143506017E-4,
            8.04389707520307E-4,
            -9.796742734826866E-4,
            9.719443139805811E-4,
            0.0015170906709005521,
            -0.0022509234055641493,
            -0.003550230138312797,
            -0.003437471580151116,
            -0.0025996217866476145,
            0.0014035416359699856,
            -0.0010439067815209407,
            -0.0021019487858017294,
            0.0012910324110591846,
            -9.092716111700669E-4,
            -0.0012939262207332359,
            -3.704899558259972E-5,
            -0.0017204267074111036,
            0.003021321305040014,
            -0.002976452415703122,
            0.002551309452967137,
            0.002949906533848863,
            -9.299590569612802E-4,
            -0.0034072796071595063,
            -0.0022981225716755377,
            -0.003162932646817879,
            3.745256447888096E-4,
            -0.00459576272739681,
            0.0014500719761931875,
            -0.002513209400602166,
            8.875497783949972E-4,
            -2.743368258202712E-4,
            -0.002536015740753579,
            -0.0022000097358649564,
            0.002798856340348659,
            0.00185054890953996,
            0.00275045577786425,
            3.577805929671765E-5,
            1.0287292440682919E-4,
            -0.0019198063024270461,
            0.0034343845678693617,
            5.016255989923565E-4,
            -0.001949282339044819,
            -0.0012839926630625795,
            -0.0012294590415582146,
            8.132330035425581E-4,
            0.002869936008315393,
            0.0026613361820864603,
            0.002679010274896038,
            0.002682300026467284,
            0.002849785691638678,
            -3.0839708657155604E-4,
            0.002780327009351995,
            5.267063721969059E-4,
            -0.001344455651866168,
            -0.0049708956713455914,
            0.001262751083508794,
            0.0012950715364762804,
            -0.003932553335586392,
            0.00101126181647238,
            -0.0022334269418099696,
            -0.002557619047402929,
            -1.1172614839260617E-4,
            0.0020056291216306024,
            0.0021994556988993424,
            -0.0013782548183135395,
            -0.0015883458918741452,
            -7.048664946211079E-4,
            0.0011075999434520894,
            0.0011531676753087727,
            -4.220171674525304E-4,
            0.0013157884293978244,
            0.0010353007983271289,
            -1.6017230714807275E-4,
            0.0018472947864487388,
            0.0019454907960981126,
            -8.956001377761491E-4,
            0.0018327669583148823,
            0.001789265178027573,
            0.0016749915145107077,
            -0.0012994929996428383,
            1.5439452872564017E-4,
            -0.0019682088266029787,
            -0.0028559914362454603,
            0.0024877617845708525,
            0.0024763755883248765,
            -0.0015780570901863802,
            -0.004506984656722396,
            -4.6559584513520186E-4,
            9.614901106830403E-4,
            -6.357207486462601E-4,
            -0.0010898877755476568,
            0.0017979790415085257,
            9.862138957245057E-4,
            -0.002087496272062764,
            -0.001190477763872655,
            6.051346377867917E-4,
            -0.002501101930204672,
            -1.6591317152432253E-4,
            -0.0028485159599772594,
            3.1018162312280734E-4,
            -0.001166925870888369,
            2.6307512440419217E-4,
            0.0028292156897837166,
            0.0015591094571165286,
            0.0023068841059149317,
            0.0026144393988735744,
            5.342757723305292E-4,
            0.002615504503680313,
            0.0011890882828238917,
            -5.165918308443439E-5,
            -0.003036252214346398,
            0.0015898742214184392,
            0.0029824449107902127,
            -8.808249707894823E-6,
            1.9933406193960686E-5,
            -0.0019071475792204104,
            5.968873631968492E-4,
            -0.0039977194201352845,
            1.68131803580722E-4,
            -0.0029052978842389245,
            0.0016042374869213898,
            -0.003002424714562827,
            -0.0013969184722120388,
            0.0027633172206083423,
            5.78261844347355E-4,
            -0.0023157906935534177,
            -1.301153394517127E-4,
            0.0013705171185027579,
            0.0020305020811752076,
            4.104957212832044E-4,
            -0.0018068169847424952,
            0.003075861434383765,
            0.0026434467345600966,
            0.0019769738933960715,
            0.002366629243605006,
            -2.570296179311606E-6,
            -0.0017781839728411226,
            0.0031568407295501006,
            -0.0014377532866336412,
            0.0029925647133512284,
            2.2046670520863763E-4,
            8.29364438534478E-4,
            0.0025290010610844664,
            0.002699791811379749,
            -0.002745262004345205,
            7.758218982626225E-4,
            -0.002062349126197665,
            -0.0022455083422775694,
            -7.621561124588483E-4,
            8.239009774266356E-5,
            -2.542804964517932E-4,
            -0.0011181906348498244,
            1.7508318845865437E-4,
            0.002237452301699692,
            4.891749643005758E-4,
            -9.174129799254475E-4,
            0.0029200440611997975,
            0.0021293897946117503,
            0.00303697036557042,
            7.194428924377106E-4,
            -0.0024972220176138833,
            0.0010028399587233214,
            0.0010167636564232313,
            0.0028151969740693936,
            0.0016226104188601443,
            -4.619009402624845E-4,
            0.002014299025895399,
            6.86386303243568E-4,
            -0.002008580264675379,
            -0.001507575503952623,
            -0.0011666165057214065,
            -5.572829024282755E-4,
            0.0026615635537097903,
            -5.978349585828622E-4,
            -0.0023129036000484613,
            7.336803704501968E-4,
            -0.0021654808900878,
            -6.640170721536905E-5,
            -0.0028102777141197563,
            -3.2204153822598886E-4,
            -0.0011512394761930222,
            -0.003677481003606146,
            -0.0019369527026646847,
            0.0015905096009973477,
            -8.428589609444658E-4,
            -0.0033131177920628567,
            -0.0027282104197710964,
            -0.0038409457729502747,
            0.0010333838647600233,
            0.002465047459068186,
            -0.0014940202280732669,
            -7.784430929329626E-4,
            0.0012019742739694385,
            1.1878321850042957E-4,
            6.565853638217196E-4,
            -8.421520435682637E-4,
            0.002795696482551414,
            0.002571315805993465,
            0.0016338074951990971,
            0.0030851193971493307,
            -0.0021584580482083226,
            0.00144587921311292,
            3.0224864048349325E-4,
            0.002831689629924485,
            -0.0012061312039214139,
            -1.4436994603874706E-4,
            8.614061717431452E-4,
            5.774937110323694E-5,
            3.8030010982545047E-4,
            4.8818549058675843E-5,
            8.716829622075948E-4,
            -0.00167244166853145,
            8.836790183418102E-4,
            -0.0023112267482043197,
            -0.003272472041636188,
            0.002025873742736145,
            7.397703637071016E-4,
            -0.0037322892899124232,
            -0.0025202685014164908,
            -0.0010687868364901716,
            -0.0015618075352193603,
            -8.567684925753696E-4,
            -0.0031539258434684033,
            0.0012995831808439448,
            -0.0018700652545556489,
            -0.002817960949759988,
            -0.002811250609519818,
            0.0026377319676764662,
            -4.2115133789404785E-4,
            -0.0025763919008915254,
            0.0021261745204364563,
            -0.0015069119311105703,
            -2.6479981657047305E-4,
            9.924150204905586E-4,
            0.0031165475717858807,
            -8.034961053444359E-4,
            -6.226488697766812E-4,
            -0.0022218586739930746,
            0.002450896168910789,
            0.0019315007969004261,
            -0.0029418427380032692,
            0.0021366408370528367,
            1.3199490102545574E-4,
            0.0018909718308419163,
            0.003198909273451274,
            -0.001959145758395804,
            0.0011024190590070795,
            0.00290882214097901,
            0.0018540124707348636,
            0.0017434287272438892,
            5.124130421057531E-4,
            0.002617778542255375,
            0.0014818253833523028,
            -0.0020429326254334424,
            0.0021715575568247787,
            0.0012179392710379173,
            -0.0010724987485319752,
            0.002236677721262339,
            -1.857297333629935E-5,
            -0.002074972927130311,
            0.0015465327340672176,
            2.9321807413597826E-4,
            0.004949508184748057,
            0.0030861899261537093,
            1.5534737412709018E-5,
            0.0016074051088721959,
            -2.3787113419612525E-4,
            -0.0016594060671047597,
            0.0017484830647596893,
            1.6114719093557328E-4,
            0.002922170871163025,
            0.0026420324607220624,
            -4.780850049633363E-4,
            -2.551897444101553E-4,
            -0.0013721207209814565,
            -8.272987344184831E-4,
            0.0014525153075432339,
            -0.0012851597705234525,
            -7.640807110451215E-4,
            0.0034969978791186324,
            5.013663040787901E-4,
            0.003447946890481948,
            -0.0017832009277217607,
            0.0022301725865660647,
            -7.601187042260403E-4,
            -0.0021175339327081546,
            5.576874068865922E-4,
            4.0316032822513745E-4,
            0.0031129697740029014,
            0.0013779716651991984,
            7.051955223929702E-4,
            -2.8083076191506525E-4,
            9.700930171169759E-4,
            -8.867157624694684E-4,
            -0.004974735583910329,
            -0.002878127307479731,
            -0.00554047082534047,
            0.0019369549567168573,
            -0.0031777707357071782,
            7.399249561294103E-4,
            -5.090700942583894E-4,
            6.45535965415983E-4,
            8.126745458398295E-4,
            -0.0023336931253454844,
            -0.0018684497136670253,
            0.00274786074189749,
            -0.0022911264072905855,
            0.00276224083633905,
            0.0015252753383887697,
            -0.0030908765170898854,
            0.002028008862061492,
            7.026076107714182E-4,
            0.0026571006329047238,
            0.0022089088648660055,
            0.0025423869254073525,
            -8.888740588664848E-4,
            0.0016766894058734716,
            -3.283725648772802E-5,
            -0.002256211816657907,
            -0.0013945051004281314,
            -7.458636042270639E-4,
            0.0010333421057532614,
            -0.0030026952240488148,
            -0.0019902656592750393,
            -8.424742890382123E-4,
            0.00249722268415572,
            -0.003756954304426747,
            0.0021328420162760016,
            0.0010066882212095103,
            9.58336295156869E-5,
            -4.8665544791994485E-4,
            -0.0017592936778280696,
            -0.002698160489499795,
            3.201009006253773E-4,
            0.002783959147752698,
            -3.331124825581167E-4,
            -0.0019444809889131102,
            0.0016041981095114603,
            0.0022271805647606445,
            -0.002238361248867402,
            0.0012319543629247312,
            -0.00496417654020747,
            -1.6988064162591892E-4,
            0.0011050366601790408,
            -2.6725192929792836E-4,
            -0.0033709811055955947,
            -0.002185658590370449,
            -3.783483454793932E-4,
            -0.001514951003609416,
            -5.278870473862769E-4,
            -0.0024341703846033486,
            -0.0017246442224615763,
            -2.5417689743583767E-4,
            -0.0018048521258418897,
            0.0011182187075664913,
            5.487885147232648E-4,
            0.0026118478313566745,
            6.627770815370515E-5,
            -0.0015499788033937834,
            0.002416951320018396,
            0.0029796648732329793,
            0.0019814526981314267,
            0.0015118037018924796,
            0.0020170689934876297,
            -7.212610649170097E-4,
            -0.002666956464355977,
            0.0031659147060496165,
            0.001775060095918968,
            -8.324493223183394E-4,
            0.001713802564938401,
            0.0010484538046889413,
            9.805259530432564E-4,
            -0.0017045214773906588,
            -0.002634449724536998,
            -0.003575159363635353,
            -0.0012167665913613956,
            8.293110293281434E-4,
            -6.137347314114014E-4,
            0.0016570157582213704,
            -0.0029339729160666682,
            -0.0012965766029664802,
            0.0014586482662857338,
            -0.0035306524984558105,
            0.001597240276178188,
            -0.002080694353362118,
            -0.0028095741346084494,
            0.0016974103949568625,
            0.0011314572245353885,
            0.0024517183033805645,
            2.725274710712939E-4,
            5.767615058817918E-4,
            -0.0018964920421921513,
            0.0031061521490116425,
            -0.0032022281500004566,
            0.0015051918336723917,
            7.262167266022467E-4,
            -9.865377752227905E-4,
            -0.0026273325610934586,
            9.994529344666903E-4,
