{
  "class": "com.simiacryptus.mindseye.network.PipelineNetwork",
  "id": "a0f0a572-b49b-4e98-bfe0-199100001588",
  "isFrozen": false,
  "name": "PipelineNetwork/a0f0a572-b49b-4e98-bfe0-199100001588",
  "inputs": [
    "3facf149-3e30-4f82-a854-56e1a1510acf"
  ],
  "nodes": {
    "a0f0a572-b49b-4e98-bfe0-19910000158a": {
      "class": "com.simiacryptus.mindseye.layers.util.MonitoringWrapper",
      "id": "a0f0a572-b49b-4e98-bfe0-19910000158a",
      "isFrozen": false,
      "name": "bias_0",
      "inner": {
        "class": "com.simiacryptus.mindseye.layers.media.ImgBandBiasLayer",
        "id": "a0f0a572-b49b-4e98-bfe0-199100001589",
        "isFrozen": false,
        "name": "bias_0",
        "bias": [
          -5.053823627182985E-6,
          -1.4540431703929936E-5,
          3.893416167485E-6
        ]
      },
      "totalBatches": 4030,
      "totalItems": 201500
    },
    "a0f0a572-b49b-4e98-bfe0-19910000158c": {
      "class": "com.simiacryptus.mindseye.layers.util.MonitoringWrapper",
      "id": "a0f0a572-b49b-4e98-bfe0-19910000158c",
      "isFrozen": false,
      "name": "conv_0",
      "inner": {
        "class": "com.simiacryptus.mindseye.layers.media.ImgConvolutionSynapseLayer",
        "id": "a0f0a572-b49b-4e98-bfe0-19910000158b",
        "isFrozen": false,
        "name": "conv_0",
        "kernel": {
          "dims": [
            5,
            5,
            15
          ],
          "data": [
            -0.004334069968081623,
            -0.003751254914334258,
            -0.0036510337078068133,
            -0.002509047689000156,
            -8.472246238252918E-4,
            -0.0040929904581801235,
            -0.003521282218846159,
            -0.0020332057198298877,
            -0.0015550155182007164,
            -5.666496793293467E-4,
            -0.003063863333875768,
            -0.002885705807137796,
            -0.002009350176821249,
            -6.987269613602826E-4,
            -8.168853269533057E-4,
            -0.0031699190643063565,
            -0.002391118248690626,
            -0.0019874219861108983,
            -5.804525926911125E-4,
            -1.9389151129065954E-4,
            -0.0022929985609106704,
            -0.001066581528157918,
            -0.0014163716223286212,
            7.563847727989712E-4,
            0.001187203924670394,
            -0.004421111857740838,
            0.002964162330825163,
            0.0034434916182179433,
            0.002258298014105184,
            0.0024590167009559036,
            0.0017970821245162588,
            0.004917798883922362,
            0.0015984093784613966,
            6.035351259308208E-4,
            7.739522075050851E-4,
            0.0038035664507045097,
            0.0030200857530277834,
            -6.608989112722082E-4,
            -0.0019736685225409155,
            0.0021040628648377985,
            0.003586208178525774,
            1.1710636951243011E-4,
            -0.0028494947114271075,
            -0.001164566708282806,
            0.004537027575177153,
            0.0018175185495979036,
            -0.001162812389782154,
            -0.0010782212714385525,
            0.002198759819215273,
            0.009710799596575654,
            -0.0019552552056722613,
            -0.0016531878945591873,
            -0.0012428268295208997,
            -6.790953593107711E-4,
            -5.72851846869386E-6,
            -3.666362018971402E-4,
            -0.0011110589155015128,
            -0.0012646257135939967,
            -6.040068429946388E-4,
            3.6477876024475724E-4,
            5.841321629733205E-4,
            7.018842663863735E-4,
            -3.7690280704779066E-4,
            4.1073545398549917E-4,
            6.980393576128826E-4,
            0.0018863211303314562,
            0.0011842505930759893,
            0.0012724746121981622,
            9.027327683406479E-4,
            0.001553696373746446,
            0.0032457358895953284,
            0.0027743028278808175,
            0.0022470778295874613,
            0.002498307841766871,
            0.002915031447778436,
            0.0029331634058588282,
            -0.007692653656187629,
            -0.007222575219750102,
            -0.0060995233844270795,
            -0.0045504758871578255,
            -0.004371694522115114,
            -0.0074593143025873275,
            -0.0028633909054552853,
            6.82066055335861E-4,
            -0.0023819013383525652,
            -0.004833902415483618,
            -0.002120764151388042,
            0.006471297875373163,
            0.007114797877697203,
            -0.0010598873613335976,
            -0.00393275684204081,
            0.0027379472329749485,
            0.010646184611481592,
            0.006716631024697663,
            -0.005701683324283851,
            -9.580778527163433E-4,
            0.0048563175165856915,
            0.009576556684217988,
            0.0012489219456657335,
            -0.014815932519564357,
            0.016964116291783272,
            0.01310327590503107,
            -0.0016637024506451494,
            -0.010401410918637518,
            -0.0014780501631190444,
            0.01615180846483833,
            0.004812037175079005,
            -0.00860067576106493,
            -0.012455035914316978,
            0.001570711133413841,
            0.007365285994827823,
            -0.005155571162700591,
            -0.011150331102876122,
            -0.004668585663293254,
            0.009412285863640022,
            -0.0010331385202456977,
            -0.012350015878564139,
            -0.007716184277385286,
            0.0022151354184090084,
            0.011807499006324407,
            -0.004969036782977932,
            -0.00940865696950484,
            -2.5960033712429026E-4,
            0.0070835303197147245,
            0.010234300496673376,
            -0.004044933262789125,
            -0.004094560503554328,
            -0.003960497089186815,
            -0.0031420540197232647,
            -0.0016925746288407651,
            -0.0032684193138357675,
            -0.003798784324621182,
            -0.002993021698333007,
            -0.002544687190725364,
            -0.0015977848707894495,
            -0.0036995931078466354,
            -0.003561096319135868,
            -0.00250261123270007,
            -0.0019298181032983332,
            -6.331745251914369E-4,
            -0.0022411271006242107,
            -0.002712591925049358,
            -0.001379717077333286,
            -7.564702381268635E-4,
            3.9182222601811466E-4,
            -0.002217795697825374,
            -0.0017797649155460726,
            -3.852174942649934E-4,
            4.3568658682579473E-4,
            0.0011104007778498426,
            -0.003730452884704363,
            0.003163416443912781,
            0.0019310820172547503,
            3.266221558504122E-4,
            7.909438061712916E-4,
            0.0011483418544119802,
            0.00439987509255519,
            8.529943155664411E-4,
            -0.0016523496992334628,
            6.048056398372917E-4,
            0.004305860719501944,
            0.001849607693594076,
            -0.0018851769275780843,
            -0.0034416970426298784,
            0.0015669724013304574,
            0.003607099002520106,
            -7.479081290889622E-4,
            -0.0030626087636459807,
            -9.88338767385932E-4,
            0.004178519182208444,
            0.0014706856107052624,
            -0.0018755168256165391,
            -0.0020699797011645648,
            0.002727482463265148,
            0.009757351158360463,
            -9.295906875040323E-4,
            -5.684211744440373E-4,
            -0.0012363311235767521,
            -5.160184415494574E-4,
            9.548698680383324E-4,
            -2.858137947406761E-4,
            -8.18008737633466E-4,
            -7.120219874943177E-4,
            6.055332645675421E-4,
            6.727878355312626E-4,
            8.679533470476636E-4,
            1.3476817675403386E-4,
            4.323340575767261E-4,
            9.771824629616014E-4,
            0.0020098827819094124,
            0.0020046467163469207,
            0.0014148457444795493,
            0.0016184848927523422,
            0.0020672669905217084,
            0.003053411589880716,
            0.0028065129176648588,
            0.0031176295976652582,
            0.0031607303675263393,
            0.0030021321477965673,
            0.0033737796864275645,
            0.0026762500333486878,
            -0.006379584249404978,
            -0.005760807339236465,
            -0.0036960082952854577,
            -0.0030022418491824437,
            -0.0032008840635004915,
            -0.006536978711507604,
            -1.924974846111873E-4,
            0.0026729001194322178,
            -6.987597657231664E-4,
            -0.004303533620138159,
            -2.7783955854404987E-4,
            0.00838633585041285,
            0.008743594650639301,
            7.553695967794748E-4,
            -0.0010923148364623933,
            0.004407003452684387,
            0.011715093380680577,
            0.008055444059411289,
            -0.005704148585953877,
            2.403012025034981E-4,
            0.007148672492608127,
            0.010642236252002751,
            8.475169300767253E-4,
            -0.014521321829294729,
            0.017644713099685634,
            0.011958296691787303,
            -0.004355482424482952,
            -0.012316545800564635,
            -0.0013579459577039937,
            0.014488649211973348,
            0.0035116382931476594,
            -0.011014852089594023,
            -0.014348206618399329,
            7.121066128406867E-4,
            0.005979360763331268,
            -0.006882257660971567,
            -0.01262347543212717,
            -0.005170749037210112,
            0.008993531996303946,
            -0.002658360665156898,
            -0.011425665984163244,
            -0.008321789285661338,
            0.0033846281344411026,
            0.01282051820946921,
            -0.003999338463658493,
            -0.007446445976822972,
            0.0011074588841642036,
            0.009348045716127596,
            0.011711067181629373,
            -0.0037287709024648947,
            -0.003238085741855328,
            -0.0035224894523900635,
            -0.002041071288838859,
            -0.00193315699748393,
            -0.0025768784706606787,
            -0.0026877158664244376,
            -0.0024367696281907968,
            -0.0014993845757414962,
            -1.5183824582594123E-4,
            -0.0021236143649432304,
            -0.0020816986191394054,
            -0.002083654102131104,
            -0.0017105795201485454,
            -5.402527357880373E-4,
            -0.001338936359747409,
            -0.0015543507688802563,
            -0.001983620813291071,
            -3.2751508567734674E-4,
            -1.0223036371217766E-4,
            -8.69374920569443E-4,
            -1.9341914043181197E-4,
            -2.421437519974187E-4,
            8.241976141152896E-4,
            0.0012895104335430407,
            -0.0031888779772245314,
            0.0036868965275839174,
            0.002961324655869711,
            0.001422162139930622,
            0.0013862975950570246,
            0.002271370678162317,
            0.004790453336335082,
            0.0016829474138537668,
            -0.0010992281109205321,
            -1.6640620372053322E-4,
            0.004651406312587902,
            0.0029043839751498827,
            -0.002351132107063508,
            -0.002192517834076129,
            7.597334067875083E-4,
            0.002809934139460973,
            7.061311465301388E-4,
            -0.003060981816002338,
            -0.001172630138752945,
            0.004903704563948809,
            0.0015353559186207645,
            -0.0012746800296023514,
            -0.0011867243358774486,
            0.0034415197811504387,
            0.010345131218488011,
            -0.0013680365527734392,
            -6.318677603970641E-4,
            -5.683700822231402E-4,
            0.0011175177739039062,
            0.002719473907984317,
            -5.807395009693704E-4,
            8.851113224151739E-5,
            -4.817663002086006E-4,
            8.667943897209069E-4,
            0.0020810028673074934,
            -6.296736544293645E-5,
            7.54045759213067E-5,
            1.4923857060211724E-5,
            0.0010050629419089568,
            0.002383029505451608,
            0.001639445630924786,
            0.002023278581599676,
            0.0017374812008206489,
            0.0021536547212370333,
            0.003489270403234618,
            0.0026663036130011226,
            0.0031246067390124552,
            0.0028588297710917996,
            0.003258417989058892,
            0.0034789547035146496,
            0.0025659732676923718,
            -0.007275221318171244,
            -0.006854994018304337,
            -0.00402263503510986,
            -0.003933954940982166,
            -0.0035799748535913804,
            -0.006344056461768688,
            -6.070145684592783E-4,
            0.0023281547227456626,
            -3.228451484386894E-4,
            -0.003327502607804655,
            -0.001083340368076697,
            0.008478901755878067,
            0.008798555538867887,
            4.8085883991296716E-4,
            -0.0018123343159932512,
            0.005399135552265768,
            0.011857898109047166,
            0.007514170480598214,
            -0.005539837700797045,
            0.0015371170640590386,
            0.007847039876798896,
            0.010561237601710008,
            0.0015113687885249174,
            -0.013793481165771405,
            0.017740485176399912,
            0.01236874391032367,
            -0.001981687418906282,
            -0.011231185862385968,
            -0.0015271819937950303,
            0.014609839347953275,
            0.00437824184203895,
            -0.008854583898083565,
            -0.01150933173701041,
            0.002889227655357419,
            0.005853952681597875,
            -0.006073497040268877,
            -0.01033784776136642,
            -0.0038014757663988093,
            0.01053420708208875,
            -0.0021521720550731266,
            -0.011295358964893256,
            -0.004975493404916919,
            0.005086235308557728,
            0.0141935877213278,
            -0.00469012103969863,
            -0.007213212435208962,
            0.002672636510711768,
            0.010030338740105019,
            0.012103323169532805
          ]
        },
        "skip": {
          "dims": [
            1,
            1
          ]
        },
        "simple": false
      },
      "totalBatches": 4030,
      "totalItems": 201500
    },
    "a0f0a572-b49b-4e98-bfe0-19910000158e": {
      "class": "com.simiacryptus.mindseye.layers.util.MonitoringWrapper",
      "id": "a0f0a572-b49b-4e98-bfe0-19910000158e",
      "isFrozen": false,
      "name": "avg0",
      "inner": {
        "class": "com.simiacryptus.mindseye.layers.media.AvgSubsampleLayer",
        "id": "a0f0a572-b49b-4e98-bfe0-19910000158d",
        "isFrozen": false,
        "name": "avg0",
        "inner": [
          2,
          2,
          1
        ]
      },
      "totalBatches": 4030,
      "totalItems": 201500
    },
    "a0f0a572-b49b-4e98-bfe0-199100001591": {
      "class": "com.simiacryptus.mindseye.layers.util.MonitoringWrapper",
      "id": "a0f0a572-b49b-4e98-bfe0-199100001591",
      "isFrozen": false,
      "name": "bias_1",
      "inner": {
        "class": "com.simiacryptus.mindseye.layers.media.ImgBandBiasLayer",
        "id": "a0f0a572-b49b-4e98-bfe0-199100001590",
        "isFrozen": false,
        "name": "bias_1",
        "bias": [
          -2.0851649536306926E-4,
          -2.2245698753973846E-4,
          6.17273808754067E-5,
          1.342596530513414E-4,
          -2.3589847826080524E-4
        ]
      },
      "totalBatches": 4030,
      "totalItems": 201500
    },
    "a0f0a572-b49b-4e98-bfe0-199100001592": {
      "class": "com.simiacryptus.mindseye.layers.util.MonitoringWrapper",
      "id": "a0f0a572-b49b-4e98-bfe0-199100001592",
      "isFrozen": true,
      "name": "activation_1",
      "inner": {
        "class": "com.simiacryptus.mindseye.layers.activation.HyperbolicActivationLayer",
        "id": "a0f0a572-b49b-4e98-bfe0-19910000158f",
        "isFrozen": true,
        "name": "activation_1",
        "weights": {
          "dims": [
            2
          ],
          "data": [
            0.2,
            0.2
          ]
        },
        "negativeMode": 1
      },
      "totalBatches": 4030,
      "totalItems": 201500
    },
    "a0f0a572-b49b-4e98-bfe0-199100001594": {
      "class": "com.simiacryptus.mindseye.layers.util.MonitoringWrapper",
      "id": "a0f0a572-b49b-4e98-bfe0-199100001594",
      "isFrozen": false,
      "name": "conv_1",
      "inner": {
        "class": "com.simiacryptus.mindseye.layers.media.ImgConvolutionSynapseLayer",
        "id": "a0f0a572-b49b-4e98-bfe0-199100001593",
        "isFrozen": false,
        "name": "conv_1",
        "kernel": {
          "dims": [
            5,
            5,
            50
          ],
          "data": [
            -1.2214003093710804,
            -2.7118530308270627,
            -0.43602840422562916,
            -0.29162836113612534,
            -1.5882125451130538,
            0.4176037221409054,
            -0.21724577209784068,
            -2.394758844266456,
            2.432248338801385,
            -2.9018286558857125,
            -0.06555276559293423,
            -2.338200577903306,
            -0.7288880170048531,
            1.6930135667165496,
            2.954234308438889,
            -1.1021929856439658,
            3.043924065717552,
            -2.748524414294535,
            3.0358282031609054,
            -2.919353316489946,
            -1.8499274514421002,
            1.024310487901776,
            1.8364305168041672,
            -2.442700698707184,
            -2.2190658590229453,
            -2.1926536873468954,
            1.7757513168736099,
            2.778467947336105,
            0.44508830598930926,
            0.2872426952422376,
            2.528222175909009,
            -1.7006988385918589,
            -0.47999730455100775,
            1.4695676821489525,
            1.636656607271601,
            0.8672417350636556,
            0.7520207366076276,
            0.9581121668634268,
            -1.0385088520820662,
            2.1152916908140535,
            2.4116088381156793,
            0.7151337015633368,
            -1.3776625854730493,
            1.9904979151326314,
            0.03705610993847753,
            1.016599162710701,
            -0.29294535952535683,
            2.026222622235173,
            2.9638821592837563,
            -1.2441719044215838,
            -0.26001357807621683,
            -2.4894507085070114,
            -2.6019409014110826,
            -1.0050999499471434,
            -1.6020563414285316,
            -0.6316508077349349,
            1.191346161967872,
            -1.1100435140000073,
            2.433747822776855,
            -1.378070318400095,
            0.08057210537242804,
            -1.5956674436771194,
            3.0339089468871627,
            3.0998324749529473,
            -1.1232538414360753,
            -0.6298930658847844,
            0.40035461166525194,
            -2.4954864194628548,
            0.8555689675051695,
            -2.533256115797782,
            -2.1572990746988334,
            -2.2342581139717486,
            2.8317949338492716,
            2.705037785402733,
            -1.5373340294860596,
            -1.5126026853341163,
            0.5122316745744534,
            -1.2124767003466976,
            -0.8834459275506967,
            1.3014378705541134,
            1.3062790172931278,
            -1.6153027748926496,
            2.1342691901406505,
            -2.2731078216963385,
            2.0400805523925376,
            -2.202826700690822,
            1.5646906143556545,
            -0.9666873765885147,
            1.8398418868033934,
            -1.1365049904817228,
            0.14656752206634044,
            -2.539364456954077,
            -2.948093333632937,
            -2.518912713283528,
            -2.3748044512693136,
            1.8570563010008037,
            0.533984666500389,
            -0.9577256949309921,
            0.8307003590090769,
            1.9987108684474708,
            0.3758975716995217,
            -2.382084866458362,
            2.4739027131490503,
            -0.3737333432034335,
            -1.375396695702671,
            -1.9221099200501965,
            1.619990803289373,
            0.10124867156908941,
            1.4068151494865793,
            -0.6840861839618521,
            0.9495616632292118,
            -2.7125043217075473,
            -2.332828129444274,
            -0.5007373526570488,
            1.2064274116424791,
            -0.16676602836328364,
            1.698283024593554,
            -0.4705808288477584,
            -0.8936585072930576,
            1.5209896241842424,
            -0.751099995417582,
            -2.43944993879485,
            1.6061866977124202,
            -2.2685319323871225,
            1.061988728219006,
            -3.0765457164040946,
            1.9478465560034477,
            -1.3720186643156371,
            -3.099160544579744,
            -0.3638435924039464,
            2.733930828952238,
            -0.015186078223981695,
            2.951078798747724,
            1.129523717473447,
            0.6551877258359241,
            0.5238793884879142,
            1.3102575524620848,
            -2.7271546803240883,
            2.304339789368195,
            0.22755602643011025,
            1.173790355890965,
            -1.5793577300102493,
            0.9551960210635746,
            -1.1334372584282268,
            0.8831466957016448,
            0.09934963993163333,
            -1.133237504180837,
            -0.9478987971007807,
            0.7285648109492326,
            -1.598725505036233,
            -0.34538485810246666,
            1.0826287466852178,
            1.6731444084167684,
            2.8238917595882596,
            -2.198553896641239,
            0.9425136987085135,
            -2.190096144646583,
            0.022381027417251727,
            0.42064799366697603,
            -1.1702871747783445,
            1.0683953440924927,
            -2.51879964634779,
            -1.2793545205281018,
            -0.9178149110637299,
            0.26388447022785405,
            1.7980678824777399,
            -1.7123943549067773,
            2.9002690846675816,
            0.22006360197302208,
            -2.7209168834440933,
            2.9283136570032804,
            1.8495515799274178,
            -0.6122999318137581,
            -2.8704252545812325,
            1.2701675658232954,
            -1.784460080662815,
            3.104118454523624,
            -0.3185269460127928,
            1.2408451424224518,
            -2.8824153434290456,
            2.2041636409694636,
            -2.5477267773965053,
            3.069873835290019,
            -0.12229623309322198,
            2.164542424060672,
            -2.9902483742219834,
            2.592294635567542,
            0.4431632747210887,
            -0.12942724171320436,
            1.0913622790714637,
            -0.94970412460281,
            2.069340926751802,
            0.997338012798167,
            -0.3948828685088185,
            -1.0062505144164138,
            -2.9494422986111446,
            -2.9459539819361122,
            -1.8496357263712033,
            -1.101206400951498,
            -1.648844480458814,
            1.6028673116370866,
            -2.8019377641148653,
            3.021483292199319,
            -2.6086267033089126,
            2.269105120774077,
            2.73425360840453,
            0.7704469083622688,
            1.5420181639149748,
            -2.6354127542381667,
            0.49632951785439583,
            -0.2259981794230191,
            0.5656272181785337,
            0.9208576158187938,
            1.0729887164795437,
            -1.1771641562790807,
            -2.1458128202127873,
            0.4691719555333708,
            3.150455292248853,
            0.3257839463543779,
            -1.2278275303894908,
            1.9671584217935514,
            -3.139361352531389,
            -2.121470805039121,
            0.7364355945166028,
            -0.6758267138622883,
            0.9638129661666357,
            -0.017515540297046554,
            -0.04678672577258115,
            1.6839348598214108,
            -0.6389073700361751,
            2.501018490099543,
            1.846548028314045,
            1.0895889233346747,
            0.4712126569795979,
            1.6409879589483327,
            0.4473913514599887,
            0.7719840510496656,
            0.4241822875452418,
            -2.4762059007565713,
            -3.1499580417708337,
            1.4564439581678887,
            1.3596630693259784,
            -0.8738397922196792,
            -0.2627165084421315,
            0.8378166494778495,
            1.942377917823603,
            2.9292492946624784,
            0.17321483347151392,
            -3.0238245576922034,
            0.8146298162130582,
            -0.8175166324387956,
            -2.5225651781487213,
            0.3119814139681601,
            0.10236441010925335,
            0.6265142152989159,
            -2.1688450642648904,
            -2.864124967368111,
            1.8809939337401553,
            -2.167429715833349,
            1.7955846123087256,
            2.4250873637748174,
            3.014474029331267,
            2.412750260715125,
            1.7046016081453146,
            0.760908138196744,
            1.109483515130135,
            1.8783856220622364,
            -0.4002786115000744,
            -2.955386611785456,
            1.3698564847380443,
            2.212805876973033,
            -2.332354578822314,
            -3.1156288180985885,
            -1.3100653376418887,
            -2.330070203797739,
            1.2615992250307215,
            -1.7899006509357978,
            -2.544127085421069,
            0.3051427670679251,
            -0.3780350069214068,
            -1.1941857421703914,
            1.7805439852106202,
            -2.6115551283304814,
            0.9084268279086745,
            -0.8568778215666488,
            -1.813839359720369,
            0.22732412264941185,
            0.626747278424453,
            -1.9697885130314259,
            1.3290590307246368,
            1.1960917896669612,
            0.1838463358796603,
            2.438919263765364,
            0.7863581369783693,
            1.375619088494631,
            0.7441647265136901,
            -0.287740827557307,
            -0.9846798567823148,
            -1.3532757227504422,
            -1.4125386449306279,
            0.9995463986367737,
            -1.7495561351783417,
            0.2979151249120534,
            2.1635709413168374,
            -2.1605423263873518,
            -1.9578309430202003,
            -0.5405986565097866,
            -2.1929358158564534,
            1.9181497424684095,
            -1.6071744264758931,
            3.1156985061828566,
            2.079405601736628,
            -1.604103387779175,
            2.891274371795871,
            -1.2228492300888572,
            2.592900905937166,
            0.6481628424786268,
            -1.0551521362397662,
            0.1631516044525187,
            -2.993858337221997,
            -2.890053864133941,
            -0.29363414366306817,
            -2.5631799077212643,
            1.870613937237262,
            2.115409987205324,
            2.1862150176055057,
            -0.06966167916677075,
            0.7177890996851115,
            1.0256032705634375,
            2.3472224734504503,
            1.6739059866735413,
            1.383770569513003,
            0.09353613906637062,
            -1.7084832288395073,
            0.3912460329783825,
            -2.356350974217858,
            1.734305038429445,
            -0.40896229578969057,
            -0.6287932885582646,
            -1.224469263207164,
            -0.6576161892134491,
            -0.7448047723306523,
            0.1174533282597651,
            -0.5738685856338457,
            3.1354610023648597,
            1.268296691186358,
            -0.9142472128189172,
            2.3807302850523455,
            -0.2280278343117793,
            -2.7079479009268543,
            0.29564647963841717,
            -2.5165679814760424,
            -0.3753052734360307,
            0.15662998557764732,
            -2.6701059041026376,
            2.6169992073921016,
            -2.5612434571218663,
            -1.750530799825592,
            2.780532959273231,
            1.9622743510632017,
            -2.053141643424299,
            -0.5397688128374417,
            -1.7236700443100899,
            -1.5157823289832721,
            -1.7561972421287697,
            -3.0667166743551824,
            -2.353054865677361,
            2.3880058679930936,
            -2.0829807695387417,
            1.7294727318803491,
            0.9592354864919063,
            2.8780415737305933,
            -1.2372850110415385,
            -2.659157810671085,
            -1.3587272070609093,
            1.0705041464799812,
            1.1093854723655026,
            -1.522950690839758,
            2.912250828039329,
            -1.6195309105255475,
            0.9359695430722615,
            0.8436483488165202,
            2.338581406748882,
            0.013604038440045811,
            -2.180258084288827,
            -0.3703719432337798,
            0.6879470471728438,
            1.1902003811992543,
            2.164880377782028,
            1.2448912979155384,
            -1.6182587530103887,
            2.804517445990568,
            2.8555593141692994,
            -2.839635827318318,
            -2.246616863873308,
            -0.27707747825634604,
            -0.497523047079355,
            -1.2808966062983946,
            0.8492526072098917,
            -0.5215940527024978,
            -0.11360949735435664,
            -1.2307974752690924,
            1.0142630291217474,
            -1.7404521282244947,
            -2.2709782017556366,
            -0.3286742389904774,
            -2.445226745150709,
            -1.7530871307453106,
            2.8778779274991884,
            2.4776209322490805,
            1.8806918840462103,
            -3.0288565475791214,
            0.04843966835311022,
            1.9601950866366697,
            -1.5665123264962861,
            1.7985701472917086,
            3.0596788836093634,
            -1.2369225894321958,
            2.2726523658204005,
            3.0033814501266605,
            -1.1157066030729028,
            -0.8168928984591196,
            -1.2449958463207524,
            0.35807039468510793,
            -0.3696844101898191,
            0.4422693491863652,
            -2.169490860719462,
            1.600408953395327,
            -1.0378179281254263,
            1.2326072396113823,
            -1.3192732492477304,
            -1.202280037101403,
            -1.4034860351913192,
            -0.7083748932016695,
            3.924936349668265E-4,
            -0.16750965102043802,
            -2.4502945935762055,
            -1.842828575397494,
            2.5728174493484244,
            1.515434148988176,
            2.526111488148054,
            0.023497269919249525,
            2.5942126558027474,
            0.959734798698037,
            2.545038544682916,
            0.7606166461132811,
            0.9456887552211016,
            -0.38299795384947055,
            1.7678656261669818,
            0.7554224514527883,
            -2.8588253943630626,
            1.5647661322808344,
            1.311739199631583,
            2.6532224633268924,
            -0.7229902296856481,
            0.6506102429578599,
            -1.14541144549071,
            -0.14201315786374977,
            -2.988691428911601,
            -2.040823701380131,
            2.7547961170786412,
            -2.8201988818801333,
            0.47124321891010756,
            2.5363945505182564,
            -2.4429963700730553,
            2.8689109037213933,
            -2.7998240256196514,
            -0.2898182668512169,
            -1.4985734867639153,
            -1.6591036421689371,
            1.9455331391338713,
            -0.015480101485532912,
            -1.4071532252379217,
            -0.6256038012133397,
            0.23128067893331467,
            -3.014677923762673,
            2.8938601905362575,
            -2.570993915499539,
            -2.2866039198980532,
            2.7420288849412118,
            1.334618871523204,
            -1.2068755031134593,
            0.16693893966802884,
            -0.009542011513224334,
            -2.314886118896055,
            2.942672628920585,
            -0.010958416482004131,
            0.29847768272791925,
            0.5930540919165628,
            2.793976024822627,
            -1.7073810585597031,
            0.6240396867072449,
            2.2938313079361765,
            -0.21393301449759597,
            -0.01004615194327162,
            0.9815173657658989,
            -1.9966029414042579,
            -1.9489957920915046,
            -2.2396108226131575,
            -2.8589886994000397,
            2.487396784305526,
            -0.3762023843420093,
            0.7509014211063545,
            0.3198953685366512,
            2.2467216205366713,
            2.2680451768248617,
            0.8345260446092719,
            2.8929976334927647,
            0.2836216812128827,
            -2.0833755462784973,
            -2.243639695158131,
            -0.24512880480739152,
            1.068194048026418,
            1.372755359130164,
            1.5006229565544864,
            -2.0649468397728747,
            -0.09464973908229428,
            1.5289152763610299,
            0.8518839701439717,
            0.019132036219974977,
            -3.1011918137573464,
            -2.5982109728246012,
            1.5196732538650912,
            2.583408698464881,
            -0.30597004537878125,
            0.09937560383469178,
            1.4925258463629263,
            -1.6250103947892824,
            -1.161902013378587,
            2.3223757464281305,
            0.11719423058292956,
            -2.571307927132162,
            -0.981751684927774,
            0.03321755469923836,
            -1.160431093856852,
            2.4637398181872374,
            1.422023453569115,
            -1.2487737519253603,
            -1.562563374995704,
            -1.8868486160799474,
            0.28082843472266916,
            0.08962362255266465,
            3.0425377108257,
            1.510175695908999,
            -1.300357770084696,
            -2.7841262033587952,
            2.983284677193806,
            1.6479985772654722,
            -0.8643538473407867,
            0.3596674138762375,
            1.0789718686755334,
            2.9027522192472714,
            -0.6350925015362308,
            1.5823346706168966,
            -0.8456918436867144,
            -1.0034946696299178,
            -2.26923956024349,
            -2.9294332849722493,
            1.865128411280864,
            2.0143302393661773,
            -0.876734236239131,
            2.4545390942770613,
            0.5346249983002014,
            -2.850474310920793,
            -0.9013850561912254,
            -1.124332543483234,
            -1.2787598861418346,
            -1.586591078745802,
            -1.5291329247367826,
            1.3752029685237148,
            -1.421325749384072,
            2.2725332428847858,
            1.1062429549015431,
            0.09126512842177131,
            -1.030872433941197,
            1.3189719807350837,
            -0.5749266699550389,
            2.647310332250273,
            -2.7402355678685817,
            0.5377258258158343,
            2.4912793560214634,
            -0.6593049154173642,
            -0.7537557817685898,
            -0.6112484712862061,
            -2.863827400032635,
            2.170204571567114,
            0.1848946277264358,
            -2.4886187062584524,
            0.38120015843435756,
            -1.2707350649422744,
            -1.7903042360644463,
            -1.913860183562722,
            2.3934649654596463,
            1.896340641679158,
            -0.7569650410516413,
            -1.2506745393128533,
            -0.6412162477175789,
            2.418791612015906,
            0.0448977367846188,
            -1.8610836735723677,
            2.8499121777899394,
            1.6553690148477842,
            0.5369074603542805,
            0.6216049587386752,
            1.7207753309959868,
            -0.25702801832401934,
            -2.0093727109400623,
            2.3824702715273007,
            -0.9806766929822253,
            -2.0775549242466833,
            0.5629394465748414,
            -1.655056881851074,
            -0.6406650449552036,
            -1.8843752202204789,
            0.9210945790691885,
            1.5146416988642393,
            -2.486486922559481,
            2.269524580562357,
            2.3980713525525235,
            2.855090454920806,
            -3.1453286336881847,
            1.986279771336639,
            2.065533817741857,
            -1.0160941572671882,
            -0.4841586733530221,
            0.3960110834982461,
            3.01915426872627,
            0.09532601620046373,
            -0.9148566844359345,
            1.7595962211503833,
            0.5957831381071705,
            -2.7207945642131643,
            -0.6569251146932406,
            0.3941459535908621,
            1.7820570318502718,
            1.766498060076665,
            -2.0324779046215284,
            1.9585999550803082,
            0.41315857614621876,
            0.5899066601939159,
            -0.8386243128605048,
            -0.3698760420557072,
            1.394237909567044,
            -1.403111913995395,
            1.869665544348758,
            0.055787176225500924,
            1.0147042755548157,
            -0.04638341757474,
            1.7576932011874378,
            0.8285992971054548,
            -2.611486100686389,
            -0.9876278406452352,
            -0.6910121803736429,
            0.95688637074245,
            3.1537114177795247,
            -0.34987840659517017,
            -0.4771078515841516,
            -2.6806514410288305,
            2.7969129327619426,
            0.7072984238973791,
            1.3956064518193108,
            -1.0544832891455291,
            0.630060016658756,
            0.5005391239015234,
            2.2954888309166503,
            -2.0429802094551133,
            -0.5064588073946648,
            1.8860815004303988,
            2.6898408948098393,
            3.1216058381721994,
            0.8655997999863865,
            -1.6741282988638946,
            0.7768128151167315,
            -3.102467248988968,
            2.5236832579355353,
            -1.0283770455431076,
            2.5294417739996677,
            -0.7419905271791569,
            1.32943468794256,
            -2.592276328112675,
            -2.5572880766796153,
            -1.359940214375221,
            0.9764236144870195,
            2.032344605028719,
            2.2289698162757308,
            -1.1345303746469046,
            -0.295800133919489,
            0.5089019820414273,
            0.42216697414006343,
            1.4668158494688344,
            0.16317997192131645,
            2.3628658511420526,
            0.3028578632330916,
            -1.1125110406297898,
            2.6911316069312297,
            -1.2974027232403087,
            0.5572524763408493,
            2.113459413187063,
            2.1831856015078603,
            -0.9489639600994519,
            -3.0859096465821696,
            -2.837876553588344,
            -1.4522324844252292,
            1.9668777367779553,
            1.454119952732264,
            -1.9199433256332024,
            -1.0435637998148506,
            -0.48515915892014794,
            0.00958172731378321,
            2.815359403569196,
            0.2718594444950436,
            1.9672811748161494,
            -1.8195405579402362,
            2.3979596176374147,
            1.2050575952748608,
            -2.7559481121045937,
            -0.22088756793909026,
            -2.2940508944820874,
            2.9770481139656106,
            -2.585995025399539,
            1.481252411344604,
            -0.14452678528495969,
            0.4356797524844502,
            1.3286022351035212,
            -0.8778307350943664,
            3.076029484497627,
            -1.9442349316999956,
            -0.5787387965003568,
            3.035011245109678,
            -2.9380979610396447,
            1.8552671149712987,
            1.048000571140902,
            -1.0278354214285097,
            -2.431522348943711,
            -1.0516820425205156,
            2.46548681084426,
            -1.1411075350898625,
            -0.2815503789792056,
            0.7509250152765118,
            1.0153130240704316,
            2.6278683416275803,
            1.2671620967920925,
            -0.6915911366390568,
            -2.8840377334869802,
            0.06842510648495442,
            2.9741274652395226,
            -1.0026300781153217,
            -1.1258018095987694,
            -0.5149993754598544,
            -0.40401767959778967,
            0.51941211529703,
            3.0249457165111595,
            -0.5808646345568048,
            1.6058521056735253,
            -2.168041943412831,
            0.608548932872837,
            -0.07790704824006578,
            1.5891488737250985,
            -1.0857172189904394,
            1.780075669705267,
            -2.862126189489375,
            0.1747461470098161,
            -0.3429250477332103,
            0.8157471044057862,
            1.2517082554379377,
            -2.116127725849362,
            0.02346089833437543,
            -1.8086442241290397,
            2.742795770160583,
            -1.2289278015977392,
            -0.7057095601927676,
            -0.5219124202234328,
            1.4845567092460261,
            2.8432535863712562,
            3.12450101892363,
            0.004972855652829631,
            -1.4183466762370147,
            -2.6782016548286482,
            0.4848165758079047,
            0.610480964051634,
            -2.62518540128599,
            -1.634826137914064,
            -2.523061770858038,
            2.075243651968346,
            -2.850884779243091,
            1.4154265510989048,
            2.7393216793907498,
            -0.29654177252420627,
            0.3568145167636335,
            1.6861471641656878,
            -1.859538052308894,
            0.6326782961755251,
            0.8379918601609347,
            1.5281838465154822,
            1.060619803876648,
            1.4825723380285387,
            2.0003376253919476,
            -1.2780905109409608,
            0.28491587846162547,
            -0.153489380645939,
            -2.539763150765474,
            0.13152467128760828,
            -2.4857719506549554,
            -0.3028725520392001,
            1.4328140760966022,
            2.819023312049975,
            0.7651709944821531,
            -2.1671098339421397,
            2.2842402019928953,
            -2.9100305589106292,
            -2.291958353972859,
            -0.36895093045165134,
            2.767217300709239,
            0.01786622458477158,
            0.5511139117906284,
            0.8566655183385224,
            2.4473555651148904,
            2.35587030795328,
            2.3448655704746586,
            -0.8445324044929151,
            0.4689676870369479,
            0.7414713116320114,
            -1.8721351136792108,
            0.3489367700350848,
            0.7117509913423693,
            1.5067713069729396,
            2.397059183603455,
            0.7414977898667755,
            -1.7364424320187242,
            -0.3167981698337479,
            0.6468439097556956,
            -3.0899811190346194,
            -3.1278497379300667,
            -2.074114053834903,
            -0.5483908008627805,
            2.966803781127097,
            0.843174029522325,
            -0.68185915351272,
            0.5835254889428582,
            1.8433154538633874,
            -2.4281917540683873,
            -2.5204700359011905,
            3.025727989023546,
            -1.0700280103701494,
            -0.8530019198593497,
            0.17049835557159804,
            -0.2180296994291023,
            -0.39761394579806336,
            0.7566944949960805,
            2.766166044131618,
            2.5808035940570866,
            -0.3823066650465985,
            -1.0677957833503464,
            -2.701075622249198,
            0.7373375376702768,
            -2.981848679135169,
            -2.764385531640771,
            -1.5829296770749075,
            1.790232908677826,
            1.4767741868487643,
            2.398888800447656,
            -1.2190765634294844,
            2.250437080776209,
            -0.140375715623828,
            -0.8915879774699307,
            -2.6792718711052945,
            1.9343228294229204,
            -2.582314936645148,
            1.9171959378680106,
            0.5374623621553681,
            -0.43701263219844355,
            0.5999451488050275,
            -0.4463615427884718,
            1.8340247017612648,
            -1.0802294599127082,
            0.13922259039547225,
            -0.9778024801414982,
            -1.7277102849302457,
            2.7866063942778303,
            0.3684069912178681,
            2.3672277451406485,
            0.6407788092281036,
            -2.5194911485978904,
            -1.4221758154821091,
            -0.8082613133511497,
            -3.074143107293967,
            2.462709280953365,
            1.9871282876135743,
            -3.0428272638840332,
            -1.8802261464388863,
            -2.2777466591931934,
            2.8558053550214595,
            -1.954270880873476,
            2.647248034293632,
            2.642656258811282,
            -2.559109939582458,
            1.7103903361511226,
            -2.614837986439594,
            0.058409001756562814,
            -0.8078322742068765,
            -1.26207724687082,
            -0.9797621825714534,
            1.1355702419819795,
            -1.343286932895094,
            -0.4162847157041258,
            -0.8602084937332168,
            0.4988365405823334,
            -1.5900060423519429,
            -0.3357421475286487,
            2.0089784622217484,
            0.025106766370876676,
            -2.028718156472223,
            -0.3951085518538953,
            1.0760516863211,
            -1.0454675151543344,
            2.9591719405591843,
            0.1126850947070424,
            -0.3498025180230648,
            2.001649019104353,
            -3.1240169509570794,
            1.172597336560556,
            -1.6927279006392448,
            2.3136145372985895,
            2.461913732944076,
            3.0673975855609785,
            -2.254658788632972,
            -2.471189355427083,
            2.27277609840756,
            0.9318077031124058,
            -1.9866903238131535,
            -2.7587141795291714,
            -1.4192998849780871,
            -2.9318784898578696,
            1.3648549956559601,
            -0.7482743843761999,
            -1.4922172025482097,
            -0.5556046282393079,
            1.2294842625411349,
            1.1991985943342518,
            -0.13024259551007047,
            2.671066444192975,
            -1.0188819577964063,
            -1.2591901711884688,
            -0.24135987220038432,
            -0.34595176618133183,
            0.4786282334892581,
            -0.42759722924172383,
            -2.8048624740771673,
            -2.9882844303450775,
            3.0668619723589696,
            2.907103988196477,
            2.442700363720651,
            0.48546949538792045,
            2.6677008947572425,
            -0.11363196863960699,
            -0.11419769857224019,
            -1.3731349735409057,
            0.45769770236713486,
            0.9523391165959881,
            0.5092998750193877,
            -1.9394183333442498,
            -2.7310800567860363,
            2.4087240916194084,
            -1.8642327403567873,
            -0.48419586133869696,
            -0.10972243281037998,
            2.0936702662184032,
            2.9362913108015922,
            2.0662799571329766,
            2.4379573335981064,
            -1.055450515942781,
            2.155245187881548,
            -2.7074930196834517,
            -2.172568120201194,
            0.30317851817694014,
            0.5291637258742009,
            0.20289283603644498,
            0.12376142830967787,
            -2.6021033922640022,
            -1.6541051543190022,
            2.561828626200662,
            2.3639918208649053,
            0.814651655567822,
            -1.1128026619115527,
            0.385754532477604,
            1.1173139772501046,
            -2.2244945042223123,
            2.3244295769594854,
            -0.08022067061378353,
            2.9981973404282645,
            0.257346757662732,
            -3.0563396932954032,
            -0.9800963227663229,
            0.2517880822351574,
            2.624962294175288,
            -2.582281861591804,
            -2.9090469589344865,
            -2.854791471908631,
            0.02548372019776089,
            3.075678428089077,
            -2.693770261581754,
            -2.7873018826535563,
            -1.0166027116245597,
            -1.8377329464029903,
            2.569870011375167,
            -2.358628462072248,
            2.4201023722376944,
            -0.951753144223781,
            2.1964654553329432,
            -0.18978295093186068,
            3.047938941159429,
            1.2737787328192363,
            -2.2617978806415446,
            0.21390062451757585,
            0.658685091269896,
            2.3596996922466653,
            -1.7099358744666222,
            -0.49692165998682286,
            -0.8354476451758507,
            0.7680441684362022,
            2.5870876281553032,
            2.122743912796175,
            -0.9959873752490477,
            0.41742057597400856,
            -0.26272493944595604,
            -0.738659457949298,
            1.735818244824107,
            0.38308028384226095,
            0.4865263411879655,
            -2.042138877525315,
            -0.764875867135553,
            -3.0482180037447772,
            -1.816571307161784,
            -0.5286972252136449,
            -1.1241782494870287,
            0.9993475804729106,
            -2.954042272789723,
            1.0522550132345443,
            1.8796584367249805,
            0.15605682887565045,
            -2.1958619987161967,
            -1.9867964076072238,
            2.757104438248556,
            1.5578679415334167,
            1.6337234419286817,
            -1.8791004609176443,
            -0.38549061917789573,
            -0.897731767165822,
            1.5705419977908388,
            1.9316047033763668,
            1.3018643584744725,
            2.7086606065393335,
            2.132857331473741,
            2.3279603129807698,
            2.512483831905105,
            -0.7977997308482614,
            0.5996723481086951,
            -0.0757941776767152,
            1.930681643183184,
            -0.19552253385189863,
            2.828791170516104,
            -2.423924729705964,
            1.3134396901736107,
            0.40086435904407225,
            0.578138217711266,
            -1.3704816543297833,
            2.1616722908029153,
            -1.4085211363365822,
            0.09109557947395873,
            -1.3833396792815682,
            -1.6845473066323389,
            -1.7580063134626251,
            -3.0053653414877717,
            0.5482182059064344,
            1.4087095844112945,
            0.7212774587874663,
            1.279095780195526,
            -0.8021631068462534,
            2.9233959431899654,
            0.7922620952810727,
            -1.178608317380939,
            -1.1029956917424357,
            0.8354632521589643,
            -0.9532565676913927,
            0.8560262891393587,
            0.20210629919410178,
            2.431364062493144,
            1.5172129965432346,
            1.8178191510732347,
            1.7500541717683256,
            -2.0253909759974555,
            0.4265189097585951,
            -2.7154568408917985,
            1.34294246854188,
            -0.25014375764059377,
            0.6689743652360067,
            -1.7887215631817879,
            2.834441736595277,
            2.9583841592945714,
            2.3608523471535596,
            -2.718130115410804,
            1.5325299816759683,
            -2.2990487282420227,
            -2.476745381593232,
            0.38141281652764764,
            -0.7336034251944956,
            1.6153566586547787,
            -1.130017944733331,
            0.8911617568739427,
            1.7224501458197634,
            0.263578463146569,
            -2.5985833989500007,
            -0.3111810121143215,
            -0.21949245053599523,
            -1.4468807724819834,
            -2.8857403502887315,
            0.6450353625689159,
            0.12525636730818318,
            -2.3344285442154775,
            0.416645436971025,
            -2.1582706525133717,
            1.726643687879569,
            -3.0726409275702125,
            -2.892708073250077,
            0.4355534349820516,
            2.057383255304638,
            -2.7253838459254247,
            -2.073790848277661,
            0.22734015608418112,
            2.3861102150061435,
            2.6876344747202907,
            1.305480321827139,
            0.5078190113741948,
            1.5539100505011612,
            1.1040041607941917,
            1.3415090100659626,
            2.0625990985366855,
            0.3866910765592958,
            -1.6994183009953552,
            2.277254874615862,
            -1.668563410629291,
            -0.5309143418073459,
            -0.8855374071536644,
            1.611081323925338,
            -0.5529598501038159,
            -1.3279524190910545,
            2.070907809682629,
            -0.2710341635328486,
            2.0204147334823976,
            0.7488252075831862,
            -0.850430725167322,
            -2.3421035359555837,
            1.56548321965459,
            2.4040952195853382,
            -1.0353974600541005,
            0.9674280049209535,
            -0.08988682838120289,
            1.9121728020020754,
            -0.33281289305800427,
            1.6789234392238994,
            -2.519216714323521,
            0.7239165560451127,
            1.0822912202532857,
            -1.6101377824377157,
            2.822120472715772,
            -1.0739784700399484,
            -1.3219568650222382,
            -0.15719440058913353,
            -2.9656422913565152,
            3.0035902565014956,
            0.30656288872809334,
            -2.8615067952212527,
            2.538609113759103,
            -2.9080509978050415,
            -1.8763626670440954,
            2.163275106646095,
            -0.96204100546509,
            -0.7693904956370696,
            -1.1782991672536673,
            2.2621309247627397,
            -2.537325200786964,
            -2.041918455069868,
            -1.275281262254397,
            -2.4738748151075693,
            -2.3425924095185353,
            -2.344249775121643,
            1.3635272130973632,
            1.9647295575701613,
            2.7284224225417417,
            2.3882977629770537,
            0.08508770281460999,
            -0.4174210556403546,
            -1.6593827453810854,
            1.046805561811847,
            -2.1440170897533206,
            0.8635642754902974,
            1.3324533903753921,
            -1.4859678551208109,
            1.1965188600945287,
            -1.5453554222109498,
            -1.9316992598859328,
            -1.0600677597870414,
            2.775380634944891,
            1.8988838897320468,
            -0.1977068768583207,
            -2.2165568116653023,
            -0.8633521472837854,
            -2.7562078896494024,
            -2.3693575030400487,
            -1.128286652761116,
            -0.9706398340925454,
            2.9906916114775304,
            -2.627916781845581,
            2.608147572043259,
            2.626182439197699,
            2.6022774841629626,
            0.47678093439132485,
            -0.1443443357337943,
            -0.3866531801141859,
            -0.22925408343489537,
            1.9012206080568843,
            -0.2123093367492092,
            0.6062810801815387,
            0.07474252005884702,
            2.498116867651759,
            1.3937248801247848,
            -0.7273404412770447,
            2.412347697360063,
            -2.071464046416544,
            -1.891474975552052,
            -0.019711748717571823,
            2.2818157612132004,
            3.0097567074752227,
            0.9273662225875546,
            -1.0960258474361164,
            -1.4267128291761162,
            -3.0773727887872333,
            0.2737519839780769,
            2.988205674484963,
            1.487076392679803,
            0.019999655790544347,
            -1.6434380639226698,
            -0.6453839809777461,
            2.8290161160014153,
            -2.2753392293497448,
            1.5835526242097033,
            -0.8350405583861075,
            0.637709493515301,
            -2.9508195421004206,
            2.6545137666363465
          ]
        },
        "skip": {
          "dims": [
            1,
            1
          ]
        },
        "simple": false
      },
      "totalBatches": 4030,
      "totalItems": 201500
    },
    "a0f0a572-b49b-4e98-bfe0-199100001596": {
      "class": "com.simiacryptus.mindseye.layers.util.MonitoringWrapper",
      "id": "a0f0a572-b49b-4e98-bfe0-199100001596",
      "isFrozen": false,
      "name": "avg1",
      "inner": {
        "class": "com.simiacryptus.mindseye.layers.media.AvgSubsampleLayer",
        "id": "a0f0a572-b49b-4e98-bfe0-199100001595",
        "isFrozen": false,
        "name": "avg1",
        "inner": [
          2,
          2,
          1
        ]
      },
      "totalBatches": 4030,
      "totalItems": 201500
    },
    "a0f0a572-b49b-4e98-bfe0-199100001599": {
      "class": "com.simiacryptus.mindseye.layers.util.MonitoringWrapper",
      "id": "a0f0a572-b49b-4e98-bfe0-199100001599",
      "isFrozen": false,
      "name": "bias_2",
      "inner": {
        "class": "com.simiacryptus.mindseye.layers.media.ImgBandBiasLayer",
        "id": "a0f0a572-b49b-4e98-bfe0-199100001598",
        "isFrozen": false,
        "name": "bias_2",
        "bias": [
          -3.6279518565019463E-6,
          1.877682022369453E-5,
          -7.772100817908232E-7,
          3.420065356602941E-6,
          5.299122824830944E-5,
          -1.4611902409938504E-5,
          1.916198535199457E-6,
          -6.607776937285532E-6,
          -7.126897485549591E-6,
          -1.1678212776607928E-5
        ]
      },
      "totalBatches": 4030,
      "totalItems": 201500
    },
    "a0f0a572-b49b-4e98-bfe0-19910000159a": {
      "class": "com.simiacryptus.mindseye.layers.util.MonitoringWrapper",
      "id": "a0f0a572-b49b-4e98-bfe0-19910000159a",
      "isFrozen": true,
      "name": "activation_2",
      "inner": {
        "class": "com.simiacryptus.mindseye.layers.activation.HyperbolicActivationLayer",
        "id": "a0f0a572-b49b-4e98-bfe0-199100001597",
        "isFrozen": true,
        "name": "activation_2",
        "weights": {
          "dims": [
            2
          ],
          "data": [
            0.2,
            0.2
          ]
        },
        "negativeMode": 1
      },
      "totalBatches": 4030,
      "totalItems": 201500
    },
    "a0f0a572-b49b-4e98-bfe0-19910000159c": {
      "class": "com.simiacryptus.mindseye.layers.util.MonitoringWrapper",
      "id": "a0f0a572-b49b-4e98-bfe0-19910000159c",
      "isFrozen": false,
      "name": "conv_2",
      "inner": {
        "class": "com.simiacryptus.mindseye.layers.media.ImgConvolutionSynapseLayer",
        "id": "a0f0a572-b49b-4e98-bfe0-19910000159b",
        "isFrozen": false,
        "name": "conv_2",
        "kernel": {
          "dims": [
            4,
            4,
            200
          ],
          "data": [
            7.185405999805704E-4,
            0.0027824006735189394,
            -0.0012558418781104474,
            0.0038288296511667483,
            -0.0021310765483281836,
            -0.0012919092529757596,
            0.002946583481108843,
            0.0035010954724263694,
            5.676780416756873E-4,
            0.0029254442629435985,
            -0.0022464565522804553,
            -6.868673205491066E-4,
            -3.2535129439615154E-4,
            0.002683709063402134,
            -1.2518467286206844E-4,
            -0.0012120977368193912,
            -0.0013519715774521416,
            -0.0010136403431014942,
            0.0012262619620829348,
            0.0013242947201219254,
            -0.002374311408479977,
            0.0026231867846925453,
            0.0017923167068248317,
            0.0021908400635134427,
            -3.2674231581897154E-4,
            0.0022485468426067584,
            -3.784683808143131E-4,
            1.5167429681562706E-4,
            7.22549931542853E-4,
            -0.0018647019959188995,
            -3.6727860661809103E-5,
            -0.002108193512041202,
            0.004320250278247322,
            2.2878257212762638E-5,
            0.003077792513972138,
            -5.254447381295854E-4,
            0.0011845678383747907,
            -0.0017236706043182446,
            -1.7376616279980722E-4,
            0.001717150839170909,
            5.351700873572943E-4,
            0.0022421833963703133,
            0.0016058989884716146,
            0.00315962299262024,
            0.0013981977747926071,
            0.002242350762705107,
            -0.0020391078556714066,
            0.004057229925848288,
            0.0013888349384855875,
            -0.0026848484993749013,
            -0.00212413828851683,
            -0.00240380631124124,
            -0.0012777985710571127,
            -0.0014686667435628515,
            0.001155486784387999,
            0.0011895430005167097,
            -0.002199881031668069,
            -0.0014892878314516818,
            -0.0019198726777425862,
            -0.0022307817343951266,
            -4.5761022068033187E-4,
            -0.0029733747708785303,
            0.0025214760358665805,
            -4.774705195608569E-4,
            -0.0011916835898487354,
            -5.7994533910918536E-5,
            0.0019333122849571505,
            -0.004539379813214174,
            -0.004992364870256324,
            -4.183270284000715E-4,
            -7.163943972141342E-4,
            5.25538432938698E-4,
            -0.0031984299912107537,
            -0.005365755634657662,
            -0.0033636775651441366,
            -0.004399550204236027,
            -0.005097633326334769,
            -5.679307631471133E-4,
            -3.215559498553388E-4,
            -0.0018304648096400633,
            1.9963376851383612E-4,
            -0.0016724508513041392,
            8.671220607579563E-4,
            -0.0018549699811226648,
            5.443001743581605E-4,
            -3.5348690748753615E-4,
            -0.0022260286633879766,
            -0.0016383484000553124,
            8.910400267313486E-4,
            -2.1871840403007985E-5,
            3.275673126360377E-4,
            6.357632702662935E-4,
            5.931391051170174E-4,
            -1.9547632358594933E-4,
            -0.0027539916837895596,
            0.0026815569506766215,
            -0.0033751021730400233,
            -0.0017583305732683952,
            0.0011508202998527337,
            0.0010919349946513757,
            0.0024580657559538565,
            8.34771871670799E-4,
            -7.580220998861178E-4,
            -0.0011299360086895682,
            7.760101242021763E-4,
            -0.0025702169039687867,
            7.761725613504776E-4,
            -0.0017922185098403222,
            2.1052298083249608E-4,
            0.0022407743858601377,
            -0.0026709915765642453,
            4.2200642563195606E-4,
            0.0013383681783624348,
            5.988808196439245E-4,
            0.0013872818768643823,
            -0.0017111975123638057,
            -0.0012277424277241241,
            0.0022100188652494023,
            0.0014628295379606093,
            0.002066733021525391,
            -0.0024791689303217744,
            0.0016777179163462274,
            -0.0018718676894724088,
            -0.0020945676828085995,
            -0.002349937957232956,
            -0.002849251989658854,
            0.002188567756956066,
            -0.0033536412681086382,
            -0.0011448941348059327,
            0.0020831237946127876,
            5.117284958760855E-4,
            -2.0212954967017792E-4,
            0.0013419973337063069,
            -4.626882118764128E-4,
            0.0034453422828191246,
            9.744968621663933E-5,
            -0.002450148308309292,
            -0.002024324285388924,
            -3.995565665384348E-4,
            -0.0012313488528024016,
            -4.105928967884158E-5,
            0.0012395013973807263,
            -6.950384242747537E-4,
            -0.001414122681516223,
            0.0012107838033593831,
            -0.0014138830689083297,
            -0.00182466747823111,
            -3.201938394949938E-4,
            2.1559832040504495E-6,
            -0.003851621837027112,
            -0.00394931456232669,
            5.798987870543796E-4,
            -9.063956045052466E-4,
            -0.0035564193726500227,
            -0.002728536024985635,
            -0.0034323747154389873,
            -0.0026463700704345804,
            0.001981846259683565,
            -0.002459715173441697,
            -4.6046625757145736E-4,
            -0.0012539513241699978,
            -0.0027974920153626256,
            -0.0018318818077983092,
            -0.0012105497443944146,
            -0.0032348953753960864,
            -0.0031295330099541043,
            -0.001905722112367739,
            -0.0033018354773331625,
            3.223953210532532E-4,
            0.0020356533146630384,
            6.631618281361005E-6,
            -0.003085529299128713,
            -0.001611495246331477,
            -1.6289902060918966E-4,
            0.001571249484757516,
            -0.0022450148316356736,
            6.378916785181892E-4,
            6.093726671793999E-4,
            9.000672808651133E-4,
            -0.002731193242086719,
            5.697013709430838E-4,
            -0.0019183550215123833,
            0.001635075614100899,
            -7.823112947962837E-5,
            -0.002995033182569189,
            0.001108681393852562,
            -9.112711185157266E-4,
            -0.0029359474769495232,
            -6.036907646160406E-4,
            0.0012833658124930647,
            4.946897624728626E-4,
            0.001118567577014518,
            -0.0012263598792392918,
            -0.0019176030749053282,
            1.302265627268616E-4,
            -0.0012056818908666024,
            -0.0016978768558874257,
            -0.0020802839662269765,
            -0.002528286934603467,
            0.0018600943902967039,
            -0.0020731255749831235,
            9.137768743317789E-4,
            -9.807701012970239E-4,
            0.0026384079326238394,
            -0.0012816365045443417,
            0.002386917887069287,
            0.002128137658668828,
            0.0019602929468956766,
            -0.00408090464904278,
            0.001540797792676597,
            -0.001627323609522949,
            -0.001439459829622039,
            2.1459852329094644E-4,
            -0.002104962718000043,
            0.0010657201947349684,
            -0.001352712129303163,
            -0.001114272290474493,
            -0.0014541322094037132,
            7.103018010924339E-4,
            -3.9428695377303254E-4,
            -9.185504057432956E-4,
            2.0939103475515927E-4,
            1.502195325866082E-4,
            1.0756088817772976E-5,
            0.0018617203197814462,
            0.00361997824388567,
            -3.365746612595388E-4,
            -0.0013335306089793748,
            0.002168191917000331,
            0.00269409726121122,
            -0.002028425513303743,
            0.0031049584949143145,
            0.0029636127850513764,
            0.0021171521383474743,
            8.566519989664535E-5,
            0.0012346740044466703,
            -0.001588682700185245,
            -0.0012936373066661949,
            0.002069396270935836,
            -0.0011694774588295335,
            -0.0013724192912278894,
            -0.002295196605500959,
            -0.0013060395616478605,
            -0.0027734331664514204,
            -0.0028441079021545557,
            0.001512036977962717,
            0.0011902792155713503,
            2.8590729437842844E-4,
            -0.0010179383682238272,
            0.003109329665952297,
            -0.0012357637280629363,
            0.0026076204981433718,
            -0.0023506744210771598,
            0.00239516888172066,
            0.0017828685919587894,
            0.0013220901456537171,
            -1.9839279016563454E-4,
            0.001997977875602635,
            0.0020722778488332064,
            -3.41458766107001E-4,
            -0.0021911640058510096,
            -0.001969959911574439,
            8.300415982215291E-5,
            -0.0022966412132601364,
            -0.0017989759360706762,
            -0.0021780307882687654,
            0.003172219180304538,
            0.0012185665642537027,
            -0.0011323175064011455,
            0.0014795698780574941,
            0.0012350713511800932,
            -0.0014444145922506218,
            -0.004585816953006865,
            -0.0019468021599000152,
            8.417229053968645E-4,
            -0.0033775941545791956,
            -0.0030308211323680397,
            -0.0041176907069016425,
            -0.0036232276812246662,
            5.454525737124105E-4,
            2.871134761143281E-4,
            7.798749268290201E-5,
            0.001338472607361095,
            -0.0018175601952538645,
            -0.0013071899713524282,
            -7.470095635065324E-4,
            0.001855009769799946,
            -0.0017127600927408174,
            0.0021960983622009273,
            -9.388396736942486E-4,
            -0.0019652452252552693,
            -0.0025822098430252904,
            -0.0023889745537558544,
            -1.245420006189858E-4,
            8.002662298464535E-4,
            0.0010632282418263713,
            0.0023606249992346065,
            -0.0032139099974170236,
            0.0014521430781362292,
            0.0023090062018150796,
            -0.0014926647726328382,
            -0.001152483009371002,
            -1.8101391349953738E-4,
            2.0088081022074208E-4,
            -0.002151551556638983,
            -0.0035816362979386954,
            -4.314558454887714E-4,
            8.841937655669856E-4,
            -0.0023635582968284186,
            -0.002124843294905142,
            -0.0029207306064248256,
            -9.531220616578525E-4,
            -0.002152107272498298,
            -0.0028612447529567588,
            -0.002778114484100275,
            2.98326949541109E-4,
            -0.00314153005018512,
            5.959529857669049E-4,
            8.764039548013598E-4,
            -0.0029006465775464774,
            0.006181160804965974,
            0.006256927734115608,
            0.0012450034422232979,
            -3.965043972905647E-4,
            0.005277838417398259,
            0.003701198759661421,
            0.004868987010986835,
            0.0033855192743988583,
            3.2877753707614103E-4,
            0.004026404970142269,
            -0.0014700213403252016,
            -6.184523354623955E-4,
            0.0033753452348574626,
            0.0037004895078992903,
            0.0024097315615948136,
            -6.017826655033343E-4,
            5.358205671771744E-4,
            2.568964190456751E-4,
            -0.0015304464547218565,
            0.0015706960453014864,
            0.0011165834023537582,
            -0.0021513402274930815,
            -0.002532142845018698,
            0.0012613068483310803,
            -0.00313968918310645,
            2.345483964095052E-4,
            0.0022377860741366246,
            0.0023418874695545675,
            0.0010053207213786602,
            -0.0022289975940982545,
            -0.002160074301260303,
            -0.0027519302146158885,
            0.016831798514564438,
            0.00820482416790772,
            0.005472279404305702,
            0.0075480855163854044,
            0.009635932326915475,
            0.008665572699252826,
            0.002424742670171697,
            0.003210965159108541,
            0.004982362842893492,
            0.002768043271987045,
            0.005653143000893054,
            0.0019461947709800136,
            0.0024990484861577883,
            0.0046694561302611775,
            4.493380135382533E-4,
            -0.001781649640457306,
            4.16160188307404E-4,
            -0.0026609627993583822,
            0.0014346234769753823,
            0.0023632920272269103,
            -0.0026263599663908658,
            -0.0036384343886605177,
            5.724468157738286E-4,
            0.0027494911294204,
            1.4349964556872028E-5,
            5.212809649878544E-4,
            1.651478661641009E-4,
            0.001074809133800537,
            4.091367749056348E-4,
            -0.0015364646034784239,
            -0.0012455971935439961,
            -0.0018810096988945324,
            -0.023044654168714512,
            -0.018899640398926623,
            -0.01459974407852146,
            -0.008271456493404997,
            -0.019291867631946628,
            -0.008723998937549719,
            -0.00699049234136431,
            -0.0044625447030020105,
            -0.010192321801872753,
            -0.00543274386174098,
            -0.0040298384235808345,
            -0.0027644739849892316,
            -0.008580917207830573,
            -0.003680873516413203,
            -0.0019925701237400464,
            -0.005154368124997697,
            -0.0011186180545717198,
            -0.002055746084121968,
            0.0011155712783615366,
            0.0015644014121972338,
            0.001540243875949392,
            4.717414741212228E-4,
            -0.0018197376871122678,
            1.8819977746498932E-5,
            0.0027107964159096406,
            0.0015929962162110451,
            6.507473948043885E-4,
            0.0015037067155939028,
            0.0020062559504004283,
            -0.0010739074263056202,
            5.908220936962944E-7,
            6.197935979252201E-4,
            -0.003311882868875688,
            -0.004194822044660699,
            -0.004433481233220369,
            -0.0019932685032230963,
            -0.0015558501350690923,
            -0.0033134496674065376,
            -0.003436220535320683,
            -0.0029063435917334865,
            3.0806808350288646E-4,
            3.787259277969226E-4,
            0.00140174473408559,
            -0.0010473793694146648,
            0.0018946133163708907,
            -0.002387777720234768,
            5.051032393248646E-4,
            1.77997406660227E-4,
            -0.002217266446567454,
            -0.004905181157459976,
            -0.004323425767208853,
            -0.004630295949651966,
            -0.005205648045032482,
            4.418265463877793E-4,
            -8.858243534207401E-4,
            -0.0021186057820054977,
            -5.003027600450966E-4,
            -0.004548489566692176,
            1.3134338539579413E-4,
            -0.0032200457168450975,
            -0.0011809925262215135,
            -0.0021491893482657666,
            -1.4789522737421382E-4,
            -0.0016967125987845666,
            0.0049134846156724706,
            0.0019486258204696597,
            0.0014886685803296917,
            -4.7103378255432493E-4,
            0.0044835934891771225,
            -8.499402111285843E-4,
            0.0034276039447765716,
            7.787226691253191E-4,
            6.846437895227888E-4,
            9.629952864155594E-4,
            0.003162735642975483,
            -0.001627014005032299,
            -5.440650573218286E-4,
            0.0020465060421869037,
            0.0032451490071361785,
            0.0021297901738151974,
            -0.005493302475717991,
            -0.0049042521693137085,
            -0.0031271469741763484,
            -0.001299562630630505,
            -0.001203504724682673,
            -0.003132716982089396,
            -0.00160541570528517,
            -0.0025989863064324846,
            -0.003621358198044427,
            0.0014336048649952345,
            -0.00303173982369117,
            9.988575329086201E-4,
            0.001373365404540629,
            -0.0012479105859955033,
            0.0010156850450664767,
            -2.710567714119479E-4,
            0.0020715568296667303,
            0.002944108931473161,
            0.0012566440768584197,
            -0.001508225922952102,
            -0.0025128373609386505,
            0.0027895958929651386,
            0.0024000892832336394,
            -0.0028949190773190784,
            -5.950429363824403E-4,
            0.0024576120104481103,
            -0.001252789878922715,
            -0.002632005571116694,
            -0.002054370872833764,
            -0.001235842140958018,
            0.0013028263112420816,
            -0.0025114275070145455,
            -0.00349054551491593,
            -0.003525435854489576,
            -2.4582852221453704E-4,
            -0.004103753545378144,
            -0.0061416192637670725,
            -0.0038904571314372204,
            8.093029379739403E-4,
            0.0022051607018099936,
            -0.003401765319040593,
            -0.0024351881733567777,
            -0.0034518300838481232,
            6.281457973899202E-4,
            -4.1537991725047356E-4,
            -0.003805367480202393,
            -0.0010946831482918744,
            0.002326852484378016,
            0.0020079391597165428,
            -2.9499534682127542E-5,
            0.0016387147983510579,
            -9.744306051170436E-4,
            -4.0167617039587916E-4,
            0.0031587781748201186,
            -0.0010105626192028062,
            -7.166692932996805E-4,
            2.223079903909649E-5,
            0.0029829746769405247,
            -0.0011725630876557916,
            -1.8165310922307068E-4,
            7.287620465343709E-4,
            -0.0025515305846570834,
            -0.0012167124632056837,
            -3.601103523806329E-4,
            -0.00486389241809547,
            -0.0034275377799859634,
            -3.199607994165356E-4,
            -9.815241360493767E-4,
            -5.973760957925921E-4,
            -0.0011696231742299725,
            -0.003745199223554522,
            -0.0011087734831090954,
            7.46465751269713E-4,
            -0.0017456304577089866,
            0.001312396641363549,
            -0.002840420682782451,
            5.425494175704936E-4,
            0.0025468493621150817,
            0.001359646921463354,
            -4.363938042303047E-4,
            0.0027472582310050066,
            -2.567020750532984E-4,
            5.433129278637954E-4,
            -0.001555489812533791,
            0.0021662708507870347,
            0.0041269593714393146,
            0.0016388591577180295,
            -0.0027004373896059746,
            0.0015394659237147545,
            7.790395810301992E-4,
            7.992307509639374E-4,
            -0.0019926995571840907,
            -0.0010729352093788232,
            8.773221061959147E-4,
            0.0016413048608170428,
            -8.575372010186132E-4,
            1.735347613458531E-4,
            0.001541368166711028,
            0.001997146554361017,
            0.0019424856098671508,
            -0.0017151605678325478,
            -0.0022868196521337787,
            0.002975001004927633,
            -8.064680809932454E-4,
            0.002351328648308327,
            0.002537223959291835,
            1.6195188947964645E-4,
            0.0011690845580445517,
            0.0029267824634457403,
            0.002770571842063129,
            8.109261248154287E-4,
            3.0312497451829983E-5,
            7.056391976327119E-4,
            -0.0017333671974599358,
            5.48860180974697E-4,
            0.002264488894263381,
            -0.0020479490392946637,
            0.002473552574461539,
            -0.0016814021241914306,
            -0.0014782694670303952,
            -0.001932368745048304,
            0.0037708836784630805,
            3.988138334980069E-4,
            0.002139636308776799,
            -0.0016709207129808246,
            -0.001082253740555822,
            -0.0013042284578603446,
            -6.838186888066818E-4,
            -0.0030835870795951938,
            -0.004635036927933606,
            -0.00555131041081931,
            8.087387533953075E-4,
            -0.005035732103196757,
            -0.0037804186655202763,
            -0.003689823140453298,
            -0.001422945934414354,
            -0.0015255449804943495,
            -0.0024686260574632653,
            -0.0010518950590812912,
            3.9728200931462756E-5,
            9.544199926426627E-4,
            -0.001234269056011977,
            -3.897904570116915E-4,
            0.001552922762546803,
            0.001650863643222519,
            0.0018994793248971581,
            0.002396830469764087,
            0.0020428659511672466,
            0.00276603915241685,
            0.001506426968470561,
            0.0013197127041015772,
            6.958447845404178E-4,
            -0.0017483463245113531,
            0.002016730863223002,
            -0.0012526672672462018,
            -6.93191989545816E-4,
            -0.0027493671050252814,
            -0.0010932930038812765,
            0.0015733750765890904,
            4.3127529180385995E-4,
            -0.0059229549924269854,
            -0.0051246967483738635,
            -9.963085853857403E-4,
            2.5583029643060247E-4,
            -0.005134061487442513,
            -0.0015832209655088011,
            -0.0033284972184358923,
            -4.86196691208811E-4,
            0.0016222810560495389,
            -1.2267141244437654E-4,
            -0.001383360013191395,
            -9.079362217360632E-4,
            2.3719640679656717E-4,
            0.0011408938696062785,
            -0.003362768155215901,
            -0.0025467809129613474,
            0.0026627092826302474,
            0.0018104365030928962,
            5.392845334202548E-4,
            -5.095223452697676E-4,
            0.002578939880424896,
            8.421435429775434E-4,
            8.935364170435024E-4,
            0.0036423072950689836,
            0.0015879876273807423,
            0.0011624992659863425,
            0.002430836651011062,
            -0.00279629015555365,
            -0.002394125878745168,
            -0.0011908904620078539,
            0.0013387843174685315,
            0.0020755231843165413,
            -6.232549480507755E-4,
            -0.002645032634333057,
            5.460069917403058E-4,
            0.0019271561584072833,
            -0.0032761482416916884,
            0.0020868661551373315,
            0.0015636876813689166,
            0.002819289418570706,
            6.149006373953006E-4,
            0.0021319136540496114,
            0.0024814163662203715,
            0.0026552003623126434,
            0.0025046147959412873,
            0.0016874496293498539,
            -4.7232162953943826E-4,
            7.546643647436266E-4,
            0.003086686161493304,
            0.0017726850705353477,
            -1.2173255164493212E-4,
            0.0038867240944039406,
            0.005659565203016192,
            0.0031548833740134064,
            0.0022052701213835127,
            0.002349559281555748,
            0.0016917258269766753,
            1.572980432059423E-4,
            -0.0016755106583726382,
            1.655672968954395E-4,
            6.452333028433523E-4,
            9.861796481244781E-4,
            -3.961544599550569E-4,
            -0.0020972263412906257,
            0.002792158559427033,
            5.526073696201367E-4,
            0.0014759326563804737,
            0.0026996242182113954,
            -0.002604560876734292,
            0.00152673010994173,
            -0.00196537651029348,
            0.0028297841968766566,
            -0.001545679670390949,
            -0.003042328259476788,
            8.419063290078385E-4,
            0.0018484460667488978,
            -6.899140436373628E-4,
            3.5240257389963347E-4,
            -0.0011343014944328344,
            -0.0018186189956042257,
            -0.010386746637240695,
            -0.008547182822765897,
            -0.002245172806849522,
            -0.0020253742264935847,
            -0.0025992774373315105,
            -0.006833636453133389,
            -9.26478398284312E-4,
            9.83276697997312E-4,
            -0.003435311389985323,
            0.001039823725837726,
            -0.0017810225675993308,
            0.0021768748656272423,
            -6.858725831837782E-4,
            -0.0017957981034739197,
            -0.00349781673552999,
            -0.002019648514472422,
            0.0024035670299086993,
            0.001211793868503988,
            -0.001900586994294031,
            0.002547287671594021,
            -0.0018854702173165252,
            0.0029885742311256294,
            -0.0020004035912170753,
            0.0017890659609889467,
            -0.0017531869392639345,
            0.0016037808347496088,
            -0.001775596476887729,
            1.1507299119220413E-4,
            8.105361050986708E-4,
            -9.740017093284704E-4,
            9.763698399871258E-4,
            0.0015186503383929134,
            -0.002287607384374907,
            -0.0035805051621152703,
            -0.0034616582145463154,
            -0.0026084622456044072,
            0.001370860652401219,
            -0.0010697411270279083,
            -0.002124437212794576,
            0.0012832625997994558,
            -9.326270030032144E-4,
            -0.0013122730434967733,
            -5.149542251554536E-5,
            -0.0017243702173985157,
            0.0030090877020743766,
            -0.0029848305460385676,
            0.0025435349495806846,
            0.0029478507206442926,
            -9.694948560525548E-4,
            -0.0034342546274170028,
            -0.002321271121229299,
            -0.0031711180465219878,
            3.262241562962394E-4,
            -0.00462845971544642,
            0.0014243455059638687,
            -0.002521933091763543,
            8.521436204393162E-4,
            -2.9828770947107266E-4,
            -0.002551502847762032,
            -0.0022035658935241963,
            0.00277761006477817,
            0.0018369546287620533,
            0.002740410282392771,
            3.3513306784291787E-5,
            1.4037164731942436E-4,
            -0.0018843024201904595,
            0.0034619918603179174,
            5.128131840468517E-4,
            -0.0019181351284223392,
            -0.0012558275474076795,
            -0.0012039467087042808,
            8.234084895180391E-4,
            0.0028903916789740297,
            0.0026795803920321667,
            0.002695431189438398,
            0.0026881422248466024,
            0.0028635858846995394,
            -2.980946414374179E-4,
            0.0027902918440922703,
            5.29870101370652E-4,
            -0.0013878406877349855,
            -0.0050021866832903415,
            0.001236761030853489,
            0.0012854597623212778,
            -0.003978447604928279,
            9.784797980782964E-4,
            -0.0022597715124240895,
            -0.002566866217151386,
            -1.4607291339590347E-4,
            0.0019813618276531392,
            0.002183490167039701,
            -0.0013821947910702677,
            -0.0016079220498431705,
            -7.180270077498498E-4,
            0.0010976818216636367,
            0.0011508250352288425,
            -4.331844689514881E-4,
            0.0013102507995007247,
            0.0010322978980340156,
            -1.609250644438177E-4,
            0.0018416957187243265,
            0.0019449464108317925,
            -8.958221202605253E-4,
            0.0018329365773489406,
            0.0017855516154616868,
            0.0016748472430197887,
            -0.0012999856991154361,
            1.541997229478125E-4,
            -0.0019662040538741725,
            -0.0028539828877023683,
            0.002488873250493312,
            0.002475996981626041,
            -0.001613435081457883,
            -0.0045305138059269535,
            -4.8653777036955606E-4,
            9.544217363031447E-4,
            -6.775825885924441E-4,
            -0.0011181746537605418,
            0.0017754143586354058,
            9.786127771609372E-4,
            -0.002118265020984909,
            -0.001210996782671059,
            5.920239048291417E-4,
            -0.0025038384379882615,
            -1.8464536959263806E-4,
            -0.002860655144951678,
            3.014099787151382E-4,
            -0.0011688682913049333,
            2.9196996487273314E-4,
            0.002856753534972639,
            0.0015773649164499018,
            0.0023161020168757664,
            0.0026403726115342887,
            5.568249257790728E-4,
            0.0026337952554457756,
            0.0011984067652285586,
            -3.556750703650881E-5,
            -0.003020948555913927,
            0.0016035843502264695,
            0.0029893808196818396,
            9.504555490366977E-7,
            2.7464439599494952E-5,
            -0.00189888965690429,
            6.004277097313648E-4,
            -0.004041842270432711,
            1.3896332861888759E-4,
            -0.00292806182957256,
            0.001595095612736394,
            -0.0030410193782531916,
            -0.001422079917923085,
            0.002743883480914292,
            5.707054311791107E-4,
            -0.002342672672713967,
            -1.4743317403844968E-4,
            0.0013587899614690808,
            0.002026860236865245,
            3.967342989316832E-4,
            -0.001815541648329489,
            0.0030693516653230966,
            0.002641208664785518,
            0.002008325297594334,
            0.0023885644758777583,
            1.4632473271611744E-5,
            -0.0017709697345141197,
            0.0031873984930740574,
            -0.0014173874479789727,
            0.0030084744390269876,
            2.264032776300582E-4,
            8.513917467008627E-4,
            0.0025437145715755186,
            0.002709820887079733,
            -0.0027422316098581105,
            7.863807015219784E-4,
            -0.0020550914789659535,
            -0.0022399999601932863,
            -7.603450913072836E-4,
            1.1130452321740909E-4,
            -2.3462337204827358E-4,
            -0.001100766314334029,
            1.8240438626011788E-4,
            0.002273136678211256,
            5.128326590696112E-4,
            -8.981904198005396E-4,
            0.002927456516935495,
            0.0021573250382821087,
            0.003055818146674904,
            7.331842714962653E-4,
            -0.0024923850093811883,
            0.0010185738434353895,
            0.0010272270574298492,
            0.002823348791634745,
            0.0016254304380409993,
            -4.311451009142835E-4,
            0.0020370441987003253,
            7.061316398756582E-4,
            -0.0019993456516276126,
            -0.0014724621267600466,
            -0.0011413679314219688,
            -5.37323429592524E-4,
            0.0026699665805990543,
            -5.724880343031394E-4,
            -0.0022942535170299826,
            7.47154549809696E-4,
            -0.0021602225053991534,
            -5.087439449035915E-5,
            -0.0027995917245432155,
            -3.137192852454013E-4,
            -0.001148160235432012,
            -0.003724475132590507,
            -0.001968014551722195,
            0.0015656983868943277,
            -8.516837429425378E-4,
            -0.003361647536382208,
            -0.002760636394296026,
            -0.003865696244468687,
            0.0010248602458715315,
            0.0024296531718334615,
            -0.0015173887023308278,
            -7.930101006076389E-4,
            0.0011985966254992192,
            9.958246821526788E-5,
            6.442182414452337E-4,
            -8.510271441909196E-4,
            0.002793496074382303,
            0.0025613002384463784,
            0.0016286053555988767,
            0.0030839198966174865,
            -0.0021591297332836457,
            0.001447153957986131,
            3.0595145620260103E-4,
            0.002835498785026096,
            -0.001204833361894856,
            -1.428826280169603E-4,
            8.646329834551924E-4,
            5.961160151669748E-5,
            3.803887093969025E-4,
            5.5406291514084815E-5,
            8.76590848099976E-4,
            -0.001669136736968342,
            8.836779328196668E-4,
            -0.002359041938649955,
            -0.003305030464755507,
            0.0020002675950098756,
            7.295625888503792E-4,
            -0.0037791501152188126,
            -0.0025525608509903703,
            -0.001093157905245582,
            -0.001570941205804424,
            -8.907683065296838E-4,
            -0.0031769901707696412,
            0.0012852039069791376,
            -0.0018740385849689441,
            -0.0028368973991608646,
            -0.0028236985440774345,
            0.002629049799472573,
            -4.23388051438982E-4,
            -0.0025314163167146457,
            0.002153037179460325,
            -0.0014956874025974288,
            -2.644114527612301E-4,
            0.0010304358094463792,
            0.0031418054340058557,
            -7.939221538114836E-4,
            -6.225931704194247E-4,
            -0.0021996052386205815,
            0.002464199026042497,
            0.0019339750452512013,
            -0.0029445238258206676,
            0.0021568453370303985,
            1.4671843646744614E-4,
            0.0018970824787709103,
            0.003200292761013511,
            -0.0019736501301781963,
            0.0010914895066898506,
            0.0029048826445149446,
            0.0018527182014594543,
            0.0017305316144210663,
            5.01610387725827E-4,
            0.0026124329804666745,
            0.0014786136947840176,
            -0.002050787586187777,
            0.0021649223086793257,
            0.0012130577036914036,
            -0.0010755427373504317,
            0.00222795990358257,
            -2.6048316323955116E-5,
            -0.002080310771180657,
            0.001544474009495019,
            3.869065853219996E-4,
            0.005005484634787102,
            0.0031095536726100602,
            9.230795670891558E-6,
            0.0016815455576253576,
            -1.8817548950348124E-4,
            -0.0016415627059698432,
            0.001741335888872451,
            2.07013411046428E-4,
            0.0029495188724908135,
            0.0026458905164503345,
            -4.888627472791981E-4,
            -2.0676474707537814E-4,
            -0.001333577681171709,
            -8.081021408598243E-4,
            0.0014576890415710765,
            -0.0013196063629450155,
            -7.851352108436039E-4,
            0.0034849934560613883,
            4.982775186999704E-4,
            0.003415520742572641,
            -0.001805308078177643,
            0.0022183834340082434,
            -7.635188124813334E-4,
            -0.002139532687460892,
            5.434069059512958E-4,
            3.961265904746246E-4,
            0.003111054874383933,
            0.0013588855553305,
            6.911026129185348E-4,
            -2.888796401121862E-4,
            9.66573353180372E-4,
            -0.0010278539585125619,
            -0.005055873296519389,
            -0.0029076617011359117,
            -0.0055248474576223274,
            0.0018287701739543175,
            -0.003247553749402706,
            7.185578245594929E-4,
            -4.929871697626943E-4,
            5.750151119598577E-4,
            7.721090696384491E-4,
            -0.0023382433333154432,
            -0.001849769841905299,
            0.0026699012451115965,
            -0.002352562962068328,
            0.002731609428887277,
            0.001517704865765004,
            -0.003078595450755256,
            0.002038150126920223,
            7.083593935270213E-4,
            0.0026589940333921966,
            0.0022213522738300322,
            0.002553716420784777,
            -8.816350690063501E-4,
            0.00168074690966663,
            -2.3901993738114854E-5,
            -0.002248969786469238,
            -0.0013904478776152747,
            -7.43030290783666E-4,
            0.001041594653439713,
            -0.0029955173530692852,
            -0.0019856772216049344,
            -8.394432202467221E-4,
            0.002460434554328674,
            -0.0037820432788397734,
            0.002122181561485424,
            0.001005308690792157,
            6.465377312422738E-5,
            -5.106578288453218E-4,
            -0.001769130808513463,
            -0.002699704173164788,
            3.042228759670692E-4,
            0.0027720851131364625,
            -3.3635615948374826E-4,
            -0.0019432840430106983,
            0.001591047167882407,
            0.002214388040047405,
            -0.002244060611940554,
            0.0012303597070838777,
            -0.005010282071233642,
            -1.97373822980934E-4,
            0.0010929906003846717,
            -2.6761051790706814E-4,
            -0.0034112912684665713,
            -0.0022128274950795317,
            -3.8940748485140645E-4,
            -0.0015151415117940798,
            -5.531142372768382E-4,
            -0.0024496759314051367,
            -0.001728516689520364,
            -2.515836330560262E-4,
            -0.0018287130532689266,
            0.0011004862607447864,
            5.407129178976404E-4,
            0.002609788229915607,
            1.0287103364199E-4,
            -0.0015229799288886566,
            0.0024295675109251187,
            0.0029830224516683916,
            0.0020124052273817754,
            0.0015381873684693066,
            0.0020285392964885583,
            -7.179517262283883E-4,
            -0.0026480837998634392,
            0.0031826885726714592,
            0.0017819039635387994,
            -8.308680016109961E-4,
            0.0017293793349671914,
            0.0010656887558264856,
            9.893257305549502E-4,
            -0.0017006990605272884,
            -0.0026806212084529877,
            -0.0036050346263864436,
            -0.0012301816496376676,
            8.275901616862262E-4,
            -6.532231543639099E-4,
            0.0016288316717371775,
            -0.00294530976255243,
            -0.0012975347567628058,
            0.0014351687773218361,
            -0.003545921912012197,
            0.0015939048107457855,
            -0.0020783189729044337,
            -0.0028308961633917587,
            0.0016801777153405825,
            0.001123913835989891,
            0.002449543123429597,
            2.674308169545341E-4,
            5.743053276729576E-4,
            -0.001897039516937685,
            0.0031056518002971064,
            -0.0032076686576353397,
            0.0015021902725122394,
            7.244226066654088E-4,
            -9.879155797235708E-4,
            -0.002626625829093921,
            0.0010007124381620073,
            -0.0024838056664106484,
