{
  "class": "com.simiacryptus.mindseye.network.PipelineNetwork",
  "id": "4fa7fab9-ef6e-4f26-9af8-19410000342d",
  "isFrozen": false,
  "name": "PipelineNetwork/4fa7fab9-ef6e-4f26-9af8-19410000342d",
  "inputs": [
    "29f6ce8f-298a-46e9-9406-5acb54263b1d"
  ],
  "nodes": {
    "4fa7fab9-ef6e-4f26-9af8-19410000342f": {
      "class": "com.simiacryptus.mindseye.layers.util.MonitoringWrapper",
      "id": "4fa7fab9-ef6e-4f26-9af8-19410000342f",
      "isFrozen": false,
      "name": "bias_0",
      "inner": {
        "class": "com.simiacryptus.mindseye.layers.media.ImgBandBiasLayer",
        "id": "4fa7fab9-ef6e-4f26-9af8-19410000342e",
        "isFrozen": false,
        "name": "bias_0",
        "bias": [
          3.0332928131078714E-11,
          5.1714422831255694E-11,
          4.551730796813041E-11
        ]
      },
      "totalBatches": 470,
      "totalItems": 23500
    },
    "4fa7fab9-ef6e-4f26-9af8-194100003431": {
      "class": "com.simiacryptus.mindseye.layers.util.MonitoringWrapper",
      "id": "4fa7fab9-ef6e-4f26-9af8-194100003431",
      "isFrozen": false,
      "name": "conv_0",
      "inner": {
        "class": "com.simiacryptus.mindseye.layers.media.ImgConvolutionSynapseLayer",
        "id": "4fa7fab9-ef6e-4f26-9af8-194100003430",
        "isFrozen": false,
        "name": "conv_0",
        "kernel": {
          "dims": [
            5,
            5,
            15
          ],
          "data": [
            4.424023731357211E-5,
            -2.2646265555173643E-4,
            -4.202251685176339E-4,
            -2.839060477864649E-4,
            9.339573896149018E-4,
            -6.163229460306506E-4,
            7.535511684534446E-4,
            -7.886206006342162E-4,
            8.571401609642181E-4,
            3.6261467932216366E-4,
            -7.035178755553035E-4,
            2.5548812933201627E-5,
            6.883564093689799E-4,
            7.108622542217466E-4,
            3.147622999433741E-4,
            -8.105845468872242E-4,
            8.599208725205011E-4,
            -8.678834448878359E-5,
            8.296026022492574E-4,
            7.79507432808688E-4,
            3.4825489738459723E-4,
            -4.021102433397813E-4,
            -3.935334461292541E-4,
            7.22124688269823E-4,
            2.740541357888385E-4,
            -0.0010590828977121373,
            -3.711000154449643E-4,
            7.592779381811976E-4,
            0.001029098797018095,
            9.147010162411157E-4,
            -4.7510282062657064E-4,
            -4.959091065195898E-4,
            -8.559980789273378E-4,
            -3.0696047251101984E-4,
            -7.826254986714278E-4,
            6.628196149708858E-4,
            -4.311064387872789E-4,
            0.0011196320118595842,
            9.056462559848571E-4,
            -7.114604111814423E-4,
            3.7149701610336396E-4,
            4.734391180387615E-4,
            -8.165812169802262E-4,
            -7.973862134671355E-4,
            -7.163334479698935E-4,
            -2.4654256095875214E-4,
            -0.0011038884227838272,
            9.669633500445368E-4,
            -1.4946779089210874E-5,
            9.656844809327148E-4,
            -2.2555332360056038E-4,
            0.0011050789532729424,
            -1.6730531385010205E-4,
            9.879624500133818E-4,
            -4.433950737125395E-4,
            -9.252494459336287E-4,
            3.333125447656887E-4,
            -6.632584899268044E-4,
            -2.485413316127706E-4,
            -8.350304677486635E-5,
            -1.0845130310652601E-4,
            3.811842585382028E-4,
            -0.0010051021420753896,
            -3.886103428680351E-4,
            -6.553168738165667E-4,
            -0.0011058838521276447,
            0.0010515236412335278,
            -6.219744660168748E-4,
            2.4059554053091963E-4,
            9.165243930729632E-4,
            2.792310717756112E-4,
            7.05523768744276E-4,
            -9.264735110343699E-4,
            -1.7489484120371965E-4,
            1.9958778426295472E-4,
            -3.4410588603550136E-4,
            8.549728700420228E-4,
            1.3233125716064574E-4,
            -3.597348423148978E-4,
            8.145847680579324E-4,
            0.0010636402510291246,
            -8.518673287200175E-4,
            -1.5648705403821265E-4,
            -1.3412892943431886E-4,
            4.924881845284627E-5,
            -0.00103947909047544,
            -0.0011224324515837468,
            -5.019518091503919E-4,
            -8.052998431581217E-4,
            -9.097839336933075E-4,
            -4.1511416380896534E-5,
            6.780409799728041E-4,
            1.344269420779515E-4,
            -4.0842541224293214E-4,
            -2.0941956289907885E-4,
            6.977271270751531E-4,
            -9.224197766622517E-4,
            9.770557875869227E-4,
            4.253364981555932E-4,
            2.765723915692459E-4,
            7.640781018096107E-4,
            -6.967339213396995E-4,
            -6.61534623735919E-4,
            0.0010701244023356433,
            -3.0879279258571175E-4,
            -8.012493186869906E-4,
            6.611275991293683E-6,
            -7.144265658014229E-4,
            4.05763659199357E-4,
            6.689974542326125E-4,
            2.650785382833164E-4,
            4.639827611639694E-4,
            0.0010968576885431586,
            -6.640401840284475E-4,
            9.01643476192968E-4,
            8.673980838063111E-4,
            0.0010359955487340693,
            2.2348218246919232E-4,
            0.0010154120752158885,
            -2.0112771683477147E-4,
            -1.079834183735795E-4,
            0.0010384052432978333,
            -0.0010833829933797915,
            -4.821830555575573E-4,
            -8.315772309253201E-4,
            5.737372677846209E-4,
            0.0010600518938727534,
            -2.9865713575253315E-4,
            -9.706731967234327E-4,
            -4.1324475527140434E-4,
            0.0011247814272852222,
            0.0011066315207548356,
            3.401584007117901E-4,
            -1.8177744149115485E-4,
            -1.603714353877737E-4,
            -6.493545633645354E-4,
            -3.390455327813557E-4,
            -9.957480057948421E-4,
            -0.001066183095150162,
            -0.0011229219740886392,
            -9.840523270812853E-4,
            6.285189066953782E-4,
            9.747716250429334E-4,
            -4.920826762058494E-4,
            -7.0911858881859E-5,
            9.51215611047002E-4,
            -4.358349548788028E-4,
            7.903101143167177E-4,
            -8.715375227492494E-4,
            -7.54038119724269E-4,
            -4.4380788523801413E-4,
            7.782960194001127E-4,
            -1.637620097227292E-5,
            -1.832731419094112E-4,
            2.5947065166177666E-4,
            5.037273023762999E-4,
            -9.648891242897925E-4,
            -4.295676991473928E-4,
            5.5526289514875E-4,
            -2.2751823966787584E-4,
            8.029284725302433E-4,
            -4.37572074105922E-4,
            9.592450227773156E-4,
            -4.4671095852784505E-4,
            5.532867950007218E-4,
            -9.34213982777706E-4,
            -7.490862741763693E-4,
            -7.436333522057485E-4,
            -5.172464783415674E-4,
            -5.394794384804046E-4,
            0.0010158398107767625,
            -0.0010091708410753456,
            -1.362104711701806E-4,
            1.1702739060948275E-4,
            -4.492550722777565E-4,
            7.626378359728575E-4,
            1.0949388244865311E-4,
            3.209897560937382E-4,
            -4.068611534249197E-4,
            -8.923218181110852E-4,
            -1.87936126854411E-4,
            -7.536832847153238E-4,
            8.201762388880805E-4,
            -8.166327743743501E-4,
            7.817729186586268E-4,
            3.6358026017364094E-4,
            9.645818102064814E-4,
            7.499368214051382E-4,
            -6.716941342802291E-4,
            4.5906801253858435E-4,
            -8.310468971414632E-4,
            -9.216433184364679E-4,
            7.513955039339099E-5,
            5.967678082624208E-4,
            2.55098599209287E-4,
            -0.0010128240489697489,
            1.357253860212798E-4,
            3.530522110985403E-4,
            -5.431243162148952E-4,
            -1.924951021624679E-4,
            -3.491402726207317E-4,
            -7.469716676775821E-4,
            4.421263723698809E-4,
            -9.069021258166351E-4,
            7.218878195417556E-5,
            3.6095431517724425E-4,
            -7.88765953186849E-4,
            -5.485775074903247E-4,
            -3.940872878217202E-4,
            -3.257725799802337E-4,
            2.780261442489032E-4,
            8.527364142735646E-4,
            -6.875206984393345E-4,
            2.551707829854584E-4,
            -8.155136248633741E-4,
            1.1041386845797283E-4,
            5.995535645460003E-4,
            -3.5354145784042656E-4,
            1.327824745930456E-4,
            0.0010392206063857131,
            7.311259698809184E-5,
            1.8608630221375922E-4,
            3.2836767350764306E-5,
            -9.074902611028125E-4,
            -9.698895366151963E-4,
            0.0011253359587576174,
            -0.0010447642593797899,
            -9.25362081903361E-4,
            -7.368829239996496E-4,
            4.256714548022145E-4,
            -5.16627785973688E-4,
            -6.273909361319041E-4,
            1.4036257329762928E-4,
            -6.024126754369841E-4,
            -8.045209418883646E-4,
            -7.423435134505357E-4,
            6.989079502964951E-4,
            -9.961170465012633E-4,
            7.730375011683671E-4,
            5.485702403661181E-4,
            0.0010170344115398096,
            7.188443987739406E-7,
            7.461238599753854E-4,
            5.73831565154683E-4,
            -3.2017801014067835E-4,
            4.899149664946696E-4,
            3.3735190635686863E-4,
            -8.205943924274613E-4,
            -9.851463926534053E-4,
            -6.320895034341462E-4,
            1.3846486172412557E-5,
            7.481777726181724E-4,
            3.165878819519057E-4,
            5.584389088499929E-5,
            -3.5541641769514784E-4,
            4.658586369997178E-5,
            -5.101581679369847E-4,
            2.0992552854158075E-4,
            -9.06763911948344E-4,
            5.670241883641153E-4,
            7.161342912399803E-4,
            1.602626270646661E-4,
            -1.9809711053094122E-4,
            -2.7281959071451554E-4,
            2.894291209433152E-4,
            -7.021437947473285E-4,
            -4.830929651083531E-4,
            -2.4503246899948655E-4,
            -3.260367812970143E-4,
            -7.894391275313191E-4,
            -9.651942247490805E-4,
            -3.4024885872484034E-4,
            4.7936825418683785E-4,
            8.712896568172004E-4,
            2.3187249145834068E-4,
            3.648582201708798E-4,
            4.565612588756066E-4,
            3.197025341727908E-4,
            -7.26929886389252E-4,
            -5.472791377637249E-4,
            -4.3284542234413575E-4,
            -6.347373745541485E-4,
            -1.5346304842316514E-4,
            3.763804918048709E-4,
            -7.044744812366823E-4,
            6.799503868838318E-4,
            5.690331529111452E-5,
            -3.1299362787692983E-4,
            2.515758678347264E-4,
            -0.0011163755842261913,
            -7.086155391374499E-4,
            5.984068514342747E-4,
            1.3813234861550253E-4,
            1.9408437807301193E-5,
            3.1978827121089656E-4,
            -4.936270639117975E-4,
            8.350167383422178E-4,
            6.960040563052893E-4,
            -2.8287806149909653E-4,
            -0.0010393788442631146,
            3.4468991376153336E-4,
            3.516389144164268E-5,
            -1.1821344809624938E-4,
            7.552032976913288E-4,
            -7.527627906125304E-4,
            -4.718475013211134E-4,
            -3.7842993594246546E-4,
            3.0814190473317407E-4,
            2.131567134327998E-4,
            9.632059170958529E-4,
            1.7337128334644032E-4,
            4.0281166134504534E-4,
            2.973202843911549E-4,
            -5.050983128488542E-4,
            8.9810706667471E-4,
            -8.928357474312392E-4,
            2.022601517762955E-4,
            -6.246876013732769E-4,
            6.116409302240598E-4,
            3.543486774263229E-4,
            3.929733793855631E-4,
            6.161291860145911E-4,
            -8.057899521070018E-4,
            1.8332471849318079E-4,
            2.459041738286071E-5,
            -4.0303104550308517E-4,
            -3.9231417406301297E-4,
            7.492242029907403E-4,
            -8.729014112029686E-4,
            2.7947320116751583E-4,
            -7.39930830235727E-5,
            -5.055595695537779E-4,
            1.1428629083796858E-5,
            3.9048242276503326E-4,
            -6.341477320775731E-4,
            -2.899205939193464E-4,
            -7.659829166030138E-4,
            -0.0011261096345053794,
            4.436567804285904E-4,
            4.676401672678394E-5,
            -9.373321100670113E-5,
            -1.757757049670364E-4,
            1.5415594500936405E-5,
            4.8569577500460256E-4,
            4.95552244866465E-4,
            -2.466244785063E-4,
            6.528573306574334E-4,
            3.4594170836679117E-4,
            -1.533041616197788E-4,
            -2.454532124026078E-5,
            9.912251728830311E-4,
            -7.456510425191509E-5,
            7.811402667142361E-4,
            -3.6568016356361167E-4,
            -5.469395379844477E-4,
            -1.2329715468255186E-4,
            -8.052465884543765E-4,
            -9.088850538910606E-4,
            1.8225923195660523E-4,
            6.902556614528885E-4,
            8.480302663540011E-4,
            8.49987124132401E-4,
            4.437276645747322E-4,
            -3.638596585190689E-4,
            9.255024312536961E-5,
            0.0010688366603033073,
            -0.00112743034216622,
            8.984787532872852E-5,
            -3.3652596375231494E-4,
            -7.88221513125388E-4,
            -1.4057478328650543E-4,
            -8.692392552472173E-4,
            5.003460675116493E-4,
            3.595557824114348E-4,
            5.712221880701313E-4
          ]
        },
        "skip": {
          "dims": [
            1,
            1
          ]
        },
        "simple": false
      },
      "totalBatches": 470,
      "totalItems": 23500
    },
    "4fa7fab9-ef6e-4f26-9af8-194100003433": {
      "class": "com.simiacryptus.mindseye.layers.util.MonitoringWrapper",
      "id": "4fa7fab9-ef6e-4f26-9af8-194100003433",
      "isFrozen": false,
      "name": "avg0",
      "inner": {
        "class": "com.simiacryptus.mindseye.layers.media.AvgSubsampleLayer",
        "id": "4fa7fab9-ef6e-4f26-9af8-194100003432",
        "isFrozen": false,
        "name": "avg0",
        "inner": [
          2,
          2,
          1
        ]
      },
      "totalBatches": 470,
      "totalItems": 23500
    },
    "4fa7fab9-ef6e-4f26-9af8-194100003436": {
      "class": "com.simiacryptus.mindseye.layers.util.MonitoringWrapper",
      "id": "4fa7fab9-ef6e-4f26-9af8-194100003436",
      "isFrozen": false,
      "name": "bias_1",
      "inner": {
        "class": "com.simiacryptus.mindseye.layers.media.ImgBandBiasLayer",
        "id": "4fa7fab9-ef6e-4f26-9af8-194100003435",
        "isFrozen": false,
        "name": "bias_1",
        "bias": [
          1.1783973087098571E-9,
          6.6627917327901596E-9,
          -4.782663185669489E-9,
          -5.800366603956125E-11,
          1.1376796149859958E-9
        ]
      },
      "totalBatches": 470,
      "totalItems": 23500
    },
    "4fa7fab9-ef6e-4f26-9af8-194100003437": {
      "class": "com.simiacryptus.mindseye.layers.util.MonitoringWrapper",
      "id": "4fa7fab9-ef6e-4f26-9af8-194100003437",
      "isFrozen": true,
      "name": "activation_1",
      "inner": {
        "class": "com.simiacryptus.mindseye.layers.activation.HyperbolicActivationLayer",
        "id": "4fa7fab9-ef6e-4f26-9af8-194100003434",
        "isFrozen": true,
        "name": "activation_1",
        "weights": {
          "dims": [
            2
          ],
          "data": [
            0.2,
            0.2
          ]
        },
        "negativeMode": 1
      },
      "totalBatches": 470,
      "totalItems": 23500
    },
    "4fa7fab9-ef6e-4f26-9af8-194100003439": {
      "class": "com.simiacryptus.mindseye.layers.util.MonitoringWrapper",
      "id": "4fa7fab9-ef6e-4f26-9af8-194100003439",
      "isFrozen": false,
      "name": "conv_1",
      "inner": {
        "class": "com.simiacryptus.mindseye.layers.media.ImgConvolutionSynapseLayer",
        "id": "4fa7fab9-ef6e-4f26-9af8-194100003438",
        "isFrozen": false,
        "name": "conv_1",
        "kernel": {
          "dims": [
            5,
            5,
            50
          ],
          "data": [
            0.46149294294379856,
            0.894547095275142,
            0.9162795662802514,
            -2.594643098415722,
            1.0523355913118662,
            -0.6659197864056787,
            -1.1717083734147218,
            0.29626560851651657,
            -1.9177458257410873,
            -2.4475844288024193,
            -1.9231523697076314,
            1.650963652791847,
            -1.386317557058281,
            -1.2882061469686832,
            -3.0856701108414066,
            1.8465396960117784,
            -2.24207668077028,
            1.1253184993892715,
            -2.473485549799927,
            1.3846805314716641,
            1.0064217009066165,
            -0.2009258801382773,
            -1.902274298636671,
            0.2844450140727453,
            -0.6364336799290864,
            -0.5413819427509206,
            -1.1439662191844007,
            2.6561821101934853,
            2.648525295157933,
            1.5705259729968428,
            3.090277546629815,
            -2.3704310456453546,
            -1.2490673326197237,
            1.3516076059442304,
            0.021983157964606766,
            1.653436452925061,
            -1.809002021600715,
            3.140421312130794,
            0.6117185271359223,
            -2.8445232091137362,
            -2.1104888439799763,
            -0.08299090009445582,
            2.8228130172866077,
            1.0838588304332437,
            -0.4215224200682411,
            1.109762391839012,
            2.8774189057221298,
            -1.8875179302543261,
            -1.958625614340546,
            0.8431594693886354,
            -0.14343934996812044,
            2.9729556494490805,
            0.5905291471687978,
            2.84858036698382,
            1.672623196123536,
            -0.6667682571959358,
            -2.8856734774209296,
            -2.4694264903662457,
            3.0621359964032644,
            -0.5630674264238392,
            1.9372085786187727,
            2.3348007084148352,
            -0.6937220028528046,
            0.7477079607152288,
            -1.4853289651609924,
            1.8030754720779003,
            -1.1475416916487062,
            0.28545524814588163,
            -1.8016273607861788,
            1.2161494365912782,
            -0.570998074549531,
            -1.7625387769130225,
            1.6011565211784409,
            1.2110563596144854,
            1.8116592446713835,
            1.1380347244666593,
            0.8543260074789857,
            -0.8582238275459272,
            -2.5141404292726057,
            1.876731466691717,
            2.4664819275284797,
            2.0421585118454466,
            -1.3934211934756073,
            2.90062903295624,
            0.6620696810113558,
            2.958015254753374,
            1.055168163122488,
            2.390757861102841,
            -1.73289539601583,
            2.315571695415192,
            -1.0994278779579207,
            2.240431661200287,
            0.6635266893693272,
            2.9436098066888903,
            1.1618120377148193,
            1.438592089689587,
            -2.152465031110058,
            -1.3647105982338599,
            1.8313216065986657,
            2.2885949330897204,
            0.6927545711944358,
            -2.1697048913140553,
            0.5228864695070546,
            -2.5531247730565356,
            -1.6722713531572688,
            -0.16306826460994583,
            -1.9327102502616453,
            -1.3292717259560929,
            0.5633839238853756,
            -2.078619627868206,
            2.0454166942726375,
            -1.8465541846197095,
            2.589871256243421,
            2.021221371738614,
            -2.486056944554075,
            0.3087029969913697,
            1.1293276253820412,
            1.0077054412244018,
            0.819125470994723,
            -1.0453142674560856,
            1.9200771110295005,
            2.7293207877161403,
            -0.5796300102405444,
            2.195509791065511,
            -2.051678775887136,
            3.015243761962602,
            2.8862792871273197,
            1.244065231859245,
            1.2801862592205584,
            -2.376128639770352,
            1.604140704197691,
            -1.0920603296283442,
            3.029664120002282,
            -1.193731048061468,
            -2.725290783691506,
            -2.508450491579174,
            -0.7467910542812466,
            2.922955057865737,
            -3.0087627942429265,
            3.1001515603607386,
            -3.0007599171799897,
            1.5723181898526446,
            0.5813767881473749,
            -0.3527361934452811,
            1.810996199642761,
            3.133170768028921,
            1.275224538366061,
            0.804317249132477,
            -0.24516991758716764,
            -2.733243028048214,
            -3.07408379139789,
            0.9775065706480977,
            -0.6374363283882377,
            2.884154232278135,
            1.897222250215544,
            2.5361863993583396,
            0.08568352553637704,
            2.5066757927498244,
            2.1630866030792375,
            -1.1159651476833838,
            -1.400478153141196,
            -0.741205920410389,
            -0.13991500438918678,
            -2.866209214305141,
            -0.9356830447747898,
            0.19789490600157297,
            0.5620109918902171,
            1.8920621576243408,
            -1.1045887350655583,
            -2.287188502384663,
            1.55268449863271,
            3.0791169236882148,
            1.9898257574185532,
            0.23949744889127966,
            0.17277734118573446,
            2.826880002880829,
            -0.6118639926276878,
            -2.5609442788859402,
            2.657578234277293,
            -1.818095341418764,
            -2.792912659825958,
            -0.27032390574239373,
            1.3580356543204886,
            -1.5725295276191904,
            2.4765627851376704,
            1.9950392381761186,
            2.383720853470039,
            1.0461301476675209,
            -2.5275669880174143,
            0.8525503254804931,
            0.705500273844494,
            -1.2365473827995432,
            1.2774770732842422,
            0.8040343067918876,
            -1.7112068697691896,
            -0.7826405049776681,
            1.4058141459202786,
            0.9987817545374005,
            2.769241959975232,
            1.3207799662321154,
            -2.7149533452244685,
            -1.7448843915109824,
            -0.5406872226144296,
            1.454486183126297,
            -2.021678228928564,
            1.859119947097839,
            -0.9359383867781785,
            1.19933070709959,
            0.4291143754500012,
            2.0459679411105234,
            -3.004933666824336,
            -1.1922181210304057,
            3.0467716024017477,
            0.20575555382852453,
            2.6236658724586044,
            0.12981200318987574,
            2.96866799597619,
            -0.40043081131759756,
            -0.6622823290823002,
            0.6723917440260012,
            2.600024248143324,
            -1.6358230798523907,
            1.7767797666704501,
            1.8947390691789947,
            0.6712228702602334,
            2.7426569296041805,
            -0.40637707000399054,
            0.593673929318897,
            -0.05493410499544245,
            -2.070567490292872,
            1.713973104771159,
            2.7867014234789047,
            -0.04089833694503774,
            -2.5783395013883035,
            -1.9263718934911815,
            3.1281221428061547,
            0.07004558676584342,
            1.3022346954473056,
            -2.3766939428537492,
            0.6475462183112456,
            3.0854985178026344,
            0.22072154673437186,
            0.9450859351695967,
            0.17756690253905305,
            1.9967195212516087,
            -1.0218727447713811,
            -1.7516158449140387,
            -1.9082195375862998,
            -0.6229383660206653,
            -1.3437171950392746,
            -2.2697612410793795,
            -2.137704053000492,
            2.383212068590248,
            1.947340896477209,
            2.7818894981625917,
            1.4851962898585223,
            -2.948680473536942,
            0.520310212030146,
            -2.6954364103765127,
            0.30343888035709027,
            1.785937085584195,
            -2.1000002997477045,
            -2.951099218083169,
            -2.3029067309581297,
            0.7203124403576625,
            -2.647668148818881,
            1.7446550755915635,
            2.268191958836037,
            3.1087751808547175,
            -0.0014054404235201146,
            -2.815589351886115,
            1.1640730702977764,
            -0.1113472090211973,
            0.7570916009856562,
            -1.4004597787338477,
            -1.7864999001423536,
            0.22412856695619146,
            2.893457688123971,
            1.9896439446076088,
            2.5588576960855938,
            0.4922236568921849,
            0.32608239229752023,
            -2.2022670121540306,
            -2.664789780646364,
            -0.7109458254682058,
            2.4604983032982375,
            0.8914934369249122,
            2.8992768541948823,
            -2.14016592942041,
            2.922897802211859,
            -3.0003173974503254,
            -2.7119282274492806,
            2.5613471842819786,
            -0.4117511227874485,
            2.7492652367901558,
            -2.589545893972719,
            1.4339058128411797,
            2.6094196703743195,
            -2.143169826493907,
            -2.216442126528906,
            2.6946398267806875,
            1.4374275525995004,
            -1.6182906289286751,
            -1.4259432248088546,
            0.9552819505795133,
            -2.6846144965687375,
            0.17056917680090497,
            2.038821392194813,
            -2.68929320632931,
            -0.1014853799726319,
            -2.481236763651566,
            0.4271026758878253,
            2.4274351006748915,
            2.5968733282141416,
            -2.4913481964420683,
            -2.0414872315316708,
            -0.6076652063458856,
            2.273698723349328,
            -1.8339425549445816,
            0.6853343198196623,
            -2.9461255081535844,
            3.110037134905894,
            -0.668448818231787,
            -2.12825432802491,
            1.6767220745191096,
            -1.226622944768571,
            -1.8308146925870195,
            -3.097895776331979,
            0.47655893018104073,
            1.9396640250916553,
            -1.4372719938278542,
            -2.9455637742002896,
            -2.2242223114203306,
            -2.575592431667349,
            -0.02420976444047586,
            -2.07907728395697,
            1.343500062422358,
            2.79644503541973,
            -2.478705165008442,
            0.02771166831397282,
            -1.1609705409959736,
            2.4926923813756896,
            0.235170068799159,
            -3.1518793392850823,
            0.5831376157216507,
            0.7809502518893704,
            1.4190738752729084,
            -0.5443598083731128,
            -2.753649391530032,
            0.5886439149785876,
            -1.252111619049169,
            1.4376605742408155,
            2.6136851538972277,
            1.061800268014717,
            -1.9027978783897839,
            0.9508610686962073,
            1.3692115427041878,
            0.6402116077524574,
            0.7682617748003343,
            -1.6769558252829457,
            -2.4318887641350706,
            0.39601604666148754,
            -2.982973086379683,
            2.393171500416356,
            0.15627269945182365,
            -2.1072621165397956,
            1.1527823613297215,
            0.8670341035342297,
            3.065441272815516,
            1.8011705712550148,
            0.5218226058627152,
            3.095582677421316,
            -3.1366923240067006,
            -1.4547419522977978,
            -2.46235164067928,
            2.7517997077829963,
            1.707576513584728,
            0.7396346616460052,
            0.08829978951763416,
            0.5470874179093766,
            -0.5063408410276203,
            -0.09778532215048112,
            -0.4361664981731245,
            -1.7849318365263311,
            2.6452465496254987,
            -1.6952097018739625,
            -0.9274346319580148,
            0.405699785864348,
            -2.6206235906097746,
            2.5978279616088398,
            -0.20372603993567093,
            2.8608065626516397,
            1.7047161599035139,
            -3.1089584726025237,
            0.770431188062661,
            0.5041388926356422,
            -1.144240630614268,
            -2.5692192466323664,
            0.7408448547787504,
            -0.293955070661201,
            0.9068280499480801,
            -1.910689059791118,
            -1.080942519036301,
            -0.4986257109890748,
            1.932670470292204,
            -0.8273987724082722,
            -0.10931639532229066,
            2.2188173907634683,
            2.4170352226712897,
            -1.6641327831141344,
            0.8902766761900349,
            -2.9397545412535897,
            1.0722894964808596,
            -0.2987960561354611,
            -2.7197355836760786,
            -1.2207922683348007,
            1.323577381218312,
            -0.08480449071616218,
            0.8548913671440633,
            -0.3040285362018064,
            -0.11832926955503285,
            0.07328563190653725,
            0.05804748988516185,
            -0.06945292651162036,
            2.8032782713859805,
            -1.884022130275326,
            -2.121314548661519,
            0.3526664175695045,
            -0.3951989594942086,
            2.6680093159247464,
            -1.5925593846587491,
            2.1735629242003536,
            0.6297544686799079,
            0.9589724551520055,
            -0.12852432149123183,
            2.68319217192559,
            -0.7525969665974526,
            2.74007972538721,
            2.845365992205129,
            -2.9362141907524486,
            -2.082880515511825,
            -2.2943522502992275,
            0.6355045375691613,
            1.6668844496830235,
            -2.8032374387906684,
            -1.124424846372482,
            -0.7129483563206906,
            2.3825484791131295,
            -2.7279943974074654,
            -1.9280215247554444,
            -1.3565502736789965,
            1.1115123712019221,
            -3.1258785808743434,
            -0.09715157661681345,
            0.659394115614729,
            -0.46837466970785585,
            2.916343857271527,
            -1.102362137213611,
            -2.626945580339133,
            -0.0769306769832752,
            -1.656480903291956,
            0.43952104503743755,
            0.5554737260608503,
            2.8075498626666473,
            -0.2732473328521029,
            3.00534408218076,
            0.8495726270500557,
            -1.057622248087366,
            2.698496964315431,
            1.1973021547031752,
            -2.785445663084906,
            -0.4493977622724236,
            -3.0925261091036726,
            0.26157034996420775,
            2.9581912852794177,
            1.7428428509815632,
            3.104239918788896,
            0.6663914213840036,
            0.21630770470906466,
            -1.6901158661410853,
            0.5810897936933238,
            3.073763375026963,
            -2.3370438615809968,
            -1.8735595135635768,
            1.7610417760834889,
            -1.0893997091263363,
            -0.3249128581111001,
            -2.330238034134055,
            0.8576718303433103,
            -2.422390856087392,
            1.8238049494219015,
            -1.1325257239737683,
            -2.1246111713315865,
            -0.319855602360357,
            -0.4029491522782944,
            -2.3171736487063175,
            0.588323451835212,
            0.4367306764116001,
            -2.438802476344288,
            -2.346697137662596,
            -0.7564828903822206,
            -2.2149766371991912,
            1.925903781674559,
            1.7577299991202282,
            -0.5418873170083,
            3.0823617526878313,
            2.310444196465466,
            2.944525458699456,
            -2.808774088405666,
            -0.021567735291773065,
            -1.5793960258566815,
            0.7256302070221156,
            1.361613700529933,
            -0.5798500738515439,
            -2.3671576373730967,
            0.5498176308118715,
            -0.2954337788986103,
            1.9596792509023155,
            1.1066978146373707,
            2.9856368895171688,
            2.7193116249315024,
            0.21682619496635205,
            2.299813638300035,
            -3.0588873338161373,
            1.4108873039190013,
            1.1756678993270577,
            -1.7297104930987792,
            0.35370400864860635,
            -2.054703480295408,
            2.7025248438121006,
            1.5014212292332922,
            -1.3430189475796075,
            3.0984480861670396,
            2.958404813484283,
            2.534888425629694,
            2.0372024580064485,
            0.46975035057424164,
            0.3627144039929332,
            -0.6408750792838802,
            0.642340036309493,
            -1.607805404140927,
            -0.2646966601197767,
            -2.387629037740838,
            2.5185009621004038,
            -1.2916526045893963,
            -1.100659593680585,
            -0.668695047710913,
            0.2293918446330466,
            -2.23236406678087,
            1.5655296306577628,
            -2.742861902701478,
            1.0595252486668998,
            -2.4989476967221376,
            -1.7467308400710162,
            1.0239211268705863,
            0.43796809930938563,
            -1.0988002668667705,
            -0.27479357559082196,
            -1.770682988948576,
            -0.8315303053568768,
            -1.5818025656925343,
            2.425341506077894,
            -1.8411329930235547,
            -1.2542471143984488,
            1.5415600737014314,
            -0.5710202123286702,
            1.473826617759416,
            1.0074773066936602,
            0.8808636459906778,
            2.3341911522832395,
            -1.884071721941701,
            0.6072463520809435,
            -1.6217230132750378,
            -0.10429044196439984,
            2.7786723850633868,
            -0.12508881548900225,
            0.9589034775095852,
            -1.851690615575793,
            -1.776581148022681,
            2.987885929929179,
            -2.0315930177117973,
            -0.11609515463998656,
            -2.6864324062145597,
            -0.19428447192829174,
            -0.18445439650944576,
            0.5990489105674481,
            -0.43317105644671505,
            -2.443386799086322,
            -2.974338637333745,
            -1.5649410676644375,
            -1.4353279429281791,
            1.1050727517969463,
            2.9600894120504355,
            -2.2173690998569056,
            -3.0180241355802706,
            1.5362581543690277,
            0.7154619993384876,
            -0.44812560700394366,
            1.7678388084422374,
            1.5100207530393397,
            -1.864586956172447,
            2.1956703349014988,
            1.3986518726778845,
            0.9363366627803525,
            -2.5677973940970826,
            1.9954950589177747,
            1.4611489756329639,
            -0.23016832016152708,
            -0.22198433770375267,
            1.5316025444236172,
            1.2386408985793391,
            2.7360046068508055,
            -2.9617759507358414,
            -1.0511475738912088,
            0.6148990524348331,
            -0.9023694181798843,
            -1.1207436993218272,
            2.0339444608622097,
            -0.17124379452771166,
            2.3921628285722045,
            -2.17251254615421,
            -0.6901616640167353,
            0.37287825431884386,
            2.402665326430066,
            0.9645866647904523,
            -0.32966203296166036,
            -0.37623402482160745,
            2.552758888392317,
            1.0040875947325292,
            1.522901995148293,
            2.1343260914877855,
            1.4238436053760284,
            1.8096523948823162,
            1.6903367063499368,
            1.4505233756427265,
            -2.7767919054925643,
            -1.0202813606590482,
            -0.9692755428593521,
            2.4346835008434873,
            1.2941361294614722,
            1.4244006653838714,
            -1.3126149612848543,
            1.454040911731518,
            3.041907215775512,
            -1.961365972870071,
            2.295483715961697,
            -1.5184400713026283,
            -1.6359467186528973,
            -0.8378677571444048,
            -0.9958477005038963,
            1.1414494325381581,
            1.1588501660396158,
            -0.8877195719617039,
            -0.5489113857906559,
            -2.5006932218796676,
            1.2206509754349115,
            -0.9139229108032129,
            0.9457456709685078,
            -2.583592543920698,
            -0.7745266173403503,
            1.5706627722215305,
            2.8525394597084377,
            2.59350530482751,
            0.021645697270023155,
            -2.0303549469486426,
            -1.3211474638982819,
            2.027702175304986,
            2.0846240868199883,
            -1.5006795178694605,
            2.4035667577530275,
            -0.5782382607291765,
            -0.9289112262107033,
            -2.852295576764002,
            -2.2259112067908413,
            -1.0689313360378938,
            -1.3469141851013127,
            -0.8515835664561893,
            1.1567665911676754,
            3.098522367490914,
            -0.4453462559132063,
            2.398368656515271,
            1.062327782560647,
            2.5744037055366644,
            1.8076203578108714,
            -1.4472910109549801,
            1.2144021654473658,
            0.7488770142216713,
            -2.7727914140229584,
            -0.9516682617858384,
            -0.926757509228534,
            0.34445828165065473,
            1.4727670614589259,
            1.0384184580676992,
            1.0501943135316316,
            -1.888209512848093,
            1.0997073318908919,
            1.7946218408748267,
            -0.3483507456626799,
            -0.9058572140463127,
            0.16572478347948494,
            -2.4698452894253085,
            -2.6865468568639694,
            0.02959750954302873,
            0.050750776075087184,
            -0.24797849497581861,
            1.9792709499533734,
            -0.946289148109144,
            0.8657006002788726,
            1.4046527260088473,
            -0.7464925529870178,
            -2.6833058931436833,
            -0.7137078356651354,
            1.7784402595350668,
            0.4530125436682323,
            -0.20863041091614268,
            -1.4438392925824892,
            -2.709049755425148,
            0.7474240063595283,
            -2.2113537038874145,
            -1.5253469773926314,
            -0.21721120767882726,
            0.7848015562369912,
            2.0816937252367045,
            1.880203719455587,
            -0.7254311866902348,
            -3.0464922973681263,
            -2.6191274602289245,
            -0.3421446522772226,
            0.35849448019639796,
            1.221300840078817,
            -1.658168237302709,
            2.4610711244245094,
            2.7087965086875077,
            -1.231421605393606,
            -1.2899088776115286,
            -0.0056031739877431585,
            0.8351696370396272,
            -1.1609085165128301,
            0.9238667351046708,
            2.2490687961339826,
            0.5314399983704156,
            1.9672584230831918,
            -1.3946653544021328,
            0.2386296614251181,
            -2.7795264541777853,
            -2.4911323687357925,
            -0.9762368008322264,
            -0.256868277944141,
            2.5845463805688498,
            -1.3567539536523068,
            -2.5006136118622684,
            2.9429245203681957,
            -0.821824962537111,
            -1.43845715517848,
            -0.3579510704423745,
            -1.4604585496617732,
            0.18728319952176797,
            -0.33164842395891064,
            2.2321867449700563,
            2.4832619853351425,
            -3.0488367198042257,
            -0.126332445350062,
            -0.5700471869460944,
            1.3568490865857135,
            0.6740529761357661,
            -2.0915409538571197,
            1.9276050597519145,
            2.950788084706117,
            -0.8981433944909707,
            0.7000811431285799,
            2.4683555657086766,
            2.5407106090269695,
            1.7521898881633087,
            -0.08658305819282706,
            2.530794744167056,
            -0.13344534394981752,
            0.03890921896726127,
            2.944434744450234,
            1.0766295385779145,
            -2.280975502254133,
            0.7654867054086024,
            1.1571072732070684,
            1.6276000100024544,
            0.4325591117562955,
            0.5838651905644558,
            2.4096055935242484,
            -1.648802097300732,
            0.6718597213788406,
            -1.778002952934711,
            -0.26234479065545174,
            2.5197368595019753,
            -2.6159773730462383,
            -0.8323139472238207,
            -1.233998543423521,
            2.364728254753733,
            -1.7659351004170152,
            -0.43774615133596617,
            -1.8626894791520427,
            -2.4840345268033395,
            -3.1295588127829834,
            0.4438589291410409,
            -2.1022194304728585,
            1.9473270067215473,
            -0.5467419045873069,
            -2.015794872535855,
            2.689673308257578,
            -2.53325886536242,
            1.9602091581160477,
            -0.274065101385326,
            -2.1715674294843694,
            2.5612834562030558,
            -2.226626874139205,
            3.018496742940461,
            -3.0080476549624877,
            0.6624372804342904,
            -2.7556081796030565,
            -1.3809524913503008,
            0.42714426749682094,
            2.6655746887015623,
            -2.9237166829732377,
            2.4448459518659424,
            -3.1230808471907805,
            -2.609911235934285,
            -1.333434637210393,
            1.7734382523689893,
            0.7142964982569244,
            -0.8817851656830086,
            -2.729801151874721,
            -2.1346068172696953,
            -0.05482770295875871,
            2.8945164407955795,
            1.4543652974305892,
            -1.3712823172999524,
            1.3236113446732867,
            -2.149034553657569,
            -0.5652495909239672,
            1.984954236401475,
            -0.993345436652268,
            -2.466701939505421,
            0.04649138876982063,
            -0.29438905868720056,
            1.9322210924387826,
            2.372072096611044,
            -1.8309419648588294,
            1.9901913587730364,
            -0.7741756685910706,
            2.3457200608180884,
            -0.39245448362616736,
            0.15480251180394955,
            -1.1363261768085946,
            1.5776188956435924,
            2.8429823241936187,
            -0.38629065655680717,
            -2.429332377324589,
            -0.6420974480095049,
            -2.346053520252282,
            -3.0611787859903714,
            0.8251186592898002,
            0.5723003293022411,
            -2.4782401568766934,
            -1.9402280172532627,
            2.107423527025276,
            -2.471379840585175,
            0.729309366139671,
            0.9458029630579665,
            -2.604383426886493,
            3.0332130371279833,
            -1.8414735064612489,
            0.9089194522964975,
            -0.3063064744503236,
            0.03515487679927897,
            -0.9023066243436558,
            1.3722312253304196,
            2.227502894645068,
            -2.012729815617537,
            -2.0958631467321083,
            -0.4861167211757972,
            0.0771081024723295,
            -1.99146840038361,
            -0.404720579483374,
            2.5728680407867324,
            -0.17971548532670736,
            -2.6786770295148203,
            -2.7168573126199917,
            0.5605195346593419,
            0.7737648836206675,
            0.28945897722227343,
            2.63920526342462,
            -0.4012931975350007,
            -1.722452807384153,
            0.12794013909924004,
            -0.5106292128780554,
            -1.2475072682887984,
            0.0328212996773379,
            1.39671456489371,
            0.4987792680865769,
            -0.8874662116789257,
            -0.6132793730440668,
            1.272697315172176,
            0.7623603890911611,
            -2.9048554840151692,
            0.3780013620301319,
            -0.21301857781311553,
            1.048102336944614,
            -2.5407319211684394,
            1.3457713004222638,
            1.8837117572557611,
            -0.32760925034812394,
            2.2085859126951206,
            2.6329029924313287,
            -2.9955960945255877,
            1.3179712394153384,
            -2.776005183676607,
            0.9932613476045649,
            0.32057653084765936,
            -2.4149505588783335,
            2.1534618093097793,
            -1.2393338152343023,
            -2.636869247364092,
            1.622753458253857,
            -2.5237200088927816,
            -2.4869315917800328,
            0.5597231057267605,
            0.9345442841939433,
            1.2721986876490274,
            2.2730579480395843,
            2.8770540777593334,
            -2.925145691811693,
            0.9716947207813308,
            1.2954743394531474,
            -1.2062958495996063,
            1.5245230814860697,
            -0.28731901955774,
            -3.0583098207734674,
            2.575301006463328,
            2.114164314697683,
            -2.025496006314582,
            0.8623281520873323,
            3.072519062180654,
            2.3303232418012723,
            -1.6471647315784157,
            0.9226839275519664,
            2.2682946796168433,
            -2.945409003959003,
            -0.5820961895159017,
            0.3670045579135428,
            -3.1459610215169596,
            -1.2370882639388847,
            1.439341473075108,
            1.9177045221559084,
            0.4841630770717121,
            -2.608172368457913,
            2.5082518361520743,
            2.2717540989536813,
            -2.9551144563516565,
            -2.33548665898181,
            -2.1644930540027807,
            1.640570326219915,
            1.0214147341167739,
            2.128090056926106,
            0.558019272118144,
            -0.08394236465851296,
            1.904033996356189,
            -1.8995510259282007,
            -2.7792009676862595,
            -2.9619010634824687,
            0.19118136705289251,
            -0.3792263408274399,
            3.1309402761947025,
            0.4314828935781495,
            -2.5623292040351684,
            -1.2591183767233483,
            2.752802756221397,
            2.2979204969806846,
            -0.11222898544904705,
            1.8115233350240953,
            -1.4123937196050445,
            2.4151843289319372,
            -2.6303530450353954,
            -2.3621401375910467,
            0.41126870309303476,
            0.5363165068244561,
            -2.4567200922025867,
            0.8262503623189578,
            2.346342534791619,
            -1.025096981654946,
            -2.2216650127431232,
            -0.2909828574865902,
            2.238780491475555,
            -0.2834619859580217,
            -1.9724238819053996,
            1.9007281233909474,
            -1.6202450588689512,
            -1.348841133246197,
            -0.1838983126908089,
            1.8287071925527831,
            2.886430895498111,
            2.7059788376983427,
            -1.5230138664719064,
            -1.4863551266043722,
            -2.934820387355134,
            1.8587466684098768,
            2.628775528397854,
            -1.104025937699856,
            -1.0446678759245263,
            -0.8928432390674567,
            1.5130299351555128,
            0.8013867254661258,
            -1.3486735642831575,
            0.03613639012385349,
            -2.5217648222917117,
            -1.7303060352827797,
            0.1923403174988558,
            2.5005555125848593,
            1.2662787464658531,
            0.7401240107360127,
            1.7240635118159506,
            2.217476804991424,
            1.105868044426157,
            1.256670879337648,
            -2.828883489606162,
            -1.5417066257801482,
            1.9482891574019003,
            2.3769116124675267,
            1.3843762807649715,
            -2.127754405521367,
            -0.993271870415162,
            -0.532909209240504,
            -2.4850666602771834,
            1.6322303662262967,
            -1.5499568847917988,
            -0.3576803797717214,
            -2.3637931374773617,
            -2.5338158711011025,
            -2.054240733452625,
            -0.23587596537670297,
            1.2398310629169995,
            0.4770851874490481,
            0.28823518817486105,
            -2.5815900885260272,
            -1.5338705018971757,
            -1.0994384859155433,
            3.157227432768424,
            1.7797495257903566,
            -0.7375369718030299,
            3.074177457324454,
            -0.5815693264563911,
            0.8978532563668525,
            2.22346367355861,
            2.9856557739324,
            0.0995774521066082,
            -2.210744673257798,
            -1.8955016733697732,
            -0.14795839324404159,
            2.0056596087514245,
            0.8878175626165362,
            1.1166923795991832,
            -2.0524612360108256,
            -0.9913556497815573,
            -1.5036978901746356,
            2.398850025788157,
            2.5172804794535018,
            -0.7561424352484541,
            0.7835952833286683,
            -0.40871358926845036,
            -1.2887666236385389,
            0.6526680459722987,
            -2.0144922722034617,
            -2.3734338908838306,
            -2.5232739278266325,
            -0.3877938799577545,
            -2.057418928766813,
            1.0491464179368633,
            0.07108675265292949,
            2.022083236876145,
            2.935313443154238,
            2.4118079768311023,
            -0.35373224997442826,
            -2.5846009578238838,
            1.7898196555296033,
            0.4915541245402151,
            -1.7050903066011558,
            -0.7357714715424925,
            -1.4903942614142827,
            -1.1982020139179337,
            2.748852260743919,
            -1.7717934932974533,
            -1.2580960998051414,
            2.403960779746623,
            -2.1491933464079582,
            -0.8212926815079142,
            0.39146491929938576,
            -0.2644575444998424,
            2.240114844587716,
            0.9508641039502614,
            3.0810968708933,
            -0.4238541565034318,
            0.2909512340670155,
            -2.3014245008088987,
            1.7189443628596537,
            2.185195069005752,
            1.4781902147040573,
            -2.82215921825712,
            1.0479180059052373,
            2.031215194838802,
            -2.413979901491435,
            -1.1911306729255429,
            -2.4320712539848444,
            1.6815921983738489,
            0.4258086000274826,
            -0.02138561071970234,
            -2.0697156633589238,
            2.9388088037148963,
            -0.9641502228476517,
            1.0703636286796738,
            -3.049098882923229,
            0.7562755661514463,
            0.6611132981875679,
            2.09618941712989,
            -2.2062760122731713,
            -1.296207048702702,
            -1.3515346325617743,
            0.07032276854590148,
            1.8314900342239129,
            -1.8960192307750625,
            1.3285561960558572,
            0.07230593021589106,
            1.732276978038269,
            1.4615468064618833,
            1.5960315759801702,
            0.03621557788285883,
            -1.0261964842017268,
            -1.7707119125398056,
            -1.8525407351352754,
            2.0520986394674763,
            -0.5012384553970761,
            2.4996580671012265,
            1.6346848434282208,
            -2.973675832183803,
            2.7941842217193247,
            -0.7114564034361522,
            -2.794182476735894,
            -2.459606924445322,
            1.8808350399914044,
            1.8589063747418753,
            -0.7995954735115426,
            0.7933316819799232,
            -1.8630764801087918,
            0.3849338481137164,
            0.42231163690421497,
            -1.5142530974168915,
            -1.4311213814259158,
            2.876588231071769,
            -2.763257479145099,
            0.12401414778708388,
            -3.095556856722275,
            -1.8229599579380282,
            1.7379828537930686,
            0.4666945662764818,
            -1.2959580998218192,
            -0.06578141831860201,
            1.4875000945424588,
            0.9599877091377357,
            -0.6534826524537102,
            -1.0862488551183966,
            2.9038600678372832,
            2.3267467336086227,
            -0.30565804759842474,
            0.4837619825738757,
            0.15062701897590441,
            3.15926784912197,
            2.323916758243425,
            0.47066532108553677,
            -1.5013115087228603,
            -2.525525039494233,
            0.7069227898893197,
            -2.669805615360953,
            -2.7647433427668124,
            2.4323540568162416,
            1.8952817391004304,
            3.0481001019191933,
            2.119244645927049,
            -0.5226747996777377,
            1.026344167037185,
            -2.274808091543355,
            0.46362044214191256,
            -2.0879991054181612,
            -2.9648956733208665,
            1.6703722824364031,
            0.863608873072854,
            -2.4250370298405155,
            2.721166538644973,
            -2.7703399719810298,
            -1.3039101019011408,
            2.57878466054358,
            2.002909249141128,
            0.5100737016366281,
            -0.6715710862257421,
            0.4169704667887714,
            -0.16693180471322744,
            1.0836726697161185,
            0.045294786083878144,
            -2.8977588342758067,
            -2.257829767236205,
            -0.5144720201013119,
            -1.1506661519876697,
            -1.1451180671454555,
            3.0097036766105543,
            0.7666785328387189,
            1.690875757032099,
            2.9748409355606587,
            -1.8317057414119524,
            2.503647466107982,
            1.3152527872346405,
            -2.104548724415679,
            -0.02323771058339116,
            0.3072374880042644,
            2.227044335025981,
            -2.2934557491884915,
            1.3155211585073794,
            -3.0190424105140434,
            -1.7591440503118216,
            -1.7569878923440174,
            0.5812842590136985,
            3.0108264951424895,
            2.4259003318687236,
            2.7710156843372524,
            1.1369376481403133,
            1.8599163836801893,
            -0.620075461005445,
            0.35319893656471496,
            -1.726940455754839,
            2.1095079307386415,
            0.10556213426194094,
            1.983646172794305,
            -1.9650467460684964,
            0.6112325355124829,
            2.0382399626085235,
            0.400175496840658,
            -2.214912682051798,
            2.766176892447096,
            0.6625364459419011,
            -1.3749877425477839,
            1.8312429716041327,
            -2.932107542591582,
            -2.350848816144928,
            -0.21076758718400293,
            -0.8499117401973938,
            -0.6770210139103084,
            -1.8695698152604263
          ]
        },
        "skip": {
          "dims": [
            1,
            1
          ]
        },
        "simple": false
      },
      "totalBatches": 470,
      "totalItems": 23500
    },
    "4fa7fab9-ef6e-4f26-9af8-19410000343b": {
      "class": "com.simiacryptus.mindseye.layers.util.MonitoringWrapper",
      "id": "4fa7fab9-ef6e-4f26-9af8-19410000343b",
      "isFrozen": false,
      "name": "avg1",
      "inner": {
        "class": "com.simiacryptus.mindseye.layers.media.AvgSubsampleLayer",
        "id": "4fa7fab9-ef6e-4f26-9af8-19410000343a",
        "isFrozen": false,
        "name": "avg1",
        "inner": [
          2,
          2,
          1
        ]
      },
      "totalBatches": 470,
      "totalItems": 23500
    },
    "4fa7fab9-ef6e-4f26-9af8-19410000343e": {
      "class": "com.simiacryptus.mindseye.layers.util.MonitoringWrapper",
      "id": "4fa7fab9-ef6e-4f26-9af8-19410000343e",
      "isFrozen": false,
      "name": "bias_2",
      "inner": {
        "class": "com.simiacryptus.mindseye.layers.media.ImgBandBiasLayer",
        "id": "4fa7fab9-ef6e-4f26-9af8-19410000343d",
        "isFrozen": false,
        "name": "bias_2",
        "bias": [
          4.5096873408302515E-10,
          -4.152102658579418E-9,
          5.582207988845094E-9,
          7.282882464616724E-10,
          6.459409394155477E-12,
          1.2217427585261845E-10,
          -3.052428893499348E-10,
          -1.5339853155552447E-9,
          2.3310487276395326E-9,
          -2.0856167097154227E-9
        ]
      },
      "totalBatches": 470,
      "totalItems": 23500
    },
    "4fa7fab9-ef6e-4f26-9af8-19410000343f": {
      "class": "com.simiacryptus.mindseye.layers.util.MonitoringWrapper",
      "id": "4fa7fab9-ef6e-4f26-9af8-19410000343f",
      "isFrozen": true,
      "name": "activation_2",
      "inner": {
        "class": "com.simiacryptus.mindseye.layers.activation.HyperbolicActivationLayer",
        "id": "4fa7fab9-ef6e-4f26-9af8-19410000343c",
        "isFrozen": true,
        "name": "activation_2",
        "weights": {
          "dims": [
            2
          ],
          "data": [
            0.2,
            0.2
          ]
        },
        "negativeMode": 1
      },
      "totalBatches": 470,
      "totalItems": 23500
    },
    "4fa7fab9-ef6e-4f26-9af8-194100003441": {
      "class": "com.simiacryptus.mindseye.layers.util.MonitoringWrapper",
      "id": "4fa7fab9-ef6e-4f26-9af8-194100003441",
      "isFrozen": false,
      "name": "conv_2",
      "inner": {
        "class": "com.simiacryptus.mindseye.layers.media.ImgConvolutionSynapseLayer",
        "id": "4fa7fab9-ef6e-4f26-9af8-194100003440",
        "isFrozen": false,
        "name": "conv_2",
        "kernel": {
          "dims": [
            4,
            4,
            200
          ],
          "data": [
            0.002208112825770983,
            0.0028124117205878857,
            0.0017643071902180639,
            -0.0014175686049807217,
            -0.0012442518692225356,
            0.001858269631743833,
            -0.002187472297703946,
            6.931555967924819E-5,
            2.2753841023349185E-4,
            -0.0029065035975052718,
            -0.0025863279339536057,
            -0.0027851299144294244,
            0.0019526754337630718,
            -0.002574216221025887,
            -0.002520943091262204,
            -0.0029553763204503976,
            -3.4196786045406573E-4,
            0.002741630210674987,
            -0.0030837616409525453,
            -0.0012708634391421301,
            0.0022350838217870725,
            -2.6130948637198873E-4,
            -0.0028096716471119353,
            0.0014727359664897348,
            0.00206061405251843,
            -0.0026741599637919665,
            7.399127104281908E-4,
            -0.0011055722498555976,
            0.0029167990324103056,
            -0.0017549337221431625,
            0.0015324090622782145,
            -0.0016329970810683033,
            0.0023867014597991737,
            0.0026523054303977268,
            -0.0022742250208497242,
            0.0017543153296785117,
            5.201235953502568E-4,
            -0.0028538433235486245,
            -0.0010065535671264965,
            3.543580949995632E-4,
            0.0018210072331262832,
            -8.766066351835024E-6,
            0.0023604705146574403,
            -0.0015300957652890817,
            -0.0020290889932888276,
            0.002888177503274349,
            0.0020127251398420268,
            7.310870659953447E-4,
            9.281869214972583E-4,
            0.0013026470015471152,
            0.0021959579088070115,
            -5.565435085799664E-4,
            -0.00139602320169814,
            -5.285215659154618E-4,
            0.002624285671044939,
            0.0015519094837382526,
            -1.898475484862218E-4,
            5.770549911142693E-4,
            -0.002530243802279434,
            0.002347585813078065,
            0.002151668166857608,
            -0.003016374290748918,
            0.0012410436833241026,
            1.6826763929011018E-4,
            0.0013063266563267495,
            -0.0027134432116750445,
            -0.0013266613699954902,
            0.001274643052746712,
            4.238607855110583E-4,
            -0.0020846749096695245,
            0.0011235813976509122,
            -1.2073064190897281E-4,
            0.001351427581046906,
            -0.002465089755333797,
            -0.0013504343607676887,
            0.0022049562490195993,
            0.001645497546971814,
            0.002418374373433997,
            -0.002856263000849937,
            -0.0028234996798350426,
            -9.150474812925439E-4,
            -0.003066629756876086,
            -1.6765716841143338E-4,
            -0.001270078489247766,
            -1.0174179425389246E-4,
            0.0030645175258731854,
            0.0028886528026270918,
            0.002704369128594193,
            -0.002822118007047304,
            -0.0013013746788646337,
            5.42447141305128E-4,
            -0.0020707800941455632,
            0.0024748988684758096,
            -0.0014359355165213894,
            0.0029090001451619342,
            -3.9413549551147223E-4,
            -0.0024503745477728648,
            0.0021230886036356406,
            8.874848075881993E-4,
            -0.0022614353900295755,
            -2.3356305441193988E-4,
            0.001146915752469034,
            -0.0016315108340415687,
            0.001883693030348104,
            8.002705436135212E-4,
            0.0010061548010200426,
            0.002236819341633442,
            -0.0023929619546620177,
            0.0012090845483706924,
            -0.0011051842468431641,
            -4.943714335104655E-4,
            0.0011682869327573162,
            0.002733912553842273,
            -0.002946085984695054,
            0.003003233542297806,
            0.0018449351772513124,
            0.002025481125766795,
            -0.0015258294691163931,
            -0.0026813571523853137,
            -0.002895791935619075,
            0.0012405143796488905,
            -0.0017691977660385025,
            0.001231348495022028,
            -0.0013100216808015288,
            0.002335847630975154,
            -0.0011231548078561922,
            0.0016587714226881788,
            3.051383986524122E-4,
            0.0018817685008452674,
            0.001410547206672179,
            -5.906433983358315E-4,
            -6.620805395397712E-5,
            0.0028433078665039847,
            0.00207217914784489,
            0.0015849901857326342,
            -8.119314779332488E-4,
            -0.0016495541051235979,
            0.0015607204717926865,
            -0.002275860308903459,
            0.0015718554491019597,
            0.002571076299667615,
            0.0010130475682441802,
            -0.0020283383843811595,
            0.0015574836573112208,
            -0.002827152072203533,
            0.001438536967858903,
            4.0585047966932317E-4,
            -0.0015704908059179564,
            0.001066425558477206,
            0.0012132439453351395,
            -8.915724349580138E-4,
            -0.002673428920445163,
            0.0021779123407316774,
            -0.001254372034502967,
            -1.6319752344308276E-4,
            1.8181008254307938E-4,
            -1.690464229585937E-4,
            0.0010832063344221737,
            -3.5695354157055573E-4,
            -0.0027839521541693896,
            0.002541312773475845,
            0.0013372877692515953,
            -0.00302430180156091,
            6.248075882085219E-4,
            0.0027260025915278423,
            0.0018987243302391447,
            0.002060928942951666,
            3.8547319890484333E-4,
            -0.0013486685809080085,
            0.0027538703075071524,
            -0.001707027503683172,
            1.502002209237604E-4,
            -0.0020254663956558623,
            0.001350375916735444,
            0.003111550885862176,
            -0.002944252332002296,
            0.0022625530624341603,
            7.116323790634731E-4,
            8.352111397879505E-4,
            -0.002880905327665658,
            -0.0024282496793588664,
            -0.0017556520430088115,
            -4.949429154135099E-4,
            -0.0030358179401268077,
            4.884807996206952E-4,
            -0.001504742075884563,
            0.0027985352642384627,
            0.0023144105054617326,
            -0.0020450665889931267,
            -3.160215891668743E-4,
            4.5314515598069067E-4,
            -5.180021038854327E-4,
            -0.0010403747847689989,
            0.002032093280105723,
            0.0026874372655481425,
            -0.0014795510962801166,
            -0.0027702188551492687,
            8.693866116761532E-4,
            -0.0014875089878346292,
            0.0022645043861949125,
            -0.0026104439311855753,
            -9.445440410137817E-4,
            0.0014510470183784943,
            0.0028885587414744884,
            -0.0024356609168023117,
            -0.0012197635193427424,
            0.0021848384144725454,
            0.001919661165718688,
            0.0014469959461918863,
            -0.0013507520029393434,
            0.002825211272871908,
            -0.0026716887299743195,
            0.0010613804144456668,
            0.001264903875658785,
            -4.937316982255524E-4,
            -0.00138005473066164,
            9.516384111215495E-4,
            1.9184576283922078E-4,
            0.0029998974621950575,
            5.4266430993734E-4,
            -0.0018062074776243745,
            0.0025313726422581807,
            2.3966437170173049E-4,
            -0.002000206041161496,
            -0.002188484477684456,
            -0.0027220143248443936,
            -0.0015522482760474145,
            -6.422455527252097E-4,
            0.001820798162944908,
            -9.79486576487798E-4,
            0.001301732432434787,
            -0.0017882562863657677,
            -1.8543795412907004E-4,
            0.0022674100922698533,
            -5.433273179353034E-4,
            0.001138366994821152,
            -1.7480457085599038E-4,
            -5.101211925272975E-4,
            -1.1644464370075989E-4,
            3.586109644840702E-4,
            6.009205624573005E-4,
            0.0011465566562756746,
            -0.002415488417341897,
            -0.0028462929846991415,
            0.0010660629744861803,
            0.0010974695425454905,
            0.0014174583124710218,
            0.002126449537378112,
            -7.957987073919003E-4,
            -9.844796298292336E-4,
            -0.002260219732743417,
            7.633051516765904E-4,
            0.0011413081467404823,
            -0.002280269704959529,
            0.0010692446513834873,
            1.387901307282539E-4,
            -0.002413004339254428,
            0.002955070889677614,
            -0.0029565525417093665,
            -0.002556936364110128,
            -0.003067627171910321,
            -1.5877209905376666E-4,
            0.002685393400604811,
            0.0023884470057708,
            -2.1113893345943614E-4,
            3.5034199944455283E-4,
            -1.968499651650396E-4,
            0.001525580604832492,
            -0.0016552079253925316,
            0.003032946588573165,
            -0.0029413703795133157,
            0.0028169660041379345,
            2.9301198168216506E-4,
            -0.0019509748670817834,
            9.27776758606199E-4,
            0.0028410654427736184,
            -2.571272560113667E-4,
            1.2473882392305326E-4,
            0.0013995473872128988,
            5.699345873313675E-5,
            0.003043747978188421,
            0.001720792008419312,
            -0.0019346261704040449,
            -0.0012253535336932513,
            8.915925013434488E-4,
            0.0021505662561322994,
            0.0018006712065177424,
            9.383545623582501E-4,
            -0.002966221718222077,
            -9.948527461783878E-4,
            -5.273763757423302E-4,
            -2.631868729141314E-4,
            0.0024469506299637776,
            1.9760879698118314E-4,
            -0.002565805099591825,
            0.0014107949218587627,
            0.003036006645180353,
            9.059366456089008E-4,
            0.0022898944892778294,
            0.0019259494287767979,
            -0.0012141789638047194,
            9.33522625562185E-4,
            0.00203325903249237,
            2.34180933207476E-4,
            0.001963495207609981,
            0.0022334306076736915,
            4.3546810328936886E-4,
            0.0020780398757492217,
            -0.002454546537689918,
            -0.0021057884564753605,
            0.00207452598759109,
            4.151987477886407E-4,
            6.312223186092219E-4,
            0.0024322493985048464,
            7.0161937014328505E-6,
            0.0030385155472425268,
            -1.148326845785009E-4,
            0.0016876948187250244,
            0.00213054431447327,
            -0.0013870132632997755,
            -5.544986872234647E-4,
            -0.0019009371018129544,
            5.25213207446326E-4,
            -4.546717162481395E-4,
            0.002411580577052974,
            2.997225402333976E-4,
            -0.003079150658902361,
            0.003072461593279592,
            -0.002409436185377091,
            7.324468530217999E-4,
            -2.7993247985075425E-5,
            -0.001148313561221965,
            0.002661175089785383,
            -0.0011694201530593944,
            0.0019588179836486147,
            -2.0273875403035092E-5,
            0.0021073306488163628,
            7.201679079374908E-4,
            -0.0027642970211756153,
            0.0028632228468344115,
            -3.8498453122756E-4,
            -0.0010602267867814892,
            0.0019178302387179264,
            0.0030543024495347194,
            0.001307598451195144,
            -0.0018071753141736876,
            -0.0022588494103214555,
            -0.002485713630526741,
            5.516523466142719E-4,
            8.577928075107843E-4,
            0.0016208825813287804,
            -0.0012243161312100305,
            -0.00213572971533838,
            -0.0017907289368323043,
            -7.856903084828493E-4,
            -9.785235028161466E-4,
            -0.0013075989288227501,
            -0.001315663115527684,
            -0.0019200678427452264,
            0.0020605298495889094,
            0.0025474006391693962,
            0.0010083040291399947,
            -4.733022009930278E-4,
            -8.289589576322824E-4,
            0.001480230428517239,
            -0.001331691829818785,
            -0.0027826218913848183,
            -0.0011025412073933372,
            0.001096583559587245,
            0.0012348154537279849,
            0.0023381123281642872,
            0.0014106763027233204,
            -1.0892374312575313E-5,
            -7.024356068806161E-5,
            -2.599851559052617E-4,
            0.0014404307262794146,
            -0.0017860616750703597,
            -0.0016611260939874898,
            -0.0015735643641841537,
            0.0017129798104245336,
            -0.003111813444368744,
            -0.002465849907393243,
            -0.0019093844226305999,
            7.486211508256904E-4,
            -0.002554225181126547,
            0.0030498539202334887,
            0.0021917180469404767,
            -5.61261288824278E-4,
            -7.030620969042023E-4,
            0.0025116107957803384,
            4.314798506139939E-5,
            0.0011009210728797003,
            -0.0019783699299937714,
            -4.68199570891775E-4,
            -7.422397388173218E-4,
            -6.329423000992719E-4,
            0.0018949813296114837,
            -0.0016257264169319428,
            -3.950945183964015E-4,
            0.0017773548785097782,
            6.104282692822326E-4,
            0.0018866987631613763,
            -0.001286576134406701,
            -0.0023016275910243632,
            0.0011822769685257755,
            -0.00206080895631952,
            0.0020755024966550985,
            0.0015599462512321089,
            0.0017788928756257145,
            -4.660437414925485E-5,
            0.0025381119262171564,
            -1.77299133177202E-4,
            6.021999539795147E-4,
            0.00288871501173078,
            -0.0023193215432816892,
            0.0013727323370299502,
            0.001871927765552365,
            0.0024185435495089024,
            -0.0021114514679632305,
            0.0019631034500991566,
            2.737264862584444E-4,
            -0.003069073950231132,
            8.88774556775047E-4,
            -9.283782676369383E-5,
            -0.0023024705164297024,
            -0.003082017537566775,
            4.493444929882926E-4,
            0.002863831200463606,
            -0.002284117077763644,
            -0.0016893170702544774,
            -0.0014518732314380972,
            -0.0031364662465110165,
            8.581082622616144E-4,
            0.002195341534641309,
            -0.0011528451178642464,
            0.0011853139186164077,
            0.002718173311657163,
            0.002449076272261712,
            -0.0011325964058843342,
            -8.439650246307551E-4,
            -0.002542029922473502,
            -0.0029889655428661298,
            -7.221829297656926E-4,
            -7.153838344517041E-4,
            -0.0013112561153649856,
            0.001804284301238933,
            -0.0014569520903556339,
            -0.00220849773264348,
            0.00205456854846413,
            0.0010354841100901756,
            0.0014561784157447926,
            0.0014078495195622603,
            6.39002711029522E-4,
            -6.600290525532677E-4,
            0.001618156377758552,
            -0.0027044716528413673,
            7.839366408356205E-4,
            4.054784863585471E-4,
            3.00349344547163E-4,
            -0.0019926143834987364,
            0.002937253806688761,
            0.0010011296435977182,
            -8.17243357033297E-4,
            0.0025429513613620487,
            4.692388085183471E-4,
            -0.0016199645309626864,
            -0.0028113946434223996,
            0.001119875865520911,
            -0.002004193932445453,
            -0.002466036778238186,
            9.273146872495472E-4,
            -0.0021009633574528533,
            0.0015987828995541328,
            -1.2383536911135176E-4,
            -0.001492654809760631,
            0.0019204186627076606,
            0.0015533266003927297,
            -0.00290467901403829,
            -0.0027708473604207795,
            0.0020656923094519017,
            0.00153181428856519,
            0.002231761744011116,
            6.101068601221535E-4,
            -7.147639249272433E-4,
            0.001559042305968692,
            -0.00116374340761498,
            -9.233120550773314E-4,
            8.432201526907723E-4,
            0.002238518942282633,
            -0.0018095200967113319,
            0.0010827840389271612,
            -7.66259239095407E-4,
            0.0020675759787173666,
            2.784626489470385E-4,
            0.0018158305996470142,
            0.002205928268419428,
            1.32198886997247E-4,
            -0.0015032349037848861,
            -0.0012223978098523445,
            -0.0017862822534996353,
            -0.0029392448703627616,
            -0.0012814223047481284,
            0.002701789524354596,
            -0.002341507916026241,
            0.002685612830778323,
            -0.0019661249462569336,
            0.0024051349694126077,
            -0.0021134886415085504,
            0.0018982200933588642,
            -7.255766871109225E-5,
            -0.002032294998915188,
            -0.00151299537069759,
            0.0029947427366968575,
            -0.002317106003447205,
            0.0019161654082614098,
            0.003061228501642218,
            0.0016716418542423591,
            -9.223318265348E-4,
            -0.0020174914444438343,
            -0.002989663986127879,
            -5.589250294675895E-4,
            0.0022893063103292333,
            0.002528780692352054,
            1.7600416889094662E-4,
            -0.002123537911490185,
            0.002611693155413721,
            5.904889629877344E-4,
            0.0023291953398794016,
            0.002062343163783825,
            -0.0017803180257722868,
            0.0026906316531151355,
            0.0014434231063524174,
            0.0027359401810254083,
            4.9129780108791994E-5,
            0.0026713113103317087,
            -0.0025000886845032207,
            5.709775129823624E-4,
            0.0020631093273106313,
            -0.002076938476917725,
            -0.0022974627980059427,
            -0.0023808124431835666,
            0.0023786965004512516,
            -0.0015121465120913808,
            2.5104165837967963E-4,
            0.0012946027851588025,
            5.548117041685995E-4,
            -0.0023330233640589866,
            -0.0017113831013595465,
            0.0028871644649587115,
            -0.003002758078475082,
            5.94194099546962E-4,
            -0.0030230839106353286,
            -0.0024534610019047005,
            0.001124048141864345,
            -0.0023584995895997653,
            -0.0023271350144737427,
            0.001212416039483302,
            -0.0021294713115610434,
            -0.0018966663211594328,
            3.7800554553876775E-4,
            0.0019889042437477903,
            -7.42882021253177E-4,
            0.0019475171843504912,
            -8.99124873214924E-4,
            -0.0018938011058591332,
            -0.0019068952831880256,
            5.839350943410711E-4,
            -0.001907320336692022,
            8.837598756192585E-4,
            0.0018393249112721101,
            0.002641018514670282,
            7.811349713125667E-4,
            -0.001879420170916672,
            0.002749856963095452,
            2.0745083723461608E-4,
            0.0022411309876016953,
            -0.002571867292359083,
            -0.001475298190535462,
            0.001353390190997599,
            4.3178989886285304E-4,
            -3.209897493726638E-4,
            0.0026429415801051746,
            3.4333342909424687E-4,
            3.1594237048068394E-4,
            -0.0020174799041533303,
            0.002148665027598447,
            -0.0020967173366808365,
            0.0027134229972128614,
            6.171880426582046E-4,
            -0.0012384323720202597,
            -0.0014412260921794315,
            -0.0016454074903345015,
            -0.0022148255586328124,
            -0.002751318754827324,
            -0.0014642381626732864,
            -0.00296560588970733,
            0.002062839551832567,
            -7.236580011788725E-4,
            -9.530845826623988E-4,
            3.9408075577072107E-4,
            0.001798456395391897,
            -0.0019191940501295955,
            -1.5691488670837144E-4,
            0.0013879864868431135,
            -0.0010329042482094839,
            -8.170300632475253E-4,
            0.0014996515142305566,
            8.544263818819826E-4,
            -0.002011795672684574,
            0.0026499455360573117,
            9.87219404947237E-5,
            -0.0026748168942180685,
            -0.0026439302841432294,
            8.94560788848739E-6,
            0.0018998800037923257,
            1.9307131851134385E-4,
            -0.003044924334708384,
            -0.002974370718436461,
            -0.0030931459615142565,
            -0.002913834036203484,
            -0.0016877644830027147,
            -0.0013420668148489399,
            0.0010554373438331514,
            -0.0012918655005115455,
            -2.9789353051728166E-4,
            -3.7440421285563714E-4,
            -0.0012785493646656574,
            -0.002072071151935957,
            -0.0029330183041068898,
            -0.003035972812948999,
            -0.0028289976747527847,
            0.0023613996059412877,
            0.001475071616532405,
            -1.7144850181671962E-4,
            4.5325505971891656E-4,
            -0.0022045141735295426,
            -0.0015861686856421728,
            9.499397429466253E-4,
            0.0020104189217771103,
            5.23891379528356E-4,
            -0.001498071057432548,
            -0.002381076683599592,
            -0.002873763425265595,
            0.003114533728253075,
            6.334678542817475E-4,
            -0.001098228194980299,
            -0.0031553852599647035,
            0.002019025307141204,
            -0.0030128888132211406,
            0.002452209902545727,
            -0.0028486475555380164,
            0.0024348980974866386,
            -0.001816877339409653,
            0.0013809265201297138,
            -0.002771719513443654,
            0.002363422254216066,
            9.282154117083734E-4,
            2.7928406976771453E-4,
            0.0030606848206074814,
            -8.561113873685517E-4,
            1.1727389307386395E-5,
            -0.0017198148778870053,
            -0.002687261086444943,
            4.1678951621954686E-4,
            -0.001962334351001172,
            -0.0029739824494262523,
            -0.001124662206240728,
            8.462549262737844E-4,
            0.0015028924025093328,
            -1.4098554762285393E-4,
            -0.0019454226933109827,
            -0.0015995463756434739,
            0.0022387186256811256,
            0.0019321162560889385,
            6.645174556541135E-4,
            5.425269601639976E-4,
            4.8177949489645086E-4,
            0.002148119384745681,
            8.512505240437905E-4,
            1.6167559100389683E-5,
            0.0022454680398143355,
            0.002000308726221409,
            0.003119541999703321,
            -2.0087606004221933E-4,
            -0.001300712223930108,
            0.0022235141160926596,
            0.0017972442677980619,
            0.002045274340959117,
            2.2023521495784216E-4,
            0.0012276939431209203,
            -8.601583219635042E-4,
            0.002999504731750927,
            -3.2587934003436867E-4,
            0.0028251438214177372,
            -5.751509823153114E-4,
            -4.160531451553257E-4,
            -6.825286528192927E-4,
            -0.002143436013761086,
            -3.751393474117685E-4,
            -0.0029693945387668894,
            -0.001529440470626563,
            -0.0026476670270724214,
            -0.0023272073215694364,
            -0.002076880620955232,
            0.0028909793961671326,
            0.0021472865564814794,
            0.0012202483692481106,
            0.0019094509113587138,
            -0.001481682875645053,
            -0.002580687820996439,
            5.562309920813555E-5,
            3.64367316157388E-4,
            0.001176977567778411,
            0.0026946028274090063,
            0.0031364778774319955,
            0.001155340648433118,
            -0.0027071206711260782,
            0.002296111749510093,
            -0.001087808491124738,
            -2.3507831476563806E-4,
            -0.0012570236087063311,
            -3.984188001893886E-4,
            -0.001347218296747776,
            -0.0013108247625604444,
            -0.001900766370499423,
            8.793037939270634E-4,
            0.003140946533684608,
            -0.003137780807402063,
            -0.0015673195657521257,
            0.0030467576899190414,
            0.0013155886021209917,
            0.0015787370364343278,
            -7.355869632360497E-4,
            -0.0027757719799925214,
            -0.0023791700080560067,
            4.3889470937344275E-4,
            -0.0017417470845829718,
            -0.00144687165261242,
            0.0029829043138394342,
            0.0014856561429260604,
            0.002169761397938709,
            0.0016552413099147152,
            0.0010537132396599696,
            -0.0024069108357165914,
            0.0023520616565583545,
            0.002016845430236349,
            0.002781168056352292,
            -0.0023714924831418974,
            -0.0010841829519502274,
            6.223061585588605E-4,
            -0.0015766704488681144,
            -0.0021975598991918178,
            -0.0019263711136061614,
            2.564630293604325E-4,
            9.639766340326271E-4,
            -0.0018599089984460031,
            -0.0031386479238824675,
            0.0022718750325369545,
            1.8812930553842522E-4,
            0.0030686882770365317,
            -0.001584898765655031,
            -0.0018294737033018765,
            -0.0012918783682791463,
            0.0015232770161061116,
            -2.795824968726849E-4,
            -0.00302528256023365,
            0.0012403572126755032,
            -0.0016559718267541788,
            -0.0013973450820502114,
            0.0028847989246516595,
            -0.002491933520045429,
            0.0023881703519385666,
            -0.0024241942224354947,
            -0.002346571259883375,
            9.975704139338739E-4,
            0.0016126266290390618,
            -0.002528270412877693,
            -2.4379372076441846E-4,
            0.002229285384316545,
            -7.873624621427113E-4,
            -0.0024390881436120965,
            1.1312803978195714E-4,
            -0.0011113100828351288,
            0.0029854961745884702,
            0.002180750709625696,
            0.002810136273944799,
            -0.0025667666284128186,
            9.595895618233549E-4,
            0.002157645495738617,
            0.0024233151741668625,
            0.001799739101129824,
            0.0011351623195495152,
            -6.166166239698455E-4,
            2.1568995681832092E-4,
            0.0013217921846739062,
            0.0024235278202919446,
            -0.0010132844669212741,
            -0.0023371739312745853,
            0.0026403715652213696,
            7.696659682617479E-4,
            -0.0028887642195346776,
            4.896851032434475E-4,
            -5.030218950857429E-4,
            -0.002368932302123465,
            -3.697314535788925E-4,
            -0.0031131137202997645,
            -0.0016672419672635903,
            0.002648035420491651,
            -7.782835140552304E-4,
            3.1822422402131006E-4,
            7.100007834156888E-4,
            -2.3399812351709813E-4,
            8.934919436389678E-4,
            0.0011255963214414457,
            0.0015947013519327503,
            -0.0023810068521858884,
            -5.197874306131076E-4,
            6.617571911051524E-4,
            9.785666799328175E-4,
            -0.002827185832626024,
            -0.002170169540298166,
            -0.0010505275700693419,
            -0.0018386991094829072,
            7.104180088050422E-4,
            0.0030106965736917614,
            -0.002353970600638306,
            1.789161007998436E-4,
            1.9798654221965223E-5,
            1.3330129992779192E-4,
            -8.859733412152664E-4,
            6.666693280781424E-4,
            0.002360696197327558,
            8.212058932207039E-4,
            0.0012947396968601705,
            -0.002703524943285929,
            9.442596848232683E-4,
            -6.336614572238914E-4,
            -0.0018797103295607814,
            -0.0010267923802421215,
            -7.435497192064706E-4,
            -0.003158934876244541,
            -3.3260532867908105E-4,
            -6.069389377766749E-4,
            -4.1935034389738087E-4,
            -0.002510843200520273,
            -0.0011978200325106117,
            3.7744125302873664E-4,
            -0.0017628592679167884,
            -8.302403068883084E-4,
            -0.0011872477478423711,
            0.0013898797026439102,
            -0.0021137302804033666,
            -6.204423400989078E-4,
            0.002270398322104359,
            0.0028639124520102263,
            7.815465179411982E-4,
            0.0028234525137478426,
            -0.0029647683622949323,
            0.0024295467992834566,
            3.3557839486447077E-4,
            -0.0018591718621015513,
            -0.001050126974895204,
            0.00212161163128803,
            5.035341956615954E-4,
            0.001251488223527666,
            -0.0018437000831131895,
            -8.977307267575829E-4,
            -6.442502200449905E-4,
            -8.63383131256219E-4,
            1.2231251573654046E-4,
            0.0025006551328518806,
            -0.001526886416219926,
            0.0016181527241029064,
            0.0011115514206311678,
            0.00108525517449216,
            7.371913745168998E-4,
            0.0031437445099297794,
            1.5780149342353554E-4,
            2.7869007692266724E-4,
            0.00252447719890902,
            0.002267377365274317,
            0.0010330607503957181,
            -1.2047085627831692E-4,
            0.0014900061185987004,
            0.0016048380036477493,
            -9.384227557771838E-4,
            1.810239931314332E-4,
            0.002739386378265115,
            9.765528846206928E-4,
            0.0018416158073266127,
            7.555112058793926E-4,
            0.002785216115050498,
            0.0027813267311377963,
            -0.0023924864702014118,
            -0.001031172358065089,
            2.107773341415603E-4,
            0.001878655630490212,
            0.0022966687952372766,
            4.8800490393368127E-4,
            -0.0014686541822447224,
            0.002308556769419629,
            0.002339412047462691,
            -0.0014207105713202222,
            0.0010445196671388997,
            -0.00289068268895043,
            0.0018023197251585397,
            -0.0024711384303913466,
            -0.0022726488358162217,
            0.0029895927611147616,
            0.002069256969050249,
            -4.1315183928821515E-4,
            -0.0025002963649131725,
            0.0014355067236506145,
            -0.002694397660537702,
            0.001385121835012255,
            0.0023363780873125696,
            -0.0028581124949168014,
            -1.6240785615763214E-4,
            0.002626374912140398,
            0.001123455114989437,
            0.001838508542692672,
            -4.510635594406656E-4,
            -8.477163763525034E-5,
            -0.0031579061710703114,
            6.755915007715222E-4,
            -0.00210400691109969,
            0.00103403397826582,
            9.497948667694522E-4,
            4.3576161793733705E-4,
            0.0010535393185754673,
            -3.9053804294946875E-4,
            9.258581118779886E-4,
            0.0023064096725557114,
            -7.409310630394852E-4,
            -0.003128168592607584,
            0.001377240901631949,
            0.0026433461772580034,
            9.841614912507832E-4,
            0.002164856560949034,
            0.0016895829932019799,
            -0.0013293108774844584,
            -0.0016892282468205847,
            -6.918267571651017E-4,
            8.48634680592515E-4,
            -1.608320848564741E-5,
            -0.003118806535028522,
            -9.663908560574758E-4,
            -0.003116830623542679,
            -3.105648433381201E-4,
            0.0013385431358585833,
            0.002542972953903865,
            -6.713130962239177E-4,
            3.3518226783002585E-4,
            -0.0029562923162558597,
            0.002350349443924079,
            9.290174455006977E-4,
            8.460851285706938E-4,
            -0.0012466520666313033,
            4.2025907769365736E-4,
            0.0010042214687862338,
            -0.0025235085497158426,
            -0.0012670077044310416,
            -0.002276861177816063,
            -0.0024868692841982214,
            0.0027956731395539637,
            -0.001088874458138362,
            0.002398507963208011,
            -0.0011184223737750838,
            0.0012038232037940176,
            3.112059173311784E-4,
            -0.002924082383670646,
            0.0028865559579287995,
            -0.0024895816877266324,
            5.189827442698869E-4,
            6.091329116099368E-4,
            0.0013717095853275911,
            0.0026526413260657836,
            0.002928188383881611,
            0.0022040036807070076,
            0.0026811574272919397,
            -0.0030562086457585715,
            1.7011659347954992E-4,
            -0.0027895730791866876,
            0.0020012493681204014,
            -9.86610154489243E-4,
            0.0022835296637568037,
            0.0030321368037974214,
            -2.824553557162538E-4,
            -7.984159808916513E-4,
            0.0031135062659493193,
            -0.0018030651073870716,
            -0.0029491414364804245,
            -9.86405643657081E-4,
            -0.0021373746190104905,
            -0.002882113926786172,
            0.003139181899614642,
            5.913972401435982E-4,
            -0.001441748009534141,
            -0.0019490717553688587,
            -6.309951123091696E-5,
            -0.0017159005792261827,
            -0.0010010671680255041,
            -0.001784698485885038,
            -0.0011780498961606115,
            -0.002872632649917458,
            -0.0024728515179786806,
            9.58313256843595E-4,
            0.0013915660967299473,
            -0.0025275419475118605,
            0.001435385111631873,
            0.001419051351478553,
            -0.0023420975368821403,
            4.3240991891469615E-4,
            -8.762171243013064E-4,
            4.950678074373893E-4,
            -0.0027477907238704423,
            4.7413374961407286E-4,
            -7.642556659594601E-4,
            -0.0023920283363658883,
            -7.238567317599E-4,
            -1.2479918554302518E-4,
            0.0014511857864109824,
            -0.0013554283425513806,
            -0.001891959408934659,
            -0.0022501036554879597,
            0.0015053427750713751,
            0.0011253124779596435,
            0.001292041186830513,
            0.001959950116619941,
            9.981717403761492E-4,
            -7.207395651081282E-4,
            -0.0031594453114062973,
            -0.0031550912134935714,
            -0.0013650230817237015,
            0.0026130429890524193,
            -2.5885326473190054E-4,
            0.0018147435186377263,
            -0.0025769018232220642,
            8.901823643979391E-4,
            0.0029167462179328003,
            -0.002613822170522347,
            2.8021371379170784E-4,
            2.0576540031456975E-4,
            -0.0023776072288772985,
            7.943654303699242E-4,
            -1.3156642938828158E-4,
            7.885965270225621E-4,
            -0.0011872437334818626,
            -0.0021271257954263855,
            -0.0013332389489944484,
            0.0011755804732929767,
            0.001972266212862703,
            0.0010549841023742646,
            0.0016802534442209918,
            -0.0020609177695120853,
            3.478086751979893E-4,
            0.001471406525259348,
            0.001842904184755027,
            -0.0010001234607063482,
            -0.0014905711773137407,
            8.659643253763889E-4,
            0.0030541861385039414,
            0.00297028872266259,
            1.440188170675545E-4,
            0.0020423381804219255,
            0.0030330801057005985,
            0.0015550972340815459,
            -0.002719831709530452,
            1.394769829409156E-4,
            -0.001119717052236641,
            0.001592485976298272,
            4.7706959147437116E-4,
            -2.3445874749711162E-4,
            0.0017288056339257196,
            0.0022740289816034,
            -0.0016064280280868838,
            -0.0012399073261247855,
            -1.910953198198828E-4,
            -0.002487516505704592,
            0.0024469124096952663,
            4.352201929720404E-5,
            3.526658290760135E-4,
            -0.0014512942163392012,
            -2.8215126846772143E-4,
            0.002267275370880316,
            0.0016763202951216197,
            0.0027473455169278256,
            0.0013979721215205444,
            7.839324177782548E-4,
            0.0018301997370328005,
            0.0023808202140517616,
            0.0013722834773250846,
            0.002205371081658857,
            -0.0023432835422900738,
            -8.064023110699711E-4,
            -0.001020737289194341,
            4.4478371694350356E-4,
            -3.7893761519105785E-4,
            7.26514631191654E-4,
            0.0018891357392254058,
            -0.00181940685178113,
            -5.487505176352833E-5,
            -0.002828922693238426,
            -9.798385931542874E-4,
            3.746650346566886E-5,
            0.0016649253286588571,
            -0.0010683150947465704,
            -1.3626250343519512E-4,
            0.001808086324490011,
            -0.0014507727338225404,
            1.6945323584341667E-4,
            0.0018890447650768975,
            -0.0021298806727115213,
            -0.0016658612610103978,
            -4.4072578189256615E-4,
            0.0018531881816825928,
            -0.0021214182115386424,
            -0.0012339653997315847,
            0.0010946648250113754,
            3.7493146317968323E-6,
            4.632361850737294E-4,
            0.0016319937382325317,
            0.00141019582639574,
            0.0029654878461151633,
            0.001641036021288182,
            9.156517155165662E-4,
            0.002534997867612636,
            3.5064816171779265E-4,
            0.0015451252196151148,
            0.0019561894522706806,
            6.743439418531976E-4,
            -4.919090338361097E-4,
            6.760733746329296E-4,
            3.9998248768977605E-4,
