{
  "class": "com.simiacryptus.mindseye.network.PipelineNetwork",
  "id": "a0f0a572-b49b-4e98-bfe0-199100001588",
  "isFrozen": false,
  "name": "PipelineNetwork/a0f0a572-b49b-4e98-bfe0-199100001588",
  "inputs": [
    "3facf149-3e30-4f82-a854-56e1a1510acf"
  ],
  "nodes": {
    "a0f0a572-b49b-4e98-bfe0-19910000158a": {
      "class": "com.simiacryptus.mindseye.layers.util.MonitoringWrapper",
      "id": "a0f0a572-b49b-4e98-bfe0-19910000158a",
      "isFrozen": false,
      "name": "bias_0",
      "inner": {
        "class": "com.simiacryptus.mindseye.layers.media.ImgBandBiasLayer",
        "id": "a0f0a572-b49b-4e98-bfe0-199100001589",
        "isFrozen": false,
        "name": "bias_0",
        "bias": [
          8.12449393590217E-11,
          4.206446243813891E-11,
          7.326034480390109E-12
        ]
      },
      "totalBatches": 581,
      "totalItems": 29050
    },
    "a0f0a572-b49b-4e98-bfe0-19910000158c": {
      "class": "com.simiacryptus.mindseye.layers.util.MonitoringWrapper",
      "id": "a0f0a572-b49b-4e98-bfe0-19910000158c",
      "isFrozen": false,
      "name": "conv_0",
      "inner": {
        "class": "com.simiacryptus.mindseye.layers.media.ImgConvolutionSynapseLayer",
        "id": "a0f0a572-b49b-4e98-bfe0-19910000158b",
        "isFrozen": false,
        "name": "conv_0",
        "kernel": {
          "dims": [
            5,
            5,
            15
          ],
          "data": [
            -4.990453920782423E-4,
            -1.1038378121471299E-4,
            -4.357879357361805E-4,
            -3.110009701826521E-4,
            3.7057519888722293E-4,
            -5.800147357636512E-4,
            -3.805734169317713E-4,
            5.405057468782023E-4,
            -9.840887750661324E-5,
            -7.066863931036289E-5,
            2.529193013968495E-4,
            7.224418013327799E-5,
            3.660270640491427E-4,
            5.602524985878575E-4,
            -5.424060036160231E-4,
            -4.2887642476720033E-4,
            4.24761622415899E-5,
            -1.3973269769072203E-4,
            9.85038963986098E-5,
            -5.136020286568529E-4,
            -5.908049900554749E-4,
            1.8641118599149512E-4,
            -6.15138494883614E-4,
            5.221356629944206E-4,
            1.430619682405484E-4,
            -4.112064173332782E-4,
            -6.305294311624007E-5,
            -8.950524466677354E-5,
            -9.729136296446743E-5,
            -1.0066600774464484E-4,
            4.774958127317432E-4,
            4.1633420015733144E-4,
            -2.1894720529443782E-4,
            6.354039905334849E-4,
            -4.807228537565811E-4,
            -2.0269975763543194E-4,
            2.983642142447905E-5,
            5.506066907823743E-4,
            1.0701683367681044E-5,
            3.208038326995206E-4,
            -1.3431739289815854E-4,
            -3.9495950970073557E-4,
            -1.9692755662899518E-4,
            -3.6275793250716893E-4,
            -6.305205905987114E-4,
            -4.8710800349876187E-4,
            -2.874152111664217E-4,
            4.1491806795775576E-4,
            -5.531871646421474E-4,
            -1.8141524284757626E-4,
            -5.096123424733969E-4,
            -1.0487649616787968E-4,
            3.4048625084951865E-4,
            2.5777586326477175E-4,
            -5.482284771846695E-4,
            2.5479973742171614E-4,
            -2.2739072869580484E-4,
            -1.4129524275277404E-4,
            1.730762791055732E-4,
            -9.009930439320821E-5,
            9.880617285984278E-5,
            5.274644158959165E-4,
            -2.670864119149649E-4,
            3.808797187181726E-4,
            -3.516100570586208E-4,
            -1.1500430547024038E-4,
            -5.814241615227856E-4,
            -8.192764807141134E-5,
            -4.142879511219174E-4,
            -4.980534363550971E-4,
            2.869047991245331E-6,
            -2.984292720565023E-4,
            -3.314466527719707E-4,
            9.241036379745073E-5,
            3.733029590718299E-5,
            2.3551804943260053E-4,
            -3.7095455073093704E-4,
            2.626493798043987E-4,
            -2.122295240456565E-4,
            5.475037782780911E-4,
            -5.1222746991332E-4,
            4.6042297381129147E-4,
            -4.951779864565057E-4,
            4.242743968996893E-4,
            -4.967491027765188E-4,
            2.7245002327513343E-4,
            4.829153556013627E-4,
            5.102059021526593E-4,
            4.2992473297329375E-4,
            -1.2827935293082817E-4,
            -3.860433737663904E-4,
            1.4661299237850032E-4,
            4.265550341982014E-4,
            1.6845148258741438E-4,
            2.4241680788702515E-4,
            3.131111164425534E-4,
            -4.317993588363925E-4,
            5.884486327002905E-4,
            5.103367821651526E-4,
            -3.3357440982242817E-4,
            -3.8145695124445216E-5,
            3.401646985640914E-4,
            -6.651380597024869E-5,
            -2.7389289871438663E-4,
            -2.652095359238401E-4,
            3.8587433080312467E-4,
            -6.452875484604962E-5,
            5.65492782755002E-4,
            -3.7769651677319917E-4,
            1.0069369167199413E-4,
            -2.2270989765535586E-4,
            5.415305783876053E-4,
            5.774426912865557E-6,
            3.9189681478469694E-4,
            1.4147221702834632E-4,
            5.123980750596139E-4,
            -4.437183260099571E-4,
            5.692534941815718E-4,
            1.8733413292142524E-4,
            -2.597893516227811E-4,
            -4.880931351205472E-4,
            -2.109472935102157E-5,
            3.100551344479854E-4,
            -6.202703538216265E-4,
            -4.823725624146672E-5,
            2.1813999994348382E-4,
            -1.4448591011676672E-5,
            -1.5080717607699468E-4,
            -2.7809038069555395E-4,
            3.423158005113132E-4,
            5.980049261166343E-4,
            -2.667440599455945E-4,
            1.1431174901613141E-4,
            -4.749507031313755E-4,
            -3.13453418699962E-4,
            -2.2075343003395272E-4,
            -4.0259712975192533E-4,
            1.8447522938486651E-4,
            -3.337819997972218E-4,
            1.1122168248237236E-4,
            4.7065439718618307E-4,
            -3.1012795700571176E-4,
            5.226557274337974E-4,
            4.0172356019514096E-5,
            3.7192380035219074E-4,
            -5.764240290877595E-4,
            -5.719162802574252E-4,
            4.39136967943202E-4,
            2.0350317595428124E-4,
            2.8472615770659123E-4,
            -2.5520834040763633E-7,
            4.0300552359042905E-4,
            -6.250087952427114E-4,
            -6.191107010484344E-4,
            -2.924124414892548E-4,
            -3.4840996878559357E-4,
            3.0494759203012465E-4,
            1.071129293986975E-4,
            -2.2936692170149803E-4,
            5.221945390820844E-4,
            4.7273223121786773E-4,
            -4.558459680993281E-4,
            4.272998273043083E-4,
            -3.458279938651405E-4,
            6.162495377721489E-4,
            3.916479720499295E-4,
            -4.1887816184738627E-4,
            4.4566019060334876E-4,
            4.660952852716364E-4,
            -5.853084954440711E-4,
            -3.754639757809052E-4,
            -4.595324841938924E-4,
            -2.0465205983558136E-4,
            1.4578733074648674E-4,
            -1.4559314313549915E-4,
            -3.5609634362460237E-5,
            6.168689267433352E-4,
            -2.070235568758003E-4,
            -3.779257617913309E-4,
            -2.9728199829443306E-4,
            -1.0336106739701118E-4,
            -1.469405389543591E-4,
            -1.9664860352962762E-5,
            5.660330373185068E-4,
            -5.563411508343617E-4,
            2.8593569149635157E-4,
            5.602920345976704E-5,
            4.723340988014922E-4,
            5.003040392587916E-4,
            4.972485705085922E-4,
            -1.104395043484311E-4,
            -2.0625060246992825E-4,
            2.8388148099652775E-4,
            3.4692934503285537E-4,
            5.548265490481518E-4,
            -5.695753106017622E-4,
            1.8290896498844754E-4,
            6.016815999724779E-4,
            2.588221047661708E-4,
            1.0272895938152249E-4,
            2.0718048080586816E-4,
            4.638188458521548E-4,
            2.9934850118408854E-4,
            2.00416925379365E-4,
            5.002737625288805E-4,
            1.920133101644052E-4,
            1.970803424891431E-4,
            2.8185493709120824E-4,
            2.5774923310195206E-4,
            -2.6291501710546094E-4,
            -4.6758255809187677E-4,
            5.747652037534804E-4,
            3.6982966880152E-4,
            7.661680776286095E-5,
            5.964122027312526E-4,
            6.341551503165869E-4,
            -5.018335558389277E-5,
            9.988153949835952E-7,
            3.2716399180564813E-4,
            -1.2296905763198274E-4,
            -4.732461570920131E-4,
            1.8484001345516247E-4,
            5.859457171968219E-4,
            -3.825546446214962E-4,
            1.0931683681098512E-4,
            4.8133822346252213E-4,
            -7.792346443431989E-5,
            -5.646903794589239E-4,
            -1.866124670260046E-4,
            2.3288565032246488E-4,
            -2.131830384091011E-4,
            2.2771146484516097E-4,
            2.2312186368186123E-4,
            -4.01036881715407E-4,
            -4.948165615607722E-4,
            1.6271278307357412E-5,
            5.5144345700680585E-5,
            -4.1503411048641564E-4,
            4.070954492870275E-4,
            -6.340496842712288E-4,
            -3.2135296793927854E-4,
            4.070194643859347E-4,
            -2.992806728378574E-4,
            5.979698668848928E-4,
            -5.975736223085833E-5,
            1.154971246421011E-4,
            5.339197492326861E-4,
            2.941608627020545E-4,
            3.990491595903489E-4,
            5.379473706792493E-4,
            -3.014480079778407E-4,
            2.7770291837411304E-4,
            -2.1376622101074554E-4,
            3.8245305563866413E-4,
            -4.2827635791284303E-4,
            3.592225067198562E-4,
            2.1215617487029497E-4,
            1.443295813983834E-4,
            1.459248822649591E-4,
            5.887952695267487E-4,
            3.021342966675154E-4,
            3.5220615923896135E-4,
            7.292412401577715E-5,
            -5.311682354808537E-4,
            -3.417228926356931E-4,
            4.260527343149696E-4,
            2.4190851315622174E-4,
            -4.826067232980451E-4,
            1.551163563873417E-4,
            -5.69943246719433E-4,
            -7.989166298889883E-5,
            4.8119357467769414E-4,
            2.9420287416225904E-4,
            4.368368122285661E-4,
            1.2917386048419508E-4,
            8.271235726330683E-5,
            5.41939856416669E-4,
            -5.794448977171013E-5,
            2.0449226661463794E-4,
            2.1555129207858503E-4,
            5.365359031046051E-4,
            4.889480989655312E-4,
            4.7040273820889546E-4,
            -5.4462931884580666E-5,
            -4.2069535989869256E-4,
            5.820984794376121E-4,
            2.875513100648986E-4,
            -5.842020235367817E-4,
            5.189139729045598E-4,
            -3.2735781176465237E-4,
            -5.591328321731592E-4,
            6.072823305048995E-4,
            -2.2194732531619863E-4,
            -2.2609055045139765E-4,
            -8.099804361110769E-5,
            -4.499838681917573E-4,
            -2.5781689556442705E-4,
            6.516628119027767E-5,
            3.5400596885579085E-4,
            2.239671865259608E-4,
            -4.4114079004339005E-4,
            1.1981406510361396E-4,
            -2.4342291320090753E-4,
            3.049182173430415E-4,
            3.2217211803647476E-4,
            -2.6951837096596704E-4,
            3.8161508600653677E-4,
            -4.0454685869647014E-4,
            2.9074376981783284E-5,
            -1.7525720414911846E-4,
            -6.288141366856024E-4,
            -4.2195102008668763E-4,
            -6.267405036083877E-4,
            -3.546961989004545E-4,
            -1.279184350774628E-4,
            -3.7937912447910487E-4,
            2.6149146531295656E-5,
            -2.4555384254919374E-4,
            -3.7881259262928307E-4,
            1.4379807837824361E-4,
            -3.9462073459038834E-4,
            7.58334279327112E-5,
            -8.231437393915431E-5,
            -3.4175851212913426E-5,
            -3.641791695545728E-4,
            1.7834051176918929E-4,
            -3.748103951455872E-4,
            -6.313732021961426E-4,
            -1.6469460395340663E-4,
            -4.4947419140666564E-4,
            -2.870218359965529E-4,
            2.858873706583621E-4,
            -1.1739545857483318E-5,
            -1.1984962819187587E-4,
            1.9015386404972674E-4,
            2.4408539758241947E-4,
            -5.667861987986123E-4,
            4.4874703603981327E-4,
            1.6949584362981407E-4,
            3.7130790745132407E-4,
            -5.800056994949708E-4,
            5.67073285933398E-4,
            1.1888414527566007E-4,
            -4.472515152413584E-6,
            6.324074441334452E-5,
            1.2635272398594993E-4,
            5.251321411962903E-4,
            4.766019981178724E-4,
            3.3790749338446184E-4,
            6.32430701816272E-4,
            5.692800208848485E-4,
            2.4933594131147126E-4,
            5.519472332784207E-4,
            -4.776532383432853E-4,
            -5.037909467094573E-4,
            -9.7829977953215E-5,
            6.082841029919955E-4,
            4.366139907518379E-4,
            -3.313096528941693E-5,
            4.956964504765393E-4,
            -3.76503754332503E-4,
            -1.3800392875075102E-4,
            -6.219160331037019E-4,
            -6.11479143049503E-4,
            -3.285469870503953E-4,
            1.3944721094609152E-5,
            -4.820803651247347E-4,
            5.434236941121556E-4,
            3.155011500093155E-4,
            4.255389612350211E-4,
            -4.772490448345022E-4,
            -1.2559981012740882E-4,
            -1.7378573113192036E-4,
            -5.960249815269792E-4,
            1.9920469876811723E-4
          ]
        },
        "skip": {
          "dims": [
            1,
            1
          ]
        },
        "simple": false
      },
      "totalBatches": 581,
      "totalItems": 29050
    },
    "a0f0a572-b49b-4e98-bfe0-19910000158e": {
      "class": "com.simiacryptus.mindseye.layers.util.MonitoringWrapper",
      "id": "a0f0a572-b49b-4e98-bfe0-19910000158e",
      "isFrozen": false,
      "name": "avg0",
      "inner": {
        "class": "com.simiacryptus.mindseye.layers.media.AvgSubsampleLayer",
        "id": "a0f0a572-b49b-4e98-bfe0-19910000158d",
        "isFrozen": false,
        "name": "avg0",
        "inner": [
          2,
          2,
          1
        ]
      },
      "totalBatches": 581,
      "totalItems": 29050
    },
    "a0f0a572-b49b-4e98-bfe0-199100001591": {
      "class": "com.simiacryptus.mindseye.layers.util.MonitoringWrapper",
      "id": "a0f0a572-b49b-4e98-bfe0-199100001591",
      "isFrozen": false,
      "name": "bias_1",
      "inner": {
        "class": "com.simiacryptus.mindseye.layers.media.ImgBandBiasLayer",
        "id": "a0f0a572-b49b-4e98-bfe0-199100001590",
        "isFrozen": false,
        "name": "bias_1",
        "bias": [
          -2.7359569051710273E-9,
          -1.4762635411991397E-8,
          -2.5952427374849917E-9,
          -3.5020381031475573E-9,
          -1.2156924479847894E-9
        ]
      },
      "totalBatches": 581,
      "totalItems": 29050
    },
    "a0f0a572-b49b-4e98-bfe0-199100001592": {
      "class": "com.simiacryptus.mindseye.layers.util.MonitoringWrapper",
      "id": "a0f0a572-b49b-4e98-bfe0-199100001592",
      "isFrozen": true,
      "name": "activation_1",
      "inner": {
        "class": "com.simiacryptus.mindseye.layers.activation.HyperbolicActivationLayer",
        "id": "a0f0a572-b49b-4e98-bfe0-19910000158f",
        "isFrozen": true,
        "name": "activation_1",
        "weights": {
          "dims": [
            2
          ],
          "data": [
            0.2,
            0.2
          ]
        },
        "negativeMode": 1
      },
      "totalBatches": 581,
      "totalItems": 29050
    },
    "a0f0a572-b49b-4e98-bfe0-199100001594": {
      "class": "com.simiacryptus.mindseye.layers.util.MonitoringWrapper",
      "id": "a0f0a572-b49b-4e98-bfe0-199100001594",
      "isFrozen": false,
      "name": "conv_1",
      "inner": {
        "class": "com.simiacryptus.mindseye.layers.media.ImgConvolutionSynapseLayer",
        "id": "a0f0a572-b49b-4e98-bfe0-199100001593",
        "isFrozen": false,
        "name": "conv_1",
        "kernel": {
          "dims": [
            5,
            5,
            50
          ],
          "data": [
            -1.2213917329973203,
            -2.7118374251549375,
            -0.4360093034181438,
            -0.2916140892880841,
            -1.5882031653608084,
            0.4176102810785515,
            -0.2172330380985679,
            -2.394744507243401,
            2.432257207501521,
            -2.90182380381038,
            -0.06554796745641724,
            -2.3381919493582584,
            -0.7288792327370712,
            1.6930175005429928,
            2.954235391213561,
            -1.1021880604775174,
            3.0439306178858017,
            -2.748518400839666,
            3.035830963131716,
            -2.9193524832426148,
            -1.8499199156329926,
            1.0243184966103727,
            1.8364375826184323,
            -2.4426958666069134,
            -2.2190629611556374,
            -2.1927343745428813,
            1.7756543094866284,
            2.778367124888244,
            0.44500259069748344,
            0.2871731720874669,
            2.528137231106899,
            -1.7007917582240508,
            -0.4800887954355375,
            1.4694929943389912,
            1.6365968513057543,
            0.8671551631370966,
            0.7519409662449915,
            0.9580389610161474,
            -1.0385681587296445,
            2.115243552895654,
            2.411536835699607,
            0.7150771092829918,
            -1.377711549557921,
            1.990459156557482,
            0.03702468074458175,
            1.0165464846671317,
            -0.2929905329186023,
            2.0261808428077837,
            2.963850008496727,
            -1.2441970434874392,
            -0.26003443360393924,
            -2.489466978522421,
            -2.601951995773716,
            -1.0051094555921978,
            -1.602067411239244,
            -0.63166594556148,
            1.191332312314742,
            -1.110054890178272,
            2.4337359596079016,
            -1.3780849098301469,
            0.08057529126864568,
            -1.595667600394089,
            3.0339075881315067,
            3.099828452563492,
            -1.1232614643993544,
            -0.6298724070243695,
            0.40036957435930115,
            -2.4954745731906782,
            0.85557721517929,
            -2.5332516222302837,
            -2.157276443499107,
            -2.234240308439396,
            2.831810491506209,
            2.7050511302953995,
            -1.5373234518563208,
            -1.512661969074049,
            0.5121716312110155,
            -1.2125324932979864,
            -0.8834958398951377,
            1.3013984428744798,
            1.3062228857493752,
            -1.6153571609035604,
            2.134222111732072,
            -2.273145650264265,
            2.040055664464264,
            -2.2028731833547726,
            1.5646491448756203,
            -0.9667208533840581,
            1.8398161882965338,
            -1.136519130293234,
            0.14652920532413907,
            -2.5393940045374537,
            -2.9481163269759585,
            -2.51893246685197,
            -2.37481566334581,
            1.8570187479444098,
            0.5339577796006562,
            -0.9577478781418558,
            0.8306781688870134,
            1.9986961307652984,
            0.3758163382343166,
            -2.3821416095064696,
            2.4738715096090678,
            -0.37374358430426846,
            -1.3753968728858967,
            -1.9221962715085792,
            1.619929437900091,
            0.10121137383135448,
            1.4067980856822688,
            -0.6840906118232135,
            0.9494733780080641,
            -2.7125669170054487,
            -2.332866763061081,
            -0.5007553655974953,
            1.2064236451658128,
            -0.16684900343162629,
            1.6982245704190202,
            -0.4706162156819271,
            -0.8936737320499977,
            1.5209889851084233,
            -0.7511757556820846,
            -2.4395036941293915,
            1.6061537965000312,
            -2.2685460616854214,
            1.0619890303004735,
            -3.0765074298017723,
            1.9478792451117255,
            -1.371991941314736,
            -3.099139588193932,
            -0.3638263769437637,
            2.733964244986306,
            -0.015157959397940629,
            2.951101559610604,
            1.1295416437473165,
            0.6552022837893248,
            0.5239091631619217,
            1.3102829723499476,
            -2.727134057838797,
            2.30435608607232,
            0.22756917155410955,
            1.1738164683585597,
            -1.5793346284265268,
            0.9552152388999271,
            -1.1334219873580769,
            0.8831589507298107,
            0.0993712100840717,
            -1.1332178149594256,
            -0.9478819568439485,
            0.7285782793609381,
            -1.598714707941083,
            -0.3453563184482985,
            1.0826754653612884,
            1.6731891785229545,
            2.8239118931161644,
            -2.198545840993025,
            0.9425377261773343,
            -2.190042633170801,
            0.02243253252489169,
            0.42067066865792824,
            -1.1702776549906868,
            1.0683909385408215,
            -2.518764468453056,
            -1.2793147528406104,
            -0.91779864061388,
            0.26389079253423786,
            1.7980250161168128,
            -1.7123925800846647,
            2.9002844335818874,
            0.22006558792652842,
            -2.720920467958902,
            2.9282500605973345,
            1.8495319939254293,
            -0.6123027944937355,
            -2.8704348507946205,
            1.27015517317983,
            -1.7842436737773935,
            3.1043885713516195,
            -0.31821933507713535,
            1.241152448565636,
            -2.882163925305617,
            2.204381850941967,
            -2.5474546607312925,
            3.0701859610383804,
            -0.12198210857060744,
            2.1648009771707697,
            -2.990019241595344,
            2.5925698727074638,
            0.4434734335077386,
            -0.12911571509463451,
            1.0916214853934252,
            -0.9494499718981488,
            2.0696291997085416,
            0.9976521483192802,
            -0.3945713151594135,
            -1.005989410900869,
            -2.9491607921517136,
            -2.945650756143759,
            -1.8493146099416093,
            -1.1008926229485254,
            -1.6485837540312862,
            1.602836225761258,
            -2.8019685188263277,
            3.021475484086185,
            -2.608615170470258,
            2.26909935408113,
            2.7342342774267343,
            0.770418220339973,
            1.542006089686044,
            -2.6354055328579036,
            0.49632221064043,
            -0.22601358019657566,
            0.565597613384487,
            0.9208385395656417,
            1.0729846360507915,
            -1.1771796364089062,
            -2.145821974022446,
            0.46915005135136584,
            3.150436853431123,
            0.32577144677097786,
            -1.2278496576401563,
            1.9671608941588399,
            -3.139368748745297,
            -2.121481559175625,
            0.736421698142466,
            -0.6758498332238603,
            0.9638350390862791,
            -0.017496552494894468,
            -0.04677037275792399,
            1.6839485102471592,
            -0.6388970689847623,
            2.501039174329662,
            1.8465662556310787,
            1.0896050335201304,
            0.4712262791845166,
            1.6409982383945465,
            0.44740780285509585,
            0.7719991448550827,
            0.42419609223537935,
            -2.4761939826525476,
            -3.1499490626802316,
            1.4564553613487294,
            1.359674364314883,
            -0.8738289563796144,
            -0.2627068126755579,
            0.8378241787331718,
            1.9423842985389577,
            2.9292563798924247,
            0.1732220596104902,
            -3.023817649077738,
            0.8146356134145148,
            -0.8175100964477374,
            -2.522560973422964,
            0.3119862692289853,
            0.10236924498760835,
            0.62651965044313,
            -2.1688414172351087,
            -2.864122137973048,
            1.8809984730351066,
            -2.1674260179017804,
            1.795588847655144,
            2.4250886602857893,
            3.014475307050081,
            2.4127527568402605,
            1.704603000818712,
            0.7609109635382034,
            1.1094842830994223,
            1.8783859806717391,
            -0.40027831097109234,
            -2.955386794600956,
            1.3698592297990664,
            2.2128077149617913,
            -2.332353620311265,
            -3.115628503818995,
            -1.3100647584852518,
            -2.3300665147041406,
            1.261562216084887,
            -1.7899448800911992,
            -2.5441780074474156,
            0.3051018774559278,
            -0.3780682479892273,
            -1.194218920283846,
            1.7805011820520427,
            -2.6116050474076786,
            0.9083863443568737,
            -0.8569122553080928,
            -1.8138686171948368,
            0.2272865763299583,
            0.6267042326742372,
            -1.9698249866673447,
            1.3290260567907275,
            1.196069081832532,
            0.18382046461368226,
            2.438889164024775,
            0.7863317559704448,
            1.375595648767967,
            0.7441484661035531,
            -0.2877595705741567,
            -0.9847047680242564,
            -1.353296873963433,
            -1.4125566713355384,
            0.9995528196202811,
            -1.7495494930511084,
            0.2979207852796142,
            2.1635788126896536,
            -2.160533545565927,
            -1.957827901705208,
            -0.5405963387474841,
            -2.192934707673944,
            1.9181531693830354,
            -1.607171489775589,
            3.1157025018518723,
            2.079407942177827,
            -1.6041025971255327,
            2.8912759347956225,
            -1.2228495024073274,
            2.592908134567036,
            0.6481679433895747,
            -1.0551486069801534,
            0.1631548678136156,
            -2.9938569991214963,
            -2.8900469468233654,
            -0.2936290632517296,
            -2.5631760702619344,
            1.8706174394415551,
            2.1154121085308577,
            2.1862172522411027,
            -0.06965784551834564,
            0.7177959661767452,
            1.025611422500452,
            2.3472317763061543,
            1.6739085780377359,
            1.3837748423614802,
            0.09354276542076907,
            -1.7084747467577666,
            0.3912563997510729,
            -2.356348162704969,
            1.7343095014403767,
            -0.40895528616243243,
            -0.6287841392069201,
            -1.2244587389718065,
            -0.6576152026027093,
            -0.7448012110406621,
            0.11746066123040995,
            -0.5738597033109032,
            3.135470073409554,
            1.2682963085315633,
            -0.9142443277377078,
            2.3807367252451628,
            -0.22802050697726592,
            -2.7079410278583174,
            0.2956411246386393,
            -2.5165768350066213,
            -0.37532111593333223,
            0.15661375606750239,
            -2.6701249270970155,
            2.6169932547766503,
            -2.5612517619085784,
            -1.750543294652734,
            2.780519563864207,
            1.9622583582644977,
            -2.0531495699197277,
            -0.5397773379467722,
            -1.7236817028781803,
            -1.515794653537992,
            -1.7562119288325844,
            -3.0667234708236175,
            -2.3530622339952814,
            2.3879962032625484,
            -2.082991022700688,
            1.7294607924729404,
            0.9592251682807426,
            2.8780312935275782,
            -1.2372964805488744,
            -2.6591690555011644,
            -1.358739242083766,
            1.0705108825923915,
            1.1093923616870822,
            -1.5229433943294477,
            2.91225713880687,
            -1.6195243354507542,
            0.9359741293390499,
            0.8436529345216436,
            2.338586348033837,
            0.013608666862381843,
            -2.1802531466875767,
            -0.37036845651158373,
            0.6879505011557302,
            1.1902041401041454,
            2.164884034396391,
            1.2448953375943188,
            -1.6182551190758254,
            2.80452099862138,
            2.855562876490447,
            -2.839632451309808,
            -2.246613319212929,
            -0.27707290475964036,
            -0.49751873041774963,
            -1.2808924841163627,
            0.8492564338099674,
            -0.5215903543235106,
            -0.11360018592318274,
            -1.2307897831167915,
            1.0142731647353347,
            -1.7404420978318615,
            -2.2709711423995,
            -0.3286638093071173,
            -2.44521435402884,
            -1.7530712794071066,
            2.877892167203578,
            2.4776310312919225,
            1.8807000668772942,
            -3.0288449159289845,
            0.04845536665598792,
            1.9602096260660606,
            -1.56650083472444,
            1.798565018277035,
            3.0596776665599434,
            -1.23691904557116,
            2.2726565612737137,
            3.0033848153587104,
            -1.1157238197429782,
            -0.8169059575518338,
            -1.2450030368732399,
            0.3580648932989289,
            -0.36968988363664007,
            0.4423288638307708,
            -2.1694289645866127,
            1.6004711663721956,
            -1.0377508735227783,
            1.2326757144349243,
            -1.319212655040097,
            -1.2022161576148054,
            -1.4034216763541716,
            -0.7083063244936761,
            4.6384707974144867E-4,
            -0.16744927890601854,
            -2.4502300797636645,
            -1.842764193678753,
            2.5728854911028805,
            1.515506486666455,
            2.5261770022116328,
            0.02356548936893031,
            2.594280549605889,
            0.959807467697051,
            2.5451159294229435,
            0.7606886340407988,
            0.9457620384090586,
            -0.3829254783127077,
            1.7679430655065136,
            0.7555040020968263,
            -2.8588238540371194,
            1.564766676874287,
            1.3117377572185986,
            2.6532154527956333,
            -0.7229999262302401,
            0.6506136141646526,
            -1.14541185418451,
            -0.14201708390680295,
            -2.988700707524249,
            -2.0408341451171252,
            2.754798756810424,
            -2.8202007904376645,
            0.47123777464263944,
            2.536384619920529,
            -2.4430064714218016,
            2.8689165813686914,
            -2.799825346891959,
            -0.2898253013804654,
            -1.4985822622183609,
            -1.659111659794382,
            1.945544163630079,
            -0.015478422712120849,
            -1.4071579796877958,
            -0.6256091693635514,
            0.23127550237787256,
            -3.0146853256959165,
            2.893853524519841,
            -2.570999416655099,
            -2.2866081875010797,
            2.742024867883314,
            1.3346131414651816,
            -1.2068811469733833,
            0.16693455018358433,
            -0.009545673308557677,
            -2.3148890325234217,
            2.9426692474247904,
            -0.010961521625488062,
            0.29847524740353976,
            0.5930521174100999,
            2.7939746188817316,
            -1.7073831375817348,
            0.624038282740033,
            2.2938301805354087,
            -0.21393378382365943,
            -0.010046682038743837,
            0.9815159620514855,
            -1.9966036885646428,
            -1.9489965728015766,
            -2.2396112954199636,
            -2.8589888814059354,
            2.4874188660208465,
            -0.37617397415156806,
            0.7509303348119064,
            0.3199196568513766,
            2.2467407089565574,
            2.2680632446375086,
            0.8345490150447924,
            2.8930201712100874,
            0.28364027474287157,
            -2.083360952271908,
            -2.2436255841356916,
            -0.24511184007990366,
            1.0682104194899955,
            1.3727691277211846,
            1.5006338132084704,
            -2.064933152721914,
            -0.09463474645849314,
            1.5289296147537368,
            0.8518966611955012,
            0.019142184781651743,
            -3.1011772950731373,
            -2.598196014997231,
            1.5196875701205457,
            2.583421736779152,
            -0.3059599199151357,
            0.09928102846987806,
            1.4924288549639269,
            -1.625105751153504,
            -1.1619857447510469,
            2.3223080370072973,
            0.1171047553157329,
            -2.571392668308378,
            -0.9818332111281355,
            0.03314855114160227,
            -1.1604870247593562,
            2.4636604298120472,
            1.4219566028414523,
            -1.2488370836109983,
            -1.5626170936752304,
            -1.8868936960641094,
            0.2807625753086651,
            0.08957037361621939,
            3.0424870616997115,
            1.5101328933538913,
            -1.3003935924124086,
            -2.784180894358618,
            2.98323564562297,
            1.6479506897803398,
            -0.8643934301775231,
            0.35963540786812914,
            1.0789525577770536,
            2.9027368432677285,
            -0.6351076409980924,
            1.5823185585846837,
            -0.8457062509233074,
            -1.003505453787869,
            -2.269247722805216,
            -2.9294442533432727,
            1.8651143372919539,
            2.0143168330132895,
            -0.876728815678641,
            2.454544086702853,
            0.5346243399579698,
            -2.850479068331396,
            -0.9013900970098232,
            -1.1243161319918544,
            -1.278746573697995,
            -1.5865843367348722,
            -1.5291293695278476,
            1.3752069028567866,
            -1.4213091059421583,
            2.272546672362378,
            1.1062512760815097,
            0.09127230214052831,
            -1.0308638986813181,
            1.3189438494656291,
            -0.5749585105448337,
            2.6472779006647267,
            -2.7402665104167023,
            0.5377004685676301,
            2.491253162463225,
            -0.6593326204010014,
            -0.7537816979018941,
            -0.6112700723447124,
            -2.8638408785562386,
            2.170183495396872,
            0.184874204446473,
            -2.4886368534155614,
            0.38118682297466355,
            -1.2707397630437305,
            -1.7903217799229794,
            -1.9138744776709227,
            2.3934520309518645,
            1.8963308947194728,
            -0.7569669391725239,
            -1.250694737429841,
            -0.6412318633629962,
            2.4187767189133855,
            0.04488521509666692,
            -1.8610881407291024,
            2.8497956910341147,
            1.6552825853920288,
            0.5368505040650658,
            0.6215692430555864,
            1.7207539027316352,
            -0.2571482782072927,
            -2.0094632597546616,
            2.382407629730432,
            -0.9807175908965956,
            -2.07757890450137,
            0.5628193111388128,
            -1.6551473940662524,
            -0.6407279498156011,
            -1.8844158079885378,
            0.9210721418697801,
            1.5145297480441877,
            -2.4865709097582975,
            2.2694668329873604,
            2.3980351709639427,
            2.855072147822448,
            -3.1454298691966645,
            1.986203486066341,
            2.0654813310787197,
            -1.0161266339151873,
            -0.484173968710687,
            0.3960617267687938,
            3.0191969973575015,
            0.09536129160669327,
            -0.9148279934478337,
            1.7596193882984692,
            0.5958299294104371,
            -2.720755194996068,
            -0.6568926573383888,
            0.3941723909866265,
            1.782078353061089,
            1.7665407836459774,
            -2.0324417141494906,
            1.9586297803516721,
            0.41318298962408695,
            0.5899264180287862,
            -0.8385862922224676,
            -0.36984331554949595,
            1.3942651912079673,
            -1.4030894861840055,
            1.8696837071688703,
            0.05581916791659325,
            1.0147322113100061,
            -0.04635983283099521,
            1.7577127053111692,
            0.8286151243168748,
            -2.6114452828455774,
            -0.98757967817246,
            -0.6909806638438353,
            0.9569007427868389,
            3.1537211388757664,
            -0.34984563034683136,
            -0.47706249813600826,
            -2.6806200413110903,
            2.796928322540075,
            0.7073092469395275,
            1.3956126506088944,
            -1.054456701976771,
            0.6300813781250701,
            0.5005500583317148,
            2.295496764855536,
            -2.0430052766325355,
            -0.5064576680245807,
            1.88608581618917,
            2.689839538766792,
            3.12160168651992,
            0.8655563300447338,
            -1.6741439525547894,
            0.7768046022408666,
            -3.1024786636933657,
            2.523669087513099,
            -1.0281765486410905,
            2.5296908579258965,
            -0.741699768979988,
            1.3297222857714255,
            -2.5920444526065416,
            -2.557083107624027,
            -1.3596869404047291,
            0.9767202920424363,
            2.0326395171671696,
            2.229208888422348,
            -1.1343137399924097,
            -0.2955404339974881,
            0.5092002072805778,
            0.42246153750327425,
            1.467056434028531,
            0.16341827410241588,
            2.3631383246621187,
            0.30315912669185824,
            -1.1122179237101681,
            2.691372554450273,
            -1.2971413883595775,
            0.5575384059805095,
            2.113765892687286,
            2.1834787010844754,
            -0.9487254141121305,
            -3.0859403962179854,
            -2.8379059616752134,
            -1.4522338974356415,
            1.9668919568647079,
            1.4541170851987741,
            -1.9199608487229847,
            -1.0435867823517386,
            -0.4851585560975235,
            0.009595647512570676,
            2.815356105303869,
            0.27185069100236736,
            1.9672615182145952,
            -1.8195436114144594,
            2.3979649380228247,
            1.205047032985105,
            -2.7559494692018562,
            -0.22090152456039547,
            -2.2940569023242188,
            2.977044576346134,
            -2.5860109971916216,
            1.4812600793107025,
            -0.14453056830723288,
            0.43567574966963213,
            1.328595173762378,
            -0.8778475441580679,
            3.0760573795228465,
            -1.9442113237722343,
            -0.578719183429312,
            3.0350261579932956,
            -2.9380871812687674,
            1.855291977575195,
            1.0480222156884083,
            -1.0278166439154917,
            -2.431507394999261,
            -1.0516709907040973,
            2.465507162451361,
            -1.1410888930580037,
            -0.2815334724325522,
            0.7509388569999934,
            1.0153233039549852,
            2.6278824634853577,
            1.2671757139710225,
            -0.6915783949833766,
            -2.884027126248528,
            0.06843307141390262,
            2.974135084064974,
            -1.0026223720510765,
            -1.1257942368612395,
            -0.5149927483811083,
            -0.40401240462760557,
            0.5194111117493388,
            3.024941141932344,
            -0.5808647423192442,
            1.605850679848739,
            -2.1680393947083245,
            0.6085468623720592,
            -0.07790942113365816,
            1.5891529615471733,
            -1.0857164516112618,
            1.780079692502167,
            -2.8621270228787075,
            0.1747470871319631,
            -0.3429200844854868,
            0.815746898126871,
            1.2517122333007253,
            -2.1161296662196314,
            0.023459116812096795,
            -1.8086461981591082,
            2.7427908589361008,
            -1.2289248934872845,
            -0.7057145272307201,
            -0.5219192372422758,
            1.4845481525977233,
            2.843247198114416,
            3.124503863920274,
            0.0049457863657710825,
            -1.418372368700804,
            -2.6782357344758556,
            0.4847736604756079,
            0.6104390024449733,
            -2.625211011663316,
            -1.6348490213701312,
            -2.5230967948866465,
            2.075206123329471,
            -2.850919018321308,
            1.415390678431324,
            2.739279270328783,
            -0.2965923442956437,
            0.3567738470850895,
            1.6861111991758353,
            -1.8595570142314868,
            0.6326593388339069,
            0.8379685152433748,
            1.5281642610353232,
            1.0606014353497757,
            1.4825708891431766,
            2.000338366568992,
            -1.2780952649168758,
            0.28491292137328084,
            -0.1534936206241003,
            -2.539758552384327,
            0.1315317351058755,
            -2.48576385900883,
            -0.30286389607414327,
            1.4328218765680993,
            2.819022849202268,
            0.7651699786524053,
            -2.1671126792765296,
            2.284237922634649,
            -2.9100336720191926,
            -2.291966929531905,
            -0.36896396022876654,
            2.7672008017074794,
            0.017848703037986417,
            0.551098790279311,
            0.8566600242112278,
            2.4473473042699414,
            2.355860057095384,
            2.3448536854952295,
            -0.844543347698267,
            0.4689678665699471,
            0.7414718542435609,
            -1.872134886509313,
            0.34893663181335816,
            0.7117497127452868,
            1.5067740162926524,
            2.3970650367750737,
            0.7415063863267204,
            -1.7364314821154017,
            -0.3167945718518569,
            0.6468491446955635,
            -3.089973916285467,
            -3.1278449038709475,
            -2.0741114461739127,
            -0.5483909256856246,
            2.966809434555042,
            0.8431823066515458,
            -0.6818520115258839,
            0.5835260077996618,
            1.843316105478833,
            -2.428193726438447,
            -2.5204647200252492,
            3.025734737137333,
            -1.0700270083402919,
            -0.8529989102203026,
            0.17049788208299282,
            -0.21802668643453527,
            -0.39761026491509327,
            0.7566983355148378,
            2.766171795938841,
            2.5809166682361426,
            -0.3822130815056129,
            -1.0677293387232676,
            -2.701028398749181,
            0.7373632921731469,
            -2.981758874310378,
            -2.764311726328188,
            -1.582876060569845,
            1.790269246919236,
            1.4767924241774526,
            2.398953913421842,
            -1.2190224375625793,
            2.250475067898267,
            -0.14035162935397688,
            -0.8915783913028006,
            -2.679218029419447,
            1.9343674445199375,
            -2.582282202522385,
            1.9172173671986572,
            0.5374725646155573,
            -0.43697769196271213,
            0.5999743642239382,
            -0.4463399288044599,
            1.8340393261870693,
            -1.0802230964911428,
            0.13921168395809094,
            -0.9778110930293133,
            -1.727715977136247,
            2.7866023521300263,
            0.3684064756923415,
            2.36721786764841,
            0.6407706925573023,
            -2.519496994682358,
            -1.4221796759887309,
            -0.8082623004861859,
            -3.0741526708555895,
            2.462701589654117,
            1.9871228845564268,
            -3.042830822930843,
            -1.8802272096024686,
            -2.2777514982450024,
            2.8558016617498168,
            -1.9542733704165047,
            2.6472465898984257,
            2.64265634722468,
            -2.5591113910942536,
            1.7103896383853334,
            -2.614838102603685,
            0.058409495281415806,
            -0.8078310105389838,
            -1.2620670566770034,
            -0.9797411498786628,
            1.1355949896126032,
            -1.3432801087112163,
            -0.4162812216439366,
            -0.8601959841021426,
            0.4988612241747827,
            -1.5899721565513334,
            -0.3357224709120004,
            2.0089899298607126,
            0.025132510446399903,
            -2.028684718810694,
            -0.39507004843955,
            1.0760737170236945,
            -1.045455063198615,
            2.959183481293463,
            0.11270211606186055,
            -0.3497789269490255,
            2.0016616812931605,
            -3.124008422407819,
            1.1725749912510637,
            -1.6927416130699295,
            2.3136168234665084,
            2.4619144350563626,
            3.0673974146475502,
            -2.2545433352582847,
            -2.4710796048908157,
            2.272883470626945,
            0.9319106046147525,
            -1.986569106116872,
            -2.758608909416765,
            -1.4191994260827339,
            -2.931775784217359,
            1.3649582245319076,
            -0.748146838285254,
            -1.4921265349389594,
            -0.5555113482056107,
            1.2295831292049089,
            1.1993007593371083,
            -0.13012147205500155,
            2.6711552824425917,
            -1.0187888783795824,
            -1.2590897101900806,
            -0.2412587329566267,
            -0.3458318866141639,
            0.4787255326591932,
            -0.4274920901041447,
            -2.8047498970857547,
            -2.9881737705299964,
            3.066991885412618,
            2.9070724615819565,
            2.442659187069976,
            0.4854316066640934,
            2.667663286943495,
            -0.11365072079562104,
            -0.11421805920182851,
            -1.373155421186101,
            0.4576745792344422,
            0.9523158022762402,
            0.5092903653102228,
            -1.9394402341740093,
            -2.731103231013126,
            2.4086950132123177,
            -1.8642499048287218,
            -0.48420159763250825,
            -0.10974187778553322,
            2.0936361651637894,
            2.936254339378986,
            2.066261241358148,
            2.437947587000099,
            -1.0554548276047702,
            2.1552203561076873,
            -2.7075204345811352,
            -2.1725825369531933,
            0.303168639284344,
            0.5291669526408831,
            0.20289564304311358,
            0.12376389568225282,
            -2.6021014595224092,
            -1.6541044223710548,
            2.561832385167415,
            2.3639939529227147,
            0.8146536876122792,
            -1.1128017337975349,
            0.38575552933854407,
            1.1173207012773556,
            -2.224489242266219,
            2.3244336539778434,
            -0.0802182621590281,
            2.998199606700361,
            0.2573570167408056,
            -3.0563305658665683,
            -0.9800895773460041,
            0.2517931259091571,
            2.62496647999455,
            -2.5822718927935475,
            -2.9090378860020056,
            -2.854785308294954,
            0.025488535282053713,
            3.0756824753893723,
            -2.6937665933717247,
            -2.7873031764548055,
            -1.0166029214314836,
            -1.837729503130652,
            2.5698731977641214,
            -2.358628002649736,
            2.4200996722588926,
            -0.9517515714908666,
            2.1964698320901253,
            -0.18978045824488204,
            3.0479359816203653,
            1.2737756134688485,
            -2.2617963568310806,
            0.2139037532080011,
            0.6586862364506864,
            2.359697604419053,
            -1.709938729827893,
            -0.4969216212208588,
            -0.8354473961955994,
            0.7680447308789634,
            2.5870854668916574,
            2.122739777587026,
            -0.9959906648293562,
            0.4174172733955931,
            -0.2627254238380399,
            -0.7386368861323811,
            1.7358438083187022,
            0.3830772222872841,
            0.48652441665200913,
            -2.042146774149775,
            -0.7648581496705088,
            -3.048199697870215,
            -1.8165775631851218,
            -0.5287009402047542,
            -1.1241785989892576,
            0.9993521005482141,
            -2.954038075936732,
            1.0522344138744155,
            1.879646228457583,
            0.15604671006351026,
            -2.195860928538092,
            -1.9867878487717878,
            2.757106316108318,
            1.5578723085705337,
            1.6337260276021897,
            -1.8791135356430169,
            -0.38549099010278515,
            -0.8977261681876234,
            1.5705469111966812,
            1.931612826411843,
            1.3018869916907856,
            2.7086831796149626,
            2.1328750188105183,
            2.3279800900542407,
            2.512502568739413,
            -0.797786585705915,
            0.5996860299677569,
            -0.07577997572601887,
            1.9306970023201646,
            -0.1955106432118152,
            2.8287988741138905,
            -2.4239173092643944,
            1.3134481696722484,
            0.4008730965915433,
            0.5781403207224085,
            -1.3704755729563851,
            2.1616787117687344,
            -1.408516940849947,
            0.09110000375977395,
            -1.3833391308302163,
            -1.684535234410017,
            -1.7579955649694714,
            -3.005357108906366,
            0.5482272402262443,
            1.4087144694619753,
            0.7213011421290432,
            1.2791154596319116,
            -0.8021403234233772,
            2.923409543742476,
            0.7922676939217151,
            -1.1785844023295573,
            -1.1029800196516524,
            0.8354805658040548,
            -0.9532439440090485,
            0.85603565144744,
            0.2021334441910707,
            2.43138195752343,
            1.5172248243336834,
            1.8178295056646019,
            1.750065503814353,
            -2.0253695927801303,
            0.42653332315062864,
            -2.715443840539769,
            1.3429542522950482,
            -0.25013302833652146,
            0.6689862055661941,
            -1.7887133778227335,
            2.834455535359613,
            2.958397897344879,
            2.3608644796891776,
            -2.717881573127251,
            1.5327340168567676,
            -2.2988777270923957,
            -2.476610322206751,
            0.38153037226260345,
            -0.7333951221996375,
            1.6155258428977401,
            -1.1298741909662777,
            0.8912740993666776,
            1.7225447333548605,
            0.26373874224008026,
            -2.5984530672707646,
            -0.3110694391031871,
            -0.21940830689432894,
            -1.4468105251522767,
            -2.8856119002877505,
            0.6451403585930396,
            0.1253460991439216,
            -2.334361309749244,
            0.41670170936034145,
            -2.1581821946374165,
            1.7267138264920547,
            -3.0725799078679707,
            -2.892664458564864,
            0.43559207802003136,
            2.0573360204407227,
            -2.7254215078455757,
            -2.0738211555796338,
            0.22731427412578717,
            2.386086144703172,
            2.6875958851146007,
            1.3054491850429653,
            0.5077926173756292,
            1.5538880328219826,
            1.1039845257963516,
            1.3414791775705948,
            2.0625748875877687,
            0.38667006703422024,
            -1.699435004633525,
            2.2772398830086464,
            -1.6685841670865553,
            -0.5309311529859126,
            -0.8855519423640461,
            1.6110698867235707,
            -0.5529704302222659,
            -1.3279646501375804,
            2.0708984810282653,
            -0.27104238945684067,
            2.020408648303442,
            0.7488188154493631,
            -0.8503979860994529,
            -2.3420820947362286,
            1.5655175135047696,
            2.4041432279844432,
            -1.0353666762287603,
            0.9674586769612508,
            -0.08985939063070912,
            1.9122185586920442,
            -0.3327585258095753,
            1.678961940535639,
            -2.519203721382424,
            0.7239408462380305,
            1.0823380328024113,
            -1.6100848848576634,
            2.8221540314449793,
            -1.0739784466940292,
            -1.3219526948987914,
            -0.15716784991601707,
            -2.9656061356131787,
            3.0036115835642185,
            0.306541297686024,
            -2.861525347220204,
            2.5386072241229853,
            -2.9080407713833973,
            -1.8763581089917343,
            2.163430904190422,
            -0.9618756113753889,
            -0.7692363838815729,
            -1.1781726745598637,
            2.2622515587931384,
            -2.5371728080989304,
            -2.041764645196996,
            -1.2751343269933195,
            -2.4737504708465226,
            -2.3424705327810957,
            -2.3441162292458966,
            1.363664874626143,
            1.9648611164128544,
            2.72853003209121,
            2.388418646776712,
            0.08521209186241106,
            -0.4172882503914175,
            -1.6592576398240606,
            1.0469125146145906,
            -2.143898691213606,
            0.8636809078464732,
            1.3325788188768826,
            -1.485846687145135,
            1.196629238066891,
            -1.5452375110864187,
            -1.931786916963307,
            -1.0601406583380129,
            2.7753067215668032,
            1.8988141891326922,
            -0.19775944111712232,
            -2.216614045386729,
            -0.8634036103409178,
            -2.7562673740564376,
            -2.3694190799894423,
            -1.1283299883696696,
            -0.9706786921985181,
            2.990644764987783,
            -2.627974621787802,
            2.6080907443864305,
            2.6261492985619506,
            2.602226849301427,
            0.4767305975911382,
            -0.14440579118223673,
            -0.3867053049055451,
            -0.22928197115924379,
            1.9011759148288265,
            -0.21235258119395178,
            0.6062304784192551,
            0.07470359944376773,
            2.498095283220164,
            1.393731650297599,
            -0.7273357427193075,
            2.412351215855455,
            -2.071460056425748,
            -1.8914729810056545,
            -0.019703206083014558,
            2.2818219977142173,
            3.0097618313928143,
            0.9273706819650919,
            -1.0960228628417277,
            -1.4267021758536238,
            -3.07736421622876,
            0.27375962049207175,
            2.9882114329881597,
            1.48708168978393,
            0.02001217340237466,
            -1.643427614472197,
            -0.6453740982630477,
            2.8290232000571187,
            -2.2753326668871185,
            1.5835639665850805,
            -0.8350313810243865,
            0.6377185768397887,
            -2.950813021772061,
            2.6545193714907516
          ]
        },
        "skip": {
          "dims": [
            1,
            1
          ]
        },
        "simple": false
      },
      "totalBatches": 581,
      "totalItems": 29050
    },
    "a0f0a572-b49b-4e98-bfe0-199100001596": {
      "class": "com.simiacryptus.mindseye.layers.util.MonitoringWrapper",
      "id": "a0f0a572-b49b-4e98-bfe0-199100001596",
      "isFrozen": false,
      "name": "avg1",
      "inner": {
        "class": "com.simiacryptus.mindseye.layers.media.AvgSubsampleLayer",
        "id": "a0f0a572-b49b-4e98-bfe0-199100001595",
        "isFrozen": false,
        "name": "avg1",
        "inner": [
          2,
          2,
          1
        ]
      },
      "totalBatches": 581,
      "totalItems": 29050
    },
    "a0f0a572-b49b-4e98-bfe0-199100001599": {
      "class": "com.simiacryptus.mindseye.layers.util.MonitoringWrapper",
      "id": "a0f0a572-b49b-4e98-bfe0-199100001599",
      "isFrozen": false,
      "name": "bias_2",
      "inner": {
        "class": "com.simiacryptus.mindseye.layers.media.ImgBandBiasLayer",
        "id": "a0f0a572-b49b-4e98-bfe0-199100001598",
        "isFrozen": false,
        "name": "bias_2",
        "bias": [
          -3.29699434522845E-11,
          -6.626913389059325E-10,
          1.0183711534622204E-10,
          5.2391185525139966E-11,
          3.196488787573565E-9,
          -2.262969891202809E-9,
          1.5823364409154495E-10,
          1.4867605775789226E-9,
          4.5026370710128026E-10,
          -1.1611773719786331E-10
        ]
      },
      "totalBatches": 581,
      "totalItems": 29050
    },
    "a0f0a572-b49b-4e98-bfe0-19910000159a": {
      "class": "com.simiacryptus.mindseye.layers.util.MonitoringWrapper",
      "id": "a0f0a572-b49b-4e98-bfe0-19910000159a",
      "isFrozen": true,
      "name": "activation_2",
      "inner": {
        "class": "com.simiacryptus.mindseye.layers.activation.HyperbolicActivationLayer",
        "id": "a0f0a572-b49b-4e98-bfe0-199100001597",
        "isFrozen": true,
        "name": "activation_2",
        "weights": {
          "dims": [
            2
          ],
          "data": [
            0.2,
            0.2
          ]
        },
        "negativeMode": 1
      },
      "totalBatches": 581,
      "totalItems": 29050
    },
    "a0f0a572-b49b-4e98-bfe0-19910000159c": {
      "class": "com.simiacryptus.mindseye.layers.util.MonitoringWrapper",
      "id": "a0f0a572-b49b-4e98-bfe0-19910000159c",
      "isFrozen": false,
      "name": "conv_2",
      "inner": {
        "class": "com.simiacryptus.mindseye.layers.media.ImgConvolutionSynapseLayer",
        "id": "a0f0a572-b49b-4e98-bfe0-19910000159b",
        "isFrozen": false,
        "name": "conv_2",
        "kernel": {
          "dims": [
            4,
            4,
            200
          ],
          "data": [
            -9.514219492983993E-5,
            0.0016644887282695497,
            -0.0023112355951421725,
            0.002804231880738781,
            -0.0026881738239009074,
            -0.0020643558187274265,
            0.0022542027805908674,
            0.0028010805800216016,
            7.445169590080593E-5,
            0.0024535375038905794,
            -0.0026991126260770787,
            -0.001166735470003403,
            -8.547504439093057E-4,
            0.002192790940129381,
            -5.051712723137849E-4,
            -0.0015808896015795594,
            -8.745785350199018E-4,
            -8.174066372952058E-4,
            0.0012182180022492267,
            0.0012062979717752803,
            -0.0020806207176739823,
            0.002724173807672156,
            0.0017406904570215474,
            0.002123080034444796,
            -1.4347758193276292E-4,
            0.002266932678686075,
            -5.272139914521111E-4,
            6.550776167902047E-5,
            9.159804415078764E-4,
            -0.0018659199580301723,
            -2.16284957853611E-4,
            -0.0022428847738680925,
            0.002196808815023843,
            -0.0015391893077433862,
            0.0017605183780411845,
            -0.0029471485759639884,
            -6.276485570858007E-4,
            -0.0028083594295302762,
            -7.68464693109417E-4,
            1.401353895956436E-4,
            -0.002037844004500512,
            9.126015223967904E-4,
            7.520762893789653E-4,
            0.001849243982538868,
            -5.974055539552693E-4,
            8.88921077478754E-4,
            -0.003038416488030476,
            0.0028076046620631374,
            0.002227373294479319,
            -0.0018816014089328124,
            -0.001985086763701507,
            -0.002268502388782007,
            -6.746284507404164E-4,
            -7.703268387035801E-4,
            0.0013243717220427081,
            0.0013127762927559168,
            -0.001795705027459386,
            -9.563029351180703E-4,
            -0.0017066381262340316,
            -0.0020821633984439768,
            -2.160064385219156E-4,
            -0.002606607989501613,
            0.00263210987806586,
            -3.865614738975849E-4,
            0.0021767390844961653,
            0.0014835520361013742,
            0.00283773142238126,
            -0.001092536383390061,
            -0.0019237827900581504,
            8.213169786000475E-4,
            -5.582463432362004E-4,
            0.002911509717410272,
            0.0014962113035720383,
            -0.0030915870459300187,
            -0.002128601594793456,
            -0.0021426754695050092,
            -0.0013655892064315732,
            0.0019554126625813536,
            0.0013790194659923755,
            2.759468336710943E-4,
            -4.023478999215168E-5,
            -0.0017754210083939447,
            7.414473322231327E-4,
            -0.002045673652239219,
            3.5160173735366776E-4,
            -4.4262938688325915E-4,
            -0.002438792184893385,
            -0.0018988971055122277,
            6.498036454696187E-4,
            -2.4793758884585315E-4,
            5.2886339434569436E-5,
            3.637319410903108E-4,
            5.065321879338574E-4,
            -3.366306924001507E-4,
            -0.0029345051694701385,
            0.0025006604906637137,
            -0.002998107604949441,
            -0.0011455224300348983,
            0.0020222963321780076,
            0.0018436822058007715,
            0.0027854377533038256,
            0.0013820675372973425,
            -1.0030280826992993E-4,
            -6.293458019083144E-4,
            0.0011176454730361222,
            -0.0021512912930842566,
            0.0013001957603666048,
            -0.0014097131891660552,
            5.057181196409155E-4,
            0.0025642626684599648,
            -0.0022826547203424192,
            7.344012571946196E-4,
            0.0026580120125952846,
            0.0016321280890170457,
            0.002395034353354162,
            -6.577893435410115E-4,
            1.197079776223951E-4,
            0.0030774475527243408,
            0.0022190130511586035,
            0.002822074968860759,
            -9.463300400282027E-4,
            0.0025467742718913644,
            -0.0011719500366308886,
            -0.00144521118830018,
            -0.0011515539619637457,
            -0.002000666184816563,
            0.002837162110481605,
            -0.002776591898513195,
            -0.0019459489083632378,
            0.001357621954017097,
            -3.8785438842211433E-4,
            -9.841664969508046E-4,
            5.827943902222347E-4,
            -0.0011320195446774812,
            0.00282736020936856,
            -3.7526156450193396E-4,
            -0.0031359704557280136,
            -0.002522499399453484,
            -8.95081935716349E-4,
            -0.0015928556705588628,
            -5.320382825251346E-4,
            8.625267980667809E-4,
            -0.0010804859131358544,
            -0.001715532431580395,
            0.0024319254045970626,
            -4.443474776386147E-4,
            -7.173224126980376E-4,
            7.555808626618324E-4,
            0.001217344713566068,
            -0.002959067128038905,
            -0.0030680429184537458,
            0.0013640099975735613,
            2.815485639290076E-4,
            -0.0027611430558684494,
            -0.001937635899230427,
            -0.002780261421590172,
            -0.001821562265688388,
            0.002620868456536921,
            -0.0018117351346271075,
            8.425381277886737E-5,
            -3.978863459235264E-4,
            -0.0020624606587907428,
            -0.0014758543901005655,
            -0.0011234943413972727,
            -0.0025411128266057074,
            -0.0024303508529413013,
            -0.0015097459541819512,
            -0.003150738675271312,
            6.803395651014579E-4,
            0.0025370642240794996,
            3.075014085490578E-4,
            -0.00295552837238004,
            -0.001499853769074133,
            3.265690797298334E-5,
            0.001665481726494836,
            -0.0022530577078056935,
            0.0019429888461134463,
            0.0016372498989763319,
            0.0017676059644352662,
            -0.001852787400271548,
            0.0016774419135087574,
            -0.0011706259518816336,
            0.0022842340813468195,
            5.452022006394412E-4,
            -0.0017890649826864077,
            0.0018308942731254853,
            -3.2631421619114373E-4,
            -0.0024423141896003885,
            3.150525057632678E-4,
            0.0019738800771310614,
            0.0010114180640930534,
            0.0015286530103754286,
            -7.581171360414178E-4,
            -0.001755229475171559,
            1.1118434756696024E-4,
            -0.001219773564690045,
            -0.0013631660847726948,
            -0.001930167246096002,
            -0.002522321771444239,
            0.001832761230159641,
            -0.001970032457013362,
            8.869297116084352E-4,
            -0.0010890311067721086,
            0.002495772266794774,
            -0.001442318165947027,
            0.002157857939490283,
            0.0020007454995903087,
            0.0018362272267535994,
            -0.003003754707873732,
            0.0025628975344758843,
            -9.745946384642622E-4,
            -9.06027260222961E-4,
            9.96240002215325E-4,
            -0.0013247963436575218,
            0.0015533210273731312,
            -9.470806537179333E-4,
            -6.001091446325658E-4,
            -9.347909378890926E-4,
            0.0010374830099456227,
            -1.029894966276202E-4,
            -6.01699725418922E-4,
            5.390953500411268E-4,
            3.6531142717277133E-4,
            2.2000455765061957E-4,
            0.0013753580515457572,
            0.003160273301210697,
            -5.601299994646362E-4,
            -0.0016027004987627595,
            0.0016677456856965252,
            0.002230808840197533,
            -0.00217438298868507,
            0.0029409672599935064,
            0.002602158106066448,
            0.001798735276276958,
            -7.464796103382636E-5,
            0.0010682514213631574,
            -0.001891485032986141,
            -0.0015442554605525553,
            0.0019338457508592058,
            -0.0013109498950705362,
            -0.0017203279298727899,
            -0.0027034292329215395,
            -0.0013805312741627706,
            -0.00306565715180057,
            -0.0030446086557145697,
            0.0012080473042705338,
            0.0010508955052115263,
            -3.578065901499165E-5,
            -0.0011216682518021676,
            0.0028588217269769163,
            -0.0014183600655307835,
            0.0022981959424409285,
            -0.0023332850150196423,
            0.0022957628621650427,
            0.0016867589164635437,
            0.0011071950152240389,
            -4.973578168255976E-4,
            0.0015217719710099319,
            0.001825847615272532,
            -5.362305397443379E-4,
            -0.002352092448679877,
            -0.002337604689897844,
            -2.2972366991416942E-4,
            -0.0025919994888015424,
            -0.0019008537553279901,
            -0.002539235647167334,
            0.0028705362095168855,
            9.352300606834122E-4,
            -0.0011757473703024695,
            0.001245574549760907,
            0.001074877011727789,
            -0.0016152105723319665,
            -0.003085266264670902,
            -4.956827121874589E-4,
            0.002134444150571847,
            -0.0022912925702225375,
            -0.0018764734291248431,
            -0.003037803701871195,
            -0.0026794684560711136,
            0.0013161317517836888,
            0.0011592926061941558,
            8.249881862462663E-4,
            0.0020056069609191277,
            -0.0012745927563033795,
            -6.716762551743938E-4,
            -1.567659132956268E-4,
            0.002335880263717415,
            -0.0013191760012591764,
            0.0030602130259313708,
            -2.787312692501259E-4,
            -0.0016808983564204631,
            -0.002686128645637756,
            -0.001807578214754089,
            4.7213654382023153E-4,
            0.0011986931804627413,
            0.0011095675075680999,
            0.002420180611260153,
            -0.002882915132456712,
            0.0016752632325603039,
            0.0023085207217121966,
            -0.0016252086131125446,
            -0.0011148085264380315,
            -1.7151625928376888E-4,
            7.06828039950323E-5,
            -0.0010138468668464697,
            -0.0026257976331490714,
            4.0935653423018135E-4,
            0.0016568759369743073,
            -0.001345610872030071,
            -0.0013376059814662585,
            -0.0022856466850649194,
            -4.2145968849808467E-4,
            -0.0013493589134364167,
            -0.002283402872368733,
            -0.002244632740470452,
            7.432363961753957E-4,
            -0.002602298425090305,
            0.0010556368834647575,
            0.0012993536187746275,
            -0.0025263549480074657,
            0.0028329372595172235,
            0.002981688668763264,
            -0.0011654049402965833,
            -0.0018242653718112355,
            0.0024082941311157507,
            0.001113565549263561,
            0.003005047020693272,
            0.0023272867661716513,
            -0.0017575588532052668,
            0.0022253253682212584,
            -0.0027625423299105704,
            -0.0013125787675393812,
            0.002350418226682486,
            0.0027827066983682983,
            0.0017523464474581904,
            -9.378602462117195E-4,
            8.475728703660869E-4,
            4.507987142060676E-4,
            -0.0015652938185859507,
            0.0013678628425493054,
            0.0011485634291549,
            -0.0023536453176156353,
            -0.0028335609640938782,
            0.0010605699828010985,
            -0.0031105632132186235,
            -5.110581820972764E-5,
            0.0019466747683758315,
            0.002199369384888052,
            9.741687734561811E-4,
            -0.0024166710128016135,
            -0.002329960671782058,
            -0.002871371637595265,
            0.001954040584455705,
            -0.0018316248753250373,
            -0.002023082173465686,
            0.0021831103608989256,
            -7.570865736702835E-4,
            0.0021605638716015933,
            -0.001888113333322092,
            4.696466809867801E-4,
            -0.001570019475316894,
            -0.001262229905499456,
            0.0030188854159406186,
            3.4646750249704537E-4,
            -0.0015699654441469473,
            0.0020800363025931944,
            -0.0011184212096765672,
            -0.002727896891622534,
            0.0019038241811796064,
            -0.0020665809451980537,
            0.0013411101717210965,
            0.002051221286853913,
            -0.0011708617181382067,
            -0.002830096268605899,
            9.315115135701924E-4,
            0.0028611691561099568,
            0.0012601845440592015,
            0.0014628014441610035,
            7.89129081214717E-4,
            0.0014191347922358865,
            0.0012497561953620881,
            -8.071128876769647E-4,
            -6.434908245050025E-4,
            -0.0015556265699818088,
            0.0011976714784670466,
            -0.0025785595599905954,
            -0.0019760419477430425,
            9.588981943277015E-4,
            -0.0014042569019333659,
            0.002640366949659493,
            0.0010661700275789627,
            7.923100486070424E-4,
            0.0021304723311902536,
            0.002590425505297676,
            0.0016051353574499652,
            6.63281599988958E-4,
            -9.619352207348242E-4,
            0.001555116159424185,
            0.0013864367606137176,
            -0.003115048427628183,
            -0.00157598502463329,
            -0.002430768776276071,
            6.175552438291503E-4,
            0.001069300113389409,
            0.0010145573290384008,
            -3.447771967892697E-6,
            -0.002286519345291017,
            -4.1615943076203426E-4,
            0.00228159911637569,
            0.0011331559644742121,
            2.3161969479481895E-4,
            0.0011675296552794605,
            0.001663009438771197,
            -0.001443577249576856,
            -3.2659036663027245E-4,
            3.76219247444678E-4,
            -0.0010144813433557367,
            -0.001738171864426361,
            -0.0025920783212677635,
            -9.9097668303062E-4,
            1.8503284256846719E-4,
            -0.0014763392565812189,
            -0.0022065679179381174,
            -0.002359251010419762,
            0.0015353995387420991,
            0.0015880945798368716,
            0.0021543532866801075,
            -7.308928906581551E-4,
            0.0025063881085119156,
            -0.0017508877917419377,
            8.813669957894119E-4,
            3.1023417885506693E-4,
            0.0021973210748333404,
            -0.0014311188553754268,
            -0.0017349223508912389,
            -0.003018663717875699,
            -0.0017961369348747768,
            0.0028649410146252855,
            6.899888268039268E-4,
            -0.0012289691868086919,
            0.002115164230257914,
            -0.002649734120254874,
            0.0013747597876240757,
            -0.0025540723959260863,
            -5.320779185938816E-5,
            -0.0013359614407804912,
            3.622819750691415E-4,
            -0.0014168681077309164,
            0.002856531795125867,
            -3.387442545233425E-4,
            -2.3716811532635364E-4,
            -0.0014631839843059508,
            0.0029085609414538248,
            -0.0025631977975963164,
            0.002241935186199553,
            2.0892852489671102E-4,
            -4.3164184126965926E-4,
            -1.1642075546513503E-4,
            0.0024495157575917404,
            -0.0019244811182921318,
            -9.780056972478258E-4,
            0.0015746392787961676,
            0.002963477131702008,
            0.0020380050474394958,
            -0.0017993969010727028,
            -0.0018219195097078837,
            -6.860505914269895E-4,
            2.2294518905737184E-4,
            0.0013945940048016253,
            -0.0010232620930057622,
            -1.1509631473230285E-4,
            -0.0017896076185791288,
            -0.00192819753506384,
            0.0027970517761623922,
            -0.002108096853276545,
            0.0015164148291165528,
            0.0022174927818009262,
            -5.341819089577705E-4,
            0.0014888640464602503,
            1.8418212460654666E-5,
            0.0017763233906893956,
            0.0026938424285647207,
            9.247354255751211E-4,
            -0.002001527128124549,
            -0.0029111016345430263,
            0.0025918712709325003,
            0.00223557824814481,
            -0.0030862469959259194,
            -0.0010479418768789817,
            0.002238788818299574,
            -0.00140174513240158,
            -0.00268944524597972,
            -0.0020951802857026025,
            -0.0011490260231383582,
            0.0014325569679182364,
            -0.0024381362704910723,
            5.9332277542592E-4,
            -7.250816848674128E-4,
            0.0016976152567120865,
            -0.0028429206413949984,
            -0.002710162107043144,
            -0.0016458154282336112,
            0.0021597330849379994,
            0.002988996964219758,
            -9.764378379306662E-4,
            -7.678192673555785E-4,
            -0.002487228454355658,
            0.0011186397437853086,
            8.018582115335035E-4,
            -0.0029601139586205288,
            -6.36477366918264E-4,
            0.002562740712869411,
            0.0018246900237420425,
            -6.594479020381941E-4,
            0.001308864549171284,
            -9.104600041153817E-4,
            -8.213690187134861E-4,
            0.0025463340403552594,
            -0.0013272186676665852,
            -7.223401021499876E-4,
            -5.524662647021502E-4,
            0.0023050250582651328,
            -0.0015834833602404522,
            -2.962090157308902E-4,
            4.801536549705399E-4,
            -0.0029608109596687064,
            -0.0015415396249291928,
            -4.6793222981295036E-4,
            -0.003026560727683984,
            -0.0019536962191478344,
            6.731280271985994E-4,
            -5.301115319939137E-4,
            5.55171275913895E-4,
            -2.3433991099820384E-4,
            -0.003090131894466462,
            -7.888355904942733E-4,
            0.0016010439783740089,
            -0.0010618207029561215,
            0.0017942590911185817,
            -0.0025518279380823713,
            0.0010577483735254491,
            0.0029801052153720147,
            0.0017005501697715324,
            -2.466896096466819E-4,
            7.16323679773311E-4,
            -0.0017083289247646156,
            -2.093861762327625E-4,
            -0.0018148796653330575,
            7.690983964147995E-4,
            0.0031372547255327436,
            0.0010255037990090532,
            -0.002991389943681912,
            6.2258531125156E-4,
            2.5841776244812317E-5,
            2.495559462443475E-4,
            -0.00229915921592109,
            -0.00154920511770256,
            4.1366181354227186E-4,
            0.001271779753477375,
            -0.0010322990639200357,
            -0.001089008727144914,
            7.960440144085072E-4,
            0.0013903275410013633,
            0.0015408146056724306,
            -0.002755032679445023,
            -0.0030496473510212186,
            0.002304068843660039,
            -0.0013144778202400702,
            0.0013778189886335356,
            0.0016873578031672116,
            -5.405477064581651E-4,
            6.0450886418748E-4,
            0.0021436382373790403,
            0.0021383803494344346,
            3.145302913737749E-4,
            -3.3632824927223094E-4,
            -4.5112121432310094E-5,
            -0.0022930307659246654,
            2.0980511018494906E-4,
            0.002185786359835494,
            -0.002821628366593522,
            0.0017853810247052133,
            -0.0021714694738495625,
            -0.0017183139808102993,
            -0.0028090001637546156,
            0.002956501278118028,
            -1.7776379947451176E-4,
            0.0018007727681156973,
            -0.0023367878174972725,
            -0.0017195703754427966,
            -0.0018057500816170211,
            -9.803496242587798E-4,
            8.22155187470279E-4,
            -0.001163354488881032,
            -0.0029895614698279126,
            0.0021819523453090787,
            -0.0022773303108807046,
            -0.0013543691284884456,
            -0.0020172207330989345,
            -6.167306179347286E-4,
            1.6052107164125698E-4,
            -9.492912297236876E-4,
            -5.117513896543883E-5,
            5.058880925728553E-4,
            0.001744111193959172,
            -4.6647430770362834E-4,
            1.2386356672829376E-4,
            0.0017852960007809513,
            -3.509890509955269E-5,
            6.877226623728417E-4,
            0.001414555845135707,
            0.0011544734131071844,
            0.001510416886764383,
            7.968347602075887E-4,
            8.370475356323003E-4,
            3.082975571509916E-4,
            -0.002793993810203412,
            0.0014138502060219236,
            -0.0016778575173401833,
            -9.441458273803258E-4,
            -0.0031607124151897073,
            -0.0012421980694760212,
            0.0015573102202224485,
            4.320007126057337E-4,
            -0.0027865056544292546,
            -0.002614658486190014,
            7.40193434161365E-4,
            0.0012167891018837079,
            -0.002983775024540181,
            1.3576520387026075E-4,
            -0.002194590865953107,
            8.194174720868939E-5,
            0.0030175261199896692,
            0.001040162532813875,
            -6.146574088855226E-4,
            -4.908795838400376E-4,
            8.667902074644563E-4,
            0.0017093354492955604,
            -0.0029944355003157946,
            -0.00235930156801915,
            0.0010718350174914741,
            3.974848245815746E-4,
            -7.498629265925342E-4,
            -0.0013469962565806376,
            0.0016422565548006268,
            2.0363880694426404E-5,
            6.797788880993272E-5,
            0.0030945219901177155,
            0.0010948896170778378,
            7.947000915280385E-4,
            0.0019885195953925463,
            -0.0030691690813235014,
            -0.0024338698532265887,
            -0.0012770969832296983,
            0.0011100304814930116,
            0.00193593714576317,
            -3.8929528433123315E-4,
            -0.0024802204007392642,
            5.796181781961256E-4,
            0.0018590402658140495,
            -0.003146854155585314,
            0.0021322794586614803,
            0.001501194311793422,
            0.002775398262359335,
            7.134187752544333E-4,
            0.0021027810234929296,
            0.002386110425018555,
            0.0026126951360362955,
            0.0026222506996827735,
            0.001724893769645464,
            -4.889438575332929E-4,
            7.231400024928319E-4,
            -0.0030282782610661307,
            -0.0025362910179510334,
            -0.0025473216393360767,
            0.0022291472234432165,
            0.0022031677667535676,
            0.0010077079324478247,
            8.304550844051488E-4,
            0.001473337951257109,
            5.949864197618665E-4,
            -3.5816102616939485E-4,
            -0.0022743834612393094,
            -1.8570365545493803E-4,
            3.4116991519555606E-4,
            8.421071998701137E-4,
            -8.9302770983348E-4,
            -0.0024573076051523477,
            0.003134394873769313,
            5.173794007440635E-4,
            0.0012555314786459393,
            0.002621267459654403,
            -0.002350464769690581,
            0.0015526307383010832,
            -0.0020139518746101577,
            0.0028543246002463696,
            -0.0012682421829722454,
            -0.002902679541568506,
            9.8082357211073E-4,
            0.002013196697923158,
            -4.8274731960354914E-4,
            4.991138539615286E-4,
            -0.0010153335930040825,
            -0.0017500885231744243,
            -0.001197074422336953,
            -0.0017074839743715436,
            0.0011581732640443428,
            6.932306773765262E-4,
            0.003122644053474911,
            -0.0030035438032054553,
            0.001273749990296079,
            0.0025948828834177783,
            -7.560332956680653E-4,
            0.002885509791787774,
            -2.383028431874803E-4,
            0.003077541945382177,
            3.264871253974199E-4,
            -9.279947830198801E-4,
            -0.0022202584674329328,
            -0.0012688530260419938,
            0.001970235794295995,
            8.912594523388077E-4,
            -0.0020529978863292595,
            0.0024353736376735735,
            -0.002147257930115428,
            0.0028342892415121556,
            -0.0021307078083054516,
            0.0016738034267559676,
            -0.0018793476708023904,
            0.0014987932463340953,
            -0.0019348801380414502,
            1.4057639569486933E-6,
            8.260805901009671E-4,
            -9.72598751387049E-4,
            9.450446572426614E-4,
            0.0014691309282519073,
            -0.0010764020032680694,
            -0.0025081040745938187,
            -0.0024371534548945028,
            -0.0020221412308744392,
            0.002183050582787072,
            -3.1950972100623073E-4,
            -0.001349268254263682,
            0.00170283846913629,
            -5.782500453271901E-4,
            -0.001008772517202329,
            3.3845291428395924E-4,
            -0.0015303153308621022,
            0.003082940604308917,
            -0.0028763071244318674,
            0.0027451045092448893,
            0.003079130819560826,
            0.002162173498844968,
            -0.0010185795016304862,
            -8.698965146014699E-4,
            -0.0022959278773854856,
            0.0024801458502749702,
            -0.0030929556450953605,
            0.0024180387111095163,
            -0.0018914410005506244,
            0.0018590313988492075,
            3.027677707553122E-4,
            -0.0020599618148454462,
            -0.0019089981903544536,
            0.0031203959421535143,
            0.0021095721548908706,
            0.003060644562783437,
            2.508896516753726E-4,
            -0.0013023207112726827,
            -0.003020276542108926,
            0.0024417576243627058,
            -1.2146646402344293E-4,
            -0.002894064459661418,
            -0.0020370477922002734,
            -0.0018763939040872292,
            4.3839479867270094E-4,
            0.0023964252023946407,
            0.0023764937994111253,
            0.0024185610186959494,
            0.0025672143888062866,
            0.0028224909498800487,
            -3.4645403938152105E-4,
            0.002652138479141687,
            4.389228670192715E-4,
            0.0011423008049607649,
            -0.003071879999261272,
            0.0025718258202110807,
            0.002113847527423428,
            -0.0022456641877224496,
            0.0022900900251205387,
            -0.0013104454906814817,
            -0.00196925964742185,
            5.762834757477672E-4,
            0.002465980066506428,
            0.0026164433876254404,
            -0.0011061383826338035,
            -0.0013966889664596839,
            -5.280865756762725E-4,
            0.0013401252607987484,
            0.001363242816223562,
            -4.6303176884362373E-4,
            0.0012626021495548614,
            0.0010745922203874976,
            -1.8762489413203055E-4,
            0.001826972777143851,
            0.001980098062306037,
            -7.891545518865777E-4,
            0.0018890413505778295,
            0.001727944730273836,
            0.0016920348524390681,
            -0.0012163690888134797,
            2.3537667383042725E-4,
            -0.0019761045610335436,
            -0.002823959955262228,
            0.002491004672283328,
            0.0024926832006417063,
            0.001155122401572726,
            -0.0024932409069713004,
            6.875453636795565E-4,
            0.0016977149179814883,
            0.0013094483781177719,
            2.63930841334695E-4,
            0.002661326510888397,
            0.0015610020562417924,
            -0.0011282594021577296,
            -5.761397365016851E-4,
            0.0011129459457765323,
            -0.002181295581895099,
            2.21413889319978E-4,
            -0.002572304573150619,
            5.876840497599786E-4,
            -9.677724090918681E-4,
            2.1284229305214435E-4,
            0.0027337509697008006,
            0.00130933132294517,
            0.0022096717111892102,
            0.0025981517698128406,
            5.226938910281691E-4,
            0.002463943557705569,
            0.001122016793857339,
            -4.938241584920556E-5,
            -0.0029819349863489026,
            0.0014736027430516778,
            0.002916933154392155,
            1.2190755221132063E-4,
            5.707977614845566E-5,
            -0.001986904399163196,
            5.589361214854154E-4,
            -0.003092488314864435,
            7.294602373272374E-4,
            -0.002505587426390878,
            0.0018566464716710596,
            -0.002482758731206702,
            -0.0010644143563663846,
            0.003054275414375301,
            7.849033668255205E-4,
            -0.002175298519300303,
            -6.743742037945055E-5,
            0.0014887944224290176,
            0.0021414120439252585,
            3.768391610093221E-4,
            -0.0018293381429346346,
            0.003111962402315243,
            0.0026933862988891984,
            9.692955741816879E-4,
            0.0017375677474740115,
            -4.411379656594322E-4,
            -0.0020540698767627947,
            0.002612212609263024,
            -0.001796796964312057,
            0.0026920533746379234,
            1.8013890903899683E-5,
            6.906530970406622E-4,
            0.002454354059800335,
            0.0025556280218298607,
            -0.002875886259230489,
            7.254128838042703E-4,
            -0.0021093716972835313,
            -0.0023346310683368017,
            -8.371559185473813E-4,
            -2.9604343878135593E-4,
            -3.668789994260389E-4,
            -0.0011623861627733194,
            1.4901138811268004E-5,
            0.002084532180338157,
            4.3464465304420886E-4,
            -0.0010232045545360662,
            0.0027439815520308095,
            0.0020481712712916945,
            0.002953215610490786,
            5.637189969947012E-4,
            -0.0026884541689528177,
            9.399983767771435E-4,
            9.747347111607232E-4,
            0.0027566481663358375,
            0.0015345525698143318,
            -7.959405895290144E-4,
            0.0019098377202410822,
            6.283687315345489E-4,
            -0.0020405111358823493,
            -0.0016937712480269347,
            -0.0012573328429940482,
            -6.740517994882074E-4,
            0.002560174611236486,
            -7.786774450120496E-4,
            -0.002445571605668659,
            5.571012113321044E-4,
            -0.0023228182632901817,
            -8.702368471335349E-5,
            -0.002842952495259141,
            -3.773915315681717E-4,
            -0.001192408542315217,
            -0.0011858553337064516,
            7.6118566730492E-5,
            0.00307025349849352,
            1.4565507058636947E-5,
            -0.001859614203488596,
            -0.0015770569388458683,
            -0.002902532762818275,
            0.001583790859573585,
            0.0029598978174618135,
            -0.0011466934451049985,
            -3.5972494454974713E-4,
            0.0014288574387903861,
            1.9313903643972463E-4,
            7.537242300316862E-4,
            -6.423732192472241E-4,
            0.0029363100204599637,
            0.0019237269930900765,
            0.0011498172835452236,
            0.002837904418556022,
            -0.002378088744895206,
            0.0010293655887082815,
            7.846998921743154E-5,
            0.0027353660181065474,
            -0.0012786396104864405,
            -3.789782128745994E-4,
            7.764206452853093E-4,
            2.8240063597511305E-5,
            3.9861955605112123E-4,
            1.240563627993962E-5,
            8.704764490361977E-4,
            -0.001736535413586921,
            8.653923518544509E-4,
            -4.576583351111984E-4,
            -0.0019131285184251787,
            0.0029851775528635795,
            0.0013627903286235732,
            -0.002627172998875746,
            -0.0017219448689020209,
            -4.35297875728531E-4,
            -0.0011514307942538666,
            -5.450696951607034E-4,
            -0.0029801825867133004,
            0.0015384162622082977,
            -0.0017062577759265943,
            -0.0028132724057884887,
            -0.0028005264268434584,
            0.0027528704251813625,
            -3.0714907275056436E-4,
            -0.0029192525982871895,
            0.001348099073059626,
            -0.0022270285844933468,
            -7.573794202764801E-4,
            8.863629041081005E-4,
            0.00270942482685136,
            -0.0012659493966864944,
            -9.618956061322923E-4,
            -0.0021190916563130213,
            0.0022536712583099516,
            0.0016269537541276627,
            -0.003137869952671222,
            0.002197996227510738,
            4.4990381422510656E-5,
            0.001764561162937296,
            0.003102319644032262,
            -0.0013161947735118296,
            0.0015239099991059385,
            0.003130093842399635,
            0.0019331900414295668,
            0.002306579798270291,
            8.600184004430012E-4,
            0.002780967696136238,
            0.0015431628877615718,
            -0.00162671098301401,
            0.002407090077847936,
            0.0013545683877929906,
            -0.001049570669426258,
            0.002385953100184211,
            3.227884671159202E-5,
            -0.00206584430693007,
            0.001530766954566875,
            -1.1293427902271112E-4,
            0.0029354789264676435,
            9.650244539135831E-4,
            -0.0018889164076145314,
            0.001779992792529786,
            -0.001211102739351252,
            -0.0023194304403530326,
            9.130842464203281E-4,
            9.80200393124846E-4,
            0.0028086026788844668,
            0.0026789679919681864,
            -8.659416252440529E-4,
            8.182947753067038E-5,
            -0.0014837659321245528,
            -7.39639077186702E-4,
            0.0012958511266806558,
            -0.0019108258550394094,
            -0.0014364184089559978,
            0.002880686057417064,
            1.448475955639179E-4,
            0.00293705454332032,
            -0.0023078952010968166,
            0.0018419922669375948,
            -9.973848494418576E-4,
            -0.0024106619912618627,
            2.6115021889992713E-4,
            2.399147742631171E-4,
            0.00303133474238048,
            0.0013577292949787671,
            6.617475116022182E-4,
            -2.7089222285458207E-4,
            9.782127703389838E-4,
            -5.90536484788962E-4,
            -0.0021363358147606726,
            1.1944728593863134E-4,
            -0.0030289947597356326,
            0.0017023104310157154,
            -0.0016103750928140445,
            0.001785769384118726,
            6.430181198352325E-4,
            -2.490475905636078E-4,
            0.0013207888152145925,
            -0.002089759683040295,
            -0.0010475335160948012,
            0.002635463328078705,
            -0.0017256373441758247,
            0.002904290308907607,
            0.001955339730492108,
            -0.0028479973693117037,
            0.0021239883416940505,
            7.207393466245358E-4,
            0.002586206626126485,
            0.002372932509371107,
            0.0025575705342355893,
            -8.521829027254085E-4,
            0.0016613764872692254,
            -9.759110956485501E-6,
            -0.002332764299824262,
            -0.0013905081656815383,
            -7.581651819451109E-4,
            0.0010274377208558064,
            -0.0030544672029280606,
            -0.0020183638686718324,
            -8.722433667426464E-4,
            0.0029569928679962373,
            -0.002942068563157495,
            0.002917771155529257,
            0.0014721795042074227,
            3.853431164210654E-4,
            1.4139832435870949E-6,
            -0.0012779477979092831,
            -0.002411222832253138,
            4.0151244533045337E-4,
            0.0029890340852092947,
            -7.505904027669421E-5,
            -0.0018176028435373745,
            0.0016005818395965334,
            0.0023100220832494244,
            -0.0021092484867555462,
            0.0012759916294442107,
            -0.0028130638628377984,
            0.00208313302617741,
            0.0028198794613594593,
            7.433459395157321E-4,
            -0.001860772727689329,
            -6.894766170703006E-4,
            6.977710337418095E-4,
            -8.504289858540005E-4,
            2.8331126652250677E-4,
            -0.0014822889640280158,
            -9.665574735799403E-4,
            2.1865268293063078E-4,
            -0.0014120112008651328,
            0.0016077655872814608,
            9.262898575458001E-4,
            0.0028484112609328273,
            -7.748457725110662E-4,
            -0.002787643860078085,
            0.0013416489885017355,
            0.0023757702039172604,
            0.001416399575597319,
            7.262860176010468E-4,
            0.0013137214163786363,
            -0.0011084845942728504,
            -0.0028438178077970417,
            0.002812764230379648,
            0.0013644764507593154,
            -0.0010296112112420277,
            0.0016936404095502235,
            9.00786690296408E-4,
            7.828877116225121E-4,
            -0.0017905066274680917,
            -8.946922720637032E-4,
            -0.001700091533321026,
            2.669597855503812E-4,
            0.0017477443167457545,
            6.881504826051339E-4,
            0.002985776459998402,
            -0.0019365678732317245,
            -6.8102104422925E-4,
            0.002181122895614771,
            -0.0027324291934499394,
            0.0022716102403878306,
            -0.0016824258374239993,
            -0.002468876989071424,
            0.0020901605605602083,
            0.0014750982585014821,
            0.0026468770301859078,
            7.815814375225209E-4,
            8.596996387297854E-4,
            -0.001765793776410088,
            0.0031531017851053797,
            -0.0027675579652448293,
            0.0018050980200890769,
            9.712473295048425E-4,
            -8.441858785137479E-4,
            -0.0021886066737271297,
            0.0013068463503127469,
            -0.0022390421509259155,
