{
  "class": "com.simiacryptus.mindseye.network.PipelineNetwork",
  "id": "a0f0a572-b49b-4e98-bfe0-199100001588",
  "isFrozen": false,
  "name": "PipelineNetwork/a0f0a572-b49b-4e98-bfe0-199100001588",
  "inputs": [
    "3facf149-3e30-4f82-a854-56e1a1510acf"
  ],
  "nodes": {
    "a0f0a572-b49b-4e98-bfe0-19910000158a": {
      "class": "com.simiacryptus.mindseye.layers.util.MonitoringWrapper",
      "id": "a0f0a572-b49b-4e98-bfe0-19910000158a",
      "isFrozen": false,
      "name": "bias_0",
      "inner": {
        "class": "com.simiacryptus.mindseye.layers.media.ImgBandBiasLayer",
        "id": "a0f0a572-b49b-4e98-bfe0-199100001589",
        "isFrozen": false,
        "name": "bias_0",
        "bias": [
          -5.13332619577723E-6,
          -1.4724677725932312E-5,
          3.929959269873562E-6
        ]
      },
      "totalBatches": 7125,
      "totalItems": 905820
    },
    "a0f0a572-b49b-4e98-bfe0-19910000158c": {
      "class": "com.simiacryptus.mindseye.layers.util.MonitoringWrapper",
      "id": "a0f0a572-b49b-4e98-bfe0-19910000158c",
      "isFrozen": false,
      "name": "conv_0",
      "inner": {
        "class": "com.simiacryptus.mindseye.layers.media.ImgConvolutionSynapseLayer",
        "id": "a0f0a572-b49b-4e98-bfe0-19910000158b",
        "isFrozen": false,
        "name": "conv_0",
        "kernel": {
          "dims": [
            5,
            5,
            15
          ],
          "data": [
            -0.004655942227537684,
            -0.0040683678507375505,
            -0.003994097053296518,
            -0.0028090794280657603,
            -0.0010625737593125283,
            -0.004414994635942831,
            -0.003845618374991776,
            -0.0023738771760211694,
            -0.001839509097388547,
            -7.582549020695633E-4,
            -0.003432188102429979,
            -0.0032628673707268945,
            -0.002396819840155386,
            -0.0010163388100684694,
            -0.001033932231665486,
            -0.003569980264135607,
            -0.0027941881264787844,
            -0.0023951085179213156,
            -9.042942814610082E-4,
            -4.07183817040167E-4,
            -0.0027351417051715487,
            -0.001506065158807932,
            -0.001852047912981934,
            4.2587962297648035E-4,
            9.833290871449857E-4,
            -0.004825006564316516,
            0.002602057163296977,
            0.0031024250209973014,
            0.0018882576940163628,
            0.0020652672517277202,
            0.0014458759879867325,
            0.0046018775449238785,
            0.0012860479960517446,
            2.63966755571215E-4,
            4.093886116982822E-4,
            0.003501624546869851,
            0.0027357496026401713,
            -9.600096114624575E-4,
            -0.0022945570334543747,
            0.0017693063107868372,
            0.0033292888195403944,
            -1.342570196950268E-4,
            -0.0031168166484273297,
            -0.0014394951307189867,
            0.00425653527181377,
            0.0015715520437810289,
            -0.0014047799784918467,
            -0.0013310976551797798,
            0.0019450553733912305,
            0.00945043181173398,
            -0.0017530558678145504,
            -0.0013523511508315043,
            -8.687426364905607E-4,
            -2.9112859323211527E-4,
            4.014608657496268E-4,
            -6.54737031260326E-5,
            -7.136799874107608E-4,
            -8.022937947020283E-4,
            -1.5417772826648192E-4,
            8.077591280117294E-4,
            9.292145365620365E-4,
            0.0011374418735266617,
            1.202438135006029E-4,
            8.833919908014876E-4,
            0.0011504453737428057,
            0.002218231523068155,
            0.0015941876423889122,
            0.001734697644318721,
            0.0013310202708996053,
            0.0019539622414461166,
            0.0036242656899517943,
            0.0032208393050836355,
            0.0027348367990911353,
            0.0029348337621914206,
            0.0033067698230672088,
            0.0032572014712839523,
            -0.00745730751126566,
            -0.006977761060671123,
            -0.005816476528158639,
            -0.004292295183586707,
            -0.004233718404007063,
            -0.007354114827403368,
            -0.0026751755547159517,
            9.09988874740497E-4,
            -0.0022224187069174463,
            -0.004789422026075205,
            -0.002015406997940696,
            0.006719215579295944,
            0.007364975096102263,
            -9.508767978906308E-4,
            -0.003941609161204142,
            0.002841904124506846,
            0.010890589155882466,
            0.006896887104871862,
            -0.005705496827285823,
            -0.0010636333927208732,
            0.004863932620460903,
            0.00968873475044782,
            0.0012761276773192688,
            -0.014932516439073215,
            0.01701527843501128,
            0.01326586657719672,
            -0.0017575672740834222,
            -0.010542413160020227,
            -0.0012454956311866228,
            0.01616588183986137,
            0.004818604057752603,
            -0.00887395372819955,
            -0.012744826928932544,
            0.0016348323897247313,
            0.007031078715501718,
            -0.005550376374860602,
            -0.011623284946198022,
            -0.004967236573355858,
            0.009411056247823527,
            -0.0012955905051837504,
            -0.012658032072699575,
            -0.007958585512551339,
            0.002146657637426852,
            0.01185580569877389,
            -0.00494037192522643,
            -0.009376872269467708,
            -1.8497026162602647E-4,
            0.00712476594774883,
            0.010157399850308495,
            -0.00387807828043431,
            -0.0039336983931527805,
            -0.0038331550299106894,
            -0.002983339279830793,
            -0.001451304833633605,
            -0.0031017637642117507,
            -0.0036452289991657522,
            -0.0028676490382463227,
            -0.0023773336043756504,
            -0.0013401274077223422,
            -0.0035790693031801006,
            -0.0034624980217688637,
            -0.0024257135412246995,
            -0.001798094755539184,
            -4.034770376974939E-4,
            -0.002181793956376176,
            -0.0026683397486351695,
            -0.0013509113667461577,
            -6.586571726202456E-4,
            5.965665207466606E-4,
            -0.00222112778416963,
            -0.0017896314690318486,
            -4.019611334297502E-4,
            5.073893282034794E-4,
            0.0013012520444498218,
            -0.0034212715607383004,
            0.0034929993209146335,
            0.002261769746595377,
            6.045897059789828E-4,
            0.0010225326127287569,
            0.0014702554826222206,
            0.004735783545640095,
            0.0011718341574369854,
            -0.001383498283658868,
            8.292883966741478E-4,
            0.004650796230338847,
            0.0021916923361244935,
            -0.0015779567888386116,
            -0.003174286320802049,
            0.001799769831939998,
            0.003990675814470433,
            -3.783966101154303E-4,
            -0.002728361411219278,
            -6.826519540723422E-4,
            0.004454183252787507,
            0.0018471455599288332,
            -0.0015119520498220694,
            -0.001735510794491983,
            0.0030378690639083685,
            0.010038225618705545,
            -0.0011506977655168253,
            -6.738306776599238E-4,
            -0.0012536915620372257,
            -4.840506846641005E-4,
            0.0010347730740444105,
            -4.229534531104843E-4,
            -8.440691049905214E-4,
            -6.569658551697715E-4,
            6.843461287767199E-4,
            7.721071513200018E-4,
            7.628641464947088E-4,
            1.352807147570471E-4,
            5.069113720856754E-4,
            0.001063369095798578,
            0.0021028942750170834,
            0.0018711546538342986,
            0.0013740262321413983,
            0.001641508621613675,
            0.002093164423339695,
            0.0030784404108091996,
            0.0027178361930289604,
            0.003110638085938675,
            0.0032082134923049634,
            0.0030346063779552413,
            0.0033879879678152943,
            0.002701311072205898,
            -0.006419154690092563,
            -0.005763325559830509,
            -0.003676258804133762,
            -0.0030175512929177042,
            -0.003410138679958766,
            -0.006752406129090617,
            -2.9222645147207666E-4,
            0.0026029926155302892,
            -8.484542033885333E-4,
            -0.004645823316208247,
            -5.375347263392689E-4,
            0.008307700629329073,
            0.008659742883457704,
            5.161656103138262E-4,
            -0.0014740580819832742,
            0.004160383309190546,
            0.01163787997465303,
            0.007904222522655586,
            -0.006050721202532153,
            -2.3085001527596149E-4,
            0.006803319272709516,
            0.010431563909131455,
            5.433166854869833E-4,
            -0.014982363085054474,
            0.018193414012507014,
            0.012597404958422374,
            -0.004009448032464039,
            -0.011986233706240823,
            -6.139557337753173E-4,
            0.014948330543022406,
            0.003935205331818739,
            -0.010912656419309181,
            -0.014238920366857866,
            0.0012234060625541342,
            0.006032212660018579,
            -0.0068953893011699015,
            -0.012752959077163865,
            -0.005104811367284266,
            0.009405715642133586,
            -0.0025481478049919496,
            -0.011369221684567438,
            -0.008238342391024868,
            0.003672871384228697,
            0.01326386076867804,
            -0.0036170744122470855,
            -0.007076661259736869,
            0.001486692310379107,
            0.00971682171104483,
            0.011997211971740957,
            -0.004011628756431517,
            -0.0035231929812410646,
            -0.0038466026004025165,
            -0.0023284979366881846,
            -0.002135637058968234,
            -0.002866996396169712,
            -0.002988390160327614,
            -0.0027683215056645014,
            -0.001781581079184825,
            -3.424136370738459E-4,
            -0.002468374753446488,
            -0.0024441497040467016,
            -0.0024685716798083204,
            -0.0020355802920563964,
            -7.669579737698863E-4,
            -0.0017214528136998237,
            -0.001946160774409835,
            -0.0023889256036778864,
            -6.579477869584322E-4,
            -3.2423786665745165E-4,
            -0.0012948294268916656,
            -6.189634305162931E-4,
            -6.725590485915744E-4,
            4.878668691650224E-4,
            0.0010777857877091413,
            -0.0034377939687928903,
            0.0034744375010835908,
            0.0027657495410713016,
            0.0011925221678599934,
            0.0011323564956361102,
            0.0020463377659281036,
            0.004595202645409124,
            0.0014881454042822919,
            -0.0013259398167078788,
            -4.151607708956714E-4,
            0.004446366203518124,
            0.002716197074283123,
            -0.002556101578956115,
            -0.002419526000766072,
            5.188864575906577E-4,
            0.0026276807813177027,
            5.293391332916492E-4,
            -0.0032537929141841825,
            -0.0013734471100692795,
            0.0046969227061060435,
            0.001339117673528224,
            -0.0014682327901283886,
            -0.0013908197222705955,
            0.0032337898257285332,
            0.010127860186271192,
            -0.0012409221560860499,
            -4.005254474037038E-4,
            -2.5697315170047176E-4,
            0.001455067394291484,
            0.0030764727290833573,
            -3.4997362886586645E-4,
            4.1962430659477675E-4,
            -8.213329712565945E-5,
            0.0012672080776966643,
            0.002476262212555201,
            2.2483854158505533E-4,
            4.5639621043679014E-4,
            4.628054761396175E-4,
            0.0014401061670170604,
            0.0027976003467168613,
            0.0019109333861079335,
            0.0023739892605266735,
            0.0021492637911056886,
            0.0025427759473997933,
            0.003849936717924124,
            0.002990885410150866,
            0.0035195844853146995,
            0.0033030894528334885,
            0.0036633380657019035,
            0.003840381973680014,
            0.002407777635936901,
            -0.007503670217001883,
            -0.0070556506759656065,
            -0.004177379845521999,
            -0.0041036055633480095,
            -0.003932396733725771,
            -0.00670742719338539,
            -8.675416179936702E-4,
            0.002120615870908781,
            -5.853695735263562E-4,
            -0.003762898822949448,
            -0.0014455334913897717,
            0.008279424085181949,
            0.008616565807076856,
            1.7571388158371857E-4,
            -0.0022825413194380475,
            0.0050520725143587165,
            0.011666726318398695,
            0.007273009320765934,
            -0.005944912804444858,
            9.88445783753645E-4,
            0.00741291298669135,
            0.01024634737224708,
            0.001130415545433926,
            -0.014300815736341998,
            0.017815913414752346,
            0.012514847849410494,
            -0.0021332928113600796,
            -0.011425491572038182,
            -0.0013624127639921871,
            0.014619980452491582,
            0.004342633790936742,
            -0.009214697100486814,
            -0.011882714642879254,
            0.002865894593477156,
            0.005478911689503371,
            -0.006522273272194288,
            -0.010912661705378168,
            -0.004210553665262996,
            0.01043302779963282,
            -0.0024562035735545846,
            -0.011652863175502856,
            -0.005310235971197256,
            0.004915791357755248,
            0.014137636281929088,
            -0.004699944379875514,
            -0.007232489976097273,
            0.0026544059236771347,
            0.009955654113851563,
            0.011900960630194905
          ]
        },
        "skip": {
          "dims": [
            1,
            1
          ]
        },
        "simple": false
      },
      "totalBatches": 7125,
      "totalItems": 905820
    },
    "a0f0a572-b49b-4e98-bfe0-19910000158e": {
      "class": "com.simiacryptus.mindseye.layers.util.MonitoringWrapper",
      "id": "a0f0a572-b49b-4e98-bfe0-19910000158e",
      "isFrozen": false,
      "name": "avg0",
      "inner": {
        "class": "com.simiacryptus.mindseye.layers.media.AvgSubsampleLayer",
        "id": "a0f0a572-b49b-4e98-bfe0-19910000158d",
        "isFrozen": false,
        "name": "avg0",
        "inner": [
          2,
          2,
          1
        ]
      },
      "totalBatches": 7125,
      "totalItems": 905820
    },
    "a0f0a572-b49b-4e98-bfe0-199100001591": {
      "class": "com.simiacryptus.mindseye.layers.util.MonitoringWrapper",
      "id": "a0f0a572-b49b-4e98-bfe0-199100001591",
      "isFrozen": false,
      "name": "bias_1",
      "inner": {
        "class": "com.simiacryptus.mindseye.layers.media.ImgBandBiasLayer",
        "id": "a0f0a572-b49b-4e98-bfe0-199100001590",
        "isFrozen": false,
        "name": "bias_1",
        "bias": [
          -2.152206831084337E-4,
          -2.3047833858997133E-4,
          6.707735372611007E-5,
          1.373899743529414E-4,
          -2.4419767213052786E-4
        ]
      },
      "totalBatches": 7125,
      "totalItems": 905820
    },
    "a0f0a572-b49b-4e98-bfe0-199100001592": {
      "class": "com.simiacryptus.mindseye.layers.util.MonitoringWrapper",
      "id": "a0f0a572-b49b-4e98-bfe0-199100001592",
      "isFrozen": true,
      "name": "activation_1",
      "inner": {
        "class": "com.simiacryptus.mindseye.layers.activation.HyperbolicActivationLayer",
        "id": "a0f0a572-b49b-4e98-bfe0-19910000158f",
        "isFrozen": true,
        "name": "activation_1",
        "weights": {
          "dims": [
            2
          ],
          "data": [
            0.2,
            0.2
          ]
        },
        "negativeMode": 1
      },
      "totalBatches": 7125,
      "totalItems": 905820
    },
    "a0f0a572-b49b-4e98-bfe0-199100001594": {
      "class": "com.simiacryptus.mindseye.layers.util.MonitoringWrapper",
      "id": "a0f0a572-b49b-4e98-bfe0-199100001594",
      "isFrozen": false,
      "name": "conv_1",
      "inner": {
        "class": "com.simiacryptus.mindseye.layers.media.ImgConvolutionSynapseLayer",
        "id": "a0f0a572-b49b-4e98-bfe0-199100001593",
        "isFrozen": false,
        "name": "conv_1",
        "kernel": {
          "dims": [
            5,
            5,
            50
          ],
          "data": [
            -1.2213969833133738,
            -2.7118507251760278,
            -0.43602656026437503,
            -0.2916264739917563,
            -1.5882110196283066,
            0.4176064731920235,
            -0.21724415363873478,
            -2.39475755858046,
            2.4322499147574645,
            -2.9018272626137223,
            -0.0655509007518129,
            -2.3381997524455898,
            -0.728887442584658,
            1.6930145040482905,
            2.954235188987264,
            -1.1021917357281306,
            3.0439245270242585,
            -2.7485241806676886,
            3.0358287057370066,
            -2.919352873269449,
            -1.8499264828973931,
            1.0243109753673139,
            1.8364308413810384,
            -2.442700227565208,
            -2.2190655256481318,
            -2.192661125474921,
            1.775741404608308,
            2.778457082288845,
            0.44507884533374686,
            0.28723476783970786,
            2.528213271718295,
            -1.7007097381337912,
            -0.48000878937649816,
            1.4695578296020013,
            1.6366484125858591,
            0.8672339276925283,
            0.7520106603325932,
            0.9581013463201737,
            -1.0385180884381489,
            2.1152840416916163,
            2.4116033605412337,
            0.7151252635404737,
            -1.3776721727254908,
            1.9904896883224492,
            0.0370492989479898,
            1.0165946732252602,
            -0.2929526703190609,
            2.0262141601723993,
            2.9638748552057677,
            -1.2441779676495395,
            -0.26001143510887864,
            -2.4894490817791555,
            -2.6019395091333206,
            -1.0050982417646752,
            -1.6020544749723098,
            -0.6316491609442437,
            1.191347625067761,
            -1.1100420939376092,
            2.4337496520338857,
            -1.3780682890035474,
            0.08057348887014236,
            -1.5956661588289502,
            3.033910169898137,
            3.099834012582997,
            -1.1232521663752577,
            -0.6298915176568077,
            0.4003559361535352,
            -2.495485323851328,
            0.8555701654543479,
            -2.5332548901008556,
            -2.1572974212640315,
            -2.234256768837303,
            2.8317959595297153,
            2.7050387750437555,
            -1.537333066777592,
            -1.512604625707184,
            0.5122301870995024,
            -1.2124777806437934,
            -0.8834465680346346,
            1.3014377057291007,
            1.3062773135356764,
            -1.615304116310152,
            2.13426817703287,
            -2.2731084224381917,
            2.0400804589814756,
            -2.20282838405873,
            1.5646891662023283,
            -0.9666884964765649,
            1.8398412928082215,
            -1.1365049909187124,
            0.14656554766120847,
            -2.5393663604046974,
            -2.948094844409541,
            -2.518913471577863,
            -2.374804480450187,
            1.8570541164002772,
            0.5339824722494613,
            -0.957727443581226,
            0.8306994811146735,
            1.9987107482074753,
            0.37587536855387027,
            -2.3821050145688893,
            2.4738846672581905,
            -0.3737491535284943,
            -1.3754101301136386,
            -1.9221303843683557,
            1.6199722245136852,
            0.10123204843410376,
            1.4068006152684251,
            -0.6840984935087422,
            0.94954330066089,
            -2.712520973156823,
            -2.332842988727957,
            -0.5007502930892785,
            1.2064165095748818,
            -0.16678201867333317,
            1.6982685318010935,
            -0.4705937360050013,
            -0.8936696999040862,
            1.5209802458805164,
            -0.7511136338223048,
            -2.43946230929282,
            1.606175688465421,
            -2.2685414523835568,
            1.0619807796438887,
            -3.076543081482058,
            1.947849028668627,
            -1.3720164234082923,
            -3.099158592234958,
            -0.3638419130439263,
            2.733933477952136,
            -0.015183638921139057,
            2.9510809959690927,
            1.1295256543019312,
            0.6551894116575749,
            0.5238818851883403,
            1.3102598088188655,
            -2.727152653636021,
            2.30434159137061,
            0.22755760141250722,
            1.1737926092665492,
            -1.5793557303659684,
            0.9551978091487553,
            -1.1334356636696084,
            0.8831480891011301,
            0.09935165226273932,
            -1.1332357619208258,
            -0.9478972557922088,
            0.728566189816005,
            -1.5987242998598474,
            -0.34537535478318254,
            1.082635464842081,
            1.6731482222017926,
            2.8238936618882278,
            -2.1985534056163476,
            0.9425196044922418,
            -2.19009390909175,
            0.022381023047656153,
            0.4206474665559984,
            -1.1702881580144338,
            1.0683985283440562,
            -2.5188006049721974,
            -1.2793574112258794,
            -0.9178177830836102,
            0.26388170709064246,
            1.79807016305392,
            -1.7123962686228433,
            2.9002650476079306,
            0.22005926879969234,
            -2.720921069596381,
            2.9283158378345413,
            1.8495497500214633,
            -0.6123039869699732,
            -2.8704298901059593,
            1.2701630004133944,
            -1.7844623132235289,
            3.1041163017091353,
            -0.3185290940433006,
            1.2408431627630578,
            -2.8824162936454005,
            2.204161414262872,
            -2.5477291946913643,
            3.06987131613841,
            -0.12229853096955427,
            2.1645412244733264,
            -2.9902503773276607,
            2.592292517924965,
            0.4431610942038436,
            -0.12942923872382364,
            1.0913611312833127,
            -0.9497056291964093,
            2.069339655529491,
            0.9973368084671431,
            -0.3948840466636378,
            -1.0062513224132372,
            -2.9494433623378415,
            -2.945954665442348,
            -1.8496362667262163,
            -1.1012069647680691,
            -1.6488448682823775,
            1.6028717327500124,
            -2.801933284768723,
            3.021487524604418,
            -2.608623428531447,
            2.2691072323830803,
            2.7342578953556123,
            0.7704518736135371,
            1.5420229534416419,
            -2.6354093573233643,
            0.49633150834943335,
            -0.2259940474264013,
            0.5656321490396177,
            0.9208624045437281,
            1.0729920327360478,
            -1.1771622823819912,
            -2.1458093180532485,
            0.46917595526263756,
            3.150459238819664,
            0.3257867657109582,
            -1.2278259361430504,
            1.9671607520056973,
            -3.139358798000005,
            -2.121468227867465,
            0.7364373862440208,
            -0.6758259531249063,
            0.9638065497322702,
            -0.017521307111758366,
            -0.046791965059442955,
            1.6839301041231731,
            -0.638911379784795,
            2.5010127465180445,
            1.8465429028478293,
            1.0895843708636548,
            0.4712086156098534,
            1.6409845472690052,
            0.4473863435647776,
            0.7719796159921853,
            0.4241784283996122,
            -2.4762092663438393,
            -3.1499608805162946,
            1.4564396440340641,
            1.35965925890297,
            -0.8738430804834345,
            -0.2627193561100317,
            0.8378142604073622,
            1.9423742748711725,
            2.929246076305418,
            0.1732120606823938,
            -3.023826945173504,
            0.8146278246295636,
            -0.8175148367041993,
            -2.5225637210799796,
            0.31198256238956545,
            0.10236534198748441,
            0.626514811452312,
            -2.1688437426435034,
            -2.8641240543122235,
            1.8809945983807146,
            -2.16742912005414,
            1.7955850052145974,
            2.42508815592467,
            3.0144744499516407,
            2.4127505067936434,
            1.7046018277294188,
            0.7609082040115147,
            1.1094841359820005,
            1.878385949203747,
            -0.40027845889493496,
            -2.9553865230567196,
            1.3698564337798154,
            2.212806438741013,
            -2.3323542533561445,
            -3.1156286449962676,
            -1.3100652544124294,
            -2.3300702765719468,
            1.2615927303445371,
            -1.7899078219198783,
            -2.5441346957362847,
            0.30513620949482684,
            -0.3780402391275197,
            -1.1941926124060513,
            1.7805365573640393,
            -2.611562845213929,
            0.9084202366730046,
            -0.85688308279574,
            -1.8138455474670474,
            0.22731729216240165,
            0.6267400131020201,
            -1.969794679962021,
            1.3290541030853569,
            1.1960867789194511,
            0.1838403883398805,
            2.438912690862589,
            0.7863525185386973,
            1.375614564761894,
            0.7441603810594073,
            -0.28774613542554145,
            -0.9846857134707269,
            -1.3532807726745364,
            -1.412542757933825,
            0.9995476474390353,
            -1.7495549855986599,
            0.2979163020806348,
            2.1635720840324106,
            -2.160541236047501,
            -1.9578299056830275,
            -0.5405976633454237,
            -2.192934781334785,
            1.9181507886272795,
            -1.6071734397858457,
            3.1156995055859995,
            2.079406492713255,
            -1.6041025617694908,
            2.8912751891137827,
            -1.2228485069412358,
            2.5929019773845265,
            0.6481637431068419,
            -1.0551513924801896,
            0.16315229269947382,
            -2.9938577581563783,
            -2.890052744356939,
            -0.2936332531909524,
            -2.563179244614832,
            1.87061453664445,
            2.1154104847734234,
            2.1862136030878263,
            -0.06966280824307224,
            0.7177882756985439,
            1.0256028025992148,
            2.3472224720204085,
            1.673904641881687,
            1.383769511188305,
            0.093535395566785,
            -1.7084836180019012,
            0.3912461014386251,
            -2.3563524373330593,
            1.7343038877485448,
            -0.4089630781912782,
            -0.6287936908986919,
            -1.224469169584621,
            -0.6576177393821441,
            -0.7448060393071141,
            0.11745242021386465,
            -0.57386908371414,
            3.1354610289433618,
            1.2682951879618338,
            -0.9142484768831852,
            2.3807293697637344,
            -0.22802833470966735,
            -2.707947924445699,
            0.29562981869942234,
            -2.516583034059206,
            -0.37531857482777814,
            0.1566183743122893,
            -2.6701155156962484,
            2.6169840340641315,
            -2.561257155293629,
            -1.750542872175486,
            2.7805224336672874,
            1.9622656616153473,
            -2.0531551648711424,
            -0.5397809917669297,
            -1.7236807347294236,
            -1.5157916255692645,
            -1.7562048931515257,
            -3.0667284130727084,
            -2.3530654334689887,
            2.387996600870898,
            -2.0829888130613474,
            1.7294661281475925,
            0.9592255783283277,
            2.878032655408668,
            -1.2372928239523822,
            -2.659164579986265,
            -1.3587327607230013,
            1.0705063659222325,
            1.1093874999502806,
            -1.522948891597041,
            2.9122524216928727,
            -1.619529560918884,
            0.935971671189008,
            0.8436502836470288,
            2.3385831167534943,
            0.01360555725097147,
            -2.180256786280493,
            -0.3703699901933039,
            0.687948816140805,
            1.1902019463412294,
            2.164881773540777,
            1.2448924957627903,
            -1.6182570285115891,
            2.804518999360148,
            2.8555606871436607,
            -2.839634602038162,
            -2.2466158099084446,
            -0.27707598610604495,
            -0.4975217155873826,
            -1.280895437959596,
            0.8492536497330645,
            -0.521593153756247,
            -0.11360547081793994,
            -1.2307946207060871,
            1.014264234230921,
            -1.740451928735268,
            -2.2709786589450465,
            -0.3286722039660938,
            -2.445226230833358,
            -1.7530880828524005,
            2.8778765808889655,
            2.477619436273275,
            1.8806923935923057,
            -3.0288577626924424,
            0.04843714957958048,
            1.9601924884442448,
            -1.5665148729927199,
            1.7985703501605887,
            3.059677356827994,
            -1.2369254491984178,
            2.272649360640148,
            3.0033784928603184,
            -1.1157063478672489,
            -0.8168943294601357,
            -1.2449986450999448,
            0.3580674315736133,
            -0.3696873707884761,
            0.44226685098785934,
            -2.1694932246459606,
            1.6004068450960318,
            -1.0378194068375302,
            1.2326067881157357,
            -1.3192754741391557,
            -1.2022822530925825,
            -1.4034880960153302,
            -0.7083765000251361,
            3.917706156919387E-4,
            -0.1675115334033391,
            -2.4502964435464833,
            -1.8428302573674484,
            2.5728160325198544,
            1.5154333370438366,
            2.5261099856405127,
            0.023495934689249848,
            2.5942115301385344,
            0.9597338927019351,
            2.5450380478953707,
            0.7606154939045209,
            0.9456878222770393,
            -0.3829986825479156,
            1.767865131974136,
            0.7554223023789313,
            -2.858821643716175,
            1.564769618161751,
            1.311742327506365,
            2.653224963487976,
            -0.7229887821534108,
            0.6506137992317231,
            -1.1454079311851821,
            -0.14200995912822273,
            -2.9886889374997625,
            -2.0408223314980978,
            2.7547992998561015,
            -2.820195617361175,
            0.47124624461745007,
            2.536396849221175,
            -2.4429951191275108,
            2.868913356786297,
            -2.799821510892285,
            -0.28981593629560487,
            -1.4985718288603544,
            -1.65910287282412,
            1.9455347227317428,
            -0.015478484519245014,
            -1.4071517486921616,
            -0.6256029172512443,
            0.2312808017145739,
            -3.014682407166088,
            2.893856170638242,
            -2.5709974792396006,
            -2.286607058536918,
            2.7420263182711375,
            1.3346148961576205,
            -1.206879047348517,
            0.16693583712731763,
            -0.009544705604590522,
            -2.3148883077350666,
            2.9426691957556517,
            -0.01096145957518122,
            0.2984750528404602,
            0.5930518345726978,
            2.7939741968417042,
            -1.7073840183234756,
            0.624037066051503,
            2.2938290621678723,
            -0.21393493963983437,
            -0.010047708912037337,
            0.9815148738020331,
            -1.996605144135879,
            -1.9489976676356906,
            -2.2396124329295075,
            -2.8589900036594496,
            2.4873977691350473,
            -0.3762017633823877,
            0.7509020269342918,
            0.3198959735409111,
            2.246721967730518,
            2.2680456599474574,
            0.8345262458654727,
            2.8929978600402255,
            0.28362193439755184,
            -2.0833754855324993,
            -2.2436395053638227,
            -0.24512881811855416,
            1.0681940349307237,
            1.3727553486239832,
            1.5006227647736392,
            -2.0649465990586933,
            -0.09464964345008436,
            1.5289153366517252,
            0.8518839750263485,
            0.019131833063265564,
            -3.1011915763131697,
            -2.598210855671778,
            1.519673291881107,
            2.5834086393806537,
            -0.3059702967227233,
            0.09937135889114182,
            1.4925211872013466,
            -1.6250152805507077,
            -1.1619060790411482,
            2.3223725301715294,
            0.11719057698865847,
            -2.5713121965448735,
            -0.9817562641232472,
            0.03321371983092761,
            -1.1604341512208602,
            2.463736777297832,
            1.4220194057477362,
            -1.248778246519332,
            -1.5625671516420294,
            -1.88685160917477,
            0.28082560218625385,
            0.08961987779729358,
            3.0425335084691607,
            1.5101721381410462,
            -1.3003606335441231,
            -2.784129057251103,
            2.9832811381843594,
            1.6479946301964519,
            -0.8643572330771786,
            0.35966463100080676,
            1.0789720479102332,
            2.902752449689916,
            -0.6350920664162745,
            1.5823352395291101,
            -0.8456912903971697,
            -1.0034945064047973,
            -2.2692394076506366,
            -2.92943300176647,
            1.8651287894250232,
            2.0143305493349284,
            -0.8767340752747607,
            2.4545391582310647,
            0.5346250776223815,
            -2.8504741839148457,
            -0.9013850072943704,
            -1.1243322577129606,
            -1.2787597453524806,
            -1.5865909836439203,
            -1.5291328019894697,
            1.3752030277325424,
            -1.4213252774517162,
            2.272533524945048,
            1.1062431272993412,
            0.09126529817716533,
            -1.030872332302376,
            1.318970999545859,
            -0.5749274700067648,
            2.6473097007436657,
            -2.740235946380547,
            0.5377258243304283,
            2.4912783497064996,
            -0.6593057629131291,
            -0.7537564135758746,
            -0.6112487897293589,
            -2.863827317424001,
            2.170203289773613,
            0.1848934740284231,
            -2.488619539503256,
            0.38119975852474564,
            -1.2707350137936166,
            -1.7903056316707633,
            -1.9138614335108384,
            2.3934640930664886,
            1.8963402194088108,
            -0.7569650497287843,
            -1.250675776066739,
            -0.6412172899195033,
            2.418790941116709,
            0.04489743947867979,
            -1.861083660921371,
            2.849901105957109,
            1.655358951939696,
            0.5368984781276944,
            0.6215971421654245,
            1.7207687801986713,
            -0.25703800126356174,
            -2.009381765685056,
            2.3824622247154155,
            -0.9806836712312967,
            -2.0775607477326488,
            0.5629305420200864,
            -1.6550649373923736,
            -0.6406721662481205,
            -1.8843813712487125,
            0.9210894679287754,
            1.5146339792834402,
            -2.4864939144345732,
            2.269518402697815,
            2.398066021872979,
            2.855086030725098,
            -3.14533526471375,
            1.986273769802108,
            2.065528523047062,
            -1.016098720651655,
            -0.48416245685207593,
            0.39601259399916927,
            3.0191556359378064,
            0.09532722460263597,
            -0.9148556110204615,
            1.759597153350839,
            0.5957845463806045,
            -2.7207932910337846,
            -0.6569239817045759,
            0.3941469623030101,
            1.7820579084728982,
            1.766499381250297,
            -2.0324767198029017,
            1.9586010096350726,
            0.4131595180997629,
            0.5899074803769974,
            -0.8386231394224639,
            -0.3698750013911103,
            1.394238834042934,
            -1.4031110873611725,
            1.8696662645354727,
            0.05578821907236926,
            1.0147051870652493,
            -0.046382613250497695,
            1.7576939195505747,
            0.8285999222994036,
            -2.611483480271501,
            -0.9876267525375364,
            -0.6910117137162138,
            0.956886618796285,
            3.1537112087651176,
            -0.3498772581408824,
            -0.4771081004516653,
            -2.6806521764104736,
            2.7969120778207337,
            0.7072973524630706,
            1.395607030556567,
            -1.0544841941322833,
            0.6300583787603229,
            0.5005372835307134,
            2.295486868101671,
            -2.04297965486501,
            -0.5064596821101748,
            1.886079816270666,
            2.6898389420616704,
            3.1216037708458995,
            0.8656002041036436,
            -1.6741292425657848,
            0.776810988254094,
            -3.1024694061243334,
            2.5236810383735135,
            -1.0283790142511022,
            2.529439667974978,
            -0.7419926211055896,
            1.3294330836339028,
            -2.592276954595425,
            -2.557289857284802,
            -1.359942044846808,
            0.9764218315156187,
            2.0323432017209107,
            2.2289691080303022,
            -1.1345317575740501,
            -0.2958013768869372,
            0.5089008306101355,
            0.4221659731105801,
            1.4668151281523916,
            0.1631789044198896,
            2.362864937751686,
            0.3028570376124933,
            -1.112511769132271,
            2.6911310850546393,
            -1.2974036395159363,
            0.5572516697631139,
            2.113458696725084,
            2.183185059659613,
            -0.9489641957456431,
            -3.0859071836161953,
            -2.8378738081244776,
            -1.4522299670043666,
            1.9668794860168348,
            1.4541208799374234,
            -1.9199408302334775,
            -1.0435610889144264,
            -0.48515673817865734,
            0.009583414822835696,
            2.815360290497919,
            0.2718615239464536,
            1.9672834220455344,
            -1.8195384833300146,
            2.3979611382286596,
            1.205058440916006,
            -2.7559467340079777,
            -0.22088605323869012,
            -2.294049471334953,
            2.9770490553396103,
            -2.5859947085194603,
            1.4812532226804098,
            -0.1445258854332577,
            0.435680586111142,
            1.328602598463458,
            -0.8778309852934524,
            3.076026392942519,
            -1.9442377113329201,
            -0.5787412810837976,
            3.0350090718995424,
            -2.9380997577758294,
            1.8552644247774626,
            1.0479981780831122,
            -1.027837529546802,
            -2.4315241882102967,
            -1.0516835617655569,
            2.4654845162343983,
            -1.1411095602130028,
            -0.2815521474149346,
            0.7509234886989897,
            1.0153117813979562,
            2.6278663677794225,
            1.2671603554289186,
            -0.691592653413517,
            -2.8840390409116505,
            0.06842404143197273,
            2.9741257877848635,
            -1.0026315646267825,
            -1.1258031012355896,
            -0.515000485296288,
            -0.4040185872835807,
            0.5194133957477549,
            3.0249465466509364,
            -0.5808642101901956,
            1.6058525223285027,
            -2.168041737480911,
            0.6085498705932384,
            -0.07790655608253937,
            1.5891490161816204,
            -1.0857170006531702,
            1.7800757584147617,
            -2.8621254255101563,
            0.17474650744426534,
            -0.3429249592529432,
            0.8157473369323772,
            1.2517083361732442,
            -2.116127425017626,
            0.023460899051724843,
            -1.808644495714949,
            2.742795654477446,
            -1.2289279723056692,
            -0.7057096310621124,
            -0.5219127611910508,
            1.484556187141776,
            2.843253197321024,
            3.124500639212753,
            0.004972693010182308,
            -1.4183476935056027,
            -2.6782039934483066,
            0.4848147179498039,
            0.6104795369360411,
            -2.625186998393849,
            -1.634828703730446,
            -2.523065366861207,
            2.0752405857849356,
            -2.8508871695507567,
            1.4154242374325157,
            2.739318100888971,
            -0.296546097280206,
            0.35681075040117194,
            1.686144213579967,
            -1.8595403867746674,
            0.6326748665472257,
            0.8379875829060079,
            1.528180198170079,
            1.0606168790021246,
            1.4825696205748036,
            2.0003340384941315,
            -1.278094931419713,
            0.2849120796664149,
            -0.15349246734920655,
            -2.5397625428113635,
            0.13152500027994338,
            -2.4857719050667284,
            -0.30287244238859423,
            1.432814227115551,
            2.8190234867308344,
            0.7651709693303708,
            -2.1671099746009337,
            2.2842402346171524,
            -2.9100304570540203,
            -2.291958608735107,
            -0.36895124664143253,
            2.767217024958576,
            0.01786624755961898,
            0.5511140206304972,
            0.8566657395338964,
            2.447355661362051,
            2.3558703654049165,
            2.344865750073136,
            -0.8445322369913589,
            0.46896827027392674,
            0.7414717397391415,
            -1.872134805087453,
            0.3489370447157563,
            0.7117511490727936,
            1.506770014672357,
            2.3970580101938657,
            0.7414968186131263,
            -1.7364431771420734,
            -0.3167986064534005,
            0.6468427833402609,
            -3.0899821672743397,
            -3.1278506317168455,
            -2.074114682845768,
            -0.5483911796403719,
            2.9668027094552785,
            0.8431728877049107,
            -0.6818601373604892,
            0.5835249276004323,
            1.8433151348765244,
            -2.428192579733803,
            -2.5204709807663126,
            3.025727131483406,
            -1.0700284645878058,
            -0.8530021025318156,
            0.17049758556882408,
            -0.2180305217175197,
            -0.397614705370016,
            0.7566940958105344,
            2.766165963735121,
            2.580792438844813,
            -0.38231677128627506,
            -1.067804746240971,
            -2.70108345877794,
            0.7373310656477551,
            -2.9818586346032134,
            -2.7643945052864884,
            -1.5829375826692345,
            1.7902260297034995,
            1.4767685296426134,
            2.398879534633774,
            -1.2190848865044317,
            2.250429783586548,
            -0.14038204201636004,
            -0.8915931526855816,
            -2.6792800947466864,
            1.9343154678484813,
            -2.582321376208827,
            1.9171903890254587,
            0.5374578347359186,
            -0.4370201703113884,
            0.5999384086239768,
            -0.4463674356718651,
            1.8340196376227933,
            -1.0802335855181655,
            0.13922406098513096,
            -0.9778011299785858,
            -1.7277090808375577,
            2.7866074515806223,
            0.36840785520784225,
            2.367229238826582,
            0.6407801638242718,
            -2.5194899689454777,
            -1.4221747917374443,
            -0.8082604567205264,
            -3.074141622840617,
            2.462710583610133,
            1.9871294218343283,
            -3.042826262223656,
            -1.8802253033647367,
            -2.27774533772685,
            2.855806501937752,
            -1.9542698863319239,
            2.6472489129838235,
            2.642657000651149,
            -2.55910871592601,
            1.7103913854652633,
            -2.614837077974098,
            0.05840980614097205,
            -0.8078315937747375,
            -1.2620733179119,
            -0.9797591632720171,
            1.1355717630559141,
            -1.3432857325015604,
            -0.4162844332280166,
            -0.860204921741105,
            0.4988391887405227,
            -1.5900050626687448,
            -0.3357416008929451,
            2.008978250518883,
            0.025109225561663645,
            -2.0287167781073556,
            -0.3951083252494338,
            1.0760517396457998,
            -1.0454679452419917,
            2.9591731536888752,
            0.11268519934105295,
            -0.349803307234518,
            2.0016479793468105,
            -3.124018402628569,
            1.1725978858723813,
            -1.6927285680310378,
            2.313612848076522,
            2.461911432939066,
            3.06739501976907,
            -2.2546619339556893,
            -2.471192203924706,
            2.2727736540825383,
            0.9318052756693852,
            -1.986692252571677,
            -2.7587169429152802,
            -1.4193024282012465,
            -2.9318807091668844,
            1.3648528844267116,
            -0.7482760635233681,
            -1.492219662388347,
            -0.5556070154032061,
            1.2294820945420746,
            1.1991966974254193,
            -0.13024395766921767,
            2.6710642097378354,
            -1.018884089896107,
            -1.2591920634117952,
            -0.24136153819141642,
            -0.34595293677240413,
            0.4786262072246405,
            -0.427598957787694,
            -2.804863968792694,
            -2.9882858884204886,
            3.0668607509168897,
            2.907106479436522,
            2.442703339419561,
            0.485472552193025,
            2.6677029995406953,
            -0.11363040470367573,
            -0.11419562438067755,
            -1.3731325318274106,
            0.4577003337963677,
            0.9523410029095697,
            0.5093011526482523,
            -1.9394162846234388,
            -2.731077663212291,
            2.408726521519081,
            -1.8642309704939897,
            -0.4841946622684838,
            -0.10972013592624723,
            2.0936727383220597,
            2.9362936523947076,
            2.066281680263572,
            2.4379586111945946,
            -1.0554482015802722,
            2.1552475268667872,
            -2.7074907685306195,
            -2.1725662564556334,
            0.3031800008817066,
            0.5291608407903065,
            0.20289019218775828,
            0.12375905261814082,
            -2.6021055443127596,
            -1.6541069372983357,
            2.561826149755213,
            2.363989559444044,
            0.8146496195531346,
            -1.1128044950758647,
            0.38575306710383844,
            1.1173118044570272,
            -2.2244964435989982,
            2.3244279072117693,
            -0.0802221238492938,
            2.998196156339841,
            0.2573448056735318,
            -3.0563414247615217,
            -0.9800978136851226,
            0.2517867940594223,
            2.624961243260481,
            -2.58228366915701,
            -2.9090485493142624,
            -2.8547928536799256,
            0.025482521179715997,
            3.075677458627933,
            -2.69376878995253,
            -2.78730045595749,
            -1.0166017389500015,
            -1.8377323212465346,
            2.5698705045116235,
            -2.3586271865399664,
            2.420103463285219,
            -0.95175263423116,
            2.1964656515083814,
            -0.18978264787744473,
            3.0479400748281957,
            1.27377948836693,
            -2.261797778256026,
            0.21390057763038464,
            0.6586852818260459,
            2.3597004686060195,
            -1.709935277569153,
            -0.4969217362099333,
            -0.8354477863522296,
            0.7680441536681519,
            2.587088146306779,
            2.122744292550941,
            -0.9959876381565179,
            0.4174202603836627,
            -0.26272509937437527,
            -0.7386607880816624,
            1.7358148967826486,
            0.3830742566823201,
            0.4865210777151635,
            -2.042143357153199,
            -0.7648779102658034,
            -3.0482216860987785,
            -1.8165772512420495,
            -0.5287025016813279,
            -1.1241826873671998,
            0.9993453649308347,
            -2.954046560514296,
            1.052249263004662,
            1.8796532296999195,
            0.15605248369772903,
            -2.1958631911067754,
            -1.986799750251322,
            2.757098943890745,
            1.5578631360728534,
            1.6337193652696795,
            -1.8791004280947745,
            -0.385492688665137,
            -0.8977368629857647,
            1.5705375380181126,
            1.931600821409512,
            1.3018654102487222,
            2.708661330102249,
            2.132857380166849,
            2.327960086452065,
            2.512483794452914,
            -0.7977988791432502,
            0.5996729065569057,
            -0.07579426009264713,
            1.930681397409696,
            -0.19552243493008634,
            2.8287915365474343,
            -2.423924585603659,
            1.313439426132249,
            0.40086418764964604,
            0.578138456673008,
            -1.3704809604481645,
            2.1616726710261096,
            -1.4085210578342318,
            0.09109570396549853,
            -1.3833393271380896,
            -1.684546488274782,
            -1.7580057469804695,
            -3.005365006629522,
            0.5482184434696126,
            1.4087098899991035,
            0.7212757726882352,
            1.279094172796323,
            -0.8021645146309682,
            2.9233949123463754,
            0.7922615176361707,
            -1.1786099175582614,
            -1.1029971344428309,
            0.8354620500416874,
            -0.9532574337506462,
            0.8560257627103626,
            0.20210472718785025,
            2.4313626356651525,
            1.517211848317173,
            1.8178184517828433,
            1.7500536887262093,
            -2.025392255802487,
            0.4265176678318518,
            -2.7154579412463073,
            1.3429417834049537,
            -0.25014418359500323,
            0.6689733440412732,
            -1.7887225798772202,
            2.834440594627353,
            2.9583832850325393,
            2.360851880324423,
            -2.7181455947377406,
            1.5325162054435415,
            -2.2990611648215844,
            -2.4767562932855314,
            0.3814033644889058,
            -0.7336170739552662,
            1.615344575889999,
            -1.1300288281290654,
            0.8911522337667517,
            1.7224419477790696,
            0.2635663982348986,
            -2.5985940497063824,
            -0.3111905793097718,
            -0.21950080662529312,
            -1.4468879521822384,
            -2.8857507326180336,
            0.6450262218336721,
            0.12524814693182468,
            -2.334435700925872,
            0.4166393164196147,
            -2.1582794609535987,
            1.7266359687752062,
            -3.0726478998319333,
            -2.8927141121834326,
            0.4355482576955243,
            2.057385455621681,
            -2.725381924883399,
            -2.0737890602450926,
            0.22734177384171636,
            2.3861115514719726,
            2.687636466925848,
            1.3054820946502428,
            0.507820662959284,
            1.553911503469027,
            1.1040053772158793,
            1.3415108683558876,
            2.062600720106386,
            0.38669254170866935,
            -1.6994170120274967,
            2.277255987257036,
            -1.6685617932326835,
            -0.5309129452948743,
            -0.8855361473442741,
            1.6110824337292187,
            -0.5529588853425246,
            -1.3279510438034718,
            2.0709089963026703,
            -0.2710331028548126,
            2.020415666428362,
            0.7488260291457798,
            -0.8504274525387737,
            -2.342100004482783,
            1.5654861344975044,
            2.4040968145107926,
            -1.0353975578540857,
            0.967430591475873,
            -0.08988435257409466,
            1.9121737666410794,
            -0.33281298869661646,
            1.6789226190530253,
            -2.5192142444002714,
            0.7239178418132249,
            1.0822901110609129,
            -1.6101396032857884,
            2.8221189028193336,
            -1.0739764980493507,
            -1.3219561039730225,
            -0.15719588504027485,
            -2.965644456256829,
            3.0035878739471724,
            0.30656482554379877,
            -2.8615060357824773,
            2.5386078170107993,
            -2.9080534547292607,
            -1.876365726470179,
            2.163270787622429,
            -0.9620448384445339,
            -0.7693937115727216,
            -1.1783020852962478,
            2.2621284801980206,
            -2.5373288854291576,
            -2.041921802745187,
            -1.2752842423405581,
            -2.4738777588846967,
            -2.34259517482871,
            -2.3442527159031457,
            1.363524328355919,
            1.9647267292707749,
            2.728419562425055,
            2.3882949024346605,
            0.08508515970150708,
            -0.41742354042961693,
            -1.659385124221473,
            1.0468032275010957,
            -2.1440193337787448,
            0.8635618832510571,
            1.3324512581643888,
            -1.485969637937572,
            1.1965172171364533,
            -1.5453569560223754,
            -1.931695513890663,
            -1.0600639688091047,
            2.7753840089644943,
            1.8988864252709152,
            -0.19770462095846147,
            -2.2165538611494155,
            -0.8633491434348091,
            -2.756204713514962,
            -2.369354850428399,
            -1.128284691701223,
            -0.9706375741421094,
            2.9906942552970324,
            -2.6279132725724854,
            2.608150675763364,
            2.626184283087938,
            2.602279788146052,
            0.47678344108145987,
            -0.1443411175336978,
            -0.38665050435490844,
            -0.22925253276837432,
            1.901222828077286,
            -0.21230714631350273,
            0.6062835695408932,
            0.07474458253241474,
            2.4981183081465566,
            1.3937209271065016,
            -0.7273440046130376,
            2.4123445066717455,
            -2.071466926993667,
            -1.8914777463831631,
            -0.019715129998902126,
            2.2818127279703764,
            3.009754028652341,
            0.9273637997090657,
            -1.0960280950989765,
            -1.4267157189038202,
            -3.0773753429327515,
            0.27374972469803754,
            2.988203691140277,
            1.4870746595481936,
            0.0199971809693566,
            -1.6434402343302834,
            -0.6453859059946457,
            2.8290144176252294,
            -2.2753407073342684,
            1.5835505112667145,
            -0.8350424044645398,
            0.6377078430045777,
            -2.9508209872004327,
            2.654512504861423
          ]
        },
        "skip": {
          "dims": [
            1,
            1
          ]
        },
        "simple": false
      },
      "totalBatches": 7125,
      "totalItems": 905820
    },
    "a0f0a572-b49b-4e98-bfe0-199100001596": {
      "class": "com.simiacryptus.mindseye.layers.util.MonitoringWrapper",
      "id": "a0f0a572-b49b-4e98-bfe0-199100001596",
      "isFrozen": false,
      "name": "avg1",
      "inner": {
        "class": "com.simiacryptus.mindseye.layers.media.AvgSubsampleLayer",
        "id": "a0f0a572-b49b-4e98-bfe0-199100001595",
        "isFrozen": false,
        "name": "avg1",
        "inner": [
          2,
          2,
          1
        ]
      },
      "totalBatches": 7125,
      "totalItems": 905820
    },
    "a0f0a572-b49b-4e98-bfe0-199100001599": {
      "class": "com.simiacryptus.mindseye.layers.util.MonitoringWrapper",
      "id": "a0f0a572-b49b-4e98-bfe0-199100001599",
      "isFrozen": false,
      "name": "bias_2",
      "inner": {
        "class": "com.simiacryptus.mindseye.layers.media.ImgBandBiasLayer",
        "id": "a0f0a572-b49b-4e98-bfe0-199100001598",
        "isFrozen": false,
        "name": "bias_2",
        "bias": [
          -4.231593848969999E-6,
          2.033049081982958E-5,
          -1.7157879146588446E-6,
          3.7284530568048705E-6,
          5.482110769956153E-5,
          -1.5037323482502488E-5,
          2.5918970359918494E-6,
          -5.851140391275037E-6,
          -7.889195995202375E-6,
          -1.1410877717644724E-5
        ]
      },
      "totalBatches": 7125,
      "totalItems": 905820
    },
    "a0f0a572-b49b-4e98-bfe0-19910000159a": {
      "class": "com.simiacryptus.mindseye.layers.util.MonitoringWrapper",
      "id": "a0f0a572-b49b-4e98-bfe0-19910000159a",
      "isFrozen": true,
      "name": "activation_2",
      "inner": {
        "class": "com.simiacryptus.mindseye.layers.activation.HyperbolicActivationLayer",
        "id": "a0f0a572-b49b-4e98-bfe0-199100001597",
        "isFrozen": true,
        "name": "activation_2",
        "weights": {
          "dims": [
            2
          ],
          "data": [
            0.2,
            0.2
          ]
        },
        "negativeMode": 1
      },
      "totalBatches": 7125,
      "totalItems": 905820
    },
    "a0f0a572-b49b-4e98-bfe0-19910000159c": {
      "class": "com.simiacryptus.mindseye.layers.util.MonitoringWrapper",
      "id": "a0f0a572-b49b-4e98-bfe0-19910000159c",
      "isFrozen": false,
      "name": "conv_2",
      "inner": {
        "class": "com.simiacryptus.mindseye.layers.media.ImgConvolutionSynapseLayer",
        "id": "a0f0a572-b49b-4e98-bfe0-19910000159b",
        "isFrozen": false,
        "name": "conv_2",
        "kernel": {
          "dims": [
            4,
            4,
            200
          ],
          "data": [
            5.946787459322312E-4,
            0.002687681573905468,
            -0.0013215426137312062,
            0.003795741304634204,
            -0.0022375452948750012,
            -0.001375665676439879,
            0.0028899124635698497,
            0.0034732598594507847,
            4.8626721206493996E-4,
            0.002862889744665263,
            -0.0022853305163270886,
            -7.05379829798204E-4,
            -3.662841989269044E-4,
            0.0026521247622845337,
            -1.4748583962994062E-4,
            -0.0012254550215155175,
            -0.0013120408868613328,
            -9.590322608190245E-4,
            0.0012793594946533316,
            0.0013451714510116504,
            -0.0023412050099520113,
            0.002670878061946499,
            0.0018433146864794859,
            0.002210121884689512,
            -2.9400413383047654E-4,
            0.002297746745479205,
            -3.235890981105188E-4,
            1.732603629541346E-4,
            7.419056401036102E-4,
            -0.0018273167410318854,
            4.399569268563407E-6,
            -0.0020960597236397275,
            0.004212030897154156,
            -9.18526975359807E-5,
            0.0029915094606633107,
            -5.550199377872447E-4,
            0.001042139086701818,
            -0.001864284772487313,
            -2.7675849168171373E-4,
            0.0016699833088572784,
            4.498662764353973E-4,
            0.0021522098610592083,
            0.0015385876977798544,
            0.003127498011387581,
            0.0013575732854672095,
            0.002189634065487183,
            -0.002085411837088897,
            0.00402077660851441,
            0.0014857628254283874,
            -0.0025976814040758124,
            -0.002042461014947997,
            -0.0023581203963117733,
            -0.0011799978940082551,
            -0.0013843830934234577,
            0.0012307135186326507,
            0.0012372901750398592,
            -0.002118347169261192,
            -0.001423618186578265,
            -0.0018676102508693273,
            -0.0021958514545559584,
            -4.126203370779872E-4,
            -0.0029368813448034984,
            0.0025527679370181493,
            -4.5414230376401605E-4,
            -0.001033989990783973,
            1.0590718001257573E-4,
            0.002050714715325309,
            -0.004509638076425353,
            -0.004784357884678768,
            -2.1560200874605492E-4,
            -5.709575980380915E-4,
            5.830893158617643E-4,
            -0.0030866337053791224,
            -0.005242333710932792,
            -0.0032667775202189163,
            -0.004358221192495806,
            -0.005038963657021127,
            -4.875521079090297E-4,
            -2.485755836750341E-4,
            -0.001774147545052279,
            1.9329156867908004E-4,
            -0.001681529107171334,
            8.630968858846974E-4,
            -0.0018641085131337232,
            5.236555869827267E-4,
            -3.7453191137315673E-4,
            -0.0022389561528753845,
            -0.001658858952820087,
            8.735681769186367E-4,
            -4.2903666048767604E-5,
            3.0957886967185804E-4,
            6.152290347951334E-4,
            5.828779450665013E-4,
            -2.0834382758453068E-4,
            -0.0027655785666211236,
            0.0026697779251009263,
            -0.003309152373832127,
            -0.0016624217279470727,
            0.0012239030813515383,
            0.001127971246980637,
            0.0025117874215319453,
            9.183887071307309E-4,
            -6.955494291253837E-4,
            -0.0010981002336941032,
            8.216013420375009E-4,
            -0.002504920470686412,
            8.203711624277947E-4,
            -0.0017703100582402123,
            2.197990213122819E-4,
            0.0022730927962459854,
            -0.0026445648882753897,
            4.3561806052313254E-4,
            0.001452258753298295,
            6.896946679331169E-4,
            0.0014541470238717438,
            -0.0016814358698370585,
            -0.001119911160779665,
            0.002300007784135357,
            0.00152810086429897,
            0.002096923903766799,
            -0.0023961675394171427,
            0.001745351373522107,
            -0.0018253256421783745,
            -0.002073674657462173,
            -0.002308028546527759,
            -0.002813884837154652,
            0.002216083868756754,
            -0.003337618033902172,
            -0.0011812913214826342,
            0.001986419716799848,
            4.38336060422968E-4,
            -2.4517011050938274E-4,
            0.0013145946089476123,
            -5.462043577736896E-4,
            0.003381486795479709,
            5.8531090538786164E-5,
            -0.0024794304218953914,
            -0.0020917875021000745,
            -4.4720895250345414E-4,
            -0.0012607021108896378,
            -3.8762163326757784E-5,
            0.0012034221818126498,
            -7.258176336421437E-4,
            -0.0014343352408012573,
            0.0013271916036035935,
            -0.001306176317136332,
            -0.0017486179364548844,
            -2.7959826295327286E-4,
            1.0330931206369461E-4,
            -0.0037555073118007852,
            -0.0038833612758832604,
            6.138317358193712E-4,
            -8.288674192297766E-4,
            -0.0034846699292123296,
            -0.0026828677786290347,
            -0.0034097066551653727,
            -0.0026112472407942037,
            0.0020179854255489814,
            -0.0024329979594817004,
            -4.441725590327612E-4,
            -0.0012233355373417725,
            -0.0027819744914318167,
            -0.0018178551898400043,
            -0.001206341493755339,
            -0.003216445087198144,
            -0.0031236396220588537,
            -0.001898988661692956,
            -0.0033011102786032484,
            3.484797927073236E-4,
            0.002047576945186697,
            1.3265517393429848E-5,
            -0.0030845071550604924,
            -0.0016021528690815389,
            -1.615547961961133E-4,
            0.001570824932112788,
            -0.0022490682731704332,
            7.530006371606543E-4,
            7.01435508431133E-4,
            9.75208881421158E-4,
            -0.0026957921139104525,
            6.730488207067708E-4,
            -0.0018363895092343091,
            0.0016999890383933294,
            -4.729856087729464E-5,
            -0.00291796173516977,
            0.0011674467997920023,
            -8.682856462076852E-4,
            -0.002916194310891725,
            -5.638587902428965E-4,
            0.0013141485780499905,
            5.195102236331253E-4,
            0.0011336567291115672,
            -0.0012213252706737437,
            -0.0019614214010324617,
            9.121271735197869E-5,
            -0.0012321093392047321,
            -0.0017030868137946351,
            -0.00213463669284999,
            -0.0025713447415874223,
            0.001831013216193048,
            -0.002067024373618594,
            8.776265433781834E-4,
            -0.001015168223623067,
            0.002613016158546081,
            -0.0012694563436619975,
            0.0023621769410345043,
            0.0020998979891668134,
            0.0019393353710242425,
            -0.003981909398964215,
            0.0016168105895240212,
            -0.0015702842127526596,
            -0.0014112349545191334,
            2.930247651928904E-4,
            -0.0020457321225424495,
            0.0011099485203308736,
            -0.0013318079338730075,
            -0.0010486508199085824,
            -0.0014060556194322006,
            7.428746881170793E-4,
            -3.79278918300857E-4,
            -8.865821581199234E-4,
            2.327540653961414E-4,
            1.6744474654232467E-4,
            1.952119199300288E-5,
            0.001780417565216178,
            0.003550891348094383,
            -3.969161481468693E-4,
            -0.0013664889764413376,
            0.0020956594359609767,
            0.0026349444503703822,
            -0.002079261711266786,
            0.0030739251764704233,
            0.002898763047835038,
            0.0020685353750660874,
            5.1824423548212254E-5,
            0.0012140451046731204,
            -0.0016196745033604338,
            -0.001316247478769974,
            0.002052397726352733,
            -0.0011804767352734836,
            -0.0014465733962128373,
            -0.0023584235936885242,
            -0.001364261737124126,
            -0.0027974376566753108,
            -0.0029280345747553166,
            0.0014387599220838736,
            0.0011278569798883512,
            2.5485189103485094E-4,
            -0.0010921634157452207,
            0.003046660814328427,
            -0.0012862875683954855,
            0.002581869304849065,
            -0.002392868351001825,
            0.002358556626064564,
            0.0017511832842219965,
            0.0013040530794996327,
            -2.736787671011491E-4,
            0.0019256622126170326,
            0.002013829923470322,
            -3.7409751948711505E-4,
            -0.002266624865372682,
            -0.0020452950399000858,
            2.3287560547760484E-5,
            -0.0023309373350904375,
            -0.0018584418229092854,
            -0.0022371183458448603,
            0.0031229755866554,
            0.0011900361525981505,
            -0.0011681034616058278,
            0.001444298172184429,
            0.0012036578165130324,
            -0.0014645115981615283,
            -0.004450021289436607,
            -0.0018420767916588299,
            9.170992462220125E-4,
            -0.0033389334496386823,
            -0.00291654127142171,
            -0.00403026992663525,
            -0.003561766213734212,
            5.764474013916852E-4,
            3.760637369479986E-4,
            1.436982490181837E-4,
            0.0013795095149612834,
            -0.0017980284311491829,
            -0.0012629830424514437,
            -7.146879806657542E-4,
            0.001877516226203936,
            -0.0016996167347571014,
            0.002199296903401169,
            -9.453658351908573E-4,
            -0.001967107073185572,
            -0.0025837852459748806,
            -0.002398995856099837,
            -1.432336151144207E-4,
            7.895037257433683E-4,
            0.0010568960247155637,
            0.00236654005943585,
            -0.0032187099600597467,
            0.0014475529020644502,
            0.0023054925241558118,
            -0.0014947144253118464,
            -0.001161103126211958,
            -1.892711602287943E-4,
            1.91929303062568E-4,
            -0.0020259736677921236,
            -0.003485026395073257,
            -3.6005919234600694E-4,
            9.260052472557588E-4,
            -0.0022567176592376732,
            -0.002043445144100178,
            -0.002862823823469,
            -9.194717108570083E-4,
            -0.002071527855807486,
            -0.0028021053511114676,
            -0.002741255585552428,
            3.1884929794702795E-4,
            -0.003100404714577272,
            6.255442092950637E-4,
            8.970376063588824E-4,
            -0.002886996398948204,
            0.005956132848618994,
            0.006087781525787963,
            0.0011353875482859267,
            -4.661772815503303E-4,
            0.005087460437614287,
            0.003555856814802792,
            0.0047774110513626586,
            0.0033256987246615692,
            2.2371389963649885E-4,
            0.003954768223395215,
            -0.001511524032341621,
            -6.446016443346868E-4,
            0.0033128899004189797,
            0.0036580027314511666,
            0.0023863886667502936,
            -6.178856432591938E-4,
            7.214173187500749E-4,
            3.995946388870341E-4,
            -0.00145311706398713,
            0.0015999656269377845,
            0.0012487504721032147,
            -0.0020499192767189102,
            -0.0024772322964790637,
            0.0012813528033819494,
            -0.0030574480405898556,
            2.9796317723174186E-4,
            0.0022700962195724987,
            0.002351664989372234,
            0.0010501838333433456,
            -0.0021934285295965813,
            -0.002136330322198943,
            -0.002740631177099415,
            0.01653655863948269,
            0.00790915850657515,
            0.00526279826229878,
            0.007408927743802509,
            0.009304357510835375,
            0.008360521795822204,
            0.002213194747592189,
            0.003068558234073443,
            0.004788843590483629,
            0.0026041603595306157,
            0.005544601553473031,
            0.0018746824141001278,
            0.002377583751262137,
            0.004566852591612029,
            3.833623995616113E-4,
            -0.0018281274488580988,
            6.717001236051054E-4,
            -0.0024510830052423345,
            0.001589628724758999,
            0.002466810994910792,
            -0.002416135736133645,
            -0.003467747446008323,
            6.942457467631771E-4,
            0.0028307920718510966,
            1.3507522338535906E-4,
            6.133496345744924E-4,
            2.292883480868988E-4,
            0.0011175379424381855,
            4.80897615761339E-4,
            -0.0014820744435470427,
            -0.001209312516969273,
            -0.0018550461554788528,
            -0.022636623599832543,
            -0.018474987723706607,
            -0.014304081629047396,
            -0.008075769363160384,
            -0.018802349364120147,
            -0.008268321683899477,
            -0.006678219698237185,
            -0.004252951025586999,
            -0.009894609476851135,
            -0.005176811981426518,
            -0.003862250046377363,
            -0.0026533119212895223,
            -0.008388515250552158,
            -0.0035164281114451234,
            -0.0018878719991073998,
            -0.005080495481055202,
            -0.001190339838637465,
            -0.002128486765944278,
            0.0010511046749355185,
            0.0015180509509007804,
            0.0014719417086813745,
            4.074535372851089E-4,
            -0.0018713660867927253,
            -1.6554161387568658E-5,
            0.0026602528213084536,
            0.001553580550261901,
            6.203626210024079E-4,
            0.001483494612488083,
            0.0019778154370494135,
            -0.0010945829220540201,
            -1.6295159210395517E-5,
            6.072343614565035E-4,
            -0.00308791927519769,
            -0.004008007542243841,
            -0.004315452157428211,
            -0.0019231218170150711,
            -0.0013767516412092908,
            -0.003159885975604483,
            -0.0033402816851799944,
            -0.002848087169409629,
            4.0394703645850054E-4,
            4.6010739126484026E-4,
            0.0014507242338473035,
            -0.0010207931675852492,
            0.0019481240103070233,
            -0.0023430656666205366,
            5.332539634750064E-4,
            1.9460486678408713E-4,
            -0.001969344613623241,
            -0.004711526194787262,
            -0.00419814176943848,
            -0.0045532641791500485,
            -0.004990752807930427,
            6.102134148796997E-4,
            -7.784273012102328E-4,
            -0.002050296632136657,
            -3.8015737912172864E-4,
            -0.0044643915203976745,
            1.810903205842728E-4,
            -0.0031896076471903683,
            -0.001109078881572135,
            -0.0020987608772354833,
            -1.197964637305912E-4,
            -0.0016781272205591284,
            0.004677731522567391,
            0.0017422366263888359,
            0.0013476091066245827,
            -5.599666070162323E-4,
            0.004299778952187312,
            -0.0010147143216499676,
            0.0033162443049639246,
            7.072576248588091E-4,
            5.857853293909136E-4,
            8.706247710679544E-4,
            0.0031018702416278393,
            -0.001664625477793905,
            -5.969367733259102E-4,
            0.0019959761189610598,
            0.0032086282892330835,
            0.0021058607967692038,
            -0.005239507065883242,
            -0.0047044430646223144,
            -0.002995246643220528,
            -0.0012180235140745357,
            -9.893931717486991E-4,
            -0.002962225032167149,
            -0.0014952619791035963,
            -0.002528466583515647,
            -0.0035010022213725306,
            0.001519777984951413,
            -0.002979322689998201,
            0.001030391852815346,
            0.0014442283241370643,
            -0.0011976078355678205,
            0.0010452494413191683,
            -2.51793897924402E-4,
            0.0021104990004870354,
            0.0029596016253471903,
            0.0012580409609351316,
            -0.0015085630671933686,
            -0.0024954117844824967,
            0.002792414928300688,
            0.0023940274430228523,
            -0.0029001486543834415,
            -5.985331874681201E-4,
            0.0024498791403792883,
            -0.0012624629794685972,
            -0.002639184951813995,
            -0.002060931867510463,
            -0.0012439422927086406,
            0.0012946735923459129,
            -0.002516950368876103,
            -0.0032660669601211707,
            -0.003345438580671357,
            -1.2602126731770406E-4,
            -0.004029708280467526,
            -0.005947983481806654,
            -0.0037366772364999645,
            9.093984318648034E-4,
            0.002269281590230824,
            -0.0032963778263776296,
            -0.0023593985368399895,
            -0.003405836859694413,
            6.569630155279018E-4,
            -3.5251069010571845E-4,
            -0.003759865329107091,
            -0.0010687342223308794,
            0.002344344175217782,
            0.0018530248089345552,
            -1.7411258179496868E-4,
            0.00153975557372703,
            -0.0010363754035359687,
            -5.301219012092064E-4,
            0.0030401024951204844,
            -0.001093378273458296,
            -7.701633477641653E-4,
            -7.264046543066712E-5,
            0.00289966170148023,
            -0.0012332447935267767,
            -2.2228011802892563E-4,
            6.750471923694623E-4,
            -0.0025995594991960734,
            -0.0012550998677752954,
            -3.8613483018275213E-4,
            -0.004682387505039035,
            -0.003294960212970398,
            -2.3778650678819946E-4,
            -9.319377655693879E-4,
            -4.555823636664053E-4,
            -0.0010647159745293224,
            -0.00368193436187461,
            -0.0010692649477648892,
            8.19040572396172E-4,
            -0.0016963332750462884,
            0.0013396912680331832,
            -0.0028243373802130795,
            5.831120840346575E-4,
            0.0025740859229484397,
            0.001373443974680465,
            -4.273522994493604E-4,
            0.0025644830719685004,
            -3.9646285124738165E-4,
            4.436786484783039E-4,
            -0.0016204144475861267,
            0.0020221262558600094,
            0.004017363766925499,
            0.0015644821453940647,
            -0.0027494931661371184,
            0.0014643338038324415,
            7.275149744325478E-4,
            7.670108611952576E-4,
            -0.0020131078482330963,
            -0.0011153355217272663,
            8.488975149003342E-4,
            0.00162453425998099,
            -8.693312868569853E-4,
            -5.1037032838104915E-5,
            0.0013638687690713611,
            0.0018836697569956436,
            0.0018756099483973488,
            -0.001904550237820404,
            -0.0024354702257463863,
            0.0028799373941506994,
            -8.632412977343998E-4,
            0.0022332455150258653,
            0.0024488491418679643,
            1.0567519193426955E-4,
            0.0011360867188040824,
            0.002856316526555873,
            0.0027174327576411903,
            7.776757763121371E-4,
            9.568133218706764E-6,
            4.8127442598117363E-4,
            -0.0019145838716766062,
            4.294313587568946E-4,
            0.0021931166538880636,
            -0.0022298933089411315,
            0.002326755402079152,
            -0.0017798046491398756,
            -0.0015388913207668809,
            -0.002045852274415812,
            0.003682915434072631,
            3.4001846930321086E-4,
            0.00210427461303545,
            -0.0017395445057819827,
            -0.0011357865881079492,
            -0.0013393482090961017,
            -7.057225968879129E-4,
            -0.0028404184513516873,
            -0.0044538387797535646,
            -0.005432465054023,
            8.834757246270072E-4,
            -0.004831846033567452,
            -0.003627226387203995,
            -0.0035929896136221635,
            -0.0013600961755084785,
            -0.0014151637095988778,
            -0.0023953772902604157,
            -0.001009909647816183,
            6.553451257037281E-5,
            0.0010190852127492864,
            -0.001191618954163936,
            -3.6725660004082263E-4,
            0.0015682410843923563,
            0.0016294287844912366,
            0.001867771217056232,
            0.002368933858891277,
            0.0020237585767568507,
            0.002728449351393738,
            0.0014654965181625603,
            0.0012862589667232231,
            6.729409440217348E-4,
            -0.0017846216580965583,
            0.0019845084188085914,
            -0.0012771466254679717,
            -7.101031179310085E-4,
            -0.0027769338402056586,
            -0.0011170504305025835,
            0.0015557645475328388,
            4.191362848559382E-4,
            -0.005694906905243319,
            -0.004953159695029637,
            -8.773370049166225E-4,
            3.334964821992164E-4,
            -0.0049441835258735205,
            -0.0014403158626867432,
            -0.003234448096921034,
            -4.2350642348343065E-4,
            0.0017276531204713597,
            -5.3010105167281285E-5,
            -0.0013415374105265102,
            -8.817790868198783E-4,
            2.9987795089876965E-4,
            0.0011821075796509687,
            -0.003339995970449682,
            -0.00253112271766321,
            0.0025657639303751693,
            0.0017414075279412167,
            4.872144440356738E-4,
            -5.267128464312319E-4,
            0.002483225094577101,
            7.774651096735922E-4,
            8.491593957867928E-4,
            0.0036307077339011494,
            0.0015162362759668568,
            0.0011175802166211782,
            0.0024086363780003333,
            -0.00279644387184024,
            -0.002441216394967613,
            -0.0012198282108484742,
            0.001323388189340376,
            0.0020748465409287055,
            -5.455697117934367E-4,
            -0.0025891142505907075,
            5.91763746568614E-4,
            0.0019484130055168274,
            -0.003215464386357804,
            0.0021255481612384598,
            0.0015987627651322218,
            0.00283502335060808,
            6.538433029182529E-4,
            0.002156349067652706,
            0.002505457062063512,
            0.0026646914326501473,
            0.002524723639454115,
            0.0017002171408073052,
            -4.563676036487227E-4,
            7.63533478411206E-4,
            0.0030101693216830123,
            0.0016968429344052527,
            -1.9674561765253035E-4,
            0.0038688280775901764,
            0.00550544252910284,
            0.0030322247631820094,
            0.002116657325004963,
            0.002331333918480064,
            0.0015568169995940316,
            6.039455387395168E-5,
            -0.0017214850629967058,
            1.7206180737447984E-4,
            5.397523358099638E-4,
            9.157155161252059E-4,
            -4.3336489293754313E-4,
            -0.0020933758605075413,
            0.0029024347281665103,
            6.354958709264719E-4,
            0.001545506860666356,
            0.0027335454090867905,
            -0.002504529766979536,
            0.0015962732894215274,
            -0.0019100111604263166,
            0.0028536962482696502,
            -0.0014718068035593239,
            -0.00299268726715345,
            8.752076273170378E-4,
            0.0018599956397291834,
            -6.43230790629466E-4,
            3.8310638768682267E-4,
            -0.001114146565090307,
            -0.0018129971654494048,
            -0.010287254615835966,
            -0.008447976592973729,
            -0.0021411049075143788,
            -0.002009024178423345,
            -0.002369223418262694,
            -0.00664925017712149,
            -7.918326813827911E-4,
            0.0010090893439678634,
            -0.003233369628094104,
            0.0011853618754772447,
            -0.001712083568621529,
            0.0021641568214742233,
            -5.206828747769896E-4,
            -0.0016873535205185486,
            -0.0034402491724294746,
            -0.00202767093847147,
            0.002379152492853724,
            0.0011849916883818245,
            -0.0019179996982186345,
            0.002535236718787054,
            -0.0019197711523520453,
            0.0029569568705715113,
            -0.002017967464052238,
            0.0017811254590578195,
            -0.0017854952089931913,
            0.0015743026467187945,
            -0.0017896037792300308,
            1.1100124736389612E-4,
            7.940594932173071E-4,
            -9.881290576697348E-4,
            9.678115235767431E-4,
            0.0015163513813035185,
            -0.0022034244157428883,
            -0.003503806706703727,
            -0.003403526591483219,
            -0.002588000344211118,
            0.0014423400612746465,
            -0.0010087480699129813,
            -0.0020775007293496886,
            0.0012967006296021257,
            -8.787558659694767E-4,
            -0.0012705055977671386,
            -2.4626657113319464E-5,
            -0.0017201954348241698,
            0.0030444392423196343,
            -0.002959583267147028,
            0.0025594616567443836,
            0.002950037406344922,
            -8.710746099959638E-4,
            -0.003362438204065687,
            -0.002264810786005768,
            -0.003151757148194588,
            4.2787969977599E-4,
            -0.004559154825721537,
            0.0014733493236472627,
            -0.002509525911552589,
            9.29895205566019E-4,
            -2.486441743113409E-4,
            -0.0025265824744749284,
            -0.0022039806895093462,
            0.002829766195765513,
            0.001868505911526985,
            0.0027575192263308373,
            3.355501002284941E-5,
            6.243611266809642E-5,
            -0.0019711833331688936,
            0.00339723624038935,
            4.872188646034005E-4,
            -0.00197972436711092,
            -0.0013200527191243932,
            -0.0012564787772372874,
            8.046154416639227E-4,
            0.002846422546397427,
            0.0026397062916779348,
            0.002664842595776938,
            0.002679892920884854,
            0.0028306169951295415,
            -3.2431374533777675E-4,
            0.002771765651387117,
            5.264520181169377E-4,
            -0.0012843225871847638,
            -0.0049224430689348625,
            0.0012976234945272,
            0.0013074581168664103,
            -0.0038780918593793205,
            0.001052006029856697,
            -0.0022087461995248716,
            -0.0025528517610726117,
            -6.896223325140831E-5,
            0.002034060866587586,
            0.002209695308586671,
            -0.0013810341813963788,
            -0.0015574415661173697,
            -6.85089020371778E-4,
            0.001115007525443497,
            0.0011515461039317359,
            -4.0682718071645635E-4,
            0.0013207451566082861,
            0.0010383344266339523,
            -1.6162277277359278E-4,
            0.0018543902965084975,
            0.0019451080471256548,
            -8.950660595896811E-4,
            0.0018312587886658972,
            0.0017902657411275886,
            0.001671384929720603,
            -0.001300525969816039,
            1.531421307433617E-4,
            -0.0019678252452837897,
            -0.0028575709424185224,
            0.0024876130457878,
            0.0024767423648370816,
            -0.0015124742899392748,
            -0.004459931553361959,
            -4.3016480762857336E-4,
            9.741003811596896E-4,
            -5.78335047107067E-4,
            -0.0010518015647639478,
            0.0018230558956547258,
            9.919102354785604E-4,
            -0.002045834763115736,
            -0.001165462757750088,
            6.155362287520935E-4,
            -0.0025034640824576834,
            -1.3614087064731532E-4,
            -0.002831254350507543,
            3.1772160034618615E-4,
            -0.0011681333877751267,
            2.4313843343160466E-4,
            0.002799869514007563,
            0.00153354220572387,
            0.00229303268268287,
            0.0025951646730698126,
            5.108802263901449E-4,
            0.0025947040515947066,
            0.0011776410922899553,
            -7.131517902616858E-5,
            -0.0030555392739898776,
            0.0015751787262143668,
            0.002974829343846186,
            -1.9771478936946316E-5,
            1.008517122289805E-5,
            -0.0019147650426279798,
            5.941418180475627E-4,
            -0.003958139955878917,
            1.9231423086439438E-4,
            -0.0028875790692053675,
            0.0016081420228415758,
            -0.002969842061233747,
            -0.0013779464653871666,
            0.002775165304620585,
            5.787654148102717E-4,
            -0.00229501356221295,
            -1.2054552820331592E-4,
            0.0013734525314794657,
            0.002026833271586245,
            4.2579003091501767E-4,
            -0.0017993076563918597,
            0.0030785796947774583,
            0.002641855263082759,
            0.0019219981118003865,
            0.002326567063211843,
            -3.168991699537234E-5,
            -0.001790849148777972,
            0.0031150407996834036,
            -0.0014648361545190848,
            0.0029740621647305694,
            2.144679827956953E-4,
            7.998010677369559E-4,
            0.0025113143613562498,
            0.0026911674902888945,
            -0.0027461351994180045,
            7.558625653991903E-4,
            -0.0020745338062189617,
            -0.0022512431844408302,
            -7.627453791009606E-4,
            1.7045021170796677E-5,
            -3.0152249315190064E-4,
            -0.0011562646642397157,
            1.5726666887495703E-4,
            0.002184825985473322,
            4.5404950406373594E-4,
            -9.441805669417144E-4,
            0.002909433662935164,
            0.002086618418303267,
            0.0030098325734711387,
            7.027561576973942E-4,
            -0.0025022494462091306,
            9.755206935744977E-4,
            9.997640097712417E-4,
            0.002805174782762069,
            0.001619945880111606,
            -5.180869053500502E-4,
            0.0019699883797633954,
            6.508879106996797E-4,
            -0.0020266221861341208,
            -0.0015553405373281799,
            -0.0012028009409462397,
            -5.830876571417707E-4,
            0.0026506834465702287,
            -6.356705133183533E-4,
            -0.0023395510617795295,
            7.176405668714056E-4,
            -0.0021707250733195684,
            -9.083700567098245E-5,
            -0.0028262834711427435,
            -3.314493090915848E-4,
            -0.0011538019236411717,
            -0.003613726564343042,
            -0.0018925109457343888,
            0.0016215882166928208,
            -8.330570374897978E-4,
            -0.0032568931825285824,
            -0.0026914829604313905,
            -0.003819497806952815,
            0.001036308940442655,
            0.002505793003945537,
            -0.0014703906488879284,
            -7.711318202901677E-4,
            0.0011976262923693913,
            1.4825436801405083E-4,
            6.735790282527103E-4,
            -8.361274609477213E-4,
            0.0027937114548818183,
            0.0025668648766540647,
            0.0016232359673816496,
            0.0030759791239295562,
            -0.002164884200388894,
            0.0014347420905371625,
            2.8870934366489093E-4,
            0.0028227753376848623,
            -0.0012109439407187019,
            -1.582701227161746E-4,
            8.48045863126518E-4,
            5.128989876312416E-5,
            3.7788492640836364E-4,
            3.869830624270967E-5,
            8.633601853216023E-4,
            -0.001676011357794236,
            8.836567942062558E-4,
            -0.0022531090554943132,
            -0.0032316486241280346,
            0.002055311482047999,
            7.50958580541759E-4,
            -0.003682240441918607,
            -0.0024871752316425345,
            -0.0010492531747960422,
            -0.0015580119746792843,
            -8.208033631487659E-4,
            -0.0031325041023747644,
            0.0013060799019864605,
            -0.0018731452514736107,
            -0.0027921675427995387,
            -0.002796285143109354,
            0.0026425740704207378,
            -4.231795789230005E-4,
            -0.002610617427978759,
            0.002102131411467861,
            -0.0015186622309996405,
            -2.7063855956521265E-4,
            9.584255712924791E-4,
            0.003091548114005293,
            -8.140630716880833E-4,
            -6.272197378575366E-4,
            -0.0022468635352793655,
            0.002432165066073669,
            0.0019249272039645712,
            -0.002943268408690719,
            0.0021112950006139863,
            1.127945053283308E-4,
            0.0018822944872534423,
            0.0031948958837579693,
            -0.0019490784935801658,
            0.0011133080362885574,
            0.002913862828690903,
            0.0018586867040023798,
            0.0017568447802677775,
            5.284618617338534E-4,
            0.0026286471309710452,
            0.0014896415860932812,
            -0.0020292497691391195,
            0.0021865798894358064,
            0.0012303783932852256,
            -0.001065107200208706,
            0.002248747747861735,
            -7.19710576852689E-6,
            -0.0020664457798921306,
            0.0015495147885403854,
            2.465336083332276E-4,
            0.0049213116550692855,
            0.0030801785862007193,
            1.924486069366609E-5,
            0.0015583927554760964,
            -2.707275960619491E-4,
            -0.0016681326152704265,
            0.0017490169005172133,
            1.241279063537452E-4,
            0.0028933763583100175,
            0.0026331872970362883,
            -4.7717554336922015E-4,
            -3.114486695209233E-4,
            -0.001417215515801347,
            -8.522275368355192E-4,
            0.0014390721089864505,
            -0.0012561112366565154,
            -7.417285734026748E-4,
            0.00351466044358497,
            5.113093138006962E-4,
            0.003481051062326848,
            -0.001757736077876779,
            0.0022475210090582196,
            -7.502298982076275E-4,
            -0.002090480532279656,
            5.785214382601754E-4,
            4.165814435096773E-4,
            0.0031208071929010855,
            0.0014029338606073676,
            7.243418043861839E-4,
            -2.688102088937372E-4,
            9.773202760285044E-4,
            -8.18426433163144E-4,
            -0.004936367246121744,
            -0.0028765780002785245,
            -0.005552708599827289,
            0.002003327835464193,
            -0.0031357773915679744,
            7.460181211080376E-4,
            -5.152731587376125E-4,
            7.010945981012111E-4,
            8.553117061419478E-4,
            -0.0023206403403141654,
            -0.001870926780699882,
            0.002840340862070703,
            -0.0022175540931735687,
            0.002803514508981688,
            0.0015471942105060546,
            -0.00309130845204105,
            0.0020286122183570203,
            7.032743864143568E-4,
            0.0026570372533404013,
            0.00220296751813299,
            0.0025374293664113786,
            -8.934502836296918E-4,
            0.0016718286039769767,
            -3.8144902917399166E-5,
            -0.0022620087973752845,
            -0.001399427390968301,
            -7.508886615008595E-4,
            0.0010261563394539234,
            -0.0030093423285057694,
            -0.0019950908296124,
            -8.466742645255399E-4,
            0.00252334078896331,
            -0.0037354777803519485,
            0.0021427610251008133,
            0.0010114791769748964,
            1.2363199039973954E-4,
            -4.6188528564187174E-4,
            -0.0017489913447607287,
            -0.0026933796915972847,
            3.391400209241802E-4,
            0.002802659808070518,
            -3.2625961368704337E-4,
            -0.0019423826863578218,
            0.001620777629558291,
            0.002245041032143932,
            -0.0022299645931959694,
            0.001235755391840253,
            -0.004936288454476058,
            -1.5151760525341083E-4,
            0.0011132049790993025,
            -2.637966735910745E-4,
            -0.0033394144696499385,
            -0.0021628534448582537,
            -3.68998385156222E-4,
            -0.0015115240583796054,
            -5.038912027299556E-4,
            -0.0024159454292886793,
            -0.0017182634107230925,
            -2.534477175215438E-4,
            -0.0017778153571343432,
            0.0011388471085778445,
            5.58336692957604E-4,
            0.0026160330414212113,
            4.569270276630147E-5,
            -0.001569045096873972,
            0.0024071552953349564,
            0.002973732447543277,
            0.0019601032516640094,
            0.001488407732790289,
            0.00200675462556718,
            -7.273358920217456E-4,
            -0.00268435412337594,
            0.003144560199628431,
            0.0017650323057014315,
            -8.37602903914522E-4,
            0.0016982110741540826,
            0.0010277128758508021,
            9.694176454102585E-4,
            -0.0017105538647777235,
            -0.0026033733241882483,
            -0.0035520777636224975,
            -0.0012061978229205095,
            8.34854150390158E-4,
            -5.813341036822272E-4,
            0.0016822498413968138,
            -0.00292425293231394,
            -0.001292322910870462,
            0.001482375181083621,
            -0.0035112191587729717,
            0.0016031841160360802,
            -0.0020796977208654517,
            -0.002784633333275241,
            0.0017183713936252199,
            0.0011405293247245861,
            0.0024559813174801397,
            2.7987729041832485E-4,
            5.827273298586013E-4,
            -0.001892537706340688,
            0.003108095138401157,
            -0.0031930326276942396,
            0.0015117812264879983,
            7.303605131553114E-4,
            -9.84837661533395E-4,
            -0.0026238068904150995,
            0.0010007063661480868,
            -0.0024838228424469426,
