{
  "class": "com.simiacryptus.mindseye.network.PipelineNetwork",
  "id": "a0f0a572-b49b-4e98-bfe0-199100000071",
  "isFrozen": false,
  "name": "PipelineNetwork/a0f0a572-b49b-4e98-bfe0-199100000071",
  "inputs": [
    "1cf6e341-80bc-4b64-b696-3f1c8a330914"
  ],
  "nodes": {
    "a0f0a572-b49b-4e98-bfe0-199100000072": {
      "class": "com.simiacryptus.mindseye.layers.media.ImgReshapeLayer",
      "id": "a0f0a572-b49b-4e98-bfe0-199100000072",
      "isFrozen": false,
      "name": "ImgReshapeLayer/a0f0a572-b49b-4e98-bfe0-199100000072",
      "kernelSizeX": 4,
      "kernelSizeY": 4,
      "expand": false
    },
    "a0f0a572-b49b-4e98-bfe0-199100000074": {
      "class": "com.simiacryptus.mindseye.layers.util.MonitoringWrapper",
      "id": "a0f0a572-b49b-4e98-bfe0-199100000074",
      "isFrozen": false,
      "name": "bias_0",
      "inner": {
        "class": "com.simiacryptus.mindseye.layers.media.ImgBandBiasLayer",
        "id": "a0f0a572-b49b-4e98-bfe0-199100000073",
        "isFrozen": false,
        "name": "bias_0",
        "bias": [
          -6.535733634188131E-5,
          5.861521165264715E-5,
          -1.1850552416274149E-5,
          -1.55750807747149E-4,
          -4.370804492685853E-5,
          -3.918388935135665E-5,
          -1.5162781851845946E-4,
          -5.402768230237495E-5,
          -3.637803339991271E-5,
          -5.366411407936156E-5,
          5.367278757976939E-5,
          -1.9733470764814486E-5,
          -1.4914465595971404E-4,
          -5.500754477359937E-5,
          -4.434015146242061E-5,
          5.465620347898787E-4,
          6.080205394534443E-4,
          7.543689285145577E-4,
          5.343113355681931E-4,
          5.956010474814306E-4,
          7.444640032558791E-4,
          -1.3733091732416386E-4,
          -5.022339665180759E-5,
          -5.314229465573486E-5,
          -1.3346081184436234E-4,
          -5.8249989653529344E-5,
          -5.022992909889176E-5,
          5.385235145341301E-4,
          6.013056042668323E-4,
          7.395288659673E-4,
          5.550522889497714E-4,
          6.043461173979387E-4,
          7.382757968372093E-4,
          -1.424897603274456E-4,
          -5.734947836601453E-5,
          -4.8555165209408855E-5,
          -4.949750671888712E-5,
          4.3262793772393125E-5,
          -1.0713651568314635E-5,
          -1.3508243906266664E-4,
          -6.973155214127777E-5,
          -2.0551403957657445E-5,
          -1.4420714969570192E-4,
          -7.13408781422663E-5,
          -4.173223374670703E-5,
          -3.0040450282444473E-5,
          3.4433904700315796E-5,
          -1.5369828852769413E-5
        ]
      },
      "totalBatches": 4314,
      "totalItems": 167112
    },
    "a0f0a572-b49b-4e98-bfe0-199100000076": {
      "class": "com.simiacryptus.mindseye.layers.util.MonitoringWrapper",
      "id": "a0f0a572-b49b-4e98-bfe0-199100000076",
      "isFrozen": false,
      "name": "conv_0",
      "inner": {
        "class": "com.simiacryptus.mindseye.layers.media.ImgConvolutionSynapseLayer",
        "id": "a0f0a572-b49b-4e98-bfe0-199100000075",
        "isFrozen": false,
        "name": "conv_0",
        "kernel": {
          "dims": [
            1,
            1,
            144
          ],
          "data": [
            -0.04229465229617864,
            0.026590555221929837,
            0.017640837885770182,
            0.02446942093163014,
            -0.03398893768142404,
            0.019345500135741274,
            0.02262495438437033,
            0.013946255488437604,
            -0.030693662482626165,
            0.010960916043530253,
            -0.03483033104058279,
            -0.016108271328634457,
            -0.031956485182615124,
            0.012533535184636305,
            -0.015302160329764863,
            -0.013675512386296588,
            -0.01529536936063733,
            -0.00480834515981789,
            0.016165162906671495,
            -0.03264477029718452,
            -0.019200832531781266,
            -0.031218159791850157,
            0.016975714662744047,
            -0.016419648975963135,
            -0.014679487896265674,
            -0.015241717599167117,
            0.004363342203836022,
            -0.04204504157165805,
            0.02528352793360254,
            0.01642579334151413,
            0.023542567073301896,
            -0.03567237856740403,
            0.018507599389344546,
            0.020015994965704935,
            0.013728445830989333,
            -0.031103773081572465,
            0.012516988691180054,
            -0.02613327839304768,
            -0.017359677520012308,
            -0.029489703857657364,
            0.008165269436197706,
            -0.018035165999662872,
            -0.016327942964250424,
            -0.01692319893074136,
            2.605683346092653E-4,
            0.26669291594535155,
            0.03453950173724829,
            0.015687392404476443,
            0.036228712907356894,
            0.2617751886679298,
            0.015550821361155778,
            0.010404676410811473,
            0.019761320451761422,
            0.2835403048632262,
            0.2685556327432276,
            0.0315969648390879,
            0.01295793456547225,
            0.034362722703274874,
            0.26287710643942414,
            0.013171824314941367,
            0.00745381232232528,
            0.018013209956313378,
            0.28592392579748227,
            0.01026342725040641,
            -0.026353922630431376,
            -0.015046868921464517,
            -0.025946020223361274,
            0.00810057743447571,
            -0.014908809208454046,
            -0.015356027447955832,
            -0.015159669343230561,
            -0.0030633614589328957,
            0.011545884248287385,
            -0.028983087815226103,
            -0.01562364689710283,
            -0.0311662081624744,
            0.008847164279304287,
            -0.013376357426737462,
            -0.014356690759393897,
            -0.015555917659365969,
            -0.004625158040190899,
            0.2710125096343648,
            0.032096045544846026,
            0.014373410127507528,
            0.03641530743769204,
            0.26712436178157,
            0.012476384725434811,
            0.00782885764977056,
            0.017018678326316414,
            0.2888377514352825,
            0.2679921114609576,
            0.032248187657394935,
            0.015089486166760112,
            0.03637771274363136,
            0.2642290931752806,
            0.011381226068168143,
            0.0069464068673225935,
            0.016874124768714336,
            0.2840198972576495,
            0.01123465495445139,
            -0.028762451772845334,
            -0.01610450255984522,
            -0.028842384519594356,
            0.008023570848105874,
            -0.01401460527672393,
            -0.016528866112210844,
            -0.014280864281307232,
            -0.004449255312598066,
            -0.04344887060615351,
            0.02848321995531582,
            0.019620116920950316,
            0.02426103397380555,
            -0.03655689299948581,
            0.020512633620456664,
            0.02355561455464102,
            0.014144870010151963,
            -0.03554323558704724,
            0.012195734989108573,
            -0.03187974491100177,
            -0.01834233529988429,
            -0.03127105120050277,
            0.012449272967701213,
            -0.020102943210916546,
            -0.017170325404492988,
            -0.017646752565782516,
            0.0022452827275355838,
            0.011378689865613129,
            -0.029186941002969216,
            -0.013567209660191922,
            -0.027531708923299713,
            0.011042132273133925,
            -0.016583268102568344,
            -0.014421354665013045,
            -0.015054555806040981,
            -0.001818820036653232,
            -0.04263620716570336,
            0.027633321282235734,
            0.019431195404923253,
            0.021783556786838257,
            -0.03496910852688559,
            0.01861477559276307,
            0.023427844004736322,
            0.011206616467206333,
            -0.033731285846313505
          ]
        },
        "skip": {
          "dims": [
            1,
            1
          ]
        },
        "simple": true
      },
      "totalBatches": 4314,
      "totalItems": 167112
    }
  },
  "links": {
    "a0f0a572-b49b-4e98-bfe0-199100000072": [
      "1cf6e341-80bc-4b64-b696-3f1c8a330914"
    ],
    "a0f0a572-b49b-4e98-bfe0-199100000074": [
      "a0f0a572-b49b-4e98-bfe0-199100000072"
    ],
    "a0f0a572-b49b-4e98-bfe0-199100000076": [
      "a0f0a572-b49b-4e98-bfe0-199100000074"
    ]
  },
  "head": "a0f0a572-b49b-4e98-bfe0-199100000076",
  "layerList": [
    "a0f0a572-b49b-4e98-bfe0-199100000072",
    "a0f0a572-b49b-4e98-bfe0-199100000074",
    "a0f0a572-b49b-4e98-bfe0-199100000076"
  ]
}