{
  "class": "com.simiacryptus.mindseye.network.PipelineNetwork",
  "id": "a0f0a572-b49b-4e98-bfe0-199100000071",
  "isFrozen": false,
  "name": "PipelineNetwork/a0f0a572-b49b-4e98-bfe0-199100000071",
  "inputs": [
    "1cf6e341-80bc-4b64-b696-3f1c8a330914"
  ],
  "nodes": {
    "a0f0a572-b49b-4e98-bfe0-199100000072": {
      "class": "com.simiacryptus.mindseye.layers.media.ImgReshapeLayer",
      "id": "a0f0a572-b49b-4e98-bfe0-199100000072",
      "isFrozen": false,
      "name": "ImgReshapeLayer/a0f0a572-b49b-4e98-bfe0-199100000072",
      "kernelSizeX": 4,
      "kernelSizeY": 4,
      "expand": false
    },
    "a0f0a572-b49b-4e98-bfe0-199100000074": {
      "class": "com.simiacryptus.mindseye.layers.util.MonitoringWrapper",
      "id": "a0f0a572-b49b-4e98-bfe0-199100000074",
      "isFrozen": false,
      "name": "bias_0",
      "inner": {
        "class": "com.simiacryptus.mindseye.layers.media.ImgBandBiasLayer",
        "id": "a0f0a572-b49b-4e98-bfe0-199100000073",
        "isFrozen": false,
        "name": "bias_0",
        "bias": [
          -6.0872231570682554E-5,
          4.7521796751344095E-5,
          -1.0650727966568246E-5,
          -1.499736661914095E-4,
          -2.6159691393458623E-5,
          -2.910937954816366E-5,
          -1.4586038238290566E-4,
          -3.565164731013042E-5,
          -2.7980880750010494E-5,
          -4.869017227662295E-5,
          4.2632953216565374E-5,
          -1.8049044943521174E-5,
          -1.4224759320272985E-4,
          -3.605827229180465E-5,
          -3.46899801587325E-5,
          4.2011369013921114E-4,
          5.363586049952089E-4,
          6.267555381294956E-4,
          4.09664759433541E-4,
          5.249893525935006E-4,
          6.162602995736973E-4,
          -1.2899856686878814E-4,
          -3.3184308353980234E-5,
          -4.216065242408308E-5,
          -1.2570422959656415E-4,
          -4.1098855336894863E-5,
          -3.962099044652238E-5,
          4.137423489269679E-4,
          5.29927593764014E-4,
          6.121383147880023E-4,
          4.3032158877126417E-4,
          5.337856408153618E-4,
          6.10676274782448E-4,
          -1.3463732830489833E-4,
          -4.0860856527751853E-5,
          -3.799073755554106E-5,
          -4.5049847561539854E-5,
          3.1284003393541755E-5,
          -8.672222141350495E-6,
          -1.2721988959170678E-4,
          -4.977420343775932E-5,
          -1.1770888414637759E-5,
          -1.377940570874097E-4,
          -5.300827559959019E-5,
          -3.203947016179288E-5,
          -2.5355594025801107E-5,
          2.458649664048723E-5,
          -1.3369084064214394E-5
        ]
      },
      "totalBatches": 3987,
      "totalItems": 85362
    },
    "a0f0a572-b49b-4e98-bfe0-199100000076": {
      "class": "com.simiacryptus.mindseye.layers.util.MonitoringWrapper",
      "id": "a0f0a572-b49b-4e98-bfe0-199100000076",
      "isFrozen": false,
      "name": "conv_0",
      "inner": {
        "class": "com.simiacryptus.mindseye.layers.media.ImgConvolutionSynapseLayer",
        "id": "a0f0a572-b49b-4e98-bfe0-199100000075",
        "isFrozen": false,
        "name": "conv_0",
        "kernel": {
          "dims": [
            1,
            1,
            144
          ],
          "data": [
            -0.04272604941626194,
            0.02590706875695008,
            0.020450438348262837,
            0.01931472565516169,
            -0.029278453564163448,
            0.018208331366161533,
            0.029257807668109953,
            0.009096449313018172,
            -0.03651583292896065,
            0.01691426643672951,
            -0.036466487894945866,
            -0.01610933945679814,
            -0.03498606867851961,
            0.016835722521740877,
            -0.016762521798111957,
            -0.018694991428025647,
            -0.016249312743483593,
            -8.226264131023943E-4,
            0.020999399757745226,
            -0.03592413175403269,
            -0.022030930893456376,
            -0.035451190503451066,
            0.018222882352394713,
            -0.019635257441585056,
            -0.021431077597591795,
            -0.018256082471366637,
            0.007788049359150945,
            -0.042671855616493205,
            0.027084629417166307,
            0.020534488152346736,
            0.020658974758961463,
            -0.0319025178653118,
            0.018390109557282115,
            0.028086302693294464,
            0.009020246548099544,
            -0.03518318110047768,
            0.015086110946090315,
            -0.028251630340940824,
            -0.019926613547351164,
            -0.032911780349991406,
            0.010380377919197672,
            -0.016894938725125177,
            -0.019579266075376797,
            -0.01783119765068709,
            0.004557218115523186,
            0.25974063735610103,
            0.03911099955708657,
            0.01857761548156132,
            0.045916720918925485,
            0.2509124037727857,
            0.01782910154332416,
            0.010726274563916055,
            0.025659278640945537,
            0.278681947333166,
            0.261653262420274,
            0.03843341580542901,
            0.01690371388258722,
            0.04631188858866438,
            0.2531872343646495,
            0.015918623692862312,
            0.009378955581092675,
            0.02520140075615386,
            0.28277674808622943,
            0.009683371108514244,
            -0.027139437189817477,
            -0.018548530797264862,
            -0.028879232900639703,
            0.009536927452772822,
            -0.016061518859598195,
            -0.0179494154571469,
            -0.016474547941058158,
            -9.279082059903986E-4,
            0.014083061513388874,
            -0.030959699660534787,
            -0.019749256736415168,
            -0.0333744512170803,
            0.011945889362325525,
            -0.01324186343370413,
            -0.016667556521156375,
            -0.015371732180188525,
            -0.001667502814354777,
            0.26312003206684453,
            0.03650601957077459,
            0.01585449767494575,
            0.0462062870938079,
            0.25716358819193785,
            0.014340758075355342,
            0.007227209095538063,
            0.0232294944192363,
            0.2844916072742417,
            0.26153007622607916,
            0.0367858336867355,
            0.018520626028934593,
            0.04760775120700869,
            0.2548091107306524,
            0.0143923110957109,
            0.008522335324962424,
            0.023313292748974607,
            0.28112980753876005,
            0.013488420720978613,
            -0.0314812315138063,
            -0.019025306432130767,
            -0.031048039834939534,
            0.010846086172627327,
            -0.013444389114845197,
            -0.018503615895068378,
            -0.014785247654899004,
            -2.639460291532971E-4,
            -0.0446958102917862,
            0.027000567810914262,
            0.02226203084163455,
            0.019525762211535857,
            -0.03318132850380822,
            0.020720283027955828,
            0.030240216839362493,
            0.010200648809971354,
            -0.03935920461556255,
            0.018797938640289034,
            -0.0341018805498803,
            -0.02163591058099074,
            -0.033011424829157414,
            0.01583266595800114,
            -0.02271007193107589,
            -0.021940714347658256,
            -0.017924741267428854,
            0.008898174325879677,
            0.016556123164076973,
            -0.03264008888134693,
            -0.016965634190452966,
            -0.032124635614495446,
            0.014515760748562503,
            -0.01949922562272777,
            -0.020150557417365857,
            -0.01647976981408755,
            0.0039404177281345135,
            -0.04144815072980013,
            0.025806448485348417,
            0.02105096482526151,
            0.016127238337013093,
            -0.029062245082844235,
            0.018094353190308596,
            0.031482645939144904,
            0.007232527924170629,
            -0.03732758608271027
          ]
        },
        "skip": {
          "dims": [
            1,
            1
          ]
        },
        "simple": true
      },
      "totalBatches": 3987,
      "totalItems": 85362
    }
  },
  "links": {
    "a0f0a572-b49b-4e98-bfe0-199100000072": [
      "1cf6e341-80bc-4b64-b696-3f1c8a330914"
    ],
    "a0f0a572-b49b-4e98-bfe0-199100000074": [
      "a0f0a572-b49b-4e98-bfe0-199100000072"
    ],
    "a0f0a572-b49b-4e98-bfe0-199100000076": [
      "a0f0a572-b49b-4e98-bfe0-199100000074"
    ]
  },
  "head": "a0f0a572-b49b-4e98-bfe0-199100000076",
  "layerList": [
    "a0f0a572-b49b-4e98-bfe0-199100000072",
    "a0f0a572-b49b-4e98-bfe0-199100000074",
    "a0f0a572-b49b-4e98-bfe0-199100000076"
  ]
}