{
  "class": "com.simiacryptus.mindseye.network.PipelineNetwork",
  "id": "a0f0a572-b49b-4e98-bfe0-199100000071",
  "isFrozen": false,
  "name": "PipelineNetwork/a0f0a572-b49b-4e98-bfe0-199100000071",
  "inputs": [
    "1cf6e341-80bc-4b64-b696-3f1c8a330914"
  ],
  "nodes": {
    "a0f0a572-b49b-4e98-bfe0-199100000072": {
      "class": "com.simiacryptus.mindseye.layers.media.ImgReshapeLayer",
      "id": "a0f0a572-b49b-4e98-bfe0-199100000072",
      "isFrozen": false,
      "name": "ImgReshapeLayer/a0f0a572-b49b-4e98-bfe0-199100000072",
      "kernelSizeX": 4,
      "kernelSizeY": 4,
      "expand": false
    },
    "a0f0a572-b49b-4e98-bfe0-199100000074": {
      "class": "com.simiacryptus.mindseye.layers.util.MonitoringWrapper",
      "id": "a0f0a572-b49b-4e98-bfe0-199100000074",
      "isFrozen": false,
      "name": "bias_0",
      "inner": {
        "class": "com.simiacryptus.mindseye.layers.media.ImgBandBiasLayer",
        "id": "a0f0a572-b49b-4e98-bfe0-199100000073",
        "isFrozen": false,
        "name": "bias_0",
        "bias": [
          -3.297415873601366E-6,
          -3.660107641803998E-6,
          -5.083163840210156E-6,
          -3.6911535380631867E-6,
          -4.167214436103278E-6,
          -5.513866752490533E-6,
          -3.790177317899472E-6,
          -4.201193858058837E-6,
          -5.487301278076956E-6,
          -3.432100173058786E-6,
          -3.816260965606081E-6,
          -5.070413034920464E-6,
          -3.645643523726495E-6,
          -4.111466754576331E-6,
          -5.372467041778114E-6,
          -4.422170592781259E-6,
          -4.880876113993302E-6,
          -6.17303537807717E-6,
          -4.439196041000459E-6,
          -4.929211372929716E-6,
          -6.169843699494442E-6,
          -3.721767590870287E-6,
          -4.19878738556818E-6,
          -5.3990656702166565E-6,
          -3.638347097565164E-6,
          -4.101071187863767E-6,
          -5.346086134361793E-6,
          -4.397438936103024E-6,
          -4.864010899082689E-6,
          -6.163449870056021E-6,
          -4.4553566841407605E-6,
          -4.940548892559275E-6,
          -6.18338210250358E-6,
          -3.7112147877205837E-6,
          -4.170899707742805E-6,
          -5.39642879970259E-6,
          -3.3445404966793796E-6,
          -3.7739245409347865E-6,
          -5.041166789031752E-6,
          -3.764436269703047E-6,
          -4.201503669657567E-6,
          -5.466310852478362E-6,
          -3.7926909099510152E-6,
          -4.227921474911305E-6,
          -5.488159335033902E-6,
          -3.4356781363766877E-6,
          -3.885323556735597E-6,
          -5.093365623225519E-6
        ]
      },
      "totalBatches": 1101,
      "totalItems": 13212
    },
    "a0f0a572-b49b-4e98-bfe0-199100000076": {
      "class": "com.simiacryptus.mindseye.layers.util.MonitoringWrapper",
      "id": "a0f0a572-b49b-4e98-bfe0-199100000076",
      "isFrozen": false,
      "name": "conv_0",
      "inner": {
        "class": "com.simiacryptus.mindseye.layers.media.ImgConvolutionSynapseLayer",
        "id": "a0f0a572-b49b-4e98-bfe0-199100000075",
        "isFrozen": false,
        "name": "conv_0",
        "kernel": {
          "dims": [
            1,
            1,
            144
          ],
          "data": [
            0.03623138682451056,
            0.012382276417550766,
            -7.290467715543099E-4,
            0.011580745037106845,
            0.027242122206937787,
            0.007469065438492203,
            -6.801546819909473E-4,
            0.006833463122310769,
            0.03611494931711267,
            0.04112910714559384,
            0.01715543365056185,
            0.00432995708786806,
            0.01616705906517073,
            0.03255797432698352,
            0.012800407439763548,
            0.003731109080834207,
            0.011891142303166754,
            0.04161333632721399,
            0.040898895006794084,
            0.017063614210606134,
            0.004532254955222358,
            0.015884604987740178,
            0.03236958085558921,
            0.013129085194366018,
            0.0033293673659348694,
            0.01157962134785849,
            0.04163653418112725,
            0.035627651839830105,
            0.011994709427498125,
            -6.79294957088636E-5,
            0.011056238386765902,
            0.027027414830901767,
            0.008273865193194157,
            -0.0014950560692998135,
            0.006246074121376363,
            0.03626564869986833,
            0.04010932610055407,
            0.01571756821422149,
            0.0026667424874890853,
            0.015205988056882676,
            0.03094904780517438,
            0.011080570836439414,
            0.0028638647750513875,
            0.010364662283079216,
            0.03990331805625351,
            0.04993259790252318,
            0.025674842734099736,
            0.012863091202002732,
            0.024781761743851407,
            0.041470189532639895,
            0.021582286660786335,
            0.012232877540257828,
            0.020459006321941853,
            0.050656145529698986,
            0.049909637602890106,
            0.025825908959883768,
            0.013304202697547646,
            0.024805969150995297,
            0.041554278772133656,
            0.022210797993104978,
            0.012190109488437581,
            0.020383249787774907,
            0.05089763620531126,
            0.03962811111095612,
            0.015801907534105562,
            0.003812488486989424,
            0.014934212218228443,
            0.031035736554476837,
            0.012476789291138723,
            0.002298941616225219,
            0.010079782536935237,
            0.0405768324984736,
            0.040092947059343305,
            0.015901943938299384,
            0.002741867151388767,
            0.015280983673572725,
            0.031024791992738193,
            0.011147599592013616,
            0.0030533205032225036,
            0.010446281975664396,
            0.03997535107517082,
            0.05002841857834863,
            0.025749790779578705,
            0.012756849503144489,
            0.025031151212833683,
            0.04133547471466747,
            0.021509720972251727,
            0.01242505442072001,
            0.020407647150869276,
            0.05065385940715824,
            0.05034183046351758,
            0.026272191341812263,
            0.013619028919842372,
            0.025367421376410907,
            0.04187425782258597,
            0.022525845463652088,
            0.01270004761124574,
            0.02075570057299906,
            0.05123753424905419,
            0.040096598389736005,
            0.016247299357618417,
            0.003980082469574417,
            0.015570516326633593,
            0.03137975451514099,
            0.012617640357030713,
            0.0028727687971216343,
            0.010366659372983103,
            0.04083018294563228,
            0.036297094539399694,
            0.012133548880134477,
            -0.0011823557644765155,
            0.011786947352100292,
            0.026843014900662206,
            0.006839935722766825,
            -4.265043341312698E-4,
            0.0064536873393718506,
            0.035566599875777635,
            0.041077031144531255,
            0.017002686399360454,
            0.004099617132394156,
            0.016400101876004106,
            0.03216184605578643,
            0.012530704678580269,
            0.004055743628698555,
            0.011494953035572778,
            0.04130691557062756,
            0.04135803199572774,
            0.01725010109120713,
            0.0046390795509942935,
            0.016754667613842367,
            0.03237879759037843,
            0.013053357095235174,
            0.004157581782896153,
            0.011568925177366948,
            0.041644121354959464,
            0.03627185550249976,
            0.01249525325149502,
            1.8401750969266413E-4,
            0.011910021147814333,
            0.027282019867597446,
            0.00854164373420483,
            -5.561569768057064E-4,
            0.006518726265093946,
            0.036614224418433906
          ]
        },
        "skip": {
          "dims": [
            1,
            1
          ]
        },
        "simple": true
      },
      "totalBatches": 1101,
      "totalItems": 13212
    }
  },
  "links": {
    "a0f0a572-b49b-4e98-bfe0-199100000072": [
      "1cf6e341-80bc-4b64-b696-3f1c8a330914"
    ],
    "a0f0a572-b49b-4e98-bfe0-199100000074": [
      "a0f0a572-b49b-4e98-bfe0-199100000072"
    ],
    "a0f0a572-b49b-4e98-bfe0-199100000076": [
      "a0f0a572-b49b-4e98-bfe0-199100000074"
    ]
  },
  "head": "a0f0a572-b49b-4e98-bfe0-199100000076",
  "layerList": [
    "a0f0a572-b49b-4e98-bfe0-199100000072",
    "a0f0a572-b49b-4e98-bfe0-199100000074",
    "a0f0a572-b49b-4e98-bfe0-199100000076"
  ]
}