{
  "class": "com.simiacryptus.mindseye.network.PipelineNetwork",
  "id": "f2aa0f6d-5dcb-48c1-bd7f-30b300000071",
  "isFrozen": false,
  "name": "PipelineNetwork/f2aa0f6d-5dcb-48c1-bd7f-30b300000071",
  "inputs": [
    "1f4a2d32-fdfb-40b4-a537-df7806d1953f"
  ],
  "nodes": {
    "f2aa0f6d-5dcb-48c1-bd7f-30b300000072": {
      "class": "com.simiacryptus.mindseye.layers.media.ImgReshapeLayer",
      "id": "f2aa0f6d-5dcb-48c1-bd7f-30b300000072",
      "isFrozen": false,
      "name": "ImgReshapeLayer/f2aa0f6d-5dcb-48c1-bd7f-30b300000072",
      "kernelSizeX": 4,
      "kernelSizeY": 4,
      "expand": false
    },
    "f2aa0f6d-5dcb-48c1-bd7f-30b300000074": {
      "class": "com.simiacryptus.mindseye.layers.util.MonitoringWrapper",
      "id": "f2aa0f6d-5dcb-48c1-bd7f-30b300000074",
      "isFrozen": false,
      "name": "bias_0",
      "inner": {
        "class": "com.simiacryptus.mindseye.layers.media.ImgBandBiasLayer",
        "id": "f2aa0f6d-5dcb-48c1-bd7f-30b300000073",
        "isFrozen": false,
        "name": "bias_0",
        "bias": [
          -7.329439657046621E-7,
          -7.185001880325813E-7,
          -5.937579990542332E-7,
          -8.445016433654185E-7,
          -8.169990414748658E-7,
          -7.005450155045679E-7,
          -8.5172678139755E-7,
          -8.403880148988327E-7,
          -6.998687584677877E-7,
          -7.262115542376163E-7,
          -7.110890768211808E-7,
          -5.779303384110371E-7,
          -7.79378512416729E-7,
          -7.605150986903798E-7,
          -6.177290742200585E-7,
          -8.9477243513947E-7,
          -8.730706973826358E-7,
          -7.445443874063113E-7,
          -9.226364296363219E-7,
          -9.04568637392862E-7,
          -7.73781238464463E-7,
          -7.653277679869784E-7,
          -7.412184598758348E-7,
          -6.157715708778604E-7,
          -7.801512160055051E-7,
          -7.685173034285056E-7,
          -6.33391308479903E-7,
          -9.160220721293608E-7,
          -8.959433472114156E-7,
          -7.701328861951677E-7,
          -9.230597072350774E-7,
          -9.051162596741564E-7,
          -7.864101241560061E-7,
          -7.74705868193071E-7,
          -7.637285151802507E-7,
          -6.238425475753683E-7,
          -7.602151606437288E-7,
          -7.166761453268632E-7,
          -5.911558030340114E-7,
          -8.4151965695222E-7,
          -8.12343489767917E-7,
          -6.967772150187823E-7,
          -8.664924632521374E-7,
          -8.442755699098331E-7,
          -7.163235227135973E-7,
          -7.294799441094822E-7,
          -7.037843102589392E-7,
          -5.874668841244212E-7
        ]
      },
      "totalBatches": 367,
      "totalItems": 4404
    },
    "f2aa0f6d-5dcb-48c1-bd7f-30b300000076": {
      "class": "com.simiacryptus.mindseye.layers.util.MonitoringWrapper",
      "id": "f2aa0f6d-5dcb-48c1-bd7f-30b300000076",
      "isFrozen": false,
      "name": "conv_0",
      "inner": {
        "class": "com.simiacryptus.mindseye.layers.media.ImgConvolutionSynapseLayer",
        "id": "f2aa0f6d-5dcb-48c1-bd7f-30b300000075",
        "isFrozen": false,
        "name": "conv_0",
        "kernel": {
          "dims": [
            1,
            1,
            144
          ],
          "data": [
            0.030744511000783986,
            0.01851762541852351,
            0.006176207897848429,
            0.018560722324956636,
            0.021168530730570522,
            0.015451762102613318,
            0.005872026878377423,
            0.015692146430304383,
            0.033881269815993216,
            0.03339798412561864,
            0.02102319705960087,
            0.00893166472869597,
            0.0211926908913686,
            0.023853478602583866,
            0.018299558098085686,
            0.008358159513415498,
            0.018263214615009515,
            0.036987869950032094,
            0.033665866867964314,
            0.021261173283030035,
            0.009102222849737666,
            0.021610314038514437,
            0.02399052312440565,
            0.0182933604552949,
            0.008803699651419436,
            0.018483480560186612,
            0.03702025518832424,
            0.030789986304636346,
            0.018353851205694667,
            0.005671258121532239,
            0.018928761536561024,
            0.02101640353429968,
            0.014782075199460924,
            0.005987397876746738,
            0.015532333020535844,
            0.03331704385938548,
            0.032150531244879765,
            0.019903441726322826,
            0.007179464493198928,
            0.01993297043449785,
            0.02256298780261435,
            0.01649383265247994,
            0.007237221428153354,
            0.017012306624899977,
            0.0354482228199456,
            0.03593204899073007,
            0.02359194978063129,
            0.011379764666025156,
            0.02359466192011448,
            0.026539831593314595,
            0.02071011194742682,
            0.010770420678942136,
            0.020849605574092475,
            0.039922554515142344,
            0.03645445131882673,
            0.024029497765397367,
            0.01164923018645776,
            0.024251720463597515,
            0.02684363147374909,
            0.021007726877801794,
            0.011319170269852097,
            0.02120817135668478,
            0.0402165458549656,
            0.03218692999579839,
            0.019672372838878516,
            0.006545112766611426,
            0.02022409114950555,
            0.022445105316872608,
            0.01569216106837484,
            0.007244425771299221,
            0.01675459659078598,
            0.03472814453387621,
            0.032492644529303366,
            0.020065737088151896,
            0.00738486699752448,
            0.020188396754203964,
            0.022726120139786657,
            0.01673855112112548,
            0.007470630412716582,
            0.017274642114896724,
            0.03550705198303481,
            0.03620005661543052,
            0.023766759497823926,
            0.011560830872344146,
            0.023858625451184216,
            0.026641539634206315,
            0.020966663430496597,
            0.01106605974401467,
            0.02100021139851636,
            0.04008485953461671,
            0.036717691447709824,
            0.02423506306878112,
            0.011958229637572534,
            0.024520771282785424,
            0.027079299365091503,
            0.021247188524978804,
            0.011607695128920752,
            0.021379050043281982,
            0.04040701905000515,
            0.03245065427937333,
            0.019818513313830024,
            0.006700111023903424,
            0.020336304758313235,
            0.02257864322082752,
            0.01588930536180598,
            0.007370436862893485,
            0.017060856290674793,
            0.03493882796799709,
            0.030987482501202868,
            0.018603882565290077,
            0.006191091566553627,
            0.01878358964316628,
            0.02130665328990009,
            0.015553583050485357,
            0.006130155483896738,
            0.015831227822386787,
            0.034010550727140675,
            0.033493223308072445,
            0.020999662835213186,
            0.008877085010369847,
            0.02119837430980895,
            0.02376527332234952,
            0.018272574748697624,
            0.008361151899604492,
            0.018207239462551084,
            0.03702184878234493,
            0.03390072961534239,
            0.02127495656813826,
            0.009042342310579349,
            0.021729462378339986,
            0.024012286087740618,
            0.01827704826735362,
            0.008919614532457758,
            0.018504417196650646,
            0.037082770406059305,
            0.030854350994270148,
            0.018193622666179653,
            0.005484280858531361,
            0.01883238052346407,
            0.020931244021695897,
            0.014635734891218109,
            0.0059069192581798465,
            0.015401369889834681,
            0.033282944650812094
          ]
        },
        "skip": {
          "dims": [
            1,
            1
          ]
        },
        "simple": true
      },
      "totalBatches": 367,
      "totalItems": 4404
    }
  },
  "links": {
    "f2aa0f6d-5dcb-48c1-bd7f-30b300000072": [
      "1f4a2d32-fdfb-40b4-a537-df7806d1953f"
    ],
    "f2aa0f6d-5dcb-48c1-bd7f-30b300000074": [
      "f2aa0f6d-5dcb-48c1-bd7f-30b300000072"
    ],
    "f2aa0f6d-5dcb-48c1-bd7f-30b300000076": [
      "f2aa0f6d-5dcb-48c1-bd7f-30b300000074"
    ]
  },
  "head": "f2aa0f6d-5dcb-48c1-bd7f-30b300000076",
  "layerList": [
    "f2aa0f6d-5dcb-48c1-bd7f-30b300000072",
    "f2aa0f6d-5dcb-48c1-bd7f-30b300000074",
    "f2aa0f6d-5dcb-48c1-bd7f-30b300000076"
  ]
}